<?xml version="1.0"?>
<opencv_storage>
<opencv_ml_svm>
  <format>3</format>
  <svmType>C_SVC</svmType>
  <kernel>
    <type>LINEAR</type></kernel>
  <C>1.</C>
  <term_criteria><iterations>100</iterations></term_criteria>
  <var_count>1000</var_count>
  <class_count>2</class_count>
  <class_labels type_id="opencv-matrix">
    <rows>2</rows>
    <cols>1</cols>
    <dt>i</dt>
    <data>
      -1 1</data></class_labels>
  <sv_total>1</sv_total>
  <support_vectors>
    <_>
      -1.24877645e-02 7.19724596e-03 7.40874046e-03 1.16412749e-03
      4.34240559e-03 3.74785019e-03 1.84145067e-02 8.56462342e-04
      6.33928180e-03 -1.06554944e-02 -1.42032895e-02 -1.14286668e-03
      -4.17222874e-03 -9.18162579e-04 1.37736304e-02 1.42481632e-03
      6.69199508e-04 -3.20033100e-03 -9.68523044e-03 2.38875812e-03
      -2.39567342e-03 -7.64468824e-03 7.34796864e-04 1.78503525e-03
      -8.78532045e-03 2.31314800e-03 -3.52840982e-02 -5.58580644e-03
      8.90728435e-04 -8.25584866e-03 1.02317948e-02 -6.05497183e-03
      -2.60062836e-04 -4.35896078e-03 1.02070002e-02 -6.15733769e-03
      1.55391288e-03 2.46501118e-02 9.28738434e-03 2.65481584e-02
      1.02809938e-02 -8.61308910e-03 -8.27424694e-03 -2.57045240e-03
      5.12252515e-03 -2.34118896e-03 6.14553597e-03 1.55032007e-03
      8.00829555e-04 1.09202706e-03 3.70025635e-03 -2.36722361e-02
      3.74767522e-04 7.60817481e-03 -1.76678449e-02 4.93094465e-03
      -3.58234122e-02 8.29775725e-03 -1.73610095e-02 -4.44756728e-03
      -4.57317708e-03 1.18500451e-04 1.73291517e-03 3.82420234e-03
      8.31066910e-03 -2.70806579e-03 6.29114872e-03 2.94391275e-03
      -2.64943554e-03 8.55425280e-03 -4.48287791e-03 2.87292562e-02
      1.65540108e-03 1.05113043e-02 5.45819104e-03 1.12041431e-02
      -1.34852156e-02 8.57736822e-03 -4.01890790e-03 -4.26064973e-04
      4.30075685e-03 5.22159552e-03 1.40491361e-02 2.84621143e-03
      -2.72092619e-03 1.95235177e-03 -1.47397406e-02 2.68956610e-05
      -2.33789533e-03 -1.71550503e-03 1.04372518e-03 -8.88585113e-03
      2.42623873e-03 5.63541800e-03 6.71471143e-03 1.17531558e-02
      9.07497853e-03 3.69668985e-03 1.54994698e-02 3.35564092e-03
      1.06169516e-03 4.89665288e-03 2.14409479e-03 -4.37457580e-03
      1.11453477e-02 2.85163801e-03 9.68586479e-04 -3.34586692e-03
      1.58295175e-03 5.93484193e-03 2.63046613e-03 2.32060044e-03
      4.14739363e-03 4.91654640e-03 3.50140757e-03 3.05160065e-03
      5.82719501e-03 1.09508038e-02 1.50452158e-03 5.55744627e-03
      6.86263060e-03 -3.41769867e-02 5.82337240e-03 -3.19627416e-03
      1.76376780e-03 7.63664953e-03 -3.21651460e-03 -1.17333699e-02
      5.72510622e-03 4.11364774e-04 -8.82098731e-03 -4.33072560e-02
      7.06581865e-03 -1.73682033e-03 1.20659824e-04 3.14279157e-03
      4.27005161e-03 4.63837525e-03 3.36663402e-03 4.85096918e-03
      1.26875960e-03 -1.59391593e-02 2.81426241e-03 1.17506454e-04
      1.48535368e-03 6.37219462e-04 8.38725176e-03 -8.54766276e-03
      8.34122839e-05 2.75900180e-04 1.50859738e-02 2.69253645e-03
      3.65597312e-04 6.41004415e-03 -7.93994498e-03 -3.25372182e-02
      -2.25085253e-03 -1.23469234e-02 -1.74132138e-02 1.04087675e-02
      1.56319770e-03 1.72729213e-02 2.22650054e-03 -6.71430118e-03
      5.43456990e-03 6.32546470e-03 -6.86668931e-03 1.47481635e-02
      -1.47580160e-02 4.02607257e-03 1.18500451e-04 2.20262376e-03
      2.97415094e-03 3.99923621e-04 9.93981119e-03 -3.11011536e-04
      -8.30705464e-03 -1.56848854e-03 1.30839897e-02 -7.02415942e-04
      -5.51483370e-02 1.68096162e-02 5.98261505e-03 -8.86191148e-03
      1.90993375e-03 2.78126914e-03 1.37543390e-02 -4.89031849e-03
      8.60188529e-03 7.68244546e-03 -2.28860741e-03 -9.96012706e-04
      6.49169611e-04 -2.01979559e-03 -2.15983693e-03 8.69029434e-04
      7.00085657e-04 2.78126914e-03 8.56462342e-04 3.30021791e-03
      1.33839902e-03 1.71124598e-03 -1.76762901e-02 4.34235157e-03
      -1.77425367e-03 1.09505681e-02 1.52706797e-03 5.58076613e-03
      -7.08382926e-04 1.25489710e-03 -6.24351157e-03 -4.01064986e-03
      3.75388004e-03 3.12668085e-03 -3.36399744e-03 6.79695560e-03
      -3.26128537e-03 5.56068355e-03 2.94886460e-03 -3.63907940e-03
      5.56253828e-03 1.34626823e-03 -6.38927892e-03 -3.91984684e-03
      -4.76288237e-03 5.18521713e-03 6.72346167e-03 7.52854859e-04
      -2.72058100e-02 9.48599540e-04 -1.39641995e-02 -7.26392306e-03
      -4.86281840e-03 5.31597761e-04 6.94914768e-03 -5.49274916e-03
      4.82017826e-03 2.40556966e-03 -6.47387467e-03 -1.01938210e-02
      -8.34106375e-03 7.27687823e-03 3.75538808e-03 7.54557783e-03
      8.16210266e-03 1.03659171e-04 3.12065100e-03 6.71660760e-03
      -2.93566007e-03 -9.86231398e-03 9.84824263e-04 -2.30784565e-02
      -1.14216283e-02 3.65771167e-03 5.57004381e-03 -1.82685256e-02
      -3.95741966e-03 2.00996525e-03 -3.25504312e-04 2.48978357e-03
      3.73551855e-04 1.36574835e-03 -8.00305530e-02 6.63455052e-04
      -3.87890893e-03 2.97098677e-03 4.56098281e-03 -7.94535596e-03
      6.96218398e-04 8.82241316e-03 -3.55095160e-03 6.51015667e-03
      -2.74063484e-03 2.28021483e-04 1.66953374e-02 1.75482072e-02
      1.17098698e-02 1.48345425e-03 -2.51089153e-03 5.31586586e-03
      2.84703588e-03 3.87341087e-03 6.73209457e-03 -3.77159612e-03
      -1.04148232e-03 2.85242987e-03 7.64709571e-03 1.08890040e-02
      8.03435966e-03 -4.99594864e-03 1.53269861e-02 2.67744763e-03
      2.73882900e-03 1.52168900e-03 2.00759852e-03 1.18618840e-02
      8.94213933e-03 3.96917574e-03 9.20304039e-04 8.73477757e-03
      6.92494633e-03 2.63645500e-03 -1.78006198e-02 1.03412671e-02
      9.02182423e-03 1.04798190e-03 -5.82532911e-03 -1.48866065e-02
      1.55848507e-02 2.63811380e-04 -2.36351416e-03 -6.24947529e-03
      1.34387315e-04 4.14721784e-04 4.23066411e-03 6.05186867e-03
      4.25198674e-03 -1.47661539e-02 -6.93160594e-02 7.20132317e-04
      -1.49172414e-02 7.71113532e-03 1.00179948e-02 7.29054073e-03
      3.80754331e-03 -3.80972575e-04 -6.86247833e-03 4.71231993e-03
      3.23975692e-03 -1.15868114e-02 3.66027793e-03 -3.66203464e-03
      -3.30432504e-03 5.63851278e-03 4.94799984e-04 2.34161294e-03
      3.00997868e-03 9.75000020e-03 5.73799433e-03 9.26804822e-03
      -5.27988141e-03 -7.55649433e-03 4.49096318e-03 -3.62465810e-03
      4.37078020e-03 -1.10058766e-02 2.79484293e-03 -1.57738593e-03
      -3.64981731e-03 -1.80107411e-02 5.46399038e-03 -3.53983627e-03
      8.91359115e-04 -6.71494380e-03 -2.37106513e-02 4.00168449e-03
      1.17003103e-03 3.17977538e-04 1.07251799e-04 -1.47596030e-02
      -1.01992115e-03 1.00470865e-02 4.69689164e-03 7.38473469e-03
      2.54975092e-02 -8.81767925e-03 -4.26679589e-02 1.21617308e-02
      -1.80848800e-02 -3.00371205e-04 -4.76741279e-03 2.15990958e-03
      7.49383960e-03 -2.58450881e-02 2.55126273e-03 -1.72177493e-03
      7.26503786e-03 9.45099688e-04 -1.70827925e-03 3.62556917e-03
      4.68062237e-03 1.02358288e-03 2.70483724e-04 1.26918103e-03
      1.95724983e-03 1.23038227e-02 5.17031504e-03 6.08771108e-03
      9.24358051e-03 6.10320503e-03 7.62067363e-03 -1.01334136e-03
      7.09596369e-03 2.07746588e-03 1.21473602e-03 -1.72529218e-03
      2.07318342e-04 7.38253293e-04 -1.57535286e-03 1.17914542e-03
      -8.91836267e-03 -2.51753372e-03 1.00400057e-02 -1.13109117e-02
      2.37111608e-03 -5.68625005e-03 -2.42130761e-03 3.80846788e-03
      -8.29776842e-03 1.06795337e-02 3.25229787e-03 -1.78152863e-02
      -9.80755314e-03 1.26918103e-03 1.97651959e-03 2.55051389e-04
      1.06733141e-03 1.72468193e-03 4.18061530e-03 5.37720369e-03
      -2.17534439e-03 -5.41342830e-04 1.19852098e-02 1.25715053e-02
      3.20756156e-03 6.22809259e-03 -7.58714334e-04 1.20294867e-02
      5.78192715e-03 6.76646410e-03 -4.92680632e-03 3.98528390e-03
      5.93186403e-03 8.40268843e-03 3.46176769e-03 1.29258807e-03
      2.03965995e-02 -1.48027278e-02 4.88993479e-03 6.72081718e-03
      8.34338926e-03 -2.70726555e-03 2.06898805e-03 4.82564466e-03
      -1.14236400e-03 -9.92983347e-04 -5.00531867e-03 1.68314530e-03
      1.47203845e-03 2.35983264e-03 3.96171771e-03 1.45498673e-02
      7.49535044e-04 -6.54714974e-03 5.36974566e-03 9.76471882e-03
      -7.78196089e-04 6.84735086e-03 5.25535143e-04 -4.15096804e-03
      -1.64092574e-02 3.77396680e-03 2.90579069e-03 7.44947325e-03
      5.38992090e-03 1.12430251e-03 1.66824568e-04 7.54876062e-03
      1.60758686e-03 1.66824568e-04 5.92653221e-03 1.56810749e-02
      2.53836205e-03 3.20185628e-03 9.56853386e-04 -5.06710494e-03
      -5.86834177e-03 5.87975141e-03 0. 4.46957443e-03 5.83320949e-03
      5.09991962e-03 6.97821286e-03 -3.31526948e-03 4.80244868e-03
      5.42960502e-03 -6.90175453e-03 5.64050861e-03 -1.99272316e-02
      6.31316844e-03 -7.84143899e-03 3.74525698e-04 5.79313259e-04
      7.65154196e-04 -7.34263146e-03 -2.78810989e-02 3.39924329e-04
      -1.09691806e-02 -9.88175254e-03 5.37363393e-03 2.42819893e-03
      6.52387692e-03 1.75076257e-02 6.78473245e-03 9.32011940e-03
      1.97363421e-04 1.67550053e-03 3.58645082e-03 -2.29670387e-02
      -2.48391479e-02 -1.01663754e-03 7.10927788e-03 -1.97619721e-02
      8.77699873e-04 -1.27382614e-02 8.90770089e-03 -9.36417654e-03
      1.04615241e-02 6.91296626e-03 2.79076565e-02 6.10779272e-03
      4.70069796e-03 -1.70734972e-02 -1.86723080e-02 -2.25251634e-02
      -2.29875743e-03 -2.37859320e-02 -9.94207151e-03 4.55149310e-03
      -2.16077138e-02 1.92445032e-02 1.10193505e-03 5.29259257e-03
      -7.32283713e-03 -1.60609204e-02 1.76855677e-03 -1.33515894e-03
      5.05082728e-03 -3.00256233e-03 2.69575673e-03 3.10080815e-02
      -1.35692125e-02 -1.36837875e-02 -1.29340822e-02 3.27208370e-04
      1.02128386e-02 -3.33439209e-03 5.90627128e-03 -1.28881251e-02
      2.65279924e-03 2.92081246e-03 3.66841047e-03 8.34755972e-03
      3.22565320e-03 4.50497493e-03 7.65875122e-03 -1.65928360e-02
      2.07318342e-04 6.18060678e-03 2.30749603e-03 5.87558094e-03
      -4.86925151e-03 4.78466880e-03 8.16228986e-03 2.94391275e-03
      1.30091910e-03 -3.03779938e-03 4.31410037e-03 1.82012178e-03
      4.95267287e-03 6.75441278e-03 2.93790217e-04 1.93222670e-03
      -1.52226072e-03 5.93818957e-04 -1.25524625e-02 7.23879086e-03
      4.20629699e-03 -2.36517861e-02 -9.69102979e-03 5.69845131e-03
      1.14218844e-03 6.41293870e-03 4.71355440e-03 1.34626823e-03
      2.78126914e-03 1.09107303e-03 7.43984571e-03 8.56462342e-04
      -3.34288971e-03 5.54872816e-03 2.94391275e-03 5.38770203e-03
      -5.07814735e-02 1.60791725e-02 -2.59566940e-02 1.66978658e-04
      3.39245598e-04 4.60278476e-03 2.89516553e-04 -4.91149491e-03
      -5.07525122e-03 3.85151571e-03 -9.17309255e-04 -4.96491045e-03
      4.31767339e-03 1.07174627e-02 2.96909478e-04 3.58593580e-03
      1.05095410e-03 1.54460734e-02 2.43697083e-03 2.38310802e-03
      1.01855239e-02 -3.55891846e-02 4.12187306e-04 3.62131256e-03
      3.56289814e-03 -1.35647470e-05 -2.88383868e-02 -1.73446268e-03
      1.03659171e-04 1.64526736e-03 1.34626823e-03 -6.11330476e-03
      1.02264946e-02 0. 3.84370750e-03 -2.84497929e-03 -2.51089153e-03
      6.30768295e-03 8.00903980e-03 -3.65482457e-03 5.93818957e-04
      3.48303700e-03 7.97144044e-03 -4.54108138e-03 -4.27607447e-03
      -1.27659570e-02 -2.35244725e-03 -1.31578948e-02 -2.15892959e-03
      -4.73118899e-03 3.70190502e-03 -1.11209424e-02 -5.16365469e-03
      1.39412433e-02 2.06898805e-03 3.99567839e-03 4.54819622e-03
      4.13797610e-03 4.10465698e-04 -1.05352746e-02 5.41028334e-03
      3.42879700e-03 -2.64976919e-02 -6.20092824e-03 9.07285046e-03
      3.22121056e-03 2.11367290e-02 -3.85109186e-02 3.49581637e-03
      1.86449790e-03 4.08767583e-03 8.73734802e-03 7.20528001e-03
      3.79685545e-03 -1.52578633e-02 -4.59543243e-03 -3.30377812e-03
      1.34166880e-02 6.06284989e-03 2.72768270e-03 3.74525698e-04
      -2.64380686e-03 7.59017793e-03 3.75992968e-03 2.49038893e-03
      2.01176642e-03 -1.27321330e-03 1.72468193e-03 3.22375190e-03
      -3.91530630e-04 -1.12882741e-02 -1.95986871e-02 4.25647665e-03
      -4.50878666e-04 3.05911014e-03 3.30179231e-04 -3.15618739e-02
      -3.11970431e-02 -1.39405495e-02 -1.68744139e-02 1.33839902e-03
      8.56420770e-03 1.29984599e-02 0. 3.06563242e-03 4.22029709e-03
      -8.86753853e-03 -6.69624843e-03 -2.71621207e-03 -3.63211031e-03
      -4.00211522e-03 8.87460425e-04 8.12314358e-03 -5.68177225e-03
      1.09649906e-02 1.31575298e-03 1.62897389e-02 -9.68523044e-03
      6.50459551e-04 -7.66267593e-04 -1.16009533e-03 -1.48819657e-02
      1.26918103e-03 -1.88157856e-02 -8.63642804e-03 5.45536517e-04
      4.73179528e-03 3.21278116e-03 5.69665292e-03 -2.23838426e-02
      1.49475383e-02 1.24102039e-03 -2.61611468e-03 3.42430547e-03
      1.09107303e-03 -8.53265263e-03 1.71292468e-03 5.93959063e-04
      -1.08241877e-02 6.41210761e-04 3.42941470e-03 2.79999571e-03
      1.20957359e-03 4.74457908e-03 6.79134112e-03 -1.27781605e-04
      -9.15241428e-03 5.80786169e-03 1.91111653e-03 -5.22232498e-04
      1.86422386e-03 1.59825571e-02 -9.41840652e-03 -7.26799946e-04
      3.74767522e-04 1.39085416e-04 8.88391305e-03 -1.17159281e-02
      -2.73045395e-02 4.35038470e-03 0. 2.17519235e-03 3.74435913e-03
      1.87262849e-04 1.34626823e-03 3.19163478e-03 5.49881300e-03
      -1.18643127e-03 -1.52606308e-03 3.75321228e-03 0. 2.20387010e-03
      5.28732489e-04 5.93818957e-04 3.27525358e-03 4.48607723e-04
      3.47551279e-04 -9.05857142e-03 -3.60973715e-03 6.39514858e-03
      -1.84460115e-02 1.30091910e-03 -9.55864321e-03 -3.18810606e-04
      1.18500451e-04 1.27208652e-02 -3.72922025e-03 -2.34307302e-03
      -4.06253850e-03 -6.49500731e-03 -1.15175976e-03 1.80444808e-03
      -2.46655662e-03 -1.18059451e-02 2.77594873e-03 -5.27763665e-02
      -8.02756660e-03 -2.51748803e-04 1.63765706e-03 -1.11791620e-03
      4.03880468e-03 -1.34961598e-03 3.20983818e-03 6.09963154e-03
      7.12726824e-03 9.98998992e-03 7.26850331e-03 3.60897905e-03
      1.12793548e-02 -5.54100661e-05 4.65286197e-03 -5.16236573e-03
      -7.61955185e-03 5.78192482e-03 3.93355684e-03 8.36261082e-04
      -7.79353431e-05 2.68904516e-03 -1.00509906e-02 -4.73576505e-03
      8.53194215e-04 3.72101972e-03 1.36550952e-04 4.99117048e-03
      6.69199508e-04 -8.33476800e-03 8.09607841e-03 -4.96705174e-02
      4.80661727e-03 1.29764585e-03 -3.50576849e-03 1.17914542e-03
      6.63582096e-03 1.03659171e-04 6.99002622e-03 -1.96162635e-03
      9.93013266e-04 8.15235265e-03 5.47637511e-03 5.93818957e-04
      5.51800360e-04 4.89592087e-03 1.50602981e-02 -3.01312050e-03
      2.18748860e-03 4.50566551e-03 1.63660967e-03 3.53135169e-03
      -3.57879624e-02 -1.00085204e-02 1.09107303e-03 4.44780383e-03
      1.17014721e-02 1.26259949e-03 4.89592087e-03 -8.09903350e-03
      6.39093982e-04 3.62430536e-03 6.68793591e-03 -1.35639235e-02
      -4.84261522e-03 -4.88799764e-03 1.51174655e-02 -1.30485436e-02
      2.78170832e-04 -1.29169654e-02 9.20304039e-04 1.18534733e-03
      6.50342042e-03 -5.47701260e-03 2.31112144e-03 6.26386004e-03
      3.00729908e-02 1.39085416e-04 5.45536517e-04 3.89727205e-03
      2.18322827e-03 1.27844093e-03 6.58837054e-03 -4.64320043e-03
      1.29449498e-02 -2.57100048e-03 2.18144376e-02 6.55623293e-03
      -1.77892614e-02 4.35038470e-03 3.54507356e-04 -6.89683016e-03
      4.97426372e-03 4.15730523e-03 2.43734126e-03 1.33839902e-03
      -4.73850919e-03 1.18500451e-04 -3.39782145e-03 1.86300010e-03
      1.04372518e-03 1.17914542e-03 4.98048961e-04 2.54995981e-03
      -2.66205776e-03 1.39063457e-03 -1.71695685e-03 1.81246866e-02
      -7.93985440e-04 -5.77673607e-04 6.61082938e-03 6.25422038e-03
      1.39085416e-04 1.53067978e-02 1.41991500e-03 -1.10889068e-02
      -1.19168740e-02 2.88755330e-03 1.26918103e-03 6.06949022e-03
      5.25234453e-03 -3.69335944e-03 4.53764759e-03 -1.26629951e-03
      8.47527117e-04 2.37823697e-03 -2.29656254e-03 1.22286496e-03
      -1.63884852e-02 5.58029022e-03 2.20387010e-03 2.69018370e-03
      3.80754331e-03 -8.11128411e-04 3.60487285e-03 1.28567992e-02
      5.50967501e-03 3.44489049e-03 3.71466530e-03 1.11429039e-02
      -3.00950860e-03 7.59628648e-03 -1.52386690e-03 5.45009924e-03
      2.62177433e-03 3.31843831e-03 2.50062463e-03 1.72468193e-03
      1.63660967e-03 -3.73359420e-03 4.27130377e-03 1.95133174e-03
      1.34626823e-03 5.71384793e-03 -7.12382898e-04 1.87262849e-04
      4.12221719e-03 -1.56932026e-02 -2.78877676e-04 1.42326951e-03
      2.21236013e-02 1.03659171e-04 -3.43115331e-04 -1.51536358e-03
      4.55895858e-03 6.55845786e-03 1.26028014e-03 5.94574912e-03
      1.20559416e-03 1.11530265e-02 1.71016116e-04 -1.16428826e-02
      1.10193505e-03 2.27021845e-03 -1.05814356e-02 3.42196412e-03
      4.75940248e-03 -1.09319454e-02 3.94995324e-03 9.95466020e-03
      -7.44785066e-04 1.03659171e-04 4.22138860e-03 -2.77541415e-03
      1.53292911e-02 -2.16947077e-03 -4.40507382e-03 5.75197116e-03
      -3.37213874e-02 -3.06804106e-03 1.76555454e-03 1.17914542e-03
      -1.47149980e-03 6.58619916e-04 1.15894037e-03 1.87996484e-03
      8.38215649e-03 3.92868742e-03 -6.12920150e-03 6.14987407e-03
      -1.59115680e-02 -1.06642665e-02 1.63660967e-03 1.51158788e-03
      1.66824568e-04 -7.42446259e-03 4.65404382e-03 3.23950779e-03
      2.21364060e-03 2.07318342e-04 1.19700050e-03</_></support_vectors>
  <uncompressed_sv_total>28</uncompressed_sv_total>
  <uncompressed_support_vectors>
    <_>
      0. 0. 0. 6.57894742e-03 0. 0. 0. 0. 0. 0. 0. 0. 0. 0. 0. 0. 0. 0.
      0. 0. 1.31578948e-02 0. 0. 0. 0. 0. 0. 0. 0. 0. 0. 0. 0. 0. 0. 0.
      0. 0. 0. 0. 0. 0. 6.57894742e-03 0. 0. 0. 0. 0. 0. 0. 0. 0. 0. 0.
      6.57894742e-03 0. 0. 0. 1.31578948e-02 0. 6.57894742e-03 0. 0. 0.
      0. 0. 0. 0. 0. 0. 0. 0. 0. 0. 0. 0. 1.97368413e-02 0. 0. 0. 0. 0.
      0. 0. 6.57894742e-03 0. 0. 0. 0. 0. 0. 0. 0. 0. 0. 0. 0. 0.
      1.31578948e-02 0. 0. 0. 0. 0. 0. 0. 0. 0. 0. 0. 0. 0. 0. 0. 0. 0.
      0. 0. 0. 0. 0. 0. 0. 0. 0. 0. 0. 0. 0. 0. 6.57894742e-03 0. 0. 0.
      0. 0. 0. 0. 0. 0. 0. 1.31578948e-02 0. 0. 0. 0. 0. 0. 0. 0. 0. 0.
      0. 0. 1.31578948e-02 6.57894742e-03 0. 6.57894742e-03
      1.31578948e-02 0. 0. 0. 0. 0. 0. 0. 0. 0. 0. 0. 0. 0. 0. 0. 0. 0.
      6.57894742e-03 0. 0. 6.57894742e-03 6.57894742e-03 0. 0. 0. 0. 0.
      0. 0. 0. 0. 6.57894742e-03 0. 0. 0. 0. 0. 0. 0. 0. 0. 0. 0. 0. 0.
      1.31578948e-02 0. 0. 6.57894742e-03 0. 0. 6.57894742e-03 0. 0. 0.
      0. 0. 6.57894742e-03 0. 0. 0. 0. 0. 6.57894742e-03 0. 0. 0. 0. 0.
      2.63157897e-02 0. 0. 0. 0. 0. 0. 0. 0. 0. 0. 0. 0. 0. 0. 0. 0. 0.
      0. 0. 0. 0. 0. 0. 0. 0. 0. 0. 0. 0. 0. 0. 0. 0. 0. 0.
      6.57894742e-03 0. 0. 0. 0. 0. 0. 0. 0. 0. 0. 0. 0. 0. 0. 0. 0. 0.
      0. 0. 6.57894742e-03 0. 0. 0. 0. 0. 0. 0. 0. 6.57894742e-03 0. 0.
      0. 0. 0. 0. 0. 0. 0. 0. 0. 0. 0. 0. 0. 0. 0. 6.57894742e-03 0. 0.
      0. 0. 0. 0. 0. 0. 0. 0. 0. 0. 0. 0. 6.57894742e-03 0. 0. 0. 0. 0.
      6.57894742e-03 0. 0. 0. 0. 6.57894742e-03 0. 0. 1.97368413e-02 0.
      0. 0. 0. 1.31578948e-02 0. 6.57894742e-03 0. 1.97368413e-02 0.
      6.57894742e-03 0. 0. 0. 0. 0. 0. 0. 0. 0. 0. 0. 0. 0. 0. 0. 0. 0.
      0. 0. 0. 0. 1.97368413e-02 0. 0. 0. 0. 0. 0. 0. 0. 0. 0. 0. 0. 0.
      0. 0. 0. 0. 6.57894742e-03 0. 0. 0. 0. 0. 0. 0. 0. 0.
      6.57894742e-03 0. 0. 0. 0. 0. 0. 0. 0. 0. 0. 0. 0. 0. 0. 0. 0. 0.
      0. 0. 0. 0. 0. 0. 0. 0. 0. 0. 0. 6.57894742e-03 0. 0. 0. 0. 0. 0.
      1.97368413e-02 0. 0. 0. 6.57894742e-03 0. 0. 0. 0. 0. 0. 0. 0. 0.
      0. 0. 0. 0. 0. 0. 0. 0. 0. 6.57894742e-03 0. 0. 0. 0. 0. 0. 0. 0.
      0. 0. 0. 0. 0. 0. 6.57894742e-03 0. 0. 0. 0. 0. 0. 0. 0. 0. 0.
      6.57894742e-03 6.57894742e-03 0. 0. 0. 0. 0. 0. 0. 0. 0.
      1.31578948e-02 0. 0. 6.57894742e-03 0. 0. 0. 0. 0. 0. 0. 0.
      3.28947380e-02 0. 0. 0. 0. 3.28947380e-02 0. 1.97368413e-02 0. 0.
      0. 0. 6.57894742e-03 0. 0. 0. 0. 0. 0. 0. 0. 0. 0. 0. 0.
      1.31578948e-02 0. 0. 0. 0. 0. 0. 0. 0. 0. 0. 0. 0. 0. 0. 0. 0. 0.
      0. 0. 0. 0. 0. 0. 0. 0. 0. 0. 0. 0. 0. 0. 0. 0. 1.31578948e-02 0.
      0. 0. 0. 0. 0. 0. 0. 0. 0. 0. 0. 0. 0. 0. 0. 0. 0. 0. 0. 0. 0. 0.
      0. 3.28947380e-02 0. 2.63157897e-02 0. 6.57894742e-03 0. 0. 0. 0.
      0. 0. 0. 0. 0. 0. 0. 0. 0. 0. 0. 0. 0. 0. 0. 0. 0. 2.63157897e-02
      0. 0. 0. 0. 0. 0. 0. 0. 0. 0. 0. 0. 0. 0. 0. 0. 0. 0. 0.
      6.57894742e-03 1.31578948e-02 6.57894742e-03 6.57894742e-03 0. 0.
      0. 0. 0. 0. 0. 0. 0. 0. 0. 0. 0. 0. 0. 0. 0. 3.28947380e-02 0. 0.
      0. 0. 0. 0. 0. 0. 0. 0. 0. 0. 0. 0. 0. 0. 0. 0. 0. 0. 0. 0.
      6.57894742e-03 1.31578948e-02 0. 0. 0. 0. 1.97368413e-02 0. 0. 0.
      0. 0. 0. 0. 0. 0. 0. 0. 0. 0. 6.57894742e-03 0. 0. 0. 0. 0. 0. 0.
      0. 0. 0. 0. 0. 0. 0. 0. 0. 0. 0. 0. 0. 0. 0. 0. 0. 0. 0. 0. 0. 0.
      0. 0. 0. 0. 0. 0. 6.57894742e-03 0. 0. 0. 0. 0. 1.31578948e-02 0.
      0. 0. 0. 0. 0. 0. 0. 0. 0. 0. 0. 0. 0. 0. 0. 0. 0. 0. 0. 0. 0. 0.
      0. 6.57894742e-03 0. 0. 6.57894742e-03 0. 0. 0. 0. 0. 0. 0. 0.
      6.57894742e-03 0. 0. 0. 6.57894742e-03 0. 6.57894742e-03
      1.31578948e-02 0. 0. 0. 0. 0. 0. 0. 0. 0. 0. 0. 0. 0. 0. 0. 0. 0.
      0. 0. 0. 0. 0. 6.57894742e-03 0. 0. 0. 0. 0. 6.57894742e-03 0. 0.
      0. 0. 0. 0. 0. 0. 0. 0. 0. 0. 0. 0. 0. 0. 0. 6.57894742e-03 0. 0.
      0. 0. 0. 6.57894742e-03 0. 0. 0. 0. 0. 0. 0. 6.57894742e-03 0.
      6.57894742e-03 0. 0. 0. 0. 0. 0. 0. 0. 0. 6.57894742e-03
      6.57894742e-03 0. 0. 0. 0. 0. 0. 0. 0. 0. 0. 0. 0. 0. 0. 0. 0. 0.
      0. 0. 0. 0. 0. 0. 6.57894742e-03 0. 0. 0. 0. 0. 0. 0. 0. 0. 0. 0.
      0. 0. 0. 0. 0. 1.31578948e-02 1.31578948e-02 0. 0. 0. 0. 0. 0. 0.
      0. 0. 6.57894742e-03 0. 0. 0. 0. 0. 0. 0. 0. 0. 0. 0. 0. 0. 0. 0.
      0. 0. 0. 0. 0. 0. 0. 6.57894742e-03 0. 0. 0. 0. 0. 0. 0. 0. 0. 0.
      0. 0. 0. 0. 0. 0. 0. 0. 0. 0. 0. 0. 0. 0. 0. 0. 0. 0. 0. 0. 0. 0.
      0. 0. 0. 0. 6.57894742e-03 0. 1.97368413e-02 6.57894742e-03 0. 0.
      0. 0. 0. 0. 0. 0. 0. 0. 6.57894742e-03 0. 0. 0. 0. 6.57894742e-03
      0. 0. 0. 0. 0.</_>
    <_>
      4.25531901e-03 0. 0. 0. 0. 0. 0. 0. 0. 0. 4.25531901e-03 0. 0.
      8.51063803e-03 0. 0. 0. 0. 0. 4.25531901e-03 0. 8.51063803e-03 0.
      0. 1.27659570e-02 0. 2.12765951e-02 0. 0. 0. 0. 8.51063803e-03 0.
      0. 0. 4.25531901e-03 0. 0. 0. 0. 0. 0. 0. 0. 0. 0. 0. 0. 0.
      8.51063803e-03 0. 0. 0. 0. 4.25531901e-03 0. 4.25531901e-03 0. 0.
      0. 0. 0. 0. 0. 0. 0. 0. 0. 4.25531901e-03 0. 0. 0. 0. 0. 0. 0. 0.
      0. 0. 0. 4.25531901e-03 4.25531901e-03 0. 0. 0. 0. 0. 0. 0.
      4.25531901e-03 0. 4.25531901e-03 0. 0. 0. 0. 0. 0. 0. 0. 0. 0. 0.
      8.51063803e-03 4.25531901e-03 0. 0. 0. 0. 0. 0. 0. 0. 0. 0.
      4.25531901e-03 0. 0. 4.25531901e-03 0. 0. 4.25531901e-03 0. 0. 0.
      0. 4.25531901e-03 0. 0. 4.25531901e-03 0. 0. 0. 8.51063803e-03
      4.25531901e-03 0. 0. 0. 0. 0. 0. 1.27659570e-02 0. 0. 0. 0.
      4.25531901e-03 8.51063803e-03 0. 0. 4.25531901e-03 0.
      4.25531901e-03 0. 0. 0. 0. 0. 0. 4.25531901e-03 4.25531901e-03 0.
      0. 8.51063803e-03 0. 0. 0. 0. 0. 0. 0. 4.25531901e-03 0. 0. 0.
      4.25531901e-03 0. 0. 0. 0. 0. 0. 0. 4.25531901e-03 0. 0. 0. 0. 0.
      0. 0. 0. 0. 0. 0. 4.25531901e-03 0. 0. 0. 0. 0. 0. 0. 0. 0. 0. 0.
      0. 0. 0. 0. 0. 0. 0. 4.25531901e-03 0. 0. 0. 0. 0. 0. 0. 0. 0.
      4.25531901e-03 4.25531901e-03 0. 0. 0. 0. 8.51063803e-03 0.
      4.25531901e-03 0. 0. 4.25531901e-03 0. 0. 8.51063803e-03
      4.25531901e-03 4.25531901e-03 0. 0. 0. 0. 0. 0. 0. 4.25531901e-03
      0. 0. 8.51063803e-03 0. 0. 0. 0. 0. 0. 0. 0. 0. 0. 2.55319141e-02
      0. 0. 0. 0. 4.25531901e-03 0. 0. 0. 0. 0. 0. 0. 0. 0.
      4.25531901e-03 0. 0. 0. 0. 0. 0. 0. 0. 0. 0. 0. 4.25531901e-03 0.
      0. 0. 0. 0. 0. 0. 0. 0. 0. 0. 0. 0. 0. 0. 0. 0. 8.51063803e-03 0.
      0. 0. 0. 0. 0. 0. 0. 0. 0. 8.51063803e-03 0. 0. 0. 8.51063803e-03
      0. 0. 4.25531901e-03 0. 0. 0. 0. 0. 0. 0. 0. 0. 0. 0. 0. 0. 0. 0.
      4.25531901e-03 0. 1.27659570e-02 0. 0. 0. 0. 8.51063803e-03 0. 0.
      0. 0. 8.51063803e-03 0. 4.25531901e-03 0. 0. 0. 4.25531901e-03 0.
      0. 0. 0. 0. 4.25531901e-03 2.12765951e-02 0. 4.25531901e-03 0. 0.
      0. 0. 0. 0. 4.25531901e-03 0. 0. 0. 0. 0. 0. 0. 0. 0. 0. 0. 0. 0.
      0. 0. 0. 0. 0. 0. 0. 0. 4.25531901e-03 0. 0. 0. 0. 0. 0. 0. 0. 0.
      4.25531901e-03 0. 0. 0. 0. 0. 0. 0. 0. 0. 0. 0. 0. 0. 0. 0. 0. 0.
      0. 0. 0. 0. 0. 0. 0. 0. 0. 0. 0. 0. 0. 0. 0. 0. 0. 0. 0. 0. 0. 0.
      0. 0. 0. 0. 8.51063803e-03 0. 0. 0. 0. 0. 0. 0. 0. 8.51063803e-03
      0. 0. 0. 0. 0. 0. 0. 0. 0. 0. 8.51063803e-03 0. 0. 0. 0.
      4.25531901e-03 0. 0. 0. 0. 0. 0. 0. 0. 0. 0. 0. 4.25531901e-03 0.
      8.51063803e-03 0. 0. 0. 1.27659570e-02 8.51063803e-03 0. 0.
      8.51063803e-03 0. 0. 0. 0. 4.25531901e-03 0. 0. 0. 0. 0. 0.
      4.25531901e-03 0. 1.27659570e-02 0. 0. 0. 0. 0. 0. 0. 0. 0.
      8.51063803e-03 4.25531901e-03 2.55319141e-02 0. 8.51063803e-03
      4.25531901e-03 0. 0. 0. 0. 0. 0. 0. 0. 0. 0. 4.25531901e-03 0. 0.
      0. 4.25531901e-03 0. 0. 0. 4.25531901e-03 0. 1.27659570e-02 0. 0.
      4.25531901e-03 0. 4.25531901e-03 0. 0. 0. 0. 0. 0. 0.
      1.27659570e-02 0. 0. 0. 0. 4.25531901e-03 0. 0. 0. 0. 0. 0.
      4.25531901e-03 0. 4.25531901e-03 0. 0. 0. 4.25531901e-03 0. 0. 0.
      0. 0. 0. 0. 0. 0. 8.51063803e-03 0. 0. 0. 1.70212761e-02 0. 0. 0.
      0. 0. 0. 0. 0. 0. 0. 8.51063803e-03 0. 0. 0. 0. 0. 0. 0.
      4.25531901e-03 0. 1.27659570e-02 0. 8.51063803e-03 4.25531901e-03
      4.25531901e-03 0. 4.25531901e-03 0. 0. 0. 0. 0. 0. 0.
      4.25531901e-03 0. 0. 0. 0. 0. 0. 0. 8.51063803e-03 0. 0. 0. 0. 0.
      0. 0. 0. 4.25531901e-03 0. 0. 0. 0. 0. 0. 4.25531901e-03 0. 0. 0.
      0. 0. 0. 0. 0. 0. 0. 0. 0. 0. 4.25531901e-03 8.51063803e-03
      4.25531901e-03 0. 0. 0. 0. 0. 0. 0. 0. 0. 0. 0. 0. 0. 0. 0. 0. 0.
      0. 0. 0. 8.51063803e-03 4.25531901e-03 0. 1.27659570e-02 0. 0. 0.
      0. 0. 4.25531901e-03 0. 0. 0. 8.51063803e-03 0. 0. 0. 0. 0.
      4.25531901e-03 0. 0. 0. 0. 0. 8.51063803e-03 0. 8.51063803e-03
      8.51063803e-03 0. 0. 0. 0. 0. 0. 0. 0. 0. 0. 0. 0. 4.25531901e-03
      1.27659570e-02 0. 0. 0. 0. 0. 0. 0. 4.25531901e-03 0. 0. 0. 0. 0.
      0. 0. 0. 0. 0. 0. 0. 0. 0. 0. 0. 0. 0. 0. 0. 4.25531901e-03 0.
      4.25531901e-03 0. 0. 0. 0. 0. 0. 0. 4.25531901e-03 0. 0. 0. 0.
      8.51063803e-03 4.25531901e-03 0. 0. 0. 4.25531901e-03 0. 0.
      4.25531901e-03 0. 8.51063803e-03 0. 0. 8.51063803e-03 0.
      4.25531901e-03 0. 0. 0. 0. 4.25531901e-03 0. 0. 0. 0. 0. 0. 0. 0.
      0. 0. 0. 0. 0. 0. 0. 0. 0. 0. 0. 0. 0. 0. 0. 0. 8.51063803e-03 0.
      0. 0. 0. 0. 0. 0. 4.25531901e-03 0. 0. 0. 0. 0. 0. 0. 0. 0. 0. 0.
      0. 0. 0. 0. 0. 0. 0. 0. 0. 0. 0. 0. 8.51063803e-03 0.
      4.25531901e-03 0. 0. 0. 0. 0. 0. 0. 0. 0. 0. 0. 0. 0.
      4.25531901e-03 0. 0. 0. 0. 0. 0. 0. 0. 0. 0. 0. 4.25531901e-03 0.
      0. 0. 0. 0. 0. 0. 0. 0. 0. 0. 0. 0. 0. 0. 0. 0. 0. 0. 0. 0. 0.
      4.25531901e-03 0. 0. 0. 0. 0. 0. 4.25531901e-03 0. 0. 0. 0. 0. 0.
      0. 0. 0. 0. 0. 0. 0. 0. 0. 0. 0. 0. 0. 0. 0. 0. 0. 0. 0. 0. 0. 0.
      0. 0. 0. 0. 0. 0. 0. 0. 0. 0. 0. 0. 4.25531901e-03 0. 0. 0. 0. 0.
      0. 0. 0. 4.25531901e-03 0. 0. 4.25531901e-03 0. 0. 0.
      4.25531901e-03 0. 0. 0. 0. 4.25531901e-03 0. 4.25531901e-03 0. 0.
      4.25531901e-03 0. 0. 0. 4.25531901e-03 0. 0. 0. 0. 0. 0. 0.
      4.25531901e-03 0. 0. 0. 0. 0. 0. 0. 8.51063803e-03 0. 0.</_>
    <_>
      4.84261522e-03 2.42130761e-03 0. 0. 0. 0. 0. 0. 0. 0.
      7.26392306e-03 2.42130761e-03 7.26392306e-03 2.42130761e-03 0.
      2.42130761e-03 0. 4.84261522e-03 9.68523044e-03 0. 0. 0. 0. 0. 0.
      0. 7.26392306e-03 0. 0. 0. 0. 0. 0. 2.42130761e-03 0. 0. 0. 0. 0.
      0. 0. 4.84261522e-03 0. 0. 0. 2.42130761e-03 0. 2.42130761e-03 0.
      0. 4.84261522e-03 1.93704609e-02 0. 0. 0. 0. 1.93704609e-02 0. 0.
      0. 2.42130761e-03 0. 0. 2.42130761e-03 0. 4.84261522e-03 0. 0. 0.
      0. 0. 0. 0. 0. 2.42130761e-03 2.42130761e-03 0. 0. 4.84261522e-03
      2.42130761e-03 0. 0. 0. 0. 0. 0. 0. 2.42130761e-03 2.42130761e-03
      0. 0. 0. 0. 0. 0. 2.42130761e-03 0. 0. 0. 2.42130761e-03 0. 0. 0.
      0. 0. 0. 0. 2.42130761e-03 2.42130761e-03 0. 0. 0. 2.42130761e-03
      0. 0. 0. 0. 0. 0. 0. 0. 2.17917692e-02 4.84261522e-03 0. 0. 0. 0.
      7.26392306e-03 0. 2.42130761e-03 0. 2.42130761e-03 0. 0. 0. 0. 0.
      0. 0. 2.42130761e-03 0. 0. 0. 0. 0. 0. 0. 0. 0. 0. 0. 0. 0. 0. 0.
      2.42130761e-03 0. 0. 0. 0. 0. 0. 0. 0. 0. 0. 0. 0. 7.26392306e-03
      0. 0. 0. 0. 2.42130761e-03 0. 2.42130761e-03 0. 0. 0. 0.
      4.84261522e-03 0. 0. 2.42130761e-03 0. 0. 0. 0. 0. 0. 0. 0. 0.
      7.26392306e-03 0. 0. 2.42130761e-03 0. 0. 0. 0. 0. 1.45278461e-02
      0. 0. 0. 0. 0. 2.42130761e-03 0. 0. 0. 0. 0. 2.42130761e-03 0.
      7.26392306e-03 0. 0. 0. 0. 0. 2.42130761e-03 0. 0. 0. 0. 0. 0.
      2.42130761e-03 0. 7.26392306e-03 4.84261522e-03 0. 0. 0. 0. 0. 0.
      0. 0. 0. 0. 0. 0. 0. 0. 0. 0. 0. 0. 4.84261522e-03 0. 0. 0.
      1.93704609e-02 2.42130761e-03 0. 2.42130761e-03 0. 0. 0.
      4.84261522e-03 0. 2.42130761e-03 0. 0. 0. 2.42130761e-03 0. 0. 0.
      0. 0. 2.42130761e-03 0. 0. 0. 0. 0. 0. 2.42130761e-03 0. 0. 0.
      7.26392306e-03 0. 0. 0. 0. 0. 0. 2.42130761e-03 0. 0. 0. 0. 0. 0.
      0. 0. 0. 0. 9.68523044e-03 0. 2.42130761e-03 0. 0. 0. 0. 0. 0. 0.
      0. 0. 0. 0. 1.69491526e-02 2.66343839e-02 0. 4.84261522e-03 0.
      2.42130761e-03 0. 0. 0. 4.84261522e-03 0. 2.42130761e-03 0. 0.
      2.42130761e-03 0. 0. 0. 0. 0. 0. 0. 0. 0. 2.42130761e-03 0. 0.
      2.42130761e-03 0. 0. 0. 0. 0. 0. 0. 0. 2.42130761e-03
      2.42130761e-03 0. 2.42130761e-03 0. 4.84261522e-03 7.26392306e-03
      2.42130761e-03 0. 0. 0. 0. 0. 1.21065378e-02 0. 1.21065378e-02
      2.42130761e-03 2.42130761e-03 0. 0. 7.26392306e-03 0.
      4.84261522e-03 0. 0. 2.42130761e-03 0. 0. 2.42130761e-03 0. 0. 0.
      0. 0. 0. 0. 0. 0. 0. 0. 0. 0. 0. 0. 0. 0. 0. 0. 0. 0. 0. 0. 0.
      2.42130761e-03 0. 0. 0. 0. 4.84261522e-03 0. 0. 0. 0.
      2.42130761e-03 0. 0. 0. 0. 2.42130761e-03 2.42130761e-03 0. 0. 0.
      2.42130761e-03 0. 0. 0. 0. 0. 0. 0. 0. 0. 0. 0. 2.42130761e-03 0.
      0. 0. 0. 0. 0. 0. 7.26392306e-03 2.42130761e-03 0. 0. 0. 0. 0. 0.
      0. 0. 0. 2.42130761e-03 0. 7.26392306e-03 2.42130761e-03 0. 0. 0.
      0. 0. 0. 2.42130761e-03 0. 0. 0. 0. 0. 2.42130761e-03 0. 0.
      2.42130761e-03 0. 0. 0. 0. 0. 0. 0. 2.42130761e-03 2.42130761e-03
      0. 0. 0. 0. 0. 0. 2.42130761e-03 0. 0. 1.93704609e-02 0. 0. 0. 0.
      0. 0. 0. 0. 0. 0. 0. 0. 0. 0. 0. 0. 7.26392306e-03 0.
      2.42130761e-03 0. 0. 0. 0. 2.42130761e-03 0. 2.42130761e-03
      4.84261522e-03 2.42130761e-03 0. 0. 9.68523044e-03 0. 0.
      1.45278461e-02 0. 0. 0. 0. 0. 0. 0. 0. 2.42130761e-03 0. 0. 0. 0.
      2.42130761e-03 0. 2.42130761e-03 2.42130761e-03 0. 0. 0. 0. 0. 0.
      0. 0. 0. 0. 0. 0. 2.42130761e-03 0. 0. 0. 0. 0. 0. 0. 0. 0.
      2.42130761e-03 0. 0. 0. 0. 0. 0. 0. 0. 1.45278461e-02
      2.42130761e-03 0. 0. 0. 0. 0. 0. 0. 0. 0. 0. 0. 0. 0.
      7.26392306e-03 0. 0. 0. 0. 0. 0. 1.69491526e-02 7.26392306e-03
      2.42130761e-03 2.42130761e-03 0. 2.42130761e-03 0. 0. 0.
      2.42130761e-03 0. 0. 2.42130761e-03 0. 0. 0. 2.42130761e-03 0. 0.
      0. 0. 0. 0. 0. 4.84261522e-03 0. 0. 0. 0. 0. 2.42130761e-03
      2.42130761e-03 0. 0. 0. 0. 2.42130761e-03 0. 0. 2.42130761e-03 0.
      0. 0. 0. 7.26392306e-03 0. 0. 0. 0. 0. 0. 0. 2.42130761e-03 0. 0.
      1.93704609e-02 0. 0. 2.42130761e-03 0. 2.42130761e-03 0. 0. 0. 0.
      0. 0. 0. 0. 2.42130761e-03 0. 0. 0. 0. 2.42130761e-03 0. 0. 0. 0.
      0. 0. 0. 0. 0. 4.84261522e-03 0. 7.26392306e-03 0. 0.
      2.42130761e-03 2.42130761e-03 9.68523044e-03 0. 0. 0. 0. 0. 0. 0.
      2.42130761e-03 0. 2.42130761e-03 2.42130761e-03 0. 0. 0. 0. 0. 0.
      0. 9.68523044e-03 0. 0. 0. 2.42130761e-03 0. 4.84261522e-03
      4.84261522e-03 0. 0. 0. 0. 0. 0. 0. 4.84261522e-03 0. 0.
      4.84261522e-03 0. 0. 0. 0. 0. 0. 0. 0. 0. 0. 2.42130761e-03 0. 0.
      0. 0. 0. 0. 0. 0. 0. 0. 4.84261522e-03 0. 0. 0. 0. 0. 0. 0. 0. 0.
      0. 0. 2.42130761e-03 0. 0. 0. 0. 0. 0. 0. 0. 2.42130761e-03 0.
      7.26392306e-03 0. 0. 0. 0. 0. 2.42130761e-03 0. 7.26392306e-03 0.
      0. 0. 0. 2.42130761e-03 0. 1.45278461e-02 0. 0. 0. 4.84261522e-03
      0. 0. 0. 0. 0. 0. 0. 0. 0. 2.42130761e-03 0. 0. 7.26392306e-03 0.
      0. 0. 7.26392306e-03 0. 0. 0. 0. 0. 0. 0. 0. 9.68523044e-03 0.
      3.38983051e-02 0. 0. 0. 0. 2.42130761e-03 0. 2.42130761e-03 0. 0.
      0. 0. 0. 0. 0. 0. 0. 0. 0. 0. 0. 1.69491526e-02 4.84261522e-03 0.
      0. 0. 0. 0. 2.42130761e-03 2.42130761e-03 0. 0. 0. 4.84261522e-03
      0. 0. 1.21065378e-02 0. 0. 0. 0. 0. 0. 0. 0. 0. 0. 0. 0. 0. 0. 0.
      0. 0. 4.84261522e-03 0. 0. 4.84261522e-03 0. 0. 0. 0. 0. 0. 0.
      7.26392306e-03 0. 0. 0. 0. 0. 0. 0. 0. 0. 0. 0. 0. 0.
      2.42130761e-03 0. 0. 0. 0. 0. 0. 0. 0. 0. 0. 2.42130761e-03 0. 0.
      0. 0. 0. 0. 0. 0. 0. 0. 0. 2.42130761e-03 0. 0. 0. 0. 0.
      2.42130761e-03 0. 0. 0. 0. 0. 0. 0. 0. 0. 0. 0. 0. 0. 0. 0. 0. 0.
      0. 0. 0. 0. 0. 0. 2.42130761e-03 0. 0. 4.84261522e-03 0. 0. 0. 0.
      0. 0. 0. 7.26392306e-03 0. 0. 2.42130761e-03 0. 0. 0. 0. 0. 0. 0.
      0. 0. 0. 2.42130761e-03 0. 0. 0. 2.42130761e-03 0. 0. 0. 0. 0. 0.
      4.84261522e-03 4.84261522e-03 4.84261522e-03 0. 0. 0. 0. 0. 0. 0.
      0. 0.</_>
    <_>
      0. 0. 0. 0. 0. 0. 0. 0. 0. 0. 0. 0. 0. 0. 0. 0. 0. 0. 0. 0. 0. 0.
      0. 0. 0. 0. 8.51063803e-03 0. 0. 0. 0. 0. 0. 0. 0. 0. 0. 0. 0. 0.
      0. 8.51063803e-03 8.51063803e-03 0. 0. 0. 0. 0. 0. 0. 0.
      4.25531901e-03 0. 0. 8.51063803e-03 0. 4.25531901e-03 0.
      1.27659570e-02 0. 0. 0. 0. 0. 0. 0. 0. 0. 4.25531901e-03 0.
      4.25531901e-03 0. 0. 0. 0. 4.25531901e-03 4.25531901e-03 0. 0. 0.
      0. 0. 0. 0. 0. 0. 4.25531901e-03 0. 0. 0. 0. 0. 0. 0. 0. 0. 0. 0.
      0. 0. 0. 0. 0. 0. 0. 0. 0. 0. 4.25531901e-03 0. 0. 0. 0. 0. 0. 0.
      0. 0. 0. 0. 0. 8.51063803e-03 0. 0. 0. 0. 0. 0. 0. 0. 0.
      2.55319141e-02 0. 0. 4.25531901e-03 0. 0. 0. 0. 0. 0. 0. 0. 0. 0.
      0. 0. 0. 0. 0. 0. 0. 0. 0. 0. 0. 0. 0. 4.25531901e-03 0. 0. 0. 0.
      0. 0. 0. 8.51063803e-03 0. 8.51063803e-03 0. 0. 0. 0. 0. 0. 0.
      8.51063803e-03 0. 0. 0. 0. 0. 0. 0. 0. 0. 0. 0. 0. 0. 0. 0. 0. 0.
      4.25531901e-03 0. 0. 0. 0. 0. 0. 0. 0. 0. 0. 0. 0. 0. 0. 0.
      8.51063803e-03 0. 0. 0. 0. 0. 0. 0. 0. 0. 0. 0. 0. 0. 0. 0. 0. 0.
      0. 0. 0. 0. 8.51063803e-03 8.51063803e-03 0. 0. 0. 0. 0.
      4.25531901e-03 0. 0. 0. 0. 0. 0. 0. 0. 0. 4.25531901e-03 0.
      1.27659570e-02 0. 0. 0. 0. 0. 0. 0. 0. 0. 0. 3.82978693e-02
      4.25531901e-03 0. 0. 0. 0. 0. 0. 0. 4.25531901e-03 0. 0. 0. 0. 0.
      0. 0. 0. 0. 4.25531901e-03 0. 0. 0. 0. 0. 0. 0. 4.25531901e-03 0.
      0. 0. 0. 0. 0. 0. 0. 0. 0. 0. 4.25531901e-03 0. 0. 0. 0. 0.
      4.25531901e-03 0. 0. 4.25531901e-03 4.25531901e-03 0. 0. 0. 0. 0.
      0. 4.25531901e-02 0. 1.27659570e-02 0. 0. 0. 0. 0. 0.
      4.25531901e-03 0. 1.27659570e-02 0. 0. 0. 0. 0. 0. 0. 0. 0.
      4.25531901e-03 4.25531901e-03 0. 0. 0. 0. 0. 0. 0. 0. 0. 0. 0. 0.
      0. 4.25531901e-03 0. 0. 0. 0. 0. 0. 0. 0. 0. 0. 4.25531901e-03
      1.70212761e-02 0. 0. 0. 0. 0. 0. 0. 0. 0. 0. 0. 0. 0. 0. 0. 0. 0.
      0. 0. 4.25531901e-03 0. 0. 0. 0. 0. 0. 0. 0. 4.25531901e-03 0. 0.
      8.51063803e-03 0. 8.51063803e-03 0. 0. 1.27659570e-02 0.
      8.51063803e-03 0. 0. 0. 0. 0. 0. 0. 0. 0. 0. 1.70212761e-02 0. 0.
      0. 0. 0. 0. 0. 0. 0. 0. 0. 0. 0. 0. 4.25531901e-03 0. 0. 0. 0. 0.
      0. 0. 0. 0. 0. 0. 0. 4.25531901e-03 4.25531901e-03 0. 0. 0. 0. 0.
      4.25531901e-03 0. 0. 4.25531901e-03 0. 0. 0. 0. 0. 4.25531901e-03
      0. 0. 0. 0. 0. 0. 0. 0. 0. 0. 0. 0. 0. 0. 0. 0. 0. 0. 0.
      4.25531901e-03 0. 4.25531901e-03 0. 0. 0. 0. 0. 2.12765951e-02 0.
      0. 0. 4.25531901e-03 0. 0. 0. 4.25531901e-03 0. 0. 0. 0. 0. 0. 0.
      0. 0. 4.25531901e-03 4.25531901e-03 2.12765951e-02 0. 0. 0.
      4.25531901e-03 0. 0. 0. 0. 0. 0. 4.25531901e-03 0. 0.
      4.25531901e-03 4.25531901e-03 0. 0. 2.55319141e-02 4.25531901e-03
      0. 0. 0. 0. 0. 0. 0. 0. 0. 0. 4.25531901e-03 0. 0. 0.
      8.51063803e-03 4.25531901e-03 0. 0. 0. 0. 0. 0. 0. 8.51063803e-03
      0. 0. 0. 0. 4.25531901e-03 0. 0. 0. 0. 0. 4.25531901e-03 0. 0. 0.
      0. 4.25531901e-03 0. 0. 0. 8.51063803e-03 0. 0. 0. 1.27659570e-02
      0. 4.25531901e-03 8.51063803e-03 0. 0. 0. 4.25531901e-03 0. 0. 0.
      0. 0. 0. 0. 0. 0. 0. 0. 0. 0. 4.25531901e-03 0. 0. 0. 0. 0. 0. 0.
      4.25531901e-03 0. 0. 0. 0. 0. 0. 0. 0. 0. 1.27659570e-02 0. 0. 0.
      0. 0. 0. 0. 0. 0. 4.25531901e-03 0. 0. 0. 0. 0. 0. 0. 0. 0. 0. 0.
      0. 0. 1.27659570e-02 0. 0. 0. 0. 0. 0. 0. 0. 0. 0. 0. 0. 0.
      4.25531901e-03 0. 0. 8.51063803e-03 0. 0. 0. 0. 4.25531901e-03 0.
      0. 0. 0. 0. 0. 0. 0. 4.25531901e-03 0. 0. 0. 0. 0. 0. 0. 0. 0.
      4.25531901e-03 0. 0. 0. 4.25531901e-03 0. 0. 0. 0. 0. 0.
      2.97872331e-02 4.25531901e-03 0. 0. 0. 0. 0. 0. 0. 8.51063803e-03
      0. 4.25531901e-03 4.25531901e-03 0. 0. 0. 4.25531901e-03 0. 0. 0.
      0. 0. 4.25531901e-03 0. 4.25531901e-03 0. 4.25531901e-03
      4.25531901e-03 0. 0. 0. 0. 1.70212761e-02 0. 0. 0. 0. 0. 0. 0.
      4.25531901e-03 0. 4.25531901e-03 8.51063803e-03 0. 0. 0. 0.
      4.25531901e-03 0. 0. 0. 0. 0. 0. 0. 0. 0. 0. 0. 8.51063803e-03
      8.51063803e-03 0. 0. 0. 0. 0. 0. 0. 0. 0. 0. 0. 0. 0. 0. 0. 0. 0.
      0. 0. 4.25531901e-03 0. 4.25531901e-03 0. 0. 0. 0. 0. 0. 0. 0. 0.
      0. 0. 0. 4.25531901e-03 0. 0. 0. 0. 0. 0. 0. 0. 0. 0. 0. 0. 0. 0.
      0. 0. 0. 0. 4.25531901e-03 0. 0. 0. 0. 0. 0. 0. 0. 0. 0. 0. 0. 0.
      0. 0. 0. 0. 0. 0. 0. 0. 0. 0. 0. 0. 0. 0. 0. 0. 0. 0. 0. 0. 0. 0.
      1.70212761e-02 0. 0. 0. 0. 0. 0. 0. 0. 0. 0. 0. 0. 0. 0. 0. 0. 0.
      0. 0. 0. 0. 0. 0. 0. 0. 0. 0. 0. 0. 0. 0. 0. 0. 0. 0.
      1.70212761e-02 0. 0. 0. 0. 0. 0. 0. 0. 0. 0. 0. 0. 0. 0. 0. 0. 0.
      4.25531901e-03 0. 4.25531901e-03 0. 0. 0. 0. 0. 0. 0. 0. 0. 0. 0.
      0. 0. 0. 0. 0. 0. 0. 4.25531901e-03 1.27659570e-02 0. 0. 0. 0. 0.
      0. 0. 0. 0. 0. 0. 0. 0. 0. 0. 0. 0. 0. 0. 0. 0. 0. 0. 0. 0. 0. 0.
      0. 1.70212761e-02 0. 0. 0. 0. 0. 4.25531901e-03 0. 0.
      4.25531901e-03 0. 0. 0. 0. 4.25531901e-03 0. 0. 0. 0. 0.
      8.51063803e-03 0. 0. 0. 0. 0. 0. 0. 0. 0. 0. 4.25531901e-03 0. 0.
      0. 0. 4.25531901e-03 0. 0. 0. 0. 0. 0. 8.51063803e-03 0. 0. 0. 0.
      4.25531901e-03 4.25531901e-03 0. 0. 0. 4.25531901e-03</_>
    <_>
      0. 0. 0. 0. 0. 0. 0. 0. 0. 0. 0. 0. 0. 0. 0. 0. 0. 1.10701108e-02
      0. 0. 0. 0. 0. 0. 0. 0. 1.47601478e-02 0. 0. 1.10701108e-02 0.
      7.38007389e-03 3.69003695e-03 3.69003695e-03 0. 0. 0. 0. 0.
      3.69003695e-03 0. 0. 3.69003695e-03 0. 0. 3.69003695e-03 0. 0. 0.
      0. 3.69003695e-03 1.10701108e-02 0. 0. 0. 0. 1.10701108e-02 0. 0.
      0. 0. 0. 0. 0. 0. 0. 0. 0. 0. 0. 0. 0. 0. 0. 0. 3.69003695e-03 0.
      0. 0. 0. 0. 0. 0. 0. 0. 0. 7.38007389e-03 0. 0. 0. 0.
      7.38007389e-03 0. 0. 0. 0. 0. 0. 3.69003695e-03 0. 0. 0. 0. 0. 0.
      0. 0. 3.69003695e-03 0. 0. 3.69003695e-03 0. 0. 0. 0. 0.
      3.69003695e-03 0. 0. 0. 3.69003695e-03 1.47601478e-02
      7.38007389e-03 0. 0. 0. 0. 1.84501857e-02 0. 0. 0. 0. 0.
      3.69003695e-03 0. 0. 0. 0. 0. 0. 0. 3.69003695e-03 0.
      3.69003695e-03 0. 0. 0. 3.69003695e-03 0. 0. 0. 0. 0. 0. 0.
      1.47601478e-02 3.69003695e-03 0. 0. 0. 0. 0. 0. 0. 0. 0. 0.
      3.69003695e-03 3.69003695e-03 0. 0. 3.69003695e-03 3.69003695e-03
      0. 0. 3.69003695e-03 0. 0. 0. 0. 4.42804433e-02 0. 0.
      7.38007389e-03 3.69003695e-03 0. 0. 7.38007389e-03 0. 0. 0. 0.
      3.69003695e-03 0. 0. 0. 0. 0. 0. 0. 0. 0. 3.69003695e-03 0.
      3.69003695e-03 0. 0. 0. 0. 0. 0. 0. 0. 0. 0. 0. 7.38007389e-03 0.
      0. 0. 0. 0. 3.69003695e-03 0. 0. 0. 0. 0. 3.69003695e-03 0.
      3.69003695e-03 0. 0. 0. 0. 0. 0. 0. 0. 0. 0. 0. 0. 0. 0. 0. 0. 0.
      0. 1.47601478e-02 0. 0. 1.10701108e-02 0. 0. 0. 0. 0. 0. 0. 0. 0.
      2.58302577e-02 0. 0. 0. 0. 3.69003695e-03 0. 0. 3.69003695e-03 0.
      0. 0. 0. 0. 0. 0. 3.69003695e-03 0. 0. 3.69003695e-03 0. 0. 0.
      3.69003695e-03 0. 0. 0. 0. 0. 0. 0. 0. 0. 0. 0. 0. 0. 0. 0. 0. 0.
      0. 0. 0. 7.38007389e-03 0. 0. 3.69003695e-03 0. 0. 3.69003695e-03
      0. 3.69003695e-03 0. 0. 0. 0. 0. 2.21402217e-02 0. 0. 0. 0. 0. 0.
      0. 0. 0. 0. 3.69003695e-03 0. 0. 0. 0. 0. 0. 0. 0. 0. 0. 0. 0. 0.
      0. 0. 0. 0. 0. 0. 0. 0. 0. 2.21402217e-02 0. 0. 0. 0.
      7.38007389e-03 3.69003695e-03 0. 0. 0. 0. 7.38007389e-03
      1.10701108e-02 0. 7.38007389e-03 0. 0. 0. 0. 0. 0. 0. 0. 0. 0.
      3.69003695e-03 0. 0. 0. 0. 0. 3.69003695e-03 0. 0. 0. 0. 0. 0. 0.
      0. 0. 0. 0. 0. 0. 0. 0. 0. 0. 0. 0. 0. 0. 0. 0. 3.69003695e-03 0.
      3.69003695e-03 1.10701108e-02 0. 0. 0. 3.69003695e-03 0. 0. 0.
      1.10701108e-02 0. 0. 0. 0. 0. 0. 0. 0. 0. 1.10701108e-02 0. 0.
      3.69003695e-03 0. 3.69003695e-03 0. 0. 0. 0. 0. 0. 0. 0. 0. 0. 0.
      0. 0. 0. 0. 0. 0. 0. 0. 0. 0. 7.38007389e-03 0. 0. 3.69003695e-03
      0. 0. 0. 0. 0. 0. 0. 0. 0. 0. 0. 0. 0. 0. 3.69003695e-03 0. 0. 0.
      0. 0. 0. 0. 3.69003695e-03 0. 0. 0. 0. 0. 0. 0. 0. 0. 0. 0. 0. 0.
      0. 0. 0. 0. 0. 0. 0. 0. 0. 0. 0. 3.69003695e-03 0. 0. 0.
      7.38007389e-03 3.69003695e-03 0. 0. 0. 0. 0. 0. 0. 0. 0.
      7.38007389e-03 0. 0. 3.69003695e-03 0. 3.69003695e-03
      3.69003695e-03 0. 0. 0. 1.47601478e-02 3.69003695e-03 0. 0. 0.
      3.69003695e-03 0. 3.69003695e-03 1.10701108e-02 1.10701108e-02 0.
      0. 0. 7.38007389e-03 0. 3.69003695e-03 0. 0. 0. 0. 0. 0. 0.
      2.21402217e-02 0. 0. 0. 0. 0. 0. 0. 0. 0. 0. 0. 0. 0. 0. 0. 0. 0.
      0. 0. 0. 0. 1.47601478e-02 0. 0. 0. 0. 0. 0. 0. 0. 0. 0. 0. 0. 0.
      0. 0. 0. 0. 0. 0. 0. 0. 3.69003695e-03 3.69003695e-03 0. 0. 0. 0.
      0. 0. 0. 0. 0. 0. 0. 0. 0. 0. 0. 0. 0. 3.69003695e-03 0. 0. 0. 0.
      3.69003695e-03 0. 0. 0. 3.69003695e-03 3.69003695e-03 0. 0.
      3.69003695e-03 0. 0. 0. 0. 0. 0. 0. 0. 0. 0. 0. 0. 0.
      3.69003695e-03 0. 0. 0. 0. 0. 0. 0. 0. 7.38007389e-03
      7.38007389e-03 0. 0. 0. 3.69003695e-03 0. 0. 0. 0. 0. 0.
      3.69003695e-03 3.69003695e-03 0. 0. 0. 0. 0. 3.69003695e-03 0. 0.
      0. 0. 0. 0. 0. 0. 0. 0. 0. 3.69003695e-03 0. 0. 3.69003695e-03 0.
      0. 7.38007389e-03 0. 0. 0. 0. 3.69003695e-03 0. 3.69003695e-03 0.
      0. 0. 0. 0. 0. 0. 0. 0. 0. 0. 0. 0. 0. 3.69003695e-03 0.
      7.38007389e-03 0. 0. 0. 0. 0. 0. 0. 0. 0. 0. 0. 3.69003695e-03 0.
      0. 3.69003695e-03 0. 0. 0. 0. 0. 0. 0. 0. 0. 3.69003695e-03
      3.69003695e-03 0. 0. 0. 0. 0. 0. 0. 0. 0. 0. 0. 0. 0. 0. 0. 0. 0.
      0. 0. 0. 0. 0. 0. 0. 0. 0. 3.69003695e-03 0. 0. 0. 7.38007389e-03
      0. 0. 0. 0. 0. 3.69003695e-03 0. 0. 0. 0. 0. 0. 0. 0.
      2.21402217e-02 0. 0. 3.69003695e-03 0. 0. 3.69003695e-03
      3.69003695e-03 0. 0. 0. 0. 3.69003695e-03 0. 0. 3.69003695e-03
      7.38007389e-03 0. 0. 0. 3.69003695e-03 0. 0. 0. 0. 0. 0. 0. 0. 0.
      0. 0. 7.38007389e-03 0. 0. 1.10701108e-02 0. 0. 0. 0. 0. 0. 0. 0.
      0. 0. 0. 0. 0. 0. 0. 0. 0. 7.38007389e-03 1.10701108e-02 0. 0. 0.
      0. 0. 0. 0. 0. 0. 0. 0. 7.38007389e-03 7.38007389e-03
      7.38007389e-03 0. 1.47601478e-02 0. 0. 0. 0. 0. 0. 0. 0. 0. 0. 0.
      0. 0. 3.69003695e-03 0. 3.69003695e-03 0. 0. 7.38007389e-03 0.
      3.69003695e-03 0. 0. 0. 0. 0. 0. 0. 0. 0. 0. 0. 0. 0. 0. 0. 0. 0.
      0. 0. 0. 0. 0. 0. 0. 0. 0. 0. 0. 0. 0. 0. 0. 0. 0. 0. 0. 0.
      7.38007389e-03 0. 0. 0. 0. 0. 0. 3.69003695e-03 0. 0. 0. 0. 0. 0.
      3.69003695e-03 0. 0. 0. 0. 0. 0. 7.38007389e-03 0. 0. 0. 0. 0. 0.
      0. 0. 0. 0. 0. 0. 0. 0. 0. 0. 0. 0. 0. 0. 0. 0. 0. 0. 0. 0. 0. 0.
      0. 0. 0. 0. 0. 0. 0. 0. 7.38007389e-03 0. 7.38007389e-03 0.
      3.69003695e-03 0. 0. 0. 0. 0. 0. 0. 0. 0. 0. 0. 0. 0. 0.
      3.69003695e-03 0. 0. 0. 0. 0.</_>
    <_>
      3.38983047e-03 0. 0. 0. 0. 0. 3.38983047e-03 0. 0. 1.35593219e-02
      6.77966094e-03 0. 3.38983047e-03 0. 0. 0. 0. 0. 0. 0. 0. 0. 0. 0.
      0. 0. 3.38983047e-03 6.77966094e-03 0. 0. 0. 0. 0. 0. 0.
      3.38983047e-03 0. 0. 0. 0. 0. 0. 3.38983047e-03 3.38983047e-03 0.
      0. 0. 0. 3.38983047e-03 0. 0. 3.38983047e-03 0. 0. 1.69491526e-02
      0. 0. 0. 6.77966094e-03 6.77966094e-03 0. 0. 0. 0. 0. 0. 0. 0. 0.
      0. 3.38983047e-03 3.38983047e-03 0. 0. 0. 0. 0. 0. 0.
      3.38983047e-03 0. 0. 0. 0. 0. 0. 6.77966094e-03 0. 0. 0. 0. 0. 0.
      0. 0. 0. 0. 0. 0. 0. 0. 0. 0. 0. 0. 0. 0. 0. 0. 0. 0.
      6.77966094e-03 0. 0. 0. 0. 0. 0. 0. 0. 6.77966094e-03
      6.77966094e-03 3.38983047e-03 3.38983047e-03 0. 0. 0. 0. 0.
      3.38983047e-03 6.77966094e-03 2.03389823e-02 0. 0. 0. 0. 0. 0. 0.
      0. 0. 0. 0. 0. 0. 0. 0. 0. 0. 0. 0. 0. 0. 0. 0. 1.35593219e-02
      3.38983047e-03 1.69491526e-02 0. 0. 0. 3.38983047e-03 0. 0. 0. 0.
      0. 0. 0. 0. 0. 0. 0. 0. 0. 0. 0. 3.38983047e-03 0. 0.
      1.01694912e-02 0. 0. 3.38983047e-03 0. 0. 0. 3.38983047e-03 0. 0.
      0. 3.38983047e-03 0. 0. 0. 3.38983047e-03 0. 0. 0. 0. 0. 0. 0. 0.
      0. 0. 0. 3.38983047e-03 0. 0. 6.77966094e-03 6.77966094e-03 0. 0.
      0. 0. 0. 0. 0. 6.77966094e-03 0. 0. 0. 6.77966094e-03
      6.77966094e-03 0. 0. 0. 3.38983047e-03 0. 6.77966094e-03 0.
      6.77966094e-03 0. 0. 3.38983047e-03 0. 0. 0. 6.77966094e-03
      6.77966094e-03 0. 0. 0. 3.38983047e-03 0. 0. 0. 0. 0.
      3.38983047e-03 0. 3.38983047e-03 0. 0. 0. 6.77966094e-03 0. 0. 0.
      0. 0. 3.38983047e-03 0. 3.38983047e-03 0. 0. 0. 0. 0. 0. 0.
      3.38983047e-03 0. 0. 0. 0. 0. 0. 0. 0. 0. 3.38983047e-03
      1.35593219e-02 0. 3.38983047e-03 0. 0. 0. 0. 0. 0. 0. 0. 0. 0. 0.
      0. 0. 0. 0. 0. 2.03389823e-02 0. 0. 3.38983047e-03 0.
      3.38983047e-03 0. 0. 0. 0. 0. 0. 0. 0. 0. 0. 0. 3.38983047e-03 0.
      0. 0. 0. 0. 3.38983047e-03 0. 0. 0. 0. 0. 0. 0. 0. 3.38983047e-03
      0. 0. 3.38983047e-03 0. 0. 0. 3.38983047e-03 0. 0. 0. 0. 0. 0. 0.
      0. 0. 0. 0. 0. 0. 0. 0. 3.38983047e-03 0. 0. 0. 0. 0. 0. 0. 0. 0.
      0. 0. 0. 3.38983047e-03 0. 0. 3.38983047e-03 6.77966094e-03 0. 0.
      0. 0. 3.38983047e-03 0. 0. 0. 0. 0. 0. 0. 0. 0. 0. 0. 0. 0. 0. 0.
      0. 0. 0. 0. 0. 3.38983047e-03 0. 0. 0. 0. 0. 0. 0. 1.01694912e-02
      0. 0. 1.35593219e-02 0. 0. 3.38983047e-03 0. 1.01694912e-02 0. 0.
      0. 0. 0. 0. 3.38983047e-03 0. 0. 6.77966094e-03 0. 0. 0. 0. 0. 0.
      0. 0. 0. 0. 0. 0. 0. 0. 0. 0. 0. 0. 0. 0. 0. 0. 0. 0. 0. 0.
      6.77966094e-03 0. 3.38983047e-03 3.38983047e-03 0. 0. 0. 0. 0. 0.
      0. 0. 0. 0. 0. 0. 0. 0. 0. 0. 0. 0. 3.38983047e-03 0. 0. 0. 0. 0.
      0. 0. 0. 0. 0. 6.77966094e-03 0. 0. 0. 0. 0. 0. 0. 0. 0. 0. 0.
      3.38983047e-03 0. 0. 0. 0. 0. 0. 3.38983047e-03 0. 0.
      6.77966094e-03 3.38983047e-03 0. 0. 0. 0. 1.01694912e-02 0. 0.
      3.38983047e-03 0. 3.38983047e-03 0. 0. 3.38983047e-03
      6.77966094e-03 3.38983047e-03 3.38983047e-03 0. 3.38983047e-03 0.
      3.38983047e-03 0. 0. 0. 0. 0. 3.38983047e-03 3.38983047e-03 0. 0.
      0. 0. 3.38983047e-03 0. 1.35593219e-02 0. 3.38983047e-03 0. 0.
      3.38983047e-03 0. 0. 0. 0. 0. 0. 0. 0. 0. 0. 0. 0. 0. 0. 0. 0. 0.
      3.38983047e-03 0. 6.77966094e-03 0. 0. 0. 0. 0. 0. 0. 0. 0.
      3.38983047e-03 6.77966094e-03 0. 0. 3.38983047e-03 0. 0. 0. 0.
      3.38983047e-03 0. 0. 0. 0. 0. 3.38983047e-03 0. 3.38983047e-03 0.
      0. 0. 0. 0. 0. 0. 3.38983047e-03 0. 0. 0. 0. 0. 0. 0. 0. 0. 0.
      1.35593219e-02 0. 0. 0. 0. 0. 0. 0. 0. 0. 3.38983047e-03 0. 0. 0.
      3.38983047e-03 0. 0. 0. 3.38983047e-03 0. 0. 0. 0. 1.01694912e-02
      0. 0. 0. 0. 0. 0. 6.77966094e-03 3.38983047e-03 6.77966094e-03 0.
      0. 0. 0. 0. 0. 0. 0. 3.38983047e-03 0. 3.38983047e-03 0. 0.
      1.69491526e-02 0. 0. 0. 0. 0. 0. 3.38983047e-03 0. 3.38983047e-03
      0. 0. 0. 0. 3.38983047e-03 0. 0. 0. 0. 0. 0. 0. 3.38983047e-03
      6.77966094e-03 1.01694912e-02 0. 0. 0. 3.38983047e-03 0. 0. 0. 0.
      0. 0. 0. 0. 3.38983047e-03 0. 0. 6.77966094e-03 0. 3.38983047e-03
      0. 0. 0. 3.38983047e-03 0. 0. 0. 0. 0. 0. 6.77966094e-03
      3.38983047e-03 0. 0. 6.77966094e-03 0. 0. 0. 0. 1.35593219e-02 0.
      0. 0. 0. 0. 0. 0. 3.38983047e-03 0. 0. 0. 0. 0. 0. 0. 0. 0. 0. 0.
      0. 3.38983047e-03 0. 3.38983047e-03 3.38983047e-03 0. 0. 0. 0.
      2.03389823e-02 0. 0. 0. 0. 0. 0. 0. 0. 0. 3.38983047e-03
      3.38983047e-03 0. 0. 0. 0. 0. 0. 0. 0. 0. 0. 3.38983047e-03 0.
      6.77966094e-03 0. 0. 0. 0. 0. 0. 6.77966094e-03 0. 0. 0. 0. 0.
      3.38983047e-03 0. 0. 0. 0. 0. 0. 3.38983047e-03 0. 0. 0. 0. 0. 0.
      0. 0. 0. 0. 0. 0. 0. 0. 0. 1.01694912e-02 0. 0. 0. 0. 0. 0. 0. 0.
      0. 0. 0. 0. 0. 0. 0. 0. 0. 0. 0. 0. 0. 0. 0. 0. 0. 0. 0. 0. 0. 0.
      0. 0. 0. 0. 0. 0. 6.77966094e-03 0. 0. 0. 0. 0. 0. 0.
      3.38983047e-03 0. 0. 0. 0. 0. 0. 0. 0. 0. 0. 0. 3.38983047e-03 0.
      0. 0. 6.77966094e-03 0. 0. 0. 0. 1.69491526e-02 0. 0.
      3.38983047e-03 6.77966094e-03 0. 0. 0. 0. 0. 0. 0. 0. 0. 0. 0.
      3.38983047e-03 0. 0. 0. 3.38983047e-03 3.38983047e-03 0. 0. 0.
      3.38983047e-03 0. 0. 0. 0. 0. 0. 0. 0. 0. 6.77966094e-03 0. 0. 0.
      3.38983047e-03 0. 0. 0. 0. 0. 0. 0. 0. 0. 0. 3.38983047e-03 0.
      3.38983047e-03 0. 3.38983047e-03 0. 0. 0. 0. 0. 0. 3.38983047e-03
      0. 0. 0. 0. 3.38983047e-03 0. 0. 0. 3.38983047e-03 3.38983047e-03
      0. 0. 0. 0. 0. 0. 3.38983047e-03 0. 0. 3.38983047e-03 0.
      3.38983047e-03 0. 0. 0. 3.38983047e-03 0. 0. 0. 0. 3.38983047e-03
      0. 0. 0. 0. 0. 1.01694912e-02 0. 6.77966094e-03 0. 3.38983047e-03
      0. 0. 0. 0. 0. 0. 0. 6.77966094e-03 0. 0. 1.01694912e-02 0. 0. 0.
      6.77966094e-03 3.38983047e-03 0. 0. 0. 0.</_>
    <_>
      0. 0. 3.52112669e-03 0. 0. 3.52112669e-03 0. 0. 0. 0. 0. 0. 0. 0.
      0. 3.52112669e-03 0. 0. 0. 0. 0. 0. 3.52112669e-03 0. 0. 0. 0.
      7.04225339e-03 0. 0. 1.05633801e-02 3.52112669e-03 0. 0.
      3.52112669e-03 0. 0. 1.05633801e-02 0. 0. 0. 0. 0. 2.11267602e-02
      0. 0. 0. 0. 0. 0. 0. 0. 0. 0. 0. 3.52112669e-03 3.52112669e-03 0.
      0. 0. 0. 0. 0. 0. 3.52112669e-03 3.52112669e-03 0. 0.
      3.52112669e-03 0. 0. 1.40845068e-02 0. 0. 0. 0. 7.04225339e-03
      1.05633801e-02 0. 0. 1.05633801e-02 0. 0. 0. 0. 4.92957756e-02 0.
      0. 0. 0. 0. 0. 0. 0. 0. 0. 0. 0. 3.52112669e-03 0. 0. 0. 0. 0. 0.
      1.40845068e-02 0. 0. 3.52112669e-03 0. 0. 0. 3.52112669e-03 0. 0.
      0. 0. 0. 0. 3.52112669e-03 0. 0. 0. 0. 0. 3.52112669e-03 0.
      3.52112669e-03 0. 0. 0. 3.52112669e-03 3.52112669e-03 0. 0. 0. 0.
      0. 0. 0. 0. 7.04225339e-03 0. 0. 0. 0. 0. 0. 0. 0. 0. 0. 0. 0. 0.
      0. 0. 0. 0. 1.05633801e-02 0. 0. 0. 0. 0. 0. 0. 0. 0. 0. 0.
      1.05633801e-02 0. 0. 0. 0. 1.40845068e-02 0. 0. 0. 3.52112669e-03
      0. 0. 0. 3.52112669e-03 0. 0. 0. 0. 3.52112669e-03 0. 0. 0. 0. 0.
      0. 0. 0. 0. 0. 0. 7.04225339e-03 0. 0. 0. 0. 0. 1.05633801e-02 0.
      0. 0. 0. 0. 0. 3.52112669e-03 0. 0. 0. 0. 0. 0. 0. 0. 0. 0. 0. 0.
      7.04225339e-03 3.52112669e-03 0. 0. 0. 0. 0. 7.04225339e-03 0. 0.
      0. 0. 0. 0. 0. 0. 3.52112669e-03 0. 3.52112669e-03 0. 0. 0. 0.
      3.52112669e-03 0. 3.52112669e-03 0. 0. 0. 0. 0. 0. 0. 0.
      3.52112669e-03 0. 0. 0. 1.05633801e-02 0. 0. 0. 0. 0. 0.
      3.52112669e-03 0. 0. 3.52112669e-03 0. 2.11267602e-02 0. 0. 0. 0.
      3.52112669e-03 0. 0. 0. 0. 0. 0. 0. 0. 0. 0. 0. 0. 0. 0. 0. 0. 0.
      0. 0. 0. 0. 0. 0. 0. 0. 0. 0. 0. 0. 3.52112669e-03 0.
      1.40845068e-02 0. 0. 0. 0. 0. 3.52112669e-03 0. 0. 0. 0.
      3.52112669e-03 0. 0. 0. 0. 0. 0. 7.04225339e-03 0. 0. 0. 0. 0. 0.
      0. 0. 0. 0. 0. 0. 0. 0. 0. 0. 0. 0. 0. 3.52112669e-03 0. 0. 0. 0.
      0. 0. 0. 0. 0. 0. 0. 0. 0. 0. 0. 0. 0. 0. 0. 0. 0. 0. 0. 0. 0. 0.
      3.52112669e-03 0. 0. 3.52112669e-03 0. 0. 0. 0. 0. 0. 0. 0. 0. 0.
      0. 0. 3.52112669e-03 7.04225339e-03 7.04225339e-03 0. 0. 0.
      7.04225339e-03 7.04225339e-03 0. 0. 3.52112669e-03 0. 0. 0.
      3.52112669e-03 0. 3.52112669e-03 0. 0. 0. 0. 1.05633801e-02 0. 0.
      0. 0. 0. 0. 0. 0. 0. 0. 0. 0. 0. 7.04225339e-03 3.52112669e-03 0.
      0. 0. 0. 0. 0. 0. 0. 7.04225339e-03 0. 0. 0. 0. 0. 0. 0.
      7.04225339e-03 0. 0. 0. 0. 0. 0. 0. 0. 0. 3.52112669e-03 0. 0.
      3.52112669e-03 0. 0. 0. 0. 0. 3.52112669e-03 3.52112669e-03 0.
      3.52112669e-03 0. 0. 0. 7.04225339e-03 0. 0. 0. 0. 0. 0. 0. 0. 0.
      0. 0. 0. 0. 0. 0. 0. 0. 0. 0. 0. 0. 0. 0. 0. 0. 1.40845068e-02 0.
      0. 0. 1.40845068e-02 0. 0. 0. 0. 0. 0. 3.52112669e-03 0. 0. 0. 0.
      0. 0. 0. 1.05633801e-02 0. 0. 0. 0. 0. 0. 0. 0. 0. 0. 0. 0. 0. 0.
      0. 3.52112669e-03 0. 0. 0. 0. 3.52112669e-03 0. 0. 0. 0. 0. 0. 0.
      0. 0. 0. 0. 0. 0. 0. 0. 0. 7.04225339e-03 0. 0. 0. 0. 0. 0. 0. 0.
      0. 0. 0. 0. 0. 3.52112669e-03 0. 0. 0. 0. 1.05633801e-02 0. 0. 0.
      0. 0. 0. 0. 0. 0. 0. 1.40845068e-02 0. 1.05633801e-02 0. 0.
      1.05633801e-02 0. 0. 0. 0. 3.52112669e-03 0. 0. 0. 0. 0. 0.
      3.52112669e-03 0. 2.11267602e-02 0. 0. 0. 0. 1.05633801e-02
      7.04225339e-03 0. 7.04225339e-03 0. 0. 0. 0. 1.05633801e-02
      7.04225339e-03 3.52112669e-03 0. 0. 0. 0. 0. 0. 0. 0. 0. 0.
      3.52112669e-03 0. 0. 0. 0. 7.04225339e-03 0. 0. 0. 0.
      3.52112669e-03 0. 0. 0. 0. 0. 0. 0. 0. 0. 0. 1.05633801e-02
      7.04225339e-03 3.52112669e-03 0. 3.16901393e-02 0. 0. 0. 0. 0. 0.
      0. 0. 0. 0. 7.04225339e-03 0. 3.52112669e-03 0. 0. 0. 0. 0. 0. 0.
      7.04225339e-03 0. 0. 0. 0. 3.52112669e-03 0. 0. 0. 0. 0. 0. 0. 0.
      0. 0. 0. 0. 0. 0. 1.05633801e-02 0. 0. 0. 0. 7.04225339e-03 0. 0.
      0. 7.04225339e-03 0. 0. 0. 0. 0. 0. 0. 0. 0. 0. 0. 0. 0. 0. 0. 0.
      0. 0. 0. 0. 0. 0. 0. 0. 0. 0. 0. 0. 0. 0. 0. 0. 0. 0. 0. 0. 0. 0.
      3.52112669e-03 0. 0. 0. 0. 0. 0. 0. 0. 7.04225339e-03 0. 0. 0. 0.
      0. 0. 0. 0. 0. 0. 0. 0. 0. 0. 0. 0. 0. 0. 0. 0. 0. 0.
      3.52112669e-03 0. 0. 0. 0. 0. 0. 0. 3.52112669e-03 0. 0. 0.
      2.46478878e-02 0. 0. 0. 0. 0. 0. 0. 0. 0. 0. 0. 0. 0. 0. 0. 0. 0.
      0. 0. 0. 0. 0. 3.52112669e-03 0. 0. 3.52112669e-03 0. 0.
      1.05633801e-02 0. 0. 0. 0. 0. 0. 3.52112669e-03 0. 0. 0.
      7.04225339e-03 0. 0. 0. 0. 3.52112669e-03 0. 0. 3.52112669e-03 0.
      3.52112669e-03 0. 0. 0. 0. 1.05633801e-02 3.52112669e-03 0. 0.
      3.52112669e-03 0. 0. 0. 0. 0. 0. 0. 0. 0. 0. 0. 0. 0. 0. 0. 0. 0.
      0. 3.52112669e-03 0. 0. 7.04225339e-03 0. 0. 0. 7.04225339e-03 0.
      0. 0. 0. 0. 0. 0. 0. 0. 0. 0. 0. 0. 0. 0. 1.40845068e-02 0.
      3.52112669e-03 0. 0. 3.52112669e-03 0. 0. 0. 0. 0. 3.52112669e-03
      3.52112669e-03 0. 0. 0. 0. 0. 0. 7.04225339e-03 0. 0.
      7.04225339e-03 0. 0. 0. 0. 0. 0. 3.52112669e-03 0. 0. 0. 0. 0. 0.
      3.52112669e-03 0. 0. 0. 0. 3.52112669e-03 0. 0. 0. 0. 0. 0. 0. 0.
      0. 0. 0. 0. 0. 0. 0. 0. 0. 3.52112669e-03 0. 0. 0. 0. 0. 0.
      3.52112669e-03 0. 0. 0. 0. 0. 0. 0. 0. 0. 0. 0. 0. 3.52112669e-03
      0. 0. 0. 0. 0. 0. 0. 0. 0. 0. 0. 0. 0. 0. 0. 0. 0. 0. 0.
      3.52112669e-03 0. 0. 0. 0. 0. 0. 0. 7.04225339e-03 0.</_>
    <_>
      0. 0. 2.14592274e-02 0. 0. 4.29184549e-03 0. 0. 0. 0. 0. 0. 0. 0.
      0. 0. 0. 0. 0. 0. 0. 0. 0. 0. 0. 0. 0. 0. 0. 0. 0. 4.29184549e-03
      0. 0. 8.58369097e-03 8.58369097e-03 0. 2.57510729e-02 0. 0. 0. 0.
      0. 8.58369097e-03 0. 4.29184549e-03 4.29184549e-03 0. 0. 0. 0. 0.
      0. 0. 8.58369097e-03 1.71673819e-02 0. 0. 0. 0. 0. 0. 0.
      4.29184549e-03 0. 0. 0. 0. 0. 8.58369097e-03 0. 3.00429184e-02 0.
      0. 0. 0. 8.58369097e-03 0. 0. 0. 1.28755365e-02 0. 0. 0. 0.
      1.71673819e-02 4.29184549e-03 0. 0. 0. 0. 4.29184549e-03 0. 0. 0.
      0. 0. 0. 0. 0. 0. 0. 8.58369097e-03 0. 0. 0. 0. 0. 0. 0. 0. 0. 0.
      0. 0. 0. 0. 0. 0. 0. 0. 0. 0. 4.29184549e-03 0. 0. 0.
      1.28755365e-02 0. 0. 0. 0. 0. 4.29184549e-03 2.57510729e-02 0. 0.
      0. 0. 0. 0. 2.14592274e-02 0. 0. 0. 0. 0. 0. 0. 0. 0. 0. 0. 0. 0.
      0. 0. 0. 0. 4.29184549e-03 0. 0. 0. 0. 4.29184549e-03 0. 0. 0. 0.
      0. 0. 2.57510729e-02 0. 0. 0. 0. 2.14592274e-02 0. 0. 0. 0. 0.
      4.29184549e-03 0. 0. 0. 0. 0. 0. 0. 0. 0. 0. 0. 0. 0. 0. 0. 0. 0.
      0. 0. 0. 0. 0. 0. 0. 3.00429184e-02 0. 0. 0. 0. 0. 0. 0. 0. 0. 0.
      0. 0. 0. 0. 0. 0. 0. 0. 0. 0. 0. 0. 0. 0. 0. 0. 0. 0. 0. 0.
      1.71673819e-02 0. 0. 0. 0. 0. 0. 0. 0. 0. 0. 0. 0. 0. 0.
      4.29184549e-03 0. 0. 0. 0. 0. 4.29184549e-03 0. 1.28755365e-02 0.
      0. 0. 0. 0. 0. 0. 0. 0. 0. 0. 1.71673819e-02 0. 0. 0.
      4.29184549e-03 0. 0. 8.58369097e-03 0. 0. 0. 0. 0. 0. 0. 0.
      8.58369097e-03 0. 0. 0. 0. 0. 0. 0. 0. 0. 0. 0. 0. 0. 0.
      4.29184549e-03 0. 1.71673819e-02 0. 0. 0. 0. 0. 0. 0.
      4.29184549e-03 0. 8.58369097e-03 8.58369097e-03 0. 0.
      4.29184549e-03 0. 0. 4.29184549e-03 0. 1.28755365e-02 0. 0. 0. 0.
      0. 0. 0. 0. 0. 0. 4.29184549e-03 0. 0. 0. 0. 0. 0. 0. 0. 0. 0. 0.
      0. 0. 0. 4.29184549e-03 0. 0. 0. 0. 0. 0. 0. 0. 0. 0.
      4.29184549e-03 0. 0. 0. 0. 1.28755365e-02 0. 0. 0. 0. 0. 0. 0. 0.
      0. 0. 0. 0. 0. 0. 0. 0. 0. 0. 0. 4.29184549e-03 0. 0. 0. 0. 0. 0.
      0. 0. 0. 0. 0. 0. 0. 1.28755365e-02 0. 0. 0. 0. 0. 0.
      4.29184549e-03 4.29184549e-03 0. 4.29184549e-03 0. 0. 0. 0. 0. 0.
      0. 0. 0. 0. 0. 0. 0. 0. 0. 0. 0. 0. 0. 0. 0. 0. 0. 0. 0. 0. 0. 0.
      4.29184549e-03 0. 0. 0. 0. 0. 0. 0. 4.29184549e-03 0. 0. 0. 0.
      8.58369097e-03 0. 0. 0. 0. 0. 0. 0. 0. 0. 0. 0. 0. 0. 0. 0. 0. 0.
      0. 0. 0. 0. 0. 0. 0. 0. 0. 0. 0. 0. 0. 0. 0. 0. 0. 0. 0. 0. 0. 0.
      0. 0. 0. 0. 0. 0. 0. 4.29184549e-03 0. 0. 0. 1.71673819e-02 0. 0.
      0. 0. 0. 2.14592274e-02 0. 0. 0. 0. 0. 0. 0. 0. 4.29184549e-03 0.
      1.71673819e-02 0. 0. 0. 0. 0. 0. 0. 0. 0. 0. 0. 0. 0. 0. 0. 0.
      4.29184549e-03 0. 0. 0. 0. 0. 0. 8.58369097e-03 0. 0. 0. 0. 0. 0.
      0. 0. 0. 0. 0. 0. 0. 0. 0. 0. 0. 0. 0. 0. 0. 0. 0. 0. 0. 0. 0. 0.
      0. 0. 4.29184549e-03 0. 0. 8.58369097e-03 1.28755365e-02
      4.29184549e-03 0. 0. 0. 0. 0. 1.71673819e-02 0. 1.28755365e-02 0.
      0. 0. 0. 0. 0. 0. 1.71673819e-02 4.29184549e-03 1.28755365e-02 0.
      0. 0. 0. 0. 0. 0. 0. 0. 4.29184549e-03 0. 4.29184549e-03 0.
      1.28755365e-02 0. 0. 0. 0. 0. 0. 0. 0. 0. 0. 0. 0. 0. 0.
      4.29184549e-03 0. 0. 0. 0. 0. 0. 0. 0. 0. 0. 0. 0. 0.
      8.58369097e-03 0. 0. 4.29184549e-03 0. 0. 0. 0. 0. 0. 0. 0. 0. 0.
      0. 0. 0. 0. 0. 0. 0. 0. 0. 0. 0. 4.29184549e-03 0. 0. 0. 0. 0. 0.
      0. 0. 0. 0. 0. 0. 0. 0. 0. 0. 0. 0. 0. 0. 0. 0. 0. 0. 0. 0. 0. 0.
      0. 0. 0. 0. 0. 0. 0. 0. 0. 0. 0. 0. 0. 0. 0. 0. 0. 0.
      4.29184549e-03 0. 0. 0. 0. 0. 0. 0. 0. 0. 0. 0. 0. 0. 0. 0. 0. 0.
      0. 0. 0. 0. 0. 0. 0. 0. 0. 4.29184549e-03 0. 0. 8.58369097e-03 0.
      0. 0. 0. 0. 0. 0. 0. 0. 0. 0. 0. 0. 0. 0. 0. 0. 0. 0. 0.
      8.58369097e-03 0. 0. 4.29184549e-03 0. 0. 0. 0. 0. 0. 0. 0. 0.
      4.29184549e-03 0. 0. 0. 0. 0. 0. 0. 0. 0. 0. 0. 4.29184549e-03
      4.29184549e-03 0. 0. 0. 0. 0. 0. 0. 0. 0. 0. 0. 0. 0. 0. 0. 0. 0.
      0. 0. 0. 0. 0. 0. 0. 0. 0. 0. 1.71673819e-02 0. 0. 0.
      1.28755365e-02 0. 0. 0. 0. 0. 0. 0. 0. 0. 0. 0. 0. 0. 0. 0. 0. 0.
      0. 0. 0. 0. 0. 4.29184549e-03 0. 0. 0. 0. 0. 0. 0. 0. 0. 0. 0. 0.
      0. 0. 0. 0. 0. 8.58369097e-03 0. 0. 0. 0. 0. 0. 0. 0. 0. 0.
      4.29184549e-03 0. 0. 0. 0. 0. 0. 0. 0. 0. 0. 0. 0. 0. 0. 0. 0. 0.
      8.58369097e-03 0. 0. 0. 0. 0. 0. 0. 0. 4.29184549e-03 0. 0. 0. 0.
      0. 4.29184549e-03 0. 0. 0. 0. 1.71673819e-02 4.29184549e-03 0. 0.
      0. 0. 0. 2.57510729e-02 0. 0. 0. 0. 0. 0. 0. 0. 0. 0. 0.
      1.71673819e-02 0. 0. 0. 0. 0. 0. 0. 0. 0. 0. 0. 0. 0. 0. 0. 0. 0.
      0. 0. 0. 0. 0. 0. 0. 0. 0. 1.28755365e-02 0. 0. 0. 0. 0. 0. 0.
      4.29184549e-03 0. 0. 0. 0. 0. 0. 0. 0. 0. 0. 0. 0. 0. 0. 0.
      4.29184549e-03 0. 0. 4.29184549e-03 0. 0. 0. 0. 0. 0. 0. 0. 0. 0.
      0. 0. 0.</_>
    <_>
      0. 0. 2.80898879e-03 2.80898879e-03 0. 0. 0. 0. 0. 0. 0. 0. 0.
      2.80898879e-03 0. 2.80898879e-03 0. 0. 0. 0. 0. 0. 0. 0. 0. 0. 0.
      0. 0. 0. 0. 2.80898879e-03 0. 0. 0. 0. 0. 0. 1.12359552e-02 0. 0.
      2.80898879e-03 0. 0. 0. 0. 2.80898879e-03 0. 2.80898879e-03 0.
      2.80898879e-03 0. 0. 0. 0. 0. 0. 0. 2.80898879e-03 0. 0. 0. 0. 0.
      5.61797759e-03 2.80898879e-03 2.80898879e-03 0. 0. 0. 0.
      2.80898879e-03 0. 0. 0. 2.80898879e-03 0. 2.80898879e-03 0.
      1.12359552e-02 0. 0. 0. 0. 0. 0. 0. 2.80898879e-03 0. 0. 0.
      5.61797759e-03 0. 0. 0. 2.80898879e-03 0. 0. 0. 0. 0. 0. 0. 0.
      2.80898884e-02 0. 0. 0. 0. 0. 0. 0. 0. 2.80898879e-03 0.
      2.80898879e-03 0. 2.80898879e-03 1.12359552e-02 0. 0. 0. 0. 0. 0.
      0. 0. 2.80898879e-03 0. 8.42696615e-03 0. 0. 0. 0. 0. 0. 0. 0. 0.
      0. 0. 2.80898879e-03 0. 0. 2.80898879e-03 0. 0. 2.80898879e-03 0.
      0. 0. 5.61797759e-03 0. 0. 8.42696615e-03 0. 0. 0. 0. 0. 0. 0. 0.
      0. 0. 0. 0. 0. 0. 0. 0. 0. 5.61797759e-03 0. 5.61797759e-03 0. 0.
      0. 0. 0. 0. 2.80898879e-03 8.42696615e-03 0. 0. 0. 1.68539323e-02
      2.80898879e-03 0. 0. 0. 0. 0. 0. 0. 2.80898879e-03 0. 0. 0. 0. 0.
      0. 0. 0. 5.61797759e-03 0. 0. 0. 0. 0. 0. 0. 0. 0. 0. 0. 0. 0. 0.
      0. 0. 2.80898879e-03 0. 0. 0. 8.42696615e-03 2.80898879e-03 0.
      2.80898879e-03 0. 0. 0. 2.80898879e-03 0. 0. 0. 0. 0. 0. 0. 0.
      1.40449442e-02 2.80898879e-03 2.80898879e-03 0. 0. 0. 0. 0.
      5.61797759e-03 2.80898879e-03 5.61797759e-03 0. 0. 0. 0. 0. 0.
      2.80898879e-03 0. 0. 0. 0. 5.61797759e-03 2.80898879e-03 0. 0. 0.
      0. 2.80898879e-03 0. 0. 0. 0. 2.80898879e-03 0. 0. 0. 0. 0. 0. 0.
      0. 0. 0. 0. 2.80898879e-03 2.80898879e-03 1.12359552e-02 0.
      8.42696615e-03 0. 0. 2.80898879e-03 0. 0. 0. 0. 0. 0.
      2.80898879e-03 0. 0. 0. 0. 1.12359552e-02 0. 0. 0. 2.80898879e-03
      2.80898879e-03 0. 0. 0. 2.80898879e-03 0. 0. 0. 0. 0. 0. 0. 0.
      8.42696615e-03 0. 0. 0. 5.61797759e-03 0. 0. 0. 0. 5.61797759e-03
      0. 2.80898879e-03 0. 0. 5.61797759e-03 0. 0. 0. 0. 0. 0. 0.
      2.80898879e-03 0. 2.80898879e-03 0. 0. 0. 0. 0. 0. 2.80898879e-03
      1.40449442e-02 0. 0. 0. 2.80898879e-03 0. 0. 0. 0. 0.
      5.61797759e-03 0. 0. 5.61797759e-03 0. 0. 0. 0. 0. 5.61797759e-03
      0. 1.12359552e-02 0. 0. 5.61797759e-03 0. 0. 0. 0. 0.
      5.61797759e-03 5.61797759e-03 5.61797759e-03 0. 0. 0.
      5.61797759e-03 0. 0. 0. 0. 0. 8.42696615e-03 0. 0. 0. 0.
      5.61797759e-03 0. 0. 0. 0. 0. 0. 5.61797759e-03 0. 0. 0. 0. 0. 0.
      0. 0. 0. 8.42696615e-03 5.61797759e-03 0. 8.42696615e-03 0. 0. 0.
      0. 8.42696615e-03 0. 0. 0. 0. 0. 0. 0. 2.80898879e-03 0.
      2.80898879e-03 5.61797759e-03 0. 1.12359552e-02 5.61797759e-03 0.
      0. 0. 0. 0. 0. 0. 0. 5.61797759e-03 0. 0. 0. 0. 0. 0. 0. 0. 0.
      2.80898879e-03 2.80898879e-03 0. 2.80898879e-03 0. 0. 0.
      2.80898879e-03 0. 0. 2.80898879e-03 0. 0. 0. 0. 8.42696615e-03 0.
      2.80898879e-03 0. 0. 2.80898879e-03 0. 0. 0. 0. 0. 2.80898879e-03
      0. 0. 0. 0. 0. 2.80898879e-03 0. 0. 0. 0. 2.80898879e-03 0. 0.
      8.42696615e-03 0. 0. 5.61797759e-03 0. 0. 0. 0. 0. 0. 0. 0.
      2.80898879e-03 0. 2.80898879e-03 0. 0. 0. 5.61797759e-03 0.
      8.42696615e-03 0. 2.80898879e-03 0. 0. 0. 0. 0. 0. 0. 0. 0. 0. 0.
      0. 2.80898879e-03 0. 5.61797759e-03 2.80898879e-03 2.80898879e-03
      0. 0. 8.42696615e-03 0. 0. 0. 0. 2.80898879e-03 0. 0. 0.
      1.12359552e-02 0. 5.61797759e-03 0. 0. 0. 0. 0. 0. 0. 0. 0. 0. 0.
      0. 0. 0. 0. 0. 0. 0. 0. 0. 0. 0. 0. 2.80898879e-03 1.40449442e-02
      0. 0. 0. 2.80898879e-03 0. 2.80898879e-03 0. 0. 0. 0. 0.
      2.80898879e-03 0. 0. 0. 2.80898879e-03 0. 0. 0. 0. 0. 0.
      2.80898879e-03 0. 0. 5.61797759e-03 0. 0. 0. 0. 2.80898879e-03 0.
      0. 0. 0. 0. 0. 5.61797759e-03 0. 0. 0. 2.80898879e-03 0. 0.
      2.80898879e-03 5.61797759e-03 0. 0. 0. 0. 0. 0. 0. 0. 0. 0. 0. 0.
      0. 0. 0. 0. 0. 0. 2.80898879e-03 0. 0. 0. 0. 0. 0. 0. 0. 0.
      5.61797759e-03 0. 0. 0. 5.61797759e-03 2.80898879e-03 0. 0. 0. 0.
      0. 5.61797759e-03 5.61797759e-03 0. 0. 2.80898879e-03 0.
      8.42696615e-03 2.80898879e-03 0. 0. 0. 0. 0. 2.80898879e-03
      2.80898879e-03 0. 0. 0. 5.61797759e-03 0. 0. 0. 1.40449442e-02 0.
      0. 0. 0. 0. 0. 0. 2.80898879e-03 0. 0. 0. 0. 0. 0. 0. 0. 0. 0. 0.
      0. 2.80898879e-03 0. 0. 0. 0. 2.80898879e-03 0. 2.80898879e-03 0.
      0. 0. 0. 0. 0. 2.80898879e-03 0. 2.80898879e-03 0. 0. 0. 0. 0. 0.
      0. 0. 2.80898879e-03 0. 2.80898879e-03 0. 0. 0. 2.80898879e-03
      2.80898879e-03 0. 0. 0. 2.80898879e-03 0. 0. 0. 0. 0.
      2.80898879e-03 0. 0. 0. 0. 0. 0. 0. 2.80898879e-03 0. 0. 0. 0. 0.
      0. 0. 0. 0. 0. 0. 0. 0. 0. 0. 2.80898879e-03 0. 0. 0. 0. 0. 0. 0.
      0. 0. 0. 2.80898879e-03 0. 0. 5.61797759e-03 0. 0. 0. 0. 0.
      8.42696615e-03 0. 0. 0. 0. 0. 0. 0. 5.61797759e-03 0.
      8.42696615e-03 0. 0. 0. 5.61797759e-03 0. 0. 0. 0. 0. 0.
      2.80898879e-03 0. 0. 0. 0. 2.80898879e-03 0. 0. 0. 0. 0.
      8.42696615e-03 0. 0. 0. 0. 0. 0. 0. 0. 0. 0. 0. 0. 2.80898879e-03
      0. 0. 0. 2.80898879e-03 0. 0. 0. 0. 0. 0. 0. 1.68539323e-02 0. 0.
      0. 2.80898879e-03 0. 0. 0. 0. 0. 0. 0. 0. 0. 0. 2.80898879e-03 0.
      0. 0. 0. 0. 2.80898879e-03 0. 0. 0. 0. 2.80898879e-03
      1.12359552e-02 0. 0. 0. 1.40449442e-02 8.42696615e-03
      2.80898879e-03 0. 2.80898879e-03 0. 0. 0. 0. 0. 0. 0. 0. 0. 0. 0.
      0. 0. 0. 0. 0. 0. 2.80898879e-03 0. 0. 0. 0. 0. 2.80898879e-03
      5.61797759e-03 0. 0. 0. 0. 0. 8.42696615e-03 0. 0. 0. 0. 0. 0.
      2.80898879e-03 0. 0. 0. 0. 0. 0. 2.80898879e-03 0. 0. 0. 0. 0. 0.
      0. 0. 0. 0. 2.80898879e-03 0. 0. 0. 8.42696615e-03 0. 0.
      2.80898879e-03 0. 0. 0. 0. 0. 0. 0. 0. 0. 0. 0. 0. 0. 0. 0. 0.
      2.80898879e-03 0. 0. 5.61797759e-03 0. 0. 0. 0. 0. 0. 0.
      8.42696615e-03 0. 0. 8.42696615e-03 0. 0. 0. 0. 0. 0.
      5.61797759e-03 0. 0. 0. 0. 0. 0. 0. 0. 0. 0. 0. 0. 0.</_>
    <_>
      0. 0. 1.60513644e-03 3.21027287e-03 9.63081885e-03 0. 0.
      1.60513644e-03 0. 0. 1.60513644e-03 0. 0. 0. 0. 0. 1.60513644e-03
      0. 0. 0. 0. 0. 0. 0. 1.60513644e-03 1.60513644e-03 0. 0. 0. 0. 0.
      0. 1.60513644e-03 1.60513644e-03 0. 0. 0. 0. 0. 3.21027287e-03
      4.81540943e-03 0. 0. 0. 0. 3.21027287e-03 0. 6.42054575e-03
      1.60513644e-03 1.60513644e-03 1.60513644e-03 0. 0. 3.21027287e-03
      0. 0. 0. 1.60513644e-03 0. 0. 4.81540943e-03 0. 0. 0. 0. 0. 0.
      4.81540943e-03 0. 0. 3.21027287e-03 8.02568253e-03 0. 0. 0. 0.
      1.12359552e-02 1.60513644e-03 0. 0. 0. 0. 0. 0. 1.60513644e-03 0.
      0. 0. 0. 0. 1.60513644e-03 0. 0. 0. 1.60513644e-03 2.24719103e-02
      0. 3.21027287e-03 6.42054575e-03 6.42054575e-03 1.60513644e-03 0.
      0. 4.81540943e-03 0. 0. 0. 0. 0. 0. 1.60513644e-03 1.60513644e-03
      0. 0. 0. 0. 0. 4.81540943e-03 0. 0. 1.60513644e-03 0. 0. 0. 0.
      1.60513644e-03 0. 0. 4.81540943e-03 3.21027287e-03 0.
      1.60513644e-03 0. 0. 1.60513644e-03 0. 1.60513644e-03
      4.81540943e-03 0. 0. 0. 0. 0. 0. 0. 0. 1.60513644e-03
      3.21027287e-03 0. 0. 1.60513644e-03 0. 3.21027287e-03 0. 0. 0. 0.
      3.21027287e-03 0. 1.60513644e-03 0. 1.60513644e-03 0.
      3.21027287e-03 8.02568253e-03 0. 0. 0. 0. 4.81540943e-03 0. 0.
      1.60513644e-03 0. 3.21027287e-03 0. 1.60513644e-03 0. 0. 0.
      3.21027287e-03 0. 0. 0. 0. 0. 4.81540943e-03 3.21027287e-03 0.
      9.63081885e-03 1.60513644e-03 0. 0. 8.02568253e-03 1.60513644e-03
      0. 0. 0. 1.60513644e-03 1.60513644e-03 3.21027287e-03 0. 0.
      4.81540943e-03 6.42054575e-03 0. 0. 0. 3.21027287e-03 0.
      4.81540943e-03 0. 0. 1.60513644e-03 0. 0. 1.60513644e-03
      6.42054575e-03 1.60513644e-03 0. 0. 0. 0. 0. 3.21027287e-03 0.
      3.21027287e-03 0. 4.81540943e-03 0. 0. 0. 0. 0. 0. 0. 0. 0. 0.
      1.60513644e-03 0. 0. 1.60513644e-03 0. 0. 0. 0. 0. 1.60513644e-03
      0. 0. 0. 0. 0. 3.21027287e-03 0. 0. 0. 0. 0. 0. 0. 0. 0. 0.
      4.81540943e-03 1.60513644e-03 0. 1.60513644e-03 0. 0.
      1.60513644e-03 0. 0. 0. 3.21027287e-03 0. 0. 0. 0. 0.
      1.60513644e-03 0. 1.12359552e-02 0. 1.60513644e-03 1.60513644e-03
      0. 0. 0. 0. 0. 0. 6.42054575e-03 4.81540943e-03 0. 4.81540943e-03
      3.21027287e-03 0. 3.21027287e-03 1.60513644e-03 0. 0.
      4.81540943e-03 0. 0. 0. 0. 0. 3.21027287e-03 0. 0. 8.02568253e-03
      0. 6.42054575e-03 0. 0. 0. 0. 1.60513644e-03 0. 0. 0. 0. 0. 0. 0.
      0. 0. 0. 0. 0. 0. 0. 0. 1.60513644e-03 0. 3.69181372e-02 0. 0.
      3.21027287e-03 0. 0. 0. 0. 1.60513644e-03 3.21027287e-03 0. 0.
      1.60513644e-03 6.42054575e-03 3.21027287e-03 1.60513644e-03
      1.60513644e-03 0. 3.21027287e-03 0. 3.21027287e-03 0.
      3.21027287e-03 0. 1.60513644e-03 0. 1.60513644e-03 0.
      1.60513644e-03 0. 2.24719103e-02 0. 3.21027287e-03 1.60513644e-03
      0. 0. 1.60513644e-03 1.60513644e-03 0. 0. 1.60513644e-03 0.
      9.63081885e-03 1.60513644e-03 0. 0. 0. 0. 1.60513644e-03 0. 0. 0.
      0. 1.12359552e-02 1.60513644e-03 0. 1.60513644e-03 1.60513644e-03
      0. 0. 0. 0. 0. 3.21027287e-03 1.60513644e-03 0. 0. 0. 0. 0.
      3.21027287e-03 0. 0. 0. 1.60513644e-03 0. 0. 0. 0. 0. 0. 0.
      3.21027287e-03 6.42054575e-03 0. 1.60513644e-03 4.81540943e-03
      1.60513644e-03 0. 1.60513644e-03 0. 1.60513644e-03 0. 0. 0.
      1.60513644e-03 1.60513644e-03 0. 0. 0. 1.60513644e-03 0. 0. 0. 0.
      0. 0. 1.60513644e-03 3.21027287e-03 0. 0. 0. 0. 0. 0. 0. 0.
      3.21027287e-03 0. 1.60513644e-03 1.60513644e-03 0. 1.60513644e-03
      0. 0. 0. 0. 0. 0. 0. 0. 0. 0. 0. 0. 0. 0. 0. 1.60513644e-03
      1.60513644e-03 0. 0. 8.02568253e-03 1.60513644e-03 0.
      1.60513644e-03 0. 0. 0. 0. 0. 0. 0. 1.60513644e-03 0. 0. 0. 0. 0.
      1.60513644e-03 0. 0. 0. 3.21027287e-03 3.21027287e-03 0.
      1.60513644e-03 0. 0. 1.60513644e-03 4.81540943e-03 0.
      3.21027287e-03 0. 3.21027287e-03 0. 1.60513644e-03 1.12359552e-02
      4.81540943e-03 1.60513644e-03 3.21027287e-03 9.63081885e-03
      1.60513644e-03 0. 0. 0. 0. 0. 0. 0. 1.60513644e-03 6.42054575e-03
      0. 0. 0. 0. 0. 0. 1.60513644e-03 0. 0. 0. 1.60513644e-03
      1.60513644e-03 0. 1.60513644e-03 3.21027287e-03 0. 3.21027287e-03
      0. 3.21027287e-03 0. 4.81540943e-03 0. 1.60513644e-03 0. 0.
      4.81540943e-03 3.21027287e-03 0. 0. 4.81540943e-03 0. 0.
      3.21027287e-03 0. 1.60513644e-03 4.81540943e-03 0. 0. 0. 0.
      1.60513644e-03 0. 0. 0. 0. 0. 0. 0. 9.63081885e-03 0. 0.
      3.21027287e-03 0. 1.60513644e-03 0. 0. 0. 0. 1.60513644e-03
      1.60513644e-03 3.21027287e-03 9.63081885e-03 4.81540943e-03 0.
      1.60513644e-03 0. 0. 3.21027287e-03 0. 0. 0. 1.60513644e-03 0. 0.
      0. 0. 0. 4.81540943e-03 0. 0. 0. 1.60513644e-03 0. 0. 0. 0. 0. 0.
      0. 3.21027287e-03 1.60513644e-03 0. 0. 0. 0. 0. 0. 0. 0. 0. 0. 0.
      0. 1.60513644e-03 0. 0. 1.60513644e-03 4.81540943e-03 0. 0. 0. 0.
      1.60513644e-03 0. 1.60513644e-03 0. 0. 3.21027287e-03 0. 0.
      3.21027287e-03 0. 0. 0. 0. 1.60513644e-03 0. 0. 1.60513644e-03
      1.60513644e-03 0. 4.81540943e-03 1.60513644e-03 0. 3.21027287e-03
      1.60513644e-03 0. 3.21027287e-03 0. 3.21027287e-03 0. 0. 0. 0. 0.
      0. 8.02568253e-03 0. 0. 0. 3.21027287e-03 0. 0. 0. 0. 0. 0.
      1.60513644e-03 0. 0. 0. 1.60513644e-03 0. 3.21027287e-03
      3.21027287e-03 0. 0. 0. 9.63081885e-03 0. 1.60513644e-03 0. 0.
      4.81540943e-03 0. 0. 4.81540943e-03 0. 3.21027287e-03 0.
      6.42054575e-03 0. 0. 3.21027287e-03 0. 0. 0. 0. 0. 0. 0. 0. 0. 0.
      0. 0. 0. 0. 0. 0. 3.21027287e-03 0. 0. 0. 0. 1.60513644e-03 0.
      4.81540943e-03 0. 0. 4.81540943e-03 0. 0. 0. 8.02568253e-03 0.
      1.60513644e-03 0. 0. 0. 0. 0. 0. 0. 0. 0. 1.60513644e-03 0. 0.
      1.60513644e-03 0. 0. 0. 0. 0. 0. 0. 0. 0. 0. 1.60513644e-03 0.
      1.60513644e-03 0. 0. 0. 0. 0. 0. 0. 4.81540943e-03 0. 0. 0.
      3.21027287e-03 0. 0. 0. 0. 0. 0. 0. 0. 0. 0. 0. 0. 4.81540943e-03
      0. 0. 0. 0. 0. 0. 0. 0. 1.60513644e-03 0. 0. 3.21027287e-03 0. 0.
      0. 0. 0. 0. 0. 0. 1.60513644e-03 1.60513644e-03 0. 0. 0. 0. 0. 0.
      3.21027287e-03 0. 3.21027287e-03 0. 1.60513644e-03 3.21027287e-03
      3.21027287e-03 0. 0. 0. 0. 0. 0. 0. 0. 0. 0. 1.60513644e-03 0. 0.
      0. 0. 0. 0. 1.60513644e-03 1.60513644e-03 0. 3.21027287e-03 0. 0.
      0. 0. 0. 0. 0. 0. 0. 0. 3.21027287e-03 9.63081885e-03 0. 0. 0.
      1.60513644e-03 0. 0. 0. 4.81540943e-03 0. 1.60513644e-03 0.
      1.60513644e-03 0. 0. 0. 0. 1.60513644e-03 0. 0. 3.21027287e-03 0.
      0. 0. 0. 1.60513644e-03 0. 0. 0. 0. 0. 0. 0. 0. 0. 0. 0. 0. 0.
      4.81540943e-03 0. 0. 0. 0. 0. 0. 0. 0. 0. 0. 0. 0. 0.
      4.81540943e-03 0. 0. 0. 0. 0. 0. 0. 0. 0. 0. 1.60513644e-03 0.
      4.81540943e-03 0. 0. 0. 4.81540943e-03 4.81540943e-03 0. 0.
      1.60513644e-03 3.21027287e-03 0. 0. 1.60513644e-03 0. 0. 0. 0.
      1.60513644e-03 1.60513644e-03 1.60513644e-03 0. 0. 1.60513644e-03
      3.21027287e-03 0. 0. 3.21027287e-03 0. 1.60513644e-03 0. 0. 0. 0.
      0. 3.21027287e-03 1.60513644e-03 0. 0. 8.02568253e-03 0. 0. 0. 0.
      0. 3.21027287e-03 0. 3.21027287e-03 0. 0. 0. 0. 0. 0. 0. 0. 0. 0.
      0. 0. 0. 0. 0. 0. 0. 1.60513644e-03 0. 1.60513644e-03 0. 0. 0.</_>
    <_>
      0. 0. 0. 0. 0. 4.29184549e-03 2.14592274e-03 2.14592274e-03 0. 0.
      2.14592274e-03 0. 0. 0. 2.14592274e-03 0. 0. 6.43776823e-03 0. 0.
      0. 0. 0. 0. 2.14592274e-03 0. 0. 0. 0. 0. 0. 0. 2.14592274e-03 0.
      0. 0. 0. 0. 4.29184549e-03 0. 2.14592274e-03 0. 0. 0. 0.
      2.14592274e-03 0. 4.29184549e-03 0. 8.58369097e-03 2.14592274e-03
      2.14592274e-03 0. 4.29184549e-03 0. 0. 0. 0. 0. 0. 1.50214592e-02
      0. 0. 0. 0. 0. 0. 1.07296137e-02 0. 0. 2.14592274e-03
      4.29184549e-03 0. 0. 4.29184549e-03 0. 1.07296137e-02 0. 0. 0. 0.
      0. 0. 0. 0. 0. 0. 0. 0. 0. 4.29184549e-03 0. 0. 0. 0.
      3.21888402e-02 4.29184549e-03 0. 3.00429184e-02 6.43776823e-03
      2.14592274e-03 0. 0. 0. 0. 0. 0. 0. 0. 0. 0. 0. 0. 2.14592274e-03
      0. 2.14592274e-03 0. 0. 0. 0. 4.29184549e-03 0. 0. 0. 0. 0. 0. 0.
      0. 0. 0. 2.14592274e-03 0. 0. 0. 0. 4.29184549e-03 6.43776823e-03
      0. 0. 0. 0. 0. 0. 0. 0. 0. 4.29184549e-03 0. 0. 0. 0.
      6.43776823e-03 0. 0. 0. 0. 0. 0. 0. 0. 0. 0. 4.29184549e-03
      1.28755365e-02 0. 0. 0. 0. 4.29184549e-03 0. 0. 0. 0.
      2.14592274e-03 0. 4.29184549e-03 0. 0. 0. 0. 0. 0. 0. 0. 0.
      1.50214592e-02 1.07296137e-02 0. 0. 2.14592274e-03 0. 0. 0.
      8.58369097e-03 0. 0. 0. 2.14592274e-03 2.14592274e-03 0. 0. 0.
      6.43776823e-03 2.14592274e-03 2.14592274e-03 0. 0. 4.29184549e-03
      0. 4.29184549e-03 0. 0. 2.14592274e-03 0. 0. 2.14592274e-03 0.
      2.14592274e-03 0. 0. 0. 0. 0. 2.14592274e-03 0. 0. 0.
      4.29184549e-03 0. 0. 0. 0. 0. 0. 0. 0. 0. 0. 0. 0. 0.
      2.14592274e-03 0. 0. 0. 0. 0. 0. 0. 0. 0. 0. 2.14592274e-03
      8.58369097e-03 0. 0. 0. 0. 0. 0. 0. 0. 0. 0. 0. 0. 0. 0. 0. 0. 0.
      0. 0. 0. 0. 0. 0. 0. 0. 0. 0. 0. 4.29184549e-03 2.14592274e-03
      4.29184549e-03 0. 0. 0. 0. 0. 0. 0. 2.14592274e-03 0. 0.
      6.43776823e-03 6.43776823e-03 0. 2.14592274e-03 0. 0. 0.
      2.14592274e-03 0. 0. 0. 0. 0. 0. 0. 0. 0. 0. 2.14592274e-03 0. 0.
      0. 0. 8.58369097e-03 0. 0. 0. 0. 0. 0. 0. 0. 0. 0. 0. 0. 0.
      6.43776823e-03 0. 0. 0. 1.71673819e-02 0. 0. 6.43776823e-03 0. 0.
      0. 0. 0. 2.14592274e-03 0. 0. 8.58369097e-03 8.58369097e-03
      4.29184549e-03 0. 2.14592274e-03 0. 2.14592274e-03 0.
      2.14592274e-03 2.14592274e-03 0. 0. 0. 0. 2.14592274e-03 0.
      2.14592274e-03 0. 2.57510729e-02 0. 0. 4.29184549e-03 0. 0.
      2.14592274e-03 2.14592274e-03 0. 0. 0. 0. 1.07296137e-02 0. 0. 0.
      0. 0. 4.29184549e-03 0. 0. 0. 0. 0. 0. 0. 0. 0. 0. 0. 0. 0. 0.
      4.29184549e-03 2.14592274e-03 0. 0. 0. 0. 0. 0. 0. 0. 0. 0. 0. 0.
      0. 0. 0. 0. 0. 0. 2.14592274e-03 0. 0. 0. 0. 0. 0. 0.
      2.14592274e-03 0. 0. 0. 1.07296137e-02 0. 0. 2.14592274e-03 0. 0.
      4.29184549e-03 0. 0. 0. 0. 0. 0. 2.14592274e-02 0. 0. 0. 0. 0. 0.
      0. 0. 4.29184549e-03 0. 0. 0. 0. 0. 0. 0. 0. 0. 0. 0. 0. 0. 0. 0.
      0. 0. 0. 2.14592274e-03 0. 0. 0. 0. 0. 1.28755365e-02
      2.14592274e-03 0. 0. 0. 0. 0. 0. 0. 0. 0. 0. 4.29184549e-03 0. 0.
      0. 0. 0. 0. 0. 0. 2.14592274e-03 0. 0. 4.29184549e-03 0. 0.
      4.29184549e-03 0. 0. 0. 0. 2.14592274e-03 0. 0. 1.50214592e-02
      4.29184549e-03 0. 0. 0. 0. 0. 4.29184549e-03 0. 0. 0. 0. 0.
      2.14592274e-03 8.58369097e-03 0. 0. 0. 0. 0. 0. 2.14592274e-03 0.
      0. 0. 6.43776823e-03 0. 0. 0. 0. 0. 2.14592274e-03 0.
      6.43776823e-03 0. 6.43776823e-03 0. 2.14592274e-03 0. 0. 0.
      2.14592274e-03 0. 0. 0. 0. 0. 8.58369097e-03 0. 0. 1.07296137e-02
      0. 0. 2.14592274e-03 0. 0. 0. 0. 0. 0. 0. 0. 0. 6.43776823e-03 0.
      0. 0. 0. 2.14592274e-03 0. 0. 0. 0. 0. 2.14592274e-03
      4.29184549e-03 2.14592274e-03 1.07296137e-02 0. 0. 0. 0. 0. 0. 0.
      0. 0. 0. 0. 0. 0. 0. 2.14592274e-03 0. 0. 0. 2.14592274e-03 0. 0.
      0. 0. 0. 0. 0. 4.29184549e-03 2.14592274e-03 0. 0. 0. 0. 0. 0. 0.
      2.14592274e-03 0. 0. 0. 2.14592274e-03 1.07296137e-02 0. 0. 0. 0.
      0. 0. 0. 0. 6.43776823e-03 0. 0. 0. 0. 6.43776823e-03 0. 0.
      4.29184549e-03 0. 0. 0. 0. 0. 0. 0. 0. 0. 0. 2.14592274e-03 0. 0.
      6.43776823e-03 0. 0. 4.29184549e-03 0. 4.29184549e-03 0. 0. 0. 0.
      4.29184549e-03 0. 0. 0. 0. 0. 4.29184549e-03 0. 0. 2.14592274e-03
      0. 0. 0. 0. 0. 0. 4.29184549e-03 0. 0. 0. 0. 0. 0. 0. 0. 0. 0. 0.
      0. 2.14592274e-03 0. 0. 4.29184549e-03 0. 2.14592274e-03 0.
      6.43776823e-03 0. 0. 0. 0. 0. 0. 0. 0. 0. 0. 0. 0. 0.
      2.14592274e-03 0. 0. 0. 0. 0. 4.29184549e-03 0. 0. 0. 0.
      2.14592274e-03 0. 6.43776823e-03 4.29184549e-03 0. 4.29184549e-03
      0. 2.14592274e-03 2.14592274e-03 6.43776823e-03 0. 0. 0. 0. 0. 0.
      0. 0. 0. 0. 0. 0. 2.14592274e-03 0. 0. 0. 0. 0. 0. 0. 0. 0. 0. 0.
      0. 4.29184549e-03 0. 0. 0. 0. 0. 0. 2.14592274e-03 0. 0.
      4.29184549e-03 0. 0. 2.14592274e-03 4.29184549e-03 0. 0. 0. 0. 0.
      0. 0. 0. 2.14592274e-03 0. 0. 0. 4.29184549e-03 0. 0. 0. 0.
      4.29184549e-03 0. 2.14592274e-03 4.29184549e-03 2.14592274e-03 0.
      0. 8.58369097e-03 0. 0. 0. 0. 0. 2.14592274e-03 0. 0. 0.
      2.14592274e-03 0. 0. 0. 0. 0. 0. 0. 0. 0. 0. 2.14592274e-03
      2.14592274e-03 0. 0. 0. 0. 0. 0. 0. 0. 0. 0. 0. 0. 0. 0.
      8.58369097e-03 0. 0. 0. 4.29184549e-03 2.14592274e-03 0.
      2.14592274e-03 0. 0. 0. 0. 0. 0. 0. 0. 0. 0. 2.14592274e-03
      1.28755365e-02 0. 0. 0. 1.71673819e-02 0. 0. 0. 4.29184549e-03 0.
      2.14592274e-03 0. 0. 0. 0. 0. 0. 0. 0. 0. 0. 0. 0. 2.14592274e-03
      0. 4.29184549e-03 0. 0. 0. 0. 0. 0. 0. 0. 0. 2.14592274e-03 0. 0.
      0. 4.29184549e-03 0. 0. 0. 0. 0. 0. 0. 2.14592274e-03 0. 0. 0. 0.
      0. 0. 0. 0. 0. 0. 0. 0. 0. 0. 0. 0. 0. 0. 2.14592274e-03 0. 0. 0.
      1.50214592e-02 4.29184549e-03 0. 0. 0. 6.43776823e-03
      2.14592274e-03 0. 0. 0. 2.14592274e-03 0. 0. 6.43776823e-03 0. 0.
      0. 0. 2.14592274e-03 0. 0. 0. 0. 0. 0. 0. 0. 0. 0. 0. 0.
      6.43776823e-03 0. 0. 6.43776823e-03 2.14592274e-03 0. 0. 0. 0. 0.
      6.43776823e-03 0. 2.14592274e-03 0. 0. 0. 0. 0. 0. 0. 0. 0. 0. 0.
      0. 0. 0. 0. 0. 0. 2.14592274e-03 0. 0. 0. 0.</_>
    <_>
      0. 0. 0. 0. 0. 0. 1.79533218e-03 0. 7.18132872e-03 0.
      1.79533218e-03 0. 0. 0. 5.38599677e-03 0. 0. 0. 0. 0.
      3.59066436e-03 0. 0. 0. 0. 1.79533218e-03 1.79533218e-03 0. 0.
      3.59066436e-03 1.79533218e-03 0. 0. 0. 3.59066436e-03 0. 0.
      1.79533218e-03 1.79533218e-03 0. 0. 1.79533218e-03 1.79533218e-03
      0. 1.79533218e-03 0. 0. 0. 0. 0. 0. 3.59066436e-03 0. 0.
      1.79533218e-03 0. 0. 0. 0. 0. 0. 0. 1.79533218e-03 0. 0. 0. 0. 0.
      1.79533218e-03 0. 0. 1.79533218e-03 0. 7.18132872e-03 0. 0. 0. 0.
      0. 0. 0. 1.79533218e-03 0. 3.59066436e-03 3.59066436e-03 0. 0. 0.
      0. 0. 0. 0. 0. 0. 0. 0. 0. 0. 3.59066436e-03 3.59066436e-03 0.
      3.59066436e-03 0. 0. 0. 0. 0. 0. 0. 0. 0. 7.18132872e-03 0. 0. 0.
      1.79533218e-03 1.79533218e-03 1.79533218e-03 0. 0. 8.97666067e-03
      0. 0. 0. 1.79533218e-03 1.79533218e-03 0. 0. 3.59066436e-03
      3.59066436e-03 0. 0. 3.59066436e-03 5.38599677e-03 0.
      1.79533218e-03 0. 0. 0. 1.79533218e-03 0. 1.79533218e-03
      3.59066436e-03 5.38599677e-03 0. 0. 0. 0. 0. 0. 0. 0. 0. 0. 0. 0.
      3.59066436e-03 1.79533218e-03 0. 1.07719935e-02 0. 3.59066436e-03
      0. 0. 0. 0. 1.79533218e-03 0. 0. 1.79533218e-03 0. 1.79533218e-03
      3.59066436e-03 0. 0. 0. 3.59066436e-03 0. 3.59066436e-03
      5.38599677e-03 1.79533218e-03 0. 0. 1.79533218e-03 1.79533218e-03
      0. 0. 0. 0. 3.59066436e-03 0. 0. 0. 1.79533218e-03 0. 0. 0. 0. 0.
      0. 0. 0. 0. 0. 5.38599677e-03 5.38599677e-03 0. 7.18132872e-03 0.
      0. 1.79533213e-02 0. 0. 0. 1.79533218e-03 0. 0. 0. 0. 0. 0. 0. 0.
      0. 3.59066436e-03 1.79533218e-03 0. 0. 0. 0. 1.79533218e-03 0.
      5.38599677e-03 3.59066436e-03 0. 0. 0. 0. 0. 0. 0. 0. 0. 0. 0. 0.
      1.79533218e-03 5.38599677e-03 0. 3.59066436e-03 0. 0. 0. 0. 0. 0.
      7.18132872e-03 0. 0. 0. 0. 0. 1.79533218e-03 0. 1.79533218e-03 0.
      0. 0. 1.79533218e-03 1.79533218e-03 0. 3.59066436e-03 0. 0.
      7.18132872e-03 8.97666067e-03 3.59066436e-03 0. 0. 0. 0.
      7.18132872e-03 0. 1.79533218e-03 0. 5.38599677e-03 0.
      3.59066436e-03 1.79533218e-03 0. 1.79533218e-03 3.59066436e-03
      7.18132872e-03 1.79533218e-03 0. 0. 3.59066436e-03 0. 0.
      1.79533218e-03 5.38599677e-03 0. 3.59066436e-03 5.38599677e-03
      5.38599677e-03 0. 0. 1.79533218e-03 0. 1.79533218e-03 0. 0. 0. 0.
      0. 0. 0. 0. 0. 1.79533218e-03 8.97666067e-03 0. 3.59066436e-03 0.
      5.38599677e-03 0. 0. 0. 5.38599677e-03 0. 0. 0. 0. 7.18132872e-03
      3.59066436e-03 0. 0. 0. 1.79533218e-03 0. 1.25673255e-02 0. 0. 0.
      0. 0. 1.79533218e-03 1.79533218e-03 0. 0. 1.79533218e-03
      1.79533218e-03 0. 0. 0. 0. 0. 0. 1.79533218e-03 0. 0. 0. 0.
      5.38599677e-03 1.79533218e-03 0. 0. 0. 0. 0. 0. 1.79533218e-03 0.
      1.79533218e-03 1.79533218e-03 3.59066436e-03 0. 0. 0. 0. 0. 0. 0.
      1.79533218e-03 0. 0. 0. 1.79533218e-03 1.25673255e-02 0.
      1.79533218e-03 0. 0. 1.79533218e-03 0. 0. 0. 0. 1.79533218e-03 0.
      1.79533218e-03 0. 0. 0. 1.79533218e-03 0. 0. 1.79533218e-03
      1.79533218e-03 1.79533218e-03 0. 0. 0. 1.79533218e-03
      3.59066436e-03 0. 7.18132872e-03 0. 1.79533218e-03 0.
      1.79533218e-03 0. 0. 1.79533218e-03 3.59066436e-03 0.
      1.79533218e-03 3.59066436e-03 0. 0. 1.79533218e-03 0.
      1.79533218e-03 3.59066436e-03 0. 0. 1.25673255e-02 0. 0. 0. 0. 0.
      0. 3.59066436e-03 0. 0. 0. 5.38599677e-03 0. 0. 1.79533218e-03 0.
      0. 0. 1.79533218e-03 0. 0. 1.79533218e-03 0. 0. 1.79533218e-03 0.
      1.79533218e-03 0. 3.59066436e-03 0. 0. 0. 0. 0. 0. 0.
      3.59066436e-03 0. 0. 1.79533218e-03 0. 0. 0. 0. 1.79533218e-03 0.
      0. 0. 5.38599677e-03 1.79533218e-03 3.59066436e-03 0.
      3.59066436e-03 0. 0. 0. 7.18132872e-03 0. 0. 0. 5.38599677e-03 0.
      1.79533218e-03 7.18132872e-03 0. 0. 1.79533218e-03 0. 0. 0.
      1.79533218e-03 3.59066436e-03 3.59066436e-03 1.79533218e-03 0.
      5.38599677e-03 0. 0. 1.79533218e-03 0. 0. 7.18132872e-03 0. 0. 0.
      8.97666067e-03 0. 0. 0. 0. 0. 0. 1.79533218e-03 0. 0. 0. 0. 0. 0.
      0. 0. 0. 3.59066436e-03 0. 1.25673255e-02 0. 0. 1.79533218e-03 0.
      7.18132872e-03 0. 1.79533218e-03 0. 0. 0. 3.59066436e-03 0. 0. 0.
      0. 0. 0. 1.79533218e-03 1.79533218e-03 0. 0. 0. 0. 0. 0.
      3.59066436e-03 0. 0. 3.59066436e-03 0. 0. 0. 0. 0. 0.
      1.79533218e-03 3.59066436e-03 1.79533218e-03 0. 3.59066436e-03 0.
      0. 3.59066436e-03 0. 0. 0. 0. 0. 0. 0. 0. 7.18132872e-03
      3.59066436e-03 1.79533213e-02 0. 3.59066436e-03 0. 0. 0.
      3.59066436e-03 1.79533218e-03 1.79533218e-03 1.79533218e-03 0. 0.
      1.79533218e-03 0. 0. 0. 0. 0. 3.59066436e-03 5.38599677e-03 0. 0.
      1.79533218e-03 0. 0. 0. 0. 0. 1.79533218e-03 0. 1.79533218e-03
      3.59066436e-03 0. 3.59066436e-03 0. 0. 3.59066436e-03
      3.59066436e-03 0. 0. 0. 3.59066436e-03 0. 0. 0. 1.79533218e-03 0.
      3.59066436e-03 0. 1.79533218e-03 0. 0. 1.79533218e-03 0.
      3.59066436e-03 3.59066436e-03 0. 0. 0. 0. 0. 0. 0. 0. 0.
      1.79533218e-03 3.59066436e-03 0. 0. 0. 0. 0. 5.38599677e-03 0. 0.
      5.38599677e-03 0. 0. 0. 0. 0. 0. 0. 0. 0. 1.79533218e-03 0. 0. 0.
      0. 1.79533218e-03 0. 1.79533218e-03 0. 1.79533218e-03
      1.79533218e-03 1.79533218e-03 0. 1.79533218e-03 0. 0.
      1.79533218e-03 0. 0. 0. 1.79533218e-03 0. 0. 3.59066436e-03 0. 0.
      0. 0. 0. 0. 0. 0. 0. 0. 1.79533218e-03 1.79533218e-03
      1.79533218e-03 0. 0. 0. 0. 0. 0. 1.79533218e-03 3.59066436e-03 0.
      0. 0. 0. 0. 0. 3.59066436e-03 0. 1.79533218e-03 0. 0. 0. 0. 0. 0.
      0. 5.38599677e-03 3.59066436e-03 0. 0. 0. 5.38599677e-03 0. 0. 0.
      0. 0. 1.79533218e-03 0. 0. 0. 3.59066436e-03 0. 0. 0. 0. 0. 0. 0.
      0. 0. 0. 0. 0. 0. 1.79533218e-03 0. 0. 0. 1.79533218e-03 0.
      1.79533218e-03 1.79533218e-03 0. 0. 0. 0. 0. 3.59066436e-03 0. 0.
      3.59066436e-03 0. 0. 1.79533218e-03 0. 0. 0. 0. 0. 0. 0.
      3.59066436e-03 0. 0. 1.79533218e-03 1.79533218e-03 1.79533218e-03
      0. 0. 0. 0. 1.79533218e-03 0. 0. 3.59066436e-03 0. 0. 0. 0. 0. 0.
      0. 0. 0. 1.79533218e-03 0. 1.79533218e-03 0. 1.79533218e-03 0. 0.
      0. 0. 0. 0. 0. 0. 0. 0. 0. 7.18132872e-03 0. 0. 1.79533218e-03 0.
      0. 0. 0. 0. 0. 0. 0. 0. 0. 0. 1.79533218e-03 0. 0. 0. 0.
      1.07719935e-02 7.18132872e-03 0. 0. 0. 0. 0. 0. 1.79533218e-03 0.
      0. 0. 0. 1.79533218e-03 0. 0. 0. 1.79533218e-03 0. 5.38599677e-03
      3.59066436e-03 3.59066436e-03 0. 0. 5.38599677e-03 0.
      1.79533218e-03 0. 0. 0. 0. 0. 1.79533218e-03 1.79533218e-03 0. 0.
      0. 0. 0. 0. 3.59066436e-03 0. 0. 0. 0. 0. 0. 7.18132872e-03 0. 0.
      0. 0. 1.79533218e-03 0. 0. 0. 0. 1.79533218e-03 0. 0. 0. 0. 0. 0.
      0. 0. 5.38599677e-03 1.79533218e-03 0. 1.79533218e-03 0. 0.
      3.59066436e-03 0. 0. 0. 3.59066436e-03 0. 3.59066436e-03 0. 0. 0.
      0. 1.79533218e-03 1.79533218e-03 0. 0. 0. 3.59066436e-03 0. 0. 0.
      0. 0. 3.59066436e-03 0. 0. 0. 1.79533218e-03 0. 3.59066436e-03
      3.59066436e-03 0. 1.79533218e-03 0. 0. 0. 0. 0. 7.18132872e-03 0.
      0. 1.79533218e-03 0. 0. 0. 0. 0. 0. 0. 1.79533218e-03 0.
      5.38599677e-03 0. 1.79533218e-03 0. 0. 1.79533218e-03 0. 0. 0. 0.
      0. 1.79533218e-03 0. 0. 0. 0. 0. 0. 0. 1.79533218e-03
      1.79533218e-03 0. 0.</_>
    <_>
      0. 2.59740255e-03 7.79220741e-03 2.59740255e-03 0. 5.19480510e-03
      0. 0. 0. 0. 5.19480510e-03 0. 0. 0. 0. 0. 0. 0. 0. 0. 0. 0. 0. 0.
      2.59740255e-03 2.59740255e-03 0. 5.19480510e-03 0. 0. 0.
      2.59740255e-03 2.59740255e-03 5.19480510e-03 5.19480510e-03 0.
      2.59740255e-03 0. 0. 1.03896102e-02 0. 2.59740255e-03
      5.19480510e-03 0. 0. 0. 5.19480510e-03 2.59740255e-03 0. 0. 0. 0.
      2.59740255e-03 0. 1.55844148e-02 2.59740255e-03 0. 0. 0. 0.
      2.59740255e-03 0. 0. 0. 2.59740255e-03 0. 2.59740255e-03 0.
      1.29870130e-02 0. 0. 5.19480510e-03 0. 5.19480510e-03 0. 0. 0. 0.
      0. 0. 0. 0. 0. 0. 0. 0. 5.19480510e-03 0. 0. 0. 0. 0. 0. 0.
      7.79220741e-03 0. 0. 0. 0. 0. 0. 0. 0. 0. 1.03896102e-02 0.
      2.59740255e-03 1.55844148e-02 0. 0. 0. 0. 2.59740255e-03 0.
      7.79220741e-03 7.79220741e-03 5.19480510e-03 2.59740255e-03
      2.59740255e-03 2.59740255e-03 0. 0. 0. 0. 0. 5.19480510e-03
      2.59740255e-03 0. 0. 2.59740255e-03 0. 0. 1.55844148e-02
      2.59740255e-03 7.79220741e-03 0. 5.19480510e-03 0. 0. 0. 0. 0. 0.
      0. 0. 0. 2.59740255e-03 0. 0. 0. 0. 0. 0. 2.59740255e-03 0.
      2.59740255e-03 0. 0. 0. 0. 0. 0. 0. 0. 2.59740255e-03 0.
      2.59740255e-03 0. 0. 2.59740255e-03 0. 7.79220741e-03
      2.59740255e-03 2.59740255e-03 0. 0. 0. 2.59740255e-03 0. 0. 0. 0.
      0. 2.59740255e-03 0. 0. 0. 0. 0. 2.59740255e-03 2.59740255e-03
      2.59740255e-03 0. 0. 0. 0. 0. 0. 0. 2.59740255e-03 0. 0.
      2.59740255e-03 0. 0. 0. 0. 5.19480510e-03 0. 0. 0. 0. 0. 0. 0.
      2.59740255e-03 0. 0. 0. 0. 0. 0. 0. 0. 0. 5.19480510e-03 0. 0. 0.
      0. 0. 0. 5.19480510e-03 0. 0. 0. 2.59740255e-03 0. 0. 0.
      5.19480510e-03 0. 5.19480510e-03 5.19480510e-03 0. 0.
      5.19480510e-03 0. 0. 0. 5.19480510e-03 0. 1.03896102e-02 0.
      7.79220741e-03 0. 0. 0. 5.19480510e-03 0. 0. 0. 0. 7.79220741e-03
      0. 0. 0. 0. 0. 0. 0. 5.19480510e-03 0. 0. 0. 0. 0. 2.59740255e-03
      0. 2.59740255e-03 0. 5.19480510e-03 0. 0. 0. 0. 2.59740255e-03 0.
      0. 0. 0. 0. 0. 0. 0. 0. 2.59740255e-03 0. 2.59740255e-03 0. 0. 0.
      0. 0. 5.19480510e-03 0. 0. 0. 0. 0. 0. 0. 2.59740255e-03 0.
      5.19480510e-03 0. 0. 0. 0. 5.19480510e-03 0. 1.03896102e-02
      2.59740255e-03 0. 0. 0. 0. 0. 0. 0. 0. 0. 2.59740255e-03 0. 0.
      2.59740255e-03 0. 0. 0. 0. 2.59740255e-03 5.19480510e-03 0.
      2.59740255e-03 0. 0. 0. 0. 0. 0. 0. 0. 0. 0. 0. 0. 0. 0. 0. 0. 0.
      0. 2.59740255e-03 0. 2.59740255e-03 0. 0. 2.59740255e-03 0. 0. 0.
      0. 0. 2.59740255e-03 2.59740255e-03 0. 0. 0. 0. 0. 0. 0. 0. 0.
      1.29870130e-02 2.59740255e-03 0. 0. 0. 0. 2.59740255e-03 0. 0. 0.
      0. 0. 0. 0. 7.79220741e-03 0. 0. 0. 0. 0. 0. 0. 0. 0. 0.
      1.03896102e-02 0. 0. 0. 0. 0. 0. 1.03896102e-02 0. 0. 0. 0. 0.
      2.59740255e-03 0. 0. 0. 0. 0. 0. 5.19480510e-03 2.59740255e-03 0.
      0. 7.79220741e-03 0. 0. 0. 2.59740255e-03 0. 2.59740255e-03
      2.59740255e-03 0. 0. 0. 2.59740255e-03 0. 0. 0. 7.79220741e-03 0.
      0. 0. 5.19480510e-03 0. 0. 0. 0. 2.59740255e-03 0. 2.59740255e-03
      2.59740255e-03 0. 0. 0. 2.59740255e-03 7.79220741e-03 0. 0. 0. 0.
      5.19480510e-03 0. 0. 0. 5.19480510e-03 0. 0. 0. 0. 0.
      2.59740255e-03 5.19480510e-03 2.59740255e-03 2.59740255e-03 0.
      2.59740255e-03 0. 0. 2.59740255e-03 0. 0. 0. 5.19480510e-03 0. 0.
      0. 0. 0. 5.19480510e-03 0. 0. 0. 0. 5.19480510e-03 0.
      2.59740255e-03 0. 0. 0. 0. 0. 2.59740255e-03 0. 2.59740255e-03 0.
      0. 2.59740255e-03 0. 0. 2.59740255e-03 0. 0. 2.59740255e-03 0. 0.
      0. 0. 0. 0. 0. 0. 0. 0. 0. 0. 5.19480510e-03 0. 0. 7.79220741e-03
      0. 7.79220741e-03 0. 7.79220741e-03 0. 0. 0. 0. 0. 2.59740255e-03
      0. 0. 2.59740255e-03 0. 0. 0. 0. 0. 0. 0. 0. 2.59740255e-03 0. 0.
      5.19480510e-03 0. 0. 0. 0. 0. 0. 5.19480510e-03 0. 2.59740255e-03
      2.59740255e-03 0. 0. 0. 0. 0. 0. 2.59740255e-03 0. 0. 0. 0. 0. 0.
      1.03896102e-02 0. 0. 0. 0. 0. 0. 0. 0. 0. 5.19480510e-03 0. 0. 0.
      2.59740255e-03 1.03896102e-02 2.59740255e-03 5.19480510e-03
      1.03896102e-02 0. 0. 2.59740255e-03 0. 0. 0. 0. 0. 5.19480510e-03
      0. 0. 0. 0. 0. 2.59740255e-03 0. 0. 0. 0. 0. 0. 0. 7.79220741e-03
      0. 0. 0. 2.59740255e-03 0. 0. 0. 0. 2.59740255e-03 0.
      1.29870130e-02 0. 2.59740255e-03 0. 0. 0. 0. 5.19480510e-03 0. 0.
      0. 0. 0. 0. 0. 0. 0. 0. 0. 0. 0. 0. 0. 0. 0. 2.59740255e-03
      2.59740255e-03 0. 0. 0. 0. 0. 0. 0. 0. 2.59740255e-03 0. 0. 0.
      2.59740255e-03 0. 0. 1.03896102e-02 0. 0. 0. 0. 0. 0. 0. 0. 0. 0.
      0. 0. 0. 0. 0. 0. 5.19480510e-03 0. 0. 0. 0. 0. 0. 0. 0.
      2.59740255e-03 0. 0. 0. 0. 0. 0. 0. 0. 5.19480510e-03
      2.59740255e-03 0. 0. 0. 0. 0. 0. 0. 0. 0. 0. 0. 0. 0.
      2.59740255e-03 0. 0. 2.59740255e-03 0. 0. 5.19480510e-03 0.
      2.59740255e-03 0. 5.19480510e-03 0. 0. 0. 2.59740255e-03 0.
      2.59740255e-03 0. 5.19480510e-03 2.59740255e-03 0. 0. 0. 0. 0. 0.
      0. 2.59740255e-03 0. 0. 0. 2.59740255e-03 0. 0. 0. 0. 0. 0. 0. 0.
      0. 0. 0. 0. 0. 0. 0. 5.19480510e-03 0. 0. 2.59740255e-03 0. 0.
      2.59740255e-03 0. 0. 0. 0. 0. 2.59740255e-03 2.59740255e-03 0. 0.
      0. 0. 0. 2.59740255e-03 2.59740255e-03 2.59740255e-03 0.
      2.59740255e-03 0. 2.59740255e-03 0. 5.19480510e-03 2.59740255e-03
      0. 0. 2.59740255e-03 2.59740255e-03 0. 0. 5.19480510e-03 0. 0.
      5.19480510e-03 0. 2.59740255e-03 2.59740255e-03 0. 0. 0. 0. 0. 0.
      0. 0. 0. 0. 0. 0. 0. 0. 0. 0. 0. 0. 0. 0. 0. 0. 0. 0. 0. 0. 0. 0.
      0. 0. 0. 2.59740255e-03 0. 0. 0. 5.19480510e-03 0. 0. 0.
      2.59740255e-03 0. 2.59740255e-03 0. 1.29870130e-02 0.
      2.59740255e-03 0. 0. 2.59740255e-03 0. 0. 1.03896102e-02 0. 0. 0.
      2.33766232e-02 2.59740255e-03 0. 0. 0. 2.59740255e-03 0. 0. 0. 0.
      0. 0. 0. 0. 0. 0. 0. 2.59740255e-03 0. 0. 0. 0. 0. 2.59740255e-03
      0. 2.59740255e-03 0. 0. 0. 0. 0. 0. 0. 0. 0. 0. 0. 0. 0. 0. 0. 0.
      0. 0. 0. 0. 0. 0. 0. 0. 0. 0. 0. 0. 0. 0. 0. 0. 0. 0. 0. 0. 0. 0.
      0. 0. 0. 0. 0. 0. 0. 0. 0. 0. 0. 0. 2.59740255e-03 0. 0. 0. 0. 0.
      0. 0. 0. 0. 0. 0. 0. 0. 0. 0. 5.19480510e-03 0. 0. 0. 0.
      5.19480510e-03 0. 0. 0. 2.59740255e-03 0. 2.59740255e-03 0. 0. 0.
      7.79220741e-03 0. 0. 0. 0. 0. 0. 0. 0. 0. 0. 0. 0. 0.
      2.59740255e-03 0. 0. 0.</_>
    <_>
      0. 2.74725282e-03 2.74725282e-03 0. 0. 0. 0. 0. 2.74725282e-03 0.
      0. 0. 2.74725282e-03 0. 0. 0. 0. 8.24175868e-03 0. 0. 0.
      2.74725282e-03 0. 0. 0. 0. 2.74725282e-03 0. 0. 0. 1.09890113e-02
      8.24175868e-03 0. 1.09890113e-02 0. 0. 0. 1.92307699e-02
      2.74725282e-03 2.74725282e-03 0. 2.74725282e-03 0. 2.74725282e-03
      0. 0. 0. 0. 0. 0. 0. 1.64835174e-02 0. 0. 5.49450563e-03 0. 0. 0.
      0. 0. 2.74725282e-03 0. 5.49450563e-03 0. 5.49450563e-03 0.
      2.74725282e-03 0. 0. 0. 0. 2.74725282e-03 0. 0. 0. 0. 0. 0. 0. 0.
      2.74725282e-03 0. 0. 0. 0. 0. 0. 0. 2.74725282e-03 0. 0. 0. 0. 0.
      2.74725282e-03 0. 0. 0. 0. 0. 0. 0. 0. 2.74725282e-03
      2.74725282e-03 0. 0. 2.74725282e-03 8.24175868e-03 0. 0. 0. 0. 0.
      2.74725282e-03 0. 2.74725282e-03 2.74725282e-03 0. 0.
      8.24175868e-03 2.74725282e-03 0. 0. 0. 0. 0. 5.49450563e-03 0. 0.
      0. 0. 0. 2.74725282e-03 0. 0. 0. 0. 0. 0. 5.49450563e-03
      2.74725282e-03 0. 0. 0. 2.74725282e-03 2.74725282e-03 0.
      2.74725282e-03 0. 0. 0. 0. 0. 0. 0. 0. 0. 0. 1.64835174e-02 0. 0.
      0. 2.74725282e-03 0. 0. 0. 0. 0. 0. 0. 0. 8.24175868e-03
      2.74725282e-03 0. 2.74725282e-03 0. 0. 0. 0. 2.74725282e-03 0.
      2.74725282e-03 0. 0. 0. 0. 2.74725282e-03 2.74725282e-03 0. 0. 0.
      0. 2.74725282e-03 2.74725282e-03 0. 0. 0. 0. 0. 0. 0.
      5.49450563e-03 0. 0. 0. 0. 8.24175868e-03 0. 0. 0. 0. 0. 0.
      5.49450563e-03 0. 5.49450563e-03 0. 0. 2.74725282e-03 0. 0. 0. 0.
      0. 0. 0. 0. 0. 0. 2.74725282e-03 0. 0. 0. 0. 2.74725282e-03 0. 0.
      8.24175868e-03 0. 0. 0. 0. 0. 0. 0. 0. 2.74725282e-03 0. 0. 0. 0.
      1.09890113e-02 0. 0. 0. 5.49450563e-03 0. 0. 0. 0. 0. 0. 0. 0. 0.
      0. 0. 0. 0. 0. 8.24175868e-03 0. 0. 0. 0. 0. 0. 0. 0. 0.
      8.24175868e-03 2.74725282e-03 0. 0. 0. 0. 0. 0. 0. 0. 0.
      2.74725282e-03 0. 0. 0. 0. 0. 0. 0. 0. 0. 0. 2.74725282e-03 0.
      2.74725282e-03 0. 0. 0. 0. 0. 0. 0. 0. 5.49450563e-03 0. 0. 0. 0.
      0. 0. 2.74725282e-03 0. 0. 0. 0. 5.49450563e-03 0. 0. 0. 0.
      2.74725282e-03 0. 0. 0. 0. 0. 0. 0. 0. 2.74725282e-03
      2.74725282e-03 5.49450563e-03 0. 2.74725282e-03 0. 0. 0. 0. 0. 0.
      0. 0. 2.74725282e-03 0. 0. 0. 0. 0. 0. 5.49450563e-03 0. 0. 0. 0.
      0. 0. 0. 5.49450563e-03 0. 0. 0. 0. 2.74725282e-03 0. 0. 0. 0.
      5.49450563e-03 0. 0. 0. 5.49450563e-03 0. 2.74725282e-03 0. 0. 0.
      2.74725282e-03 0. 0. 0. 0. 0. 0. 2.74725282e-03 0. 2.74725282e-03
      5.49450563e-03 0. 0. 0. 0. 0. 0. 0. 0. 0. 0. 0. 0. 0.
      2.74725282e-03 0. 0. 0. 6.59340695e-02 0. 0. 0. 0. 0. 0. 0. 0. 0.
      0. 0. 0. 0. 2.74725282e-03 0. 0. 0. 5.49450563e-03 0. 0. 0. 0. 0.
      8.24175868e-03 0. 0. 2.74725282e-03 0. 0. 2.74725282e-03 0.
      2.74725282e-03 5.49450563e-03 0. 0. 0. 0. 0. 8.24175868e-03 0. 0.
      5.49450563e-03 0. 0. 0. 0. 0. 0. 0. 5.49450563e-03 0. 0.
      5.49450563e-03 1.37362638e-02 0. 0. 0. 0. 0. 0. 0. 0. 0. 0. 0.
      2.74725282e-03 0. 0. 0. 0. 0. 0. 0. 0. 0. 2.74725282e-03 0. 0. 0.
      0. 0. 0. 0. 0. 0. 0. 0. 0. 0. 0. 0. 0. 0. 0. 0. 0. 0. 0. 0. 0. 0.
      0. 7.14285746e-02 0. 0. 0. 0. 2.74725282e-03 0. 0. 0. 0. 0. 0. 0.
      0. 0. 0. 2.74725282e-03 0. 0. 2.74725282e-03 0. 0. 0. 0.
      2.74725282e-03 0. 0. 2.74725282e-03 0. 0. 2.74725282e-03 0.
      2.74725282e-03 0. 0. 0. 0. 0. 0. 0. 0. 2.74725282e-03 0.
      1.37362638e-02 2.74725282e-03 0. 0. 0. 0. 0. 0. 2.74725282e-03 0.
      5.49450563e-03 0. 0. 0. 0. 0. 0. 0. 0. 0. 0. 0. 0. 0. 0.
      1.37362638e-02 0. 0. 0. 0. 0. 0. 0. 0. 0. 5.49450563e-03 0. 0. 0.
      0. 1.09890113e-02 1.64835174e-02 2.74725282e-03 0. 0. 0.
      8.24175868e-03 0. 2.74725282e-03 0. 0. 0. 0. 0. 8.24175868e-03 0.
      0. 0. 0. 0. 0. 0. 0. 5.49450563e-03 0. 0. 0. 0. 2.74725282e-03 0.
      0. 0. 0. 0. 0. 0. 0. 0. 0. 0. 0. 0. 2.74725282e-03 0. 0. 0. 0. 0.
      0. 0. 0. 0. 0. 8.24175868e-03 0. 0. 5.49450563e-03 0. 0. 0. 0. 0.
      0. 0. 2.74725282e-03 0. 2.74725282e-03 0. 0. 0. 0. 0. 0. 0. 0.
      2.74725282e-03 2.74725282e-03 0. 0. 0. 0. 0. 0. 0. 5.49450563e-03
      0. 0. 0. 0. 0. 0. 0. 0. 0. 0. 0. 0. 8.24175868e-03 2.74725282e-03
      0. 0. 0. 0. 0. 2.74725282e-03 2.74725282e-03 0. 0. 0. 0. 0. 0.
      1.09890113e-02 0. 0. 8.24175868e-03 0. 0. 0. 0. 0. 0. 0. 0. 0. 0.
      0. 0. 0. 0. 0. 2.74725282e-03 2.74725282e-03 0. 0. 0. 0. 0. 0. 0.
      0. 0. 0. 0. 0. 0. 0. 8.24175868e-03 2.74725282e-03 0. 0. 0. 0. 0.
      0. 0. 0. 0. 0. 0. 5.49450563e-03 0. 0. 0. 0. 2.74725282e-03 0. 0.
      0. 2.74725282e-03 0. 5.49450563e-03 0. 2.74725282e-03 0. 0. 0. 0.
      0. 0. 0. 0. 2.74725282e-03 0. 5.49450563e-03 2.74725282e-03 0. 0.
      0. 0. 0. 0. 0. 0. 0. 0. 8.24175868e-03 0. 0. 5.49450563e-03 0.
      2.74725282e-03 0. 0. 0. 0. 0. 0. 0. 0. 0. 0. 0. 0. 0. 0.
      2.74725282e-03 0. 0. 0. 0. 0. 0. 0. 0. 1.37362638e-02 0. 0. 0. 0.
      0. 0. 0. 0. 0. 0. 0. 0. 0. 0. 0. 0. 0. 0. 0. 0. 0. 2.74725282e-03
      0. 0. 0. 0. 5.49450563e-03 0. 2.74725282e-03 0. 0. 0.
      2.74725282e-03 0. 0. 2.74725282e-03 0. 2.74725282e-03 0. 0. 0. 0.
      0. 0. 0. 0. 0. 2.74725282e-03 0. 0. 0. 0. 0. 0. 0. 0. 0. 0. 0. 0.
      0. 0. 0. 2.74725282e-03 0. 0. 0. 0. 5.49450563e-03 0.
      2.74725282e-03 0. 5.49450563e-03 0. 2.74725282e-03 0. 0. 0.
      5.49450563e-03 0. 2.74725282e-03 2.74725282e-03 2.74725282e-03 0.
      0. 0. 0. 0. 0. 2.74725282e-03 0. 0. 0. 0. 2.74725282e-03
      2.74725282e-03 0. 0. 0. 2.74725282e-03 0. 2.74725282e-03 0. 0.
      2.74725282e-03 2.74725282e-03 0. 0. 0. 0. 0. 0. 0. 0. 0. 0. 0.
      2.74725282e-03 0. 0. 0. 0. 0. 0. 5.49450563e-03 0. 0.
      2.74725282e-03 0. 0. 0. 0. 0. 0. 0. 0. 0. 0. 0. 2.74725282e-03 0.
      0. 0. 2.74725282e-03 0. 0. 2.74725282e-03 0. 0. 0. 0. 0. 0. 0.
      8.24175868e-03 0. 0. 0. 0. 0. 0. 0. 0. 0. 0. 5.49450563e-03 0. 0.
      0. 0. 0. 0.</_>
    <_>
      0. 0. 0. 9.80392192e-03 0. 0. 0. 0. 0. 0. 2.45098048e-03 0.
      4.90196096e-03 0. 0. 0. 0. 7.35294167e-03 0. 0. 7.35294167e-03 0.
      0. 0. 4.90196096e-03 0. 4.90196096e-03 0. 0. 0. 0. 0.
      2.45098048e-03 0. 9.80392192e-03 0. 0. 1.71568636e-02 0.
      1.47058833e-02 0. 0. 4.90196096e-03 0. 0. 0. 0. 0. 0.
      2.45098048e-03 0. 0. 0. 0. 0. 2.45098048e-03 4.90196096e-03 0.
      2.45098048e-03 2.45098048e-03 0. 0. 0. 0. 4.90196096e-03 0.
      2.45098048e-03 0. 0. 0. 0. 2.69607846e-02 0. 4.90196096e-03 0.
      2.45098048e-03 0. 0. 0. 0. 7.35294167e-03 0. 0. 0. 0. 0. 0.
      2.45098048e-03 0. 0. 0. 0. 0. 2.45098048e-03 4.90196096e-03 0.
      2.45098048e-03 0. 4.90196096e-03 0. 0. 0. 0. 0. 0. 0. 0. 0.
      2.45098048e-03 0. 0. 0. 0. 4.90196096e-03 0. 0. 2.45098048e-03
      2.45098048e-03 0. 0. 0. 0. 1.96078438e-02 0. 0. 2.45098048e-03 0.
      2.45098048e-03 0. 0. 2.45098048e-03 0. 0. 4.90196096e-03 0. 0. 0.
      0. 0. 0. 2.45098048e-03 7.35294167e-03 0. 0. 0. 0. 4.90196096e-03
      0. 0. 0. 0. 0. 0. 0. 0. 9.80392192e-03 0. 0. 0. 7.35294167e-03
      2.45098048e-03 0. 0. 0. 0. 0. 0. 0. 2.45098048e-03 0. 0.
      2.45098048e-03 0. 0. 0. 2.45098048e-03 4.90196096e-03 0.
      2.45098048e-03 0. 0. 0. 0. 2.45098048e-03 0. 0. 0. 0.
      2.45098048e-03 0. 0. 0. 0. 0. 0. 0. 0. 0. 0. 0. 0. 0. 0. 0. 0. 0.
      0. 1.22549022e-02 0. 0. 0. 0. 0. 0. 0. 0. 0. 0. 0. 0. 0. 0.
      4.90196096e-03 0. 0. 4.90196096e-03 0. 0. 4.90196096e-03 0. 0. 0.
      2.45098048e-03 0. 2.45098048e-03 0. 0. 0. 0. 0. 2.45098048e-03 0.
      0. 2.45098048e-03 0. 0. 2.45098048e-03 0. 0. 2.45098048e-03 0. 0.
      2.45098048e-03 4.90196096e-03 0. 2.45098048e-03 0. 0. 0. 0. 0. 0.
      0. 2.45098048e-03 0. 0. 0. 0. 0. 0. 0. 2.45098048e-03 0. 0.
      7.35294167e-03 0. 0. 4.90196096e-03 0. 0. 0. 4.90196096e-03 0. 0.
      2.45098048e-03 2.45098048e-03 2.45098048e-03 0. 2.45098048e-03 0.
      0. 0. 0. 4.90196096e-03 0. 0. 0. 0. 0. 2.45098048e-03
      2.45098048e-03 0. 0. 2.45098048e-03 9.80392192e-03 0. 0. 0.
      2.45098048e-03 0. 0. 0. 0. 0. 4.90196096e-03 0. 0. 0. 0. 0.
      2.45098048e-03 2.45098048e-03 7.35294167e-03 0. 0. 0.
      7.35294167e-03 0. 0. 0. 0. 0. 0. 0. 0. 0. 0. 0. 0. 0.
      1.22549022e-02 2.45098048e-03 0. 0. 0. 0. 0. 2.45098048e-03 0. 0.
      0. 0. 0. 2.45098048e-03 0. 0. 0. 0. 0. 0. 4.90196096e-03
      2.45098048e-03 0. 0. 0. 0. 2.45098048e-03 0. 4.90196096e-03 0. 0.
      0. 0. 0. 0. 4.90196096e-03 0. 0. 0. 0. 0. 7.35294167e-03 0. 0. 0.
      0. 0. 0. 0. 0. 2.45098048e-03 4.90196096e-03 0. 0. 0.
