<?xml version="1.0"?>
<opencv_storage>
<opencv_ml_svm>
  <format>3</format>
  <svmType>C_SVC</svmType>
  <kernel>
    <type>LINEAR</type></kernel>
  <C>1.</C>
  <term_criteria><iterations>100</iterations></term_criteria>
  <var_count>1000</var_count>
  <class_count>2</class_count>
  <class_labels type_id="opencv-matrix">
    <rows>2</rows>
    <cols>1</cols>
    <dt>i</dt>
    <data>
      -1 1</data></class_labels>
  <sv_total>1</sv_total>
  <support_vectors>
    <_>
      1.70693907e-03 2.76597403e-03 -1.63854025e-02 3.56812519e-03
      -4.17985301e-03 -1.00833783e-02 5.43643022e-03 -3.75105906e-03
      -7.98789412e-03 7.21391151e-03 6.30926061e-03 2.99184793e-03
      7.76735554e-03 7.47708557e-03 -2.56122532e-03 -5.07313712e-03
      -8.55627528e-04 1.95199135e-03 0. 3.39993648e-03 1.33856712e-02
      3.44033167e-03 3.57526308e-03 1.41953747e-03 5.12243528e-03
      1.04393810e-03 1.63321495e-02 4.88892663e-04 3.68193863e-03
      3.18451808e-03 1.01986912e-03 -9.32757277e-03 7.06142513e-03
      2.73925252e-03 2.67008855e-03 6.32427214e-03 3.06677353e-03
      -3.01324558e-02 -1.37972897e-02 1.94918849e-02 -4.00760258e-03
      -3.75658018e-03 9.48283728e-03 -2.85852645e-02 7.35485414e-03
      -7.96268042e-03 5.66436443e-03 -8.26312322e-03 -3.14150983e-03
      8.43912479e-04 -5.19046653e-03 6.22938154e-03 1.60032650e-03
      1.16876587e-02 1.36395507e-02 -2.14717537e-02 3.57929314e-03
      4.67580184e-03 8.02464969e-03 5.04093478e-03 -1.51119782e-02
      1.30722742e-03 -1.16574811e-03 6.05642144e-03 -2.57754727e-04
      -3.80482199e-03 4.41694446e-03 -1.55450236e-02 7.53018120e-03
      1.06959874e-02 -1.95135281e-03 -2.49583740e-02 6.73860428e-04
      -5.61954547e-03 -4.06722538e-03 4.78529418e-03 -2.45667771e-02
      -5.58579294e-03 4.20164596e-03 -1.43540790e-02 -1.42632322e-02
      3.35748633e-03 6.08439324e-03 7.89661892e-03 -3.36396694e-03
      -6.34664446e-02 3.85018857e-03 -8.70255404e-04 2.67167023e-04
      4.75732936e-03 -5.89698181e-03 -1.28869107e-02 1.03625106e-02
      5.28622372e-03 1.34480782e-02 -5.74697405e-02 2.45593459e-04
      -2.77379033e-04 -2.92662662e-02 -1.07608177e-02 -3.84649553e-04
      5.03038988e-03 -1.59818481e-03 3.55447596e-03 -1.66508127e-02
      -1.19834086e-02 4.05495241e-03 1.26698622e-02 1.82753010e-03
      1.65244378e-02 -7.00875942e-04 6.18693652e-03 2.28175614e-02
      3.89002147e-04 6.78997021e-03 3.46671115e-03 5.56302583e-03
      3.08882655e-03 -8.78670905e-03 2.27563130e-03 -1.44042750e-03
      8.91331118e-03 2.14484632e-02 -1.93547120e-03 6.64678263e-03
      1.33555913e-02 4.60541528e-03 -7.99194258e-03 -1.25146669e-03
      -4.62218421e-03 9.16950218e-03 9.21132276e-04 8.59292410e-03
      1.16340108e-02 -3.86172580e-03 6.21002633e-03 -4.44279023e-04
      -1.09501118e-02 3.07674031e-03 1.04110865e-02 2.47306749e-03
      -1.65985618e-02 2.95931473e-03 3.22131161e-03 -1.13263645e-03
      8.30364879e-04 1.13863228e-02 -6.08357368e-03 2.67167023e-04
      1.12310066e-04 6.72505749e-03 -5.61797759e-03 -7.53558334e-03
      6.58202777e-03 -2.74474290e-03 1.32074235e-02 6.07362716e-03
      5.90725383e-03 4.96528530e-03 -3.32496455e-03 8.65344144e-03
      3.16274562e-03 1.25619874e-03 -5.53711131e-03 -2.14105938e-02
      2.21642526e-03 2.64907442e-03 4.99354163e-03 5.00294333e-03
      -6.45818049e-03 -2.66891555e-03 -1.31877130e-02 -9.72370384e-04
      6.45904627e-04 -4.69682179e-03 1.57125089e-02 -3.80947664e-02
      8.07791017e-03 6.52340427e-03 5.55719808e-03 2.60675955e-03
      2.70764064e-03 -6.99190889e-03 1.11635318e-02 2.94681126e-03 0.
      -3.37579064e-02 -1.70470290e-02 6.12020819e-03 -1.14421947e-02
      2.09735660e-03 2.82038073e-03 3.54246306e-03 -5.86082647e-03
      -7.46703474e-03 3.19062965e-03 2.31920928e-03 0. -3.75105906e-03
      -1.84766669e-03 -3.21027287e-03 2.48510018e-03 2.20972835e-03
      -9.32017621e-03 -5.88811981e-03 4.38116165e-03 4.60154749e-03
      -1.75928157e-02 -7.50211813e-03 -2.89223535e-04 6.17827941e-03
      4.58526053e-03 4.45557432e-03 -2.57480121e-03 8.43876565e-04
      1.58686675e-02 5.88153431e-04 5.09221398e-04 -6.88559981e-03
      2.09551514e-03 7.49508908e-04 -2.80898879e-03 1.10622318e-02
      4.65592789e-03 1.28567661e-03 2.01526866e-03 6.69840164e-03
      -8.18138383e-03 -4.88516269e-03 3.03065928e-04 9.10891406e-03 0.
      -5.93304634e-03 4.23400663e-03 -3.08225770e-03 2.27717194e-03
      5.17925248e-03 3.85405123e-03 -1.76486764e-02 4.19578142e-03
      -1.59759162e-04 -1.31960027e-02 4.73126129e-04 -6.43728115e-03
      4.97595547e-03 -3.52112669e-03 6.18813420e-03 3.82800726e-03
      -6.72043068e-03 3.92836519e-03 -1.85684697e-03 -1.85122225e-03
      6.97080325e-03 4.44808364e-04 -4.06009052e-03 1.93873339e-03
      6.44536410e-03 6.53552776e-03 3.91664304e-04 -2.88174092e-03
      1.36667106e-04 -1.46987811e-02 1.40267722e-02 1.12173532e-03
      6.54982962e-03 -1.02297943e-02 5.13711665e-03 9.23987711e-04
      9.10058443e-04 -8.51043093e-04 1.75142009e-03 8.19410663e-03
      -3.80223780e-03 -1.71673819e-02 -6.36990787e-03 2.39966018e-03
      4.68295300e-03 -1.41157638e-02 1.54151465e-03 2.06283643e-03
      -1.01005994e-02 1.32745281e-02 5.30967547e-04 -1.07439104e-02
      3.52836540e-03 2.21381243e-03 2.67243036e-03 1.83792226e-02
      -4.89576906e-03 2.02805502e-03 -2.57703336e-03 -2.19036615e-03
      4.46215877e-03 6.87702617e-04 -4.81540943e-03 6.88581355e-03
      -7.25228945e-03 -9.34497546e-03 2.44926778e-03 8.03573814e-04
      6.70852081e-04 6.28038403e-03 7.24561000e-03 -1.33274205e-03
      9.80998483e-03 -1.01107694e-02 -1.04316426e-02 3.60460696e-03
      4.06019483e-03 -4.89544589e-03 -3.94811900e-03 3.32766271e-04
      -9.87141486e-03 4.85105999e-03 -2.07570605e-02 6.73754141e-04
      -7.97755923e-03 -8.28062464e-03 3.02163418e-03 4.36712784e-04
      8.16050079e-03 1.27882650e-02 1.13696884e-02 -6.22636452e-03
      3.14624398e-03 -1.23052020e-02 1.13620879e-02 -8.05678610e-06
      1.27061810e-02 1.46644691e-03 1.92804146e-03 -1.15457879e-04
      -8.95201601e-03 -2.24277657e-03 -3.82961682e-03 2.76886439e-03
      6.36425987e-03 -5.52392341e-02 3.02556972e-03 4.78981109e-03
      1.86492950e-02 1.16935102e-02 5.45020960e-03 8.93511623e-03
      2.04118202e-03 -6.88065251e-04 -4.30744747e-03 6.80255936e-03
      5.82323456e-03 4.18248679e-03 -1.26482612e-02 -1.26134707e-02
      -5.80710731e-03 5.67277544e-04 -1.01107405e-03 -1.85522195e-02
      -1.46871631e-03 -1.10241165e-03 2.46022083e-03 -2.69194040e-03
      5.75040607e-03 1.54586055e-03 1.61221973e-03 6.58722303e-04
      1.46384025e-02 -6.48815837e-03 9.07983910e-03 -5.94981946e-02
      2.24750442e-03 2.53123173e-04 -5.03896270e-03 4.73068655e-03
      7.86170480e-04 1.12767080e-02 -4.39779228e-03 1.29314838e-02
      -1.05622010e-02 -1.49282638e-03 6.52775494e-03 -2.46884581e-02
      4.21567383e-04 7.49255251e-03 -2.98679271e-03 1.04874792e-03
      8.26879963e-03 3.62216984e-03 2.41991947e-03 -8.55800882e-03
      7.72071257e-03 7.86170480e-04 -4.13019257e-03 -1.23775913e-03
      4.58537554e-03 -2.85617914e-03 -7.56195222e-04 2.29985942e-03
      -7.04225339e-03 -1.41850356e-02 7.61657674e-03 -2.50969594e-03
      -7.58342305e-03 -1.73068400e-02 -1.21737714e-03 1.57875696e-03
      -9.88661661e-04 -2.25758902e-03 0. 2.43632612e-03 -1.80817069e-03
      -9.46264807e-03 0. -3.55685526e-03 1.95881724e-03 -9.39323567e-04
      9.01420694e-03 2.80558271e-03 3.14630866e-02 2.31538806e-03
      3.42806801e-03 -1.16372388e-02 -1.26074292e-02 -6.52902294e-03
      -1.33568980e-03 -5.48840209e-04 3.49039491e-03 2.35410943e-03
      4.04566899e-03 -3.56154423e-03 1.65815116e-03 1.26460353e-02
      3.39055015e-03 1.01412423e-02 -1.51498355e-02 1.46418493e-02
      6.10968331e-03 7.14660215e-04 1.02967070e-02 6.29020110e-03
      -1.11802323e-02 4.18587681e-03 -1.98651608e-02 -2.04364257e-03
      3.03065928e-04 6.24212949e-03 1.79727376e-03 -2.62731668e-02
      6.81763398e-04 4.37355693e-03 -6.26595225e-03 4.17095004e-03
      -6.55730115e-03 1.40306372e-02 3.20065301e-03 -7.54849706e-03
      -1.89099857e-03 1.09739983e-02 -5.22497226e-04 3.57012125e-03
      -1.81209994e-04 2.98256025e-04 7.93675613e-03 -3.22146690e-03
      3.59557173e-03 2.25708412e-04 7.93794356e-03 4.80097951e-03
      5.34334045e-04 1.40833855e-03 7.99429789e-03 5.34334045e-04
      2.12452444e-03 8.50058720e-03 2.09749583e-03 8.54756124e-03
      -3.84160038e-03 -6.77844416e-03 -2.30649812e-03 5.38501423e-04
      -7.95228593e-03 -2.09012181e-02 1.58447932e-04 4.02984582e-03
      6.25493983e-03 1.67539425e-03 7.17592612e-03 3.55827226e-03
      8.81684199e-03 7.37477373e-03 4.54674242e-03 1.02072814e-03
      9.27035362e-05 -4.29184549e-03 4.85382322e-03 2.45253346e-03
      4.73086908e-03 1.69783994e-03 2.84833484e-03 2.56407482e-04
      4.81718872e-03 5.42230485e-03 -2.76799891e-02 4.58876928e-03
      8.62416904e-03 -4.74679843e-03 -1.36888903e-02 9.14347731e-03
      -6.72399532e-03 -8.50501296e-04 4.19166777e-03 1.54078240e-02
      -1.32853193e-02 -3.34514887e-03 2.51727924e-03 5.01447823e-03
      -7.23702228e-03 -9.85153764e-03 1.03180408e-02 6.24711113e-03
      -1.18823871e-02 5.10504888e-03 -8.12389981e-03 -1.43375322e-02
      5.22466376e-03 3.84735223e-03 7.23943440e-03 2.55590142e-03
      6.59262575e-03 -1.05386760e-04 -1.23448484e-02 9.33086791e-04
      1.16778249e-02 1.93873339e-03 6.33806596e-03 5.44152455e-03
      3.80112766e-03 -3.40522896e-03 3.27464286e-03 -2.68508377e-03
      6.90789567e-03 -9.54466593e-03 9.45185684e-03 4.76516085e-03
      3.70573695e-03 3.00416513e-03 3.20243929e-03 -5.33340732e-03
      9.14511830e-03 -1.73724964e-02 1.32497028e-02 -1.09860105e-02
      1.06674442e-02 -6.05599442e-03 3.03194672e-03 -4.16292576e-03
      -2.06163211e-04 -2.78326985e-03 4.04752512e-03 -7.04225339e-03
      1.51735694e-05 2.10132264e-03 6.94058836e-03 -1.60274946e-03
      9.22461413e-03 7.57185603e-03 -1.55450236e-02 0. 4.10750089e-03
      -8.22128612e-04 1.46196047e-02 9.56787542e-03 7.75243435e-03
      -1.86274119e-03 -3.08004487e-03 3.39406892e-03 2.45462591e-03
      2.07623281e-03 -1.00068767e-02 -1.67800803e-02 -4.51875897e-03
      -2.91037676e-03 -1.35502787e-02 5.89933759e-03 -4.64821607e-03
      2.51209224e-03 -2.80898879e-03 0. 1.69788243e-03 -5.00813052e-02
      -3.75105906e-03 -3.20107862e-02 -1.45857306e-02 -1.55450236e-02
      -6.36838842e-03 1.84804313e-02 5.69041865e-03 1.22224651e-02
      -2.63835798e-04 2.81514088e-03 2.51341698e-04 -1.15683088e-02
      2.49735313e-03 4.32984252e-03 8.77245050e-03 9.83650330e-03
      -3.97344399e-03 8.94617103e-03 -2.28049718e-02 1.22731295e-03
      1.16022965e-02 -6.79776818e-03 5.82442910e-04 -1.45521592e-02
      -2.17861074e-04 -8.82009510e-03 -3.36042419e-03 4.67306282e-03
      7.96721037e-03 5.14722476e-03 1.08385226e-02 -5.80781931e-03
      -8.65858572e-04 -3.52112669e-03 5.33955498e-03 -2.80898879e-03
      -8.68216739e-04 5.70282200e-03 -5.96421445e-03 5.20253507e-03
      5.13907196e-03 1.54151465e-03 8.23045056e-03 2.66180909e-03
      -8.20217002e-03 4.66554338e-04 1.59111130e-03 2.12013233e-03
      -7.23554811e-04 1.34480454e-03 0. 1.50357354e-02 4.21577599e-03
      -2.12488417e-03 -6.23204606e-03 1.66367984e-03 4.55396995e-03
      1.63984171e-03 4.55042487e-03 3.03065928e-04 6.91664731e-03
      -4.17730957e-03 6.06131856e-04 6.73281914e-03 5.50885219e-03
      -1.15186730e-02 -9.06475633e-03 1.47105136e-03 1.61658239e-03
      -3.28280702e-02 9.91836074e-04 4.80022142e-03 1.28413197e-02
      6.60913589e-04 1.57931019e-02 -8.03774782e-03 -4.04408574e-03
      -5.39959082e-03 -3.80462361e-03 1.51378894e-03 -1.61622055e-02
      8.62770062e-03 -8.14135000e-03 1.06872746e-03 4.24470613e-03
      -4.29184549e-03 6.61731884e-03 -7.30802026e-03 1.34750828e-03
      2.28620763e-03 -7.98374880e-03 -6.45337021e-03 3.27316666e-04
      8.71669408e-03 -7.58672552e-03 9.78217646e-03 7.85221532e-03
      1.91335927e-03 -1.38796205e-02 2.14020116e-03 5.49607072e-03
      5.64573845e-03 3.48746357e-03 0. 2.69153924e-03 -3.21027287e-03
      -2.13512848e-03 9.99035873e-03 -1.98807148e-03 -2.95436964e-03
      -3.55434534e-03 7.34776724e-04 -3.98100913e-03 1.46644691e-03
      1.23177259e-03 1.74343667e-03 2.61445483e-03 -8.27806257e-03
      -1.42769387e-03 -1.60721561e-03 1.04653891e-02 -1.03707360e-02 0.
      0. -3.49445431e-03 3.59397870e-03 1.93957170e-03 1.04874792e-03
      7.23273773e-03 1.38529241e-02 -3.12720169e-03 3.06075765e-03
      6.68357499e-03 -1.97979598e-03 8.58291145e-03 2.09461967e-03
      3.61508573e-03 1.25619874e-03 7.12342793e-03 1.69788243e-03
      7.50677500e-05 -7.50211813e-03 5.30547043e-03 6.39428943e-03
      1.64493942e-03 7.40122888e-03 -3.01620201e-03 3.00510996e-03
      -1.08385812e-02 6.68854034e-03 -2.80898879e-03 -7.35910889e-03
      8.63633957e-03 -7.61485600e-04 4.70807403e-03 -1.64144207e-02
      -1.88373611e-03 1.03130303e-02 5.13604144e-03 1.60032650e-03
      1.67635235e-03 3.63265141e-03 3.33394040e-03 6.30917214e-03
      8.29192752e-04 -3.97614297e-03 4.14596376e-04 -2.35558674e-03
      -2.14592274e-03 -2.80898879e-03 5.83474664e-03 9.45281610e-03
      7.33460905e-03 8.73616606e-04 6.84352778e-03 -1.98807148e-03
      3.87746678e-03 -1.16849169e-02 2.45462591e-03 8.57124478e-03
      -1.97597919e-03 -2.45777820e-03 7.17998436e-03 7.52979307e-04
      9.37239081e-03 6.26835506e-03 0. 9.02185589e-03 -2.75795092e-03
      1.30722742e-03 -5.12173756e-05 -1.10202590e-02 6.57045143e-03
      5.85444784e-03 4.38163104e-03 -6.65319851e-03 -9.41495236e-04
      6.56035682e-03 5.87542367e-04 -5.35081048e-03 8.10163468e-03
      7.26573868e-03 -2.88908388e-02 -4.91446024e-03 2.25341786e-03
      -8.42696615e-03 3.46281822e-03 1.01853646e-02 -7.53138354e-03
      3.35846562e-03 1.79076418e-02 2.58633979e-02 1.42441932e-02
      -6.11515832e-04 1.53037882e-03 -1.11706286e-04 -2.50716601e-03
      -8.16653774e-04 3.25520639e-03 -2.00289185e-03 -5.13520930e-03
      7.87835475e-03 3.69127537e-03 3.88128450e-03 5.73050370e-03
      -3.20473599e-04 -3.34461825e-03 1.49835518e-03 2.85658229e-04
      -3.59320780e-03 5.07057551e-03 -2.00934913e-02 3.15520284e-03
      5.44808852e-03 2.77367444e-03 -1.02101685e-02 1.46644691e-03
      -5.06601250e-03 -3.52112669e-03 7.65000843e-03 5.82672306e-04
      -1.02049895e-02 -1.12661906e-02 -2.60414113e-03 2.45462591e-03
      2.24620133e-04 1.67813397e-03 3.79869738e-03 2.52248440e-03
      1.61029329e-03 -8.17340624e-04 2.54682382e-03 1.48960054e-02
      1.50135500e-04 1.33905315e-03 1.69788243e-03 1.12310066e-04
      -1.54281128e-02 -9.85038187e-03 1.67813397e-03 3.65477148e-03
      -7.68449483e-03 -1.94364265e-02 2.62105465e-03 -1.55046757e-03 0.
      -7.08873325e-04 2.43466683e-02 7.82364327e-03 3.35270469e-03
      3.92288668e-03 2.44926778e-03 2.20590038e-03 5.73204691e-03
      4.04662127e-03 6.67537237e-03 -2.75825057e-02 1.20858969e-02
      1.67635235e-03 -1.13913021e-03 -2.27073953e-02 9.12395865e-03
      4.97991918e-03 2.72841821e-03 -5.85280498e-03 2.37604766e-03
      2.24392675e-03 9.61679593e-03 1.89815206e-03 -4.41811746e-03
      8.29192752e-04 5.83576644e-03 8.16958491e-03 -5.64759318e-03
      -7.11973850e-03 -1.11110636e-03 -3.21027287e-03 -1.34254189e-03
      1.30722742e-03 3.32610146e-03 3.50337382e-03 -5.89698181e-03
      1.46644691e-03 -1.38173401e-02 2.01492291e-03 -7.62370462e-03 0.
      1.09424378e-04 7.91853480e-03 4.80392016e-03 9.46611282e-04
      5.09031233e-04 4.96052625e-03 1.67635235e-03 -4.50387271e-03
      -1.29539063e-02 2.53077061e-03 7.83086196e-03 1.79787166e-03
      1.04874792e-03 8.45492061e-04 6.60449208e-04 -1.15441438e-02
      -1.31673005e-03 3.48244840e-03 -1.95365716e-02 7.80271715e-04
      1.23126339e-02 -7.21364142e-03 -4.28579701e-03 1.29805943e-02
      3.87746678e-03 -1.87074225e-02 3.14624398e-03 4.29949490e-03
      -2.12722551e-03 4.86759283e-03 9.69366636e-03 7.49255251e-03
      3.99361830e-03 2.81795184e-03 3.64427513e-04 -8.68197065e-03
      5.52143296e-03 -2.30310690e-02 2.36466294e-03 -1.98368691e-02
      -7.80002726e-03 2.31538806e-03 2.54682382e-03 3.53378314e-03
      -6.66055968e-03 3.08200833e-03 -2.80898879e-03 1.97717251e-04
      4.63186717e-03 -2.14592274e-03 -8.15979950e-03 4.31233738e-03
      -6.51113130e-03 8.39160383e-03 2.05470622e-02 -3.52112669e-03
      6.84858719e-03 -2.61059334e-03 -2.16152496e-03 2.80861091e-03
      6.40376285e-03 -8.09711113e-04 -1.58239331e-03 1.88033213e-03
      -1.28755365e-02 2.70244735e-03 -4.93381049e-05 3.16432933e-03
      9.15820710e-03 6.50267024e-03 -7.45612849e-03 0. -7.62030529e-03
      -2.21765283e-02 5.28256875e-03 -3.52112669e-03 8.73298850e-04
      4.02641110e-03 1.19719505e-02 -1.17657986e-03 5.36414282e-03
      -1.00369127e-02 1.12397391e-02 5.51822130e-03 -2.04579066e-03
      1.46644691e-03 4.95006377e-03 5.83941489e-03 -2.35311221e-03
      6.73754141e-04 1.32379413e-03 -1.04314480e-02 3.96456476e-03
      3.10931611e-03 4.16907156e-03 -2.29407306e-04 2.54682382e-03
      6.43379893e-03 5.34334045e-04 7.10385293e-03 -9.88875516e-04
      -8.31823389e-04 5.42529859e-03 -7.04225339e-03 2.76792608e-03</_></support_vectors>
  <uncompressed_sv_total>26</uncompressed_sv_total>
  <uncompressed_support_vectors>
    <_>
      0. 0. 3.52112669e-03 0. 0. 3.52112669e-03 0. 0. 0. 0. 0. 0. 0. 0.
      0. 3.52112669e-03 0. 0. 0. 0. 0. 0. 3.52112669e-03 0. 0. 0. 0.
      7.04225339e-03 0. 0. 1.05633801e-02 3.52112669e-03 0. 0.
      3.52112669e-03 0. 0. 1.05633801e-02 0. 0. 0. 0. 0. 2.11267602e-02
      0. 0. 0. 0. 0. 0. 0. 0. 0. 0. 0. 3.52112669e-03 3.52112669e-03 0.
      0. 0. 0. 0. 0. 0. 3.52112669e-03 3.52112669e-03 0. 0.
      3.52112669e-03 0. 0. 1.40845068e-02 0. 0. 0. 0. 7.04225339e-03
      1.05633801e-02 0. 0. 1.05633801e-02 0. 0. 0. 0. 4.92957756e-02 0.
      0. 0. 0. 0. 0. 0. 0. 0. 0. 0. 0. 3.52112669e-03 0. 0. 0. 0. 0. 0.
      1.40845068e-02 0. 0. 3.52112669e-03 0. 0. 0. 3.52112669e-03 0. 0.
      0. 0. 0. 0. 3.52112669e-03 0. 0. 0. 0. 0. 3.52112669e-03 0.
      3.52112669e-03 0. 0. 0. 3.52112669e-03 3.52112669e-03 0. 0. 0. 0.
      0. 0. 0. 0. 7.04225339e-03 0. 0. 0. 0. 0. 0. 0. 0. 0. 0. 0. 0. 0.
      0. 0. 0. 0. 1.05633801e-02 0. 0. 0. 0. 0. 0. 0. 0. 0. 0. 0.
      1.05633801e-02 0. 0. 0. 0. 1.40845068e-02 0. 0. 0. 3.52112669e-03
      0. 0. 0. 3.52112669e-03 0. 0. 0. 0. 3.52112669e-03 0. 0. 0. 0. 0.
      0. 0. 0. 0. 0. 0. 7.04225339e-03 0. 0. 0. 0. 0. 1.05633801e-02 0.
      0. 0. 0. 0. 0. 3.52112669e-03 0. 0. 0. 0. 0. 0. 0. 0. 0. 0. 0. 0.
      7.04225339e-03 3.52112669e-03 0. 0. 0. 0. 0. 7.04225339e-03 0. 0.
      0. 0. 0. 0. 0. 0. 3.52112669e-03 0. 3.52112669e-03 0. 0. 0. 0.
      3.52112669e-03 0. 3.52112669e-03 0. 0. 0. 0. 0. 0. 0. 0.
      3.52112669e-03 0. 0. 0. 1.05633801e-02 0. 0. 0. 0. 0. 0.
      3.52112669e-03 0. 0. 3.52112669e-03 0. 2.11267602e-02 0. 0. 0. 0.
      3.52112669e-03 0. 0. 0. 0. 0. 0. 0. 0. 0. 0. 0. 0. 0. 0. 0. 0. 0.
      0. 0. 0. 0. 0. 0. 0. 0. 0. 0. 0. 0. 3.52112669e-03 0.
      1.40845068e-02 0. 0. 0. 0. 0. 3.52112669e-03 0. 0. 0. 0.
      3.52112669e-03 0. 0. 0. 0. 0. 0. 7.04225339e-03 0. 0. 0. 0. 0. 0.
      0. 0. 0. 0. 0. 0. 0. 0. 0. 0. 0. 0. 0. 3.52112669e-03 0. 0. 0. 0.
      0. 0. 0. 0. 0. 0. 0. 0. 0. 0. 0. 0. 0. 0. 0. 0. 0. 0. 0. 0. 0. 0.
      3.52112669e-03 0. 0. 3.52112669e-03 0. 0. 0. 0. 0. 0. 0. 0. 0. 0.
      0. 0. 3.52112669e-03 7.04225339e-03 7.04225339e-03 0. 0. 0.
      7.04225339e-03 7.04225339e-03 0. 0. 3.52112669e-03 0. 0. 0.
      3.52112669e-03 0. 3.52112669e-03 0. 0. 0. 0. 1.05633801e-02 0. 0.
      0. 0. 0. 0. 0. 0. 0. 0. 0. 0. 0. 7.04225339e-03 3.52112669e-03 0.
      0. 0. 0. 0. 0. 0. 0. 7.04225339e-03 0. 0. 0. 0. 0. 0. 0.
      7.04225339e-03 0. 0. 0. 0. 0. 0. 0. 0. 0. 3.52112669e-03 0. 0.
      3.52112669e-03 0. 0. 0. 0. 0. 3.52112669e-03 3.52112669e-03 0.
      3.52112669e-03 0. 0. 0. 7.04225339e-03 0. 0. 0. 0. 0. 0. 0. 0. 0.
      0. 0. 0. 0. 0. 0. 0. 0. 0. 0. 0. 0. 0. 0. 0. 0. 1.40845068e-02 0.
      0. 0. 1.40845068e-02 0. 0. 0. 0. 0. 0. 3.52112669e-03 0. 0. 0. 0.
      0. 0. 0. 1.05633801e-02 0. 0. 0. 0. 0. 0. 0. 0. 0. 0. 0. 0. 0. 0.
      0. 3.52112669e-03 0. 0. 0. 0. 3.52112669e-03 0. 0. 0. 0. 0. 0. 0.
      0. 0. 0. 0. 0. 0. 0. 0. 0. 7.04225339e-03 0. 0. 0. 0. 0. 0. 0. 0.
      0. 0. 0. 0. 0. 3.52112669e-03 0. 0. 0. 0. 1.05633801e-02 0. 0. 0.
      0. 0. 0. 0. 0. 0. 0. 1.40845068e-02 0. 1.05633801e-02 0. 0.
      1.05633801e-02 0. 0. 0. 0. 3.52112669e-03 0. 0. 0. 0. 0. 0.
      3.52112669e-03 0. 2.11267602e-02 0. 0. 0. 0. 1.05633801e-02
      7.04225339e-03 0. 7.04225339e-03 0. 0. 0. 0. 1.05633801e-02
      7.04225339e-03 3.52112669e-03 0. 0. 0. 0. 0. 0. 0. 0. 0. 0.
      3.52112669e-03 0. 0. 0. 0. 7.04225339e-03 0. 0. 0. 0.
      3.52112669e-03 0. 0. 0. 0. 0. 0. 0. 0. 0. 0. 1.05633801e-02
      7.04225339e-03 3.52112669e-03 0. 3.16901393e-02 0. 0. 0. 0. 0. 0.
      0. 0. 0. 0. 7.04225339e-03 0. 3.52112669e-03 0. 0. 0. 0. 0. 0. 0.
      7.04225339e-03 0. 0. 0. 0. 3.52112669e-03 0. 0. 0. 0. 0. 0. 0. 0.
      0. 0. 0. 0. 0. 0. 1.05633801e-02 0. 0. 0. 0. 7.04225339e-03 0. 0.
      0. 7.04225339e-03 0. 0. 0. 0. 0. 0. 0. 0. 0. 0. 0. 0. 0. 0. 0. 0.
      0. 0. 0. 0. 0. 0. 0. 0. 0. 0. 0. 0. 0. 0. 0. 0. 0. 0. 0. 0. 0. 0.
      3.52112669e-03 0. 0. 0. 0. 0. 0. 0. 0. 7.04225339e-03 0. 0. 0. 0.
      0. 0. 0. 0. 0. 0. 0. 0. 0. 0. 0. 0. 0. 0. 0. 0. 0. 0.
      3.52112669e-03 0. 0. 0. 0. 0. 0. 0. 3.52112669e-03 0. 0. 0.
      2.46478878e-02 0. 0. 0. 0. 0. 0. 0. 0. 0. 0. 0. 0. 0. 0. 0. 0. 0.
      0. 0. 0. 0. 0. 3.52112669e-03 0. 0. 3.52112669e-03 0. 0.
      1.05633801e-02 0. 0. 0. 0. 0. 0. 3.52112669e-03 0. 0. 0.
      7.04225339e-03 0. 0. 0. 0. 3.52112669e-03 0. 0. 3.52112669e-03 0.
      3.52112669e-03 0. 0. 0. 0. 1.05633801e-02 3.52112669e-03 0. 0.
      3.52112669e-03 0. 0. 0. 0. 0. 0. 0. 0. 0. 0. 0. 0. 0. 0. 0. 0. 0.
      0. 3.52112669e-03 0. 0. 7.04225339e-03 0. 0. 0. 7.04225339e-03 0.
      0. 0. 0. 0. 0. 0. 0. 0. 0. 0. 0. 0. 0. 0. 1.40845068e-02 0.
      3.52112669e-03 0. 0. 3.52112669e-03 0. 0. 0. 0. 0. 3.52112669e-03
      3.52112669e-03 0. 0. 0. 0. 0. 0. 7.04225339e-03 0. 0.
      7.04225339e-03 0. 0. 0. 0. 0. 0. 3.52112669e-03 0. 0. 0. 0. 0. 0.
      3.52112669e-03 0. 0. 0. 0. 3.52112669e-03 0. 0. 0. 0. 0. 0. 0. 0.
      0. 0. 0. 0. 0. 0. 0. 0. 0. 3.52112669e-03 0. 0. 0. 0. 0. 0.
      3.52112669e-03 0. 0. 0. 0. 0. 0. 0. 0. 0. 0. 0. 0. 3.52112669e-03
      0. 0. 0. 0. 0. 0. 0. 0. 0. 0. 0. 0. 0. 0. 0. 0. 0. 0. 0.
      3.52112669e-03 0. 0. 0. 0. 0. 0. 0. 7.04225339e-03 0.</_>
    <_>
      0. 0. 2.14592274e-02 0. 0. 4.29184549e-03 0. 0. 0. 0. 0. 0. 0. 0.
      0. 0. 0. 0. 0. 0. 0. 0. 0. 0. 0. 0. 0. 0. 0. 0. 0. 4.29184549e-03
      0. 0. 8.58369097e-03 8.58369097e-03 0. 2.57510729e-02 0. 0. 0. 0.
      0. 8.58369097e-03 0. 4.29184549e-03 4.29184549e-03 0. 0. 0. 0. 0.
      0. 0. 8.58369097e-03 1.71673819e-02 0. 0. 0. 0. 0. 0. 0.
      4.29184549e-03 0. 0. 0. 0. 0. 8.58369097e-03 0. 3.00429184e-02 0.
      0. 0. 0. 8.58369097e-03 0. 0. 0. 1.28755365e-02 0. 0. 0. 0.
      1.71673819e-02 4.29184549e-03 0. 0. 0. 0. 4.29184549e-03 0. 0. 0.
      0. 0. 0. 0. 0. 0. 0. 8.58369097e-03 0. 0. 0. 0. 0. 0. 0. 0. 0. 0.
      0. 0. 0. 0. 0. 0. 0. 0. 0. 0. 4.29184549e-03 0. 0. 0.
      1.28755365e-02 0. 0. 0. 0. 0. 4.29184549e-03 2.57510729e-02 0. 0.
      0. 0. 0. 0. 2.14592274e-02 0. 0. 0. 0. 0. 0. 0. 0. 0. 0. 0. 0. 0.
      0. 0. 0. 0. 4.29184549e-03 0. 0. 0. 0. 4.29184549e-03 0. 0. 0. 0.
      0. 0. 2.57510729e-02 0. 0. 0. 0. 2.14592274e-02 0. 0. 0. 0. 0.
      4.29184549e-03 0. 0. 0. 0. 0. 0. 0. 0. 0. 0. 0. 0. 0. 0. 0. 0. 0.
      0. 0. 0. 0. 0. 0. 0. 3.00429184e-02 0. 0. 0. 0. 0. 0. 0. 0. 0. 0.
      0. 0. 0. 0. 0. 0. 0. 0. 0. 0. 0. 0. 0. 0. 0. 0. 0. 0. 0. 0.
      1.71673819e-02 0. 0. 0. 0. 0. 0. 0. 0. 0. 0. 0. 0. 0. 0.
      4.29184549e-03 0. 0. 0. 0. 0. 4.29184549e-03 0. 1.28755365e-02 0.
      0. 0. 0. 0. 0. 0. 0. 0. 0. 0. 1.71673819e-02 0. 0. 0.
      4.29184549e-03 0. 0. 8.58369097e-03 0. 0. 0. 0. 0. 0. 0. 0.
      8.58369097e-03 0. 0. 0. 0. 0. 0. 0. 0. 0. 0. 0. 0. 0. 0.
      4.29184549e-03 0. 1.71673819e-02 0. 0. 0. 0. 0. 0. 0.
      4.29184549e-03 0. 8.58369097e-03 8.58369097e-03 0. 0.
      4.29184549e-03 0. 0. 4.29184549e-03 0. 1.28755365e-02 0. 0. 0. 0.
      0. 0. 0. 0. 0. 0. 4.29184549e-03 0. 0. 0. 0. 0. 0. 0. 0. 0. 0. 0.
      0. 0. 0. 4.29184549e-03 0. 0. 0. 0. 0. 0. 0. 0. 0. 0.
      4.29184549e-03 0. 0. 0. 0. 1.28755365e-02 0. 0. 0. 0. 0. 0. 0. 0.
      0. 0. 0. 0. 0. 0. 0. 0. 0. 0. 0. 4.29184549e-03 0. 0. 0. 0. 0. 0.
      0. 0. 0. 0. 0. 0. 0. 1.28755365e-02 0. 0. 0. 0. 0. 0.
      4.29184549e-03 4.29184549e-03 0. 4.29184549e-03 0. 0. 0. 0. 0. 0.
      0. 0. 0. 0. 0. 0. 0. 0. 0. 0. 0. 0. 0. 0. 0. 0. 0. 0. 0. 0. 0. 0.
      4.29184549e-03 0. 0. 0. 0. 0. 0. 0. 4.29184549e-03 0. 0. 0. 0.
      8.58369097e-03 0. 0. 0. 0. 0. 0. 0. 0. 0. 0. 0. 0. 0. 0. 0. 0. 0.
      0. 0. 0. 0. 0. 0. 0. 0. 0. 0. 0. 0. 0. 0. 0. 0. 0. 0. 0. 0. 0. 0.
      0. 0. 0. 0. 0. 0. 0. 4.29184549e-03 0. 0. 0. 1.71673819e-02 0. 0.
      0. 0. 0. 2.14592274e-02 0. 0. 0. 0. 0. 0. 0. 0. 4.29184549e-03 0.
      1.71673819e-02 0. 0. 0. 0. 0. 0. 0. 0. 0. 0. 0. 0. 0. 0. 0. 0.
      4.29184549e-03 0. 0. 0. 0. 0. 0. 8.58369097e-03 0. 0. 0. 0. 0. 0.
      0. 0. 0. 0. 0. 0. 0. 0. 0. 0. 0. 0. 0. 0. 0. 0. 0. 0. 0. 0. 0. 0.
      0. 0. 4.29184549e-03 0. 0. 8.58369097e-03 1.28755365e-02
      4.29184549e-03 0. 0. 0. 0. 0. 1.71673819e-02 0. 1.28755365e-02 0.
      0. 0. 0. 0. 0. 0. 1.71673819e-02 4.29184549e-03 1.28755365e-02 0.
      0. 0. 0. 0. 0. 0. 0. 0. 4.29184549e-03 0. 4.29184549e-03 0.
      1.28755365e-02 0. 0. 0. 0. 0. 0. 0. 0. 0. 0. 0. 0. 0. 0.
      4.29184549e-03 0. 0. 0. 0. 0. 0. 0. 0. 0. 0. 0. 0. 0.
      8.58369097e-03 0. 0. 4.29184549e-03 0. 0. 0. 0. 0. 0. 0. 0. 0. 0.
      0. 0. 0. 0. 0. 0. 0. 0. 0. 0. 0. 4.29184549e-03 0. 0. 0. 0. 0. 0.
      0. 0. 0. 0. 0. 0. 0. 0. 0. 0. 0. 0. 0. 0. 0. 0. 0. 0. 0. 0. 0. 0.
      0. 0. 0. 0. 0. 0. 0. 0. 0. 0. 0. 0. 0. 0. 0. 0. 0. 0.
      4.29184549e-03 0. 0. 0. 0. 0. 0. 0. 0. 0. 0. 0. 0. 0. 0. 0. 0. 0.
      0. 0. 0. 0. 0. 0. 0. 0. 0. 4.29184549e-03 0. 0. 8.58369097e-03 0.
      0. 0. 0. 0. 0. 0. 0. 0. 0. 0. 0. 0. 0. 0. 0. 0. 0. 0. 0.
      8.58369097e-03 0. 0. 4.29184549e-03 0. 0. 0. 0. 0. 0. 0. 0. 0.
      4.29184549e-03 0. 0. 0. 0. 0. 0. 0. 0. 0. 0. 0. 4.29184549e-03
      4.29184549e-03 0. 0. 0. 0. 0. 0. 0. 0. 0. 0. 0. 0. 0. 0. 0. 0. 0.
      0. 0. 0. 0. 0. 0. 0. 0. 0. 0. 1.71673819e-02 0. 0. 0.
      1.28755365e-02 0. 0. 0. 0. 0. 0. 0. 0. 0. 0. 0. 0. 0. 0. 0. 0. 0.
      0. 0. 0. 0. 0. 4.29184549e-03 0. 0. 0. 0. 0. 0. 0. 0. 0. 0. 0. 0.
      0. 0. 0. 0. 0. 8.58369097e-03 0. 0. 0. 0. 0. 0. 0. 0. 0. 0.
      4.29184549e-03 0. 0. 0. 0. 0. 0. 0. 0. 0. 0. 0. 0. 0. 0. 0. 0. 0.
      8.58369097e-03 0. 0. 0. 0. 0. 0. 0. 0. 4.29184549e-03 0. 0. 0. 0.
      0. 4.29184549e-03 0. 0. 0. 0. 1.71673819e-02 4.29184549e-03 0. 0.
      0. 0. 0. 2.57510729e-02 0. 0. 0. 0. 0. 0. 0. 0. 0. 0. 0.
      1.71673819e-02 0. 0. 0. 0. 0. 0. 0. 0. 0. 0. 0. 0. 0. 0. 0. 0. 0.
      0. 0. 0. 0. 0. 0. 0. 0. 0. 1.28755365e-02 0. 0. 0. 0. 0. 0. 0.
      4.29184549e-03 0. 0. 0. 0. 0. 0. 0. 0. 0. 0. 0. 0. 0. 0. 0.
      4.29184549e-03 0. 0. 4.29184549e-03 0. 0. 0. 0. 0. 0. 0. 0. 0. 0.
      0. 0. 0.</_>
    <_>
      0. 0. 2.80898879e-03 2.80898879e-03 0. 0. 0. 0. 0. 0. 0. 0. 0.
      2.80898879e-03 0. 2.80898879e-03 0. 0. 0. 0. 0. 0. 0. 0. 0. 0. 0.
      0. 0. 0. 0. 2.80898879e-03 0. 0. 0. 0. 0. 0. 1.12359552e-02 0. 0.
      2.80898879e-03 0. 0. 0. 0. 2.80898879e-03 0. 2.80898879e-03 0.
      2.80898879e-03 0. 0. 0. 0. 0. 0. 0. 2.80898879e-03 0. 0. 0. 0. 0.
      5.61797759e-03 2.80898879e-03 2.80898879e-03 0. 0. 0. 0.
      2.80898879e-03 0. 0. 0. 2.80898879e-03 0. 2.80898879e-03 0.
      1.12359552e-02 0. 0. 0. 0. 0. 0. 0. 2.80898879e-03 0. 0. 0.
      5.61797759e-03 0. 0. 0. 2.80898879e-03 0. 0. 0. 0. 0. 0. 0. 0.
      2.80898884e-02 0. 0. 0. 0. 0. 0. 0. 0. 2.80898879e-03 0.
      2.80898879e-03 0. 2.80898879e-03 1.12359552e-02 0. 0. 0. 0. 0. 0.
      0. 0. 2.80898879e-03 0. 8.42696615e-03 0. 0. 0. 0. 0. 0. 0. 0. 0.
      0. 0. 2.80898879e-03 0. 0. 2.80898879e-03 0. 0. 2.80898879e-03 0.
      0. 0. 5.61797759e-03 0. 0. 8.42696615e-03 0. 0. 0. 0. 0. 0. 0. 0.
      0. 0. 0. 0. 0. 0. 0. 0. 0. 5.61797759e-03 0. 5.61797759e-03 0. 0.
      0. 0. 0. 0. 2.80898879e-03 8.42696615e-03 0. 0. 0. 1.68539323e-02
      2.80898879e-03 0. 0. 0. 0. 0. 0. 0. 2.80898879e-03 0. 0. 0. 0. 0.
      0. 0. 0. 5.61797759e-03 0. 0. 0. 0. 0. 0. 0. 0. 0. 0. 0. 0. 0. 0.
      0. 0. 2.80898879e-03 0. 0. 0. 8.42696615e-03 2.80898879e-03 0.
      2.80898879e-03 0. 0. 0. 2.80898879e-03 0. 0. 0. 0. 0. 0. 0. 0.
      1.40449442e-02 2.80898879e-03 2.80898879e-03 0. 0. 0. 0. 0.
      5.61797759e-03 2.80898879e-03 5.61797759e-03 0. 0. 0. 0. 0. 0.
      2.80898879e-03 0. 0. 0. 0. 5.61797759e-03 2.80898879e-03 0. 0. 0.
      0. 2.80898879e-03 0. 0. 0. 0. 2.80898879e-03 0. 0. 0. 0. 0. 0. 0.
      0. 0. 0. 0. 2.80898879e-03 2.80898879e-03 1.12359552e-02 0.
      8.42696615e-03 0. 0. 2.80898879e-03 0. 0. 0. 0. 0. 0.
      2.80898879e-03 0. 0. 0. 0. 1.12359552e-02 0. 0. 0. 2.80898879e-03
      2.80898879e-03 0. 0. 0. 2.80898879e-03 0. 0. 0. 0. 0. 0. 0. 0.
      8.42696615e-03 0. 0. 0. 5.61797759e-03 0. 0. 0. 0. 5.61797759e-03
      0. 2.80898879e-03 0. 0. 5.61797759e-03 0. 0. 0. 0. 0. 0. 0.
      2.80898879e-03 0. 2.80898879e-03 0. 0. 0. 0. 0. 0. 2.80898879e-03
      1.40449442e-02 0. 0. 0. 2.80898879e-03 0. 0. 0. 0. 0.
      5.61797759e-03 0. 0. 5.61797759e-03 0. 0. 0. 0. 0. 5.61797759e-03
      0. 1.12359552e-02 0. 0. 5.61797759e-03 0. 0. 0. 0. 0.
      5.61797759e-03 5.61797759e-03 5.61797759e-03 0. 0. 0.
      5.61797759e-03 0. 0. 0. 0. 0. 8.42696615e-03 0. 0. 0. 0.
      5.61797759e-03 0. 0. 0. 0. 0. 0. 5.61797759e-03 0. 0. 0. 0. 0. 0.
      0. 0. 0. 8.42696615e-03 5.61797759e-03 0. 8.42696615e-03 0. 0. 0.
      0. 8.42696615e-03 0. 0. 0. 0. 0. 0. 0. 2.80898879e-03 0.
      2.80898879e-03 5.61797759e-03 0. 1.12359552e-02 5.61797759e-03 0.
      0. 0. 0. 0. 0. 0. 0. 5.61797759e-03 0. 0. 0. 0. 0. 0. 0. 0. 0.
      2.80898879e-03 2.80898879e-03 0. 2.80898879e-03 0. 0. 0.
      2.80898879e-03 0. 0. 2.80898879e-03 0. 0. 0. 0. 8.42696615e-03 0.
      2.80898879e-03 0. 0. 2.80898879e-03 0. 0. 0. 0. 0. 2.80898879e-03
      0. 0. 0. 0. 0. 2.80898879e-03 0. 0. 0. 0. 2.80898879e-03 0. 0.
      8.42696615e-03 0. 0. 5.61797759e-03 0. 0. 0. 0. 0. 0. 0. 0.
      2.80898879e-03 0. 2.80898879e-03 0. 0. 0. 5.61797759e-03 0.
      8.42696615e-03 0. 2.80898879e-03 0. 0. 0. 0. 0. 0. 0. 0. 0. 0. 0.
      0. 2.80898879e-03 0. 5.61797759e-03 2.80898879e-03 2.80898879e-03
      0. 0. 8.42696615e-03 0. 0. 0. 0. 2.80898879e-03 0. 0. 0.
      1.12359552e-02 0. 5.61797759e-03 0. 0. 0. 0. 0. 0. 0. 0. 0. 0. 0.
      0. 0. 0. 0. 0. 0. 0. 0. 0. 0. 0. 0. 2.80898879e-03 1.40449442e-02
      0. 0. 0. 2.80898879e-03 0. 2.80898879e-03 0. 0. 0. 0. 0.
      2.80898879e-03 0. 0. 0. 2.80898879e-03 0. 0. 0. 0. 0. 0.
      2.80898879e-03 0. 0. 5.61797759e-03 0. 0. 0. 0. 2.80898879e-03 0.
      0. 0. 0. 0. 0. 5.61797759e-03 0. 0. 0. 2.80898879e-03 0. 0.
      2.80898879e-03 5.61797759e-03 0. 0. 0. 0. 0. 0. 0. 0. 0. 0. 0. 0.
      0. 0. 0. 0. 0. 0. 2.80898879e-03 0. 0. 0. 0. 0. 0. 0. 0. 0.
      5.61797759e-03 0. 0. 0. 5.61797759e-03 2.80898879e-03 0. 0. 0. 0.
      0. 5.61797759e-03 5.61797759e-03 0. 0. 2.80898879e-03 0.
      8.42696615e-03 2.80898879e-03 0. 0. 0. 0. 0. 2.80898879e-03
      2.80898879e-03 0. 0. 0. 5.61797759e-03 0. 0. 0. 1.40449442e-02 0.
      0. 0. 0. 0. 0. 0. 2.80898879e-03 0. 0. 0. 0. 0. 0. 0. 0. 0. 0. 0.
      0. 2.80898879e-03 0. 0. 0. 0. 2.80898879e-03 0. 2.80898879e-03 0.
      0. 0. 0. 0. 0. 2.80898879e-03 0. 2.80898879e-03 0. 0. 0. 0. 0. 0.
      0. 0. 2.80898879e-03 0. 2.80898879e-03 0. 0. 0. 2.80898879e-03
      2.80898879e-03 0. 0. 0. 2.80898879e-03 0. 0. 0. 0. 0.
      2.80898879e-03 0. 0. 0. 0. 0. 0. 0. 2.80898879e-03 0. 0. 0. 0. 0.
      0. 0. 0. 0. 0. 0. 0. 0. 0. 0. 2.80898879e-03 0. 0. 0. 0. 0. 0. 0.
      0. 0. 0. 2.80898879e-03 0. 0. 5.61797759e-03 0. 0. 0. 0. 0.
      8.42696615e-03 0. 0. 0. 0. 0. 0. 0. 5.61797759e-03 0.
      8.42696615e-03 0. 0. 0. 5.61797759e-03 0. 0. 0. 0. 0. 0.
      2.80898879e-03 0. 0. 0. 0. 2.80898879e-03 0. 0. 0. 0. 0.
      8.42696615e-03 0. 0. 0. 0. 0. 0. 0. 0. 0. 0. 0. 0. 2.80898879e-03
      0. 0. 0. 2.80898879e-03 0. 0. 0. 0. 0. 0. 0. 1.68539323e-02 0. 0.
      0. 2.80898879e-03 0. 0. 0. 0. 0. 0. 0. 0. 0. 0. 2.80898879e-03 0.
      0. 0. 0. 0. 2.80898879e-03 0. 0. 0. 0. 2.80898879e-03
      1.12359552e-02 0. 0. 0. 1.40449442e-02 8.42696615e-03
      2.80898879e-03 0. 2.80898879e-03 0. 0. 0. 0. 0. 0. 0. 0. 0. 0. 0.
      0. 0. 0. 0. 0. 0. 2.80898879e-03 0. 0. 0. 0. 0. 2.80898879e-03
      5.61797759e-03 0. 0. 0. 0. 0. 8.42696615e-03 0. 0. 0. 0. 0. 0.
      2.80898879e-03 0. 0. 0. 0. 0. 0. 2.80898879e-03 0. 0. 0. 0. 0. 0.
      0. 0. 0. 0. 2.80898879e-03 0. 0. 0. 8.42696615e-03 0. 0.
      2.80898879e-03 0. 0. 0. 0. 0. 0. 0. 0. 0. 0. 0. 0. 0. 0. 0. 0.
      2.80898879e-03 0. 0. 5.61797759e-03 0. 0. 0. 0. 0. 0. 0.
      8.42696615e-03 0. 0. 8.42696615e-03 0. 0. 0. 0. 0. 0.
      5.61797759e-03 0. 0. 0. 0. 0. 0. 0. 0. 0. 0. 0. 0. 0.</_>
    <_>
      0. 0. 1.60513644e-03 3.21027287e-03 9.63081885e-03 0. 0.
      1.60513644e-03 0. 0. 1.60513644e-03 0. 0. 0. 0. 0. 1.60513644e-03
      0. 0. 0. 0. 0. 0. 0. 1.60513644e-03 1.60513644e-03 0. 0. 0. 0. 0.
      0. 1.60513644e-03 1.60513644e-03 0. 0. 0. 0. 0. 3.21027287e-03
      4.81540943e-03 0. 0. 0. 0. 3.21027287e-03 0. 6.42054575e-03
      1.60513644e-03 1.60513644e-03 1.60513644e-03 0. 0. 3.21027287e-03
      0. 0. 0. 1.60513644e-03 0. 0. 4.81540943e-03 0. 0. 0. 0. 0. 0.
      4.81540943e-03 0. 0. 3.21027287e-03 8.02568253e-03 0. 0. 0. 0.
      1.12359552e-02 1.60513644e-03 0. 0. 0. 0. 0. 0. 1.60513644e-03 0.
      0. 0. 0. 0. 1.60513644e-03 0. 0. 0. 1.60513644e-03 2.24719103e-02
      0. 3.21027287e-03 6.42054575e-03 6.42054575e-03 1.60513644e-03 0.
      0. 4.81540943e-03 0. 0. 0. 0. 0. 0. 1.60513644e-03 1.60513644e-03
      0. 0. 0. 0. 0. 4.81540943e-03 0. 0. 1.60513644e-03 0. 0. 0. 0.
      1.60513644e-03 0. 0. 4.81540943e-03 3.21027287e-03 0.
      1.60513644e-03 0. 0. 1.60513644e-03 0. 1.60513644e-03
      4.81540943e-03 0. 0. 0. 0. 0. 0. 0. 0. 1.60513644e-03
      3.21027287e-03 0. 0. 1.60513644e-03 0. 3.21027287e-03 0. 0. 0. 0.
      3.21027287e-03 0. 1.60513644e-03 0. 1.60513644e-03 0.
      3.21027287e-03 8.02568253e-03 0. 0. 0. 0. 4.81540943e-03 0. 0.
      1.60513644e-03 0. 3.21027287e-03 0. 1.60513644e-03 0. 0. 0.
      3.21027287e-03 0. 0. 0. 0. 0. 4.81540943e-03 3.21027287e-03 0.
      9.63081885e-03 1.60513644e-03 0. 0. 8.02568253e-03 1.60513644e-03
      0. 0. 0. 1.60513644e-03 1.60513644e-03 3.21027287e-03 0. 0.
      4.81540943e-03 6.42054575e-03 0. 0. 0. 3.21027287e-03 0.
      4.81540943e-03 0. 0. 1.60513644e-03 0. 0. 1.60513644e-03
      6.42054575e-03 1.60513644e-03 0. 0. 0. 0. 0. 3.21027287e-03 0.
      3.21027287e-03 0. 4.81540943e-03 0. 0. 0. 0. 0. 0. 0. 0. 0. 0.
      1.60513644e-03 0. 0. 1.60513644e-03 0. 0. 0. 0. 0. 1.60513644e-03
      0. 0. 0. 0. 0. 3.21027287e-03 0. 0. 0. 0. 0. 0. 0. 0. 0. 0.
      4.81540943e-03 1.60513644e-03 0. 1.60513644e-03 0. 0.
      1.60513644e-03 0. 0. 0. 3.21027287e-03 0. 0. 0. 0. 0.
      1.60513644e-03 0. 1.12359552e-02 0. 1.60513644e-03 1.60513644e-03
      0. 0. 0. 0. 0. 0. 6.42054575e-03 4.81540943e-03 0. 4.81540943e-03
      3.21027287e-03 0. 3.21027287e-03 1.60513644e-03 0. 0.
      4.81540943e-03 0. 0. 0. 0. 0. 3.21027287e-03 0. 0. 8.02568253e-03
      0. 6.42054575e-03 0. 0. 0. 0. 1.60513644e-03 0. 0. 0. 0. 0. 0. 0.
      0. 0. 0. 0. 0. 0. 0. 0. 1.60513644e-03 0. 3.69181372e-02 0. 0.
      3.21027287e-03 0. 0. 0. 0. 1.60513644e-03 3.21027287e-03 0. 0.
      1.60513644e-03 6.42054575e-03 3.21027287e-03 1.60513644e-03
      1.60513644e-03 0. 3.21027287e-03 0. 3.21027287e-03 0.
      3.21027287e-03 0. 1.60513644e-03 0. 1.60513644e-03 0.
      1.60513644e-03 0. 2.24719103e-02 0. 3.21027287e-03 1.60513644e-03
      0. 0. 1.60513644e-03 1.60513644e-03 0. 0. 1.60513644e-03 0.
      9.63081885e-03 1.60513644e-03 0. 0. 0. 0. 1.60513644e-03 0. 0. 0.
      0. 1.12359552e-02 1.60513644e-03 0. 1.60513644e-03 1.60513644e-03
      0. 0. 0. 0. 0. 3.21027287e-03 1.60513644e-03 0. 0. 0. 0. 0.
      3.21027287e-03 0. 0. 0. 1.60513644e-03 0. 0. 0. 0. 0. 0. 0.
      3.21027287e-03 6.42054575e-03 0. 1.60513644e-03 4.81540943e-03
      1.60513644e-03 0. 1.60513644e-03 0. 1.60513644e-03 0. 0. 0.
      1.60513644e-03 1.60513644e-03 0. 0. 0. 1.60513644e-03 0. 0. 0. 0.
      0. 0. 1.60513644e-03 3.21027287e-03 0. 0. 0. 0. 0. 0. 0. 0.
      3.21027287e-03 0. 1.60513644e-03 1.60513644e-03 0. 1.60513644e-03
      0. 0. 0. 0. 0. 0. 0. 0. 0. 0. 0. 0. 0. 0. 0. 1.60513644e-03
      1.60513644e-03 0. 0. 8.02568253e-03 1.60513644e-03 0.
      1.60513644e-03 0. 0. 0. 0. 0. 0. 0. 1.60513644e-03 0. 0. 0. 0. 0.
      1.60513644e-03 0. 0. 0. 3.21027287e-03 3.21027287e-03 0.
      1.60513644e-03 0. 0. 1.60513644e-03 4.81540943e-03 0.
      3.21027287e-03 0. 3.21027287e-03 0. 1.60513644e-03 1.12359552e-02
      4.81540943e-03 1.60513644e-03 3.21027287e-03 9.63081885e-03
      1.60513644e-03 0. 0. 0. 0. 0. 0. 0. 1.60513644e-03 6.42054575e-03
      0. 0. 0. 0. 0. 0. 1.60513644e-03 0. 0. 0. 1.60513644e-03
      1.60513644e-03 0. 1.60513644e-03 3.21027287e-03 0. 3.21027287e-03
      0. 3.21027287e-03 0. 4.81540943e-03 0. 1.60513644e-03 0. 0.
      4.81540943e-03 3.21027287e-03 0. 0. 4.81540943e-03 0. 0.
      3.21027287e-03 0. 1.60513644e-03 4.81540943e-03 0. 0. 0. 0.
      1.60513644e-03 0. 0. 0. 0. 0. 0. 0. 9.63081885e-03 0. 0.
      3.21027287e-03 0. 1.60513644e-03 0. 0. 0. 0. 1.60513644e-03
      1.60513644e-03 3.21027287e-03 9.63081885e-03 4.81540943e-03 0.
      1.60513644e-03 0. 0. 3.21027287e-03 0. 0. 0. 1.60513644e-03 0. 0.
      0. 0. 0. 4.81540943e-03 0. 0. 0. 1.60513644e-03 0. 0. 0. 0. 0. 0.
      0. 3.21027287e-03 1.60513644e-03 0. 0. 0. 0. 0. 0. 0. 0. 0. 0. 0.
      0. 1.60513644e-03 0. 0. 1.60513644e-03 4.81540943e-03 0. 0. 0. 0.
      1.60513644e-03 0. 1.60513644e-03 0. 0. 3.21027287e-03 0. 0.
      3.21027287e-03 0. 0. 0. 0. 1.60513644e-03 0. 0. 1.60513644e-03
      1.60513644e-03 0. 4.81540943e-03 1.60513644e-03 0. 3.21027287e-03
      1.60513644e-03 0. 3.21027287e-03 0. 3.21027287e-03 0. 0. 0. 0. 0.
      0. 8.02568253e-03 0. 0. 0. 3.21027287e-03 0. 0. 0. 0. 0. 0.
      1.60513644e-03 0. 0. 0. 1.60513644e-03 0. 3.21027287e-03
      3.21027287e-03 0. 0. 0. 9.63081885e-03 0. 1.60513644e-03 0. 0.
      4.81540943e-03 0. 0. 4.81540943e-03 0. 3.21027287e-03 0.
      6.42054575e-03 0. 0. 3.21027287e-03 0. 0. 0. 0. 0. 0. 0. 0. 0. 0.
      0. 0. 0. 0. 0. 0. 3.21027287e-03 0. 0. 0. 0. 1.60513644e-03 0.
      4.81540943e-03 0. 0. 4.81540943e-03 0. 0. 0. 8.02568253e-03 0.
      1.60513644e-03 0. 0. 0. 0. 0. 0. 0. 0. 0. 1.60513644e-03 0. 0.
      1.60513644e-03 0. 0. 0. 0. 0. 0. 0. 0. 0. 0. 1.60513644e-03 0.
      1.60513644e-03 0. 0. 0. 0. 0. 0. 0. 4.81540943e-03 0. 0. 0.
      3.21027287e-03 0. 0. 0. 0. 0. 0. 0. 0. 0. 0. 0. 0. 4.81540943e-03
      0. 0. 0. 0. 0. 0. 0. 0. 1.60513644e-03 0. 0. 3.21027287e-03 0. 0.
      0. 0. 0. 0. 0. 0. 1.60513644e-03 1.60513644e-03 0. 0. 0. 0. 0. 0.
      3.21027287e-03 0. 3.21027287e-03 0. 1.60513644e-03 3.21027287e-03
      3.21027287e-03 0. 0. 0. 0. 0. 0. 0. 0. 0. 0. 1.60513644e-03 0. 0.
      0. 0. 0. 0. 1.60513644e-03 1.60513644e-03 0. 3.21027287e-03 0. 0.
      0. 0. 0. 0. 0. 0. 0. 0. 3.21027287e-03 9.63081885e-03 0. 0. 0.
      1.60513644e-03 0. 0. 0. 4.81540943e-03 0. 1.60513644e-03 0.
      1.60513644e-03 0. 0. 0. 0. 1.60513644e-03 0. 0. 3.21027287e-03 0.
      0. 0. 0. 1.60513644e-03 0. 0. 0. 0. 0. 0. 0. 0. 0. 0. 0. 0. 0.
      4.81540943e-03 0. 0. 0. 0. 0. 0. 0. 0. 0. 0. 0. 0. 0.
      4.81540943e-03 0. 0. 0. 0. 0. 0. 0. 0. 0. 0. 1.60513644e-03 0.
      4.81540943e-03 0. 0. 0. 4.81540943e-03 4.81540943e-03 0. 0.
      1.60513644e-03 3.21027287e-03 0. 0. 1.60513644e-03 0. 0. 0. 0.
      1.60513644e-03 1.60513644e-03 1.60513644e-03 0. 0. 1.60513644e-03
      3.21027287e-03 0. 0. 3.21027287e-03 0. 1.60513644e-03 0. 0. 0. 0.
      0. 3.21027287e-03 1.60513644e-03 0. 0. 8.02568253e-03 0. 0. 0. 0.
      0. 3.21027287e-03 0. 3.21027287e-03 0. 0. 0. 0. 0. 0. 0. 0. 0. 0.
      0. 0. 0. 0. 0. 0. 0. 1.60513644e-03 0. 1.60513644e-03 0. 0. 0.</_>
    <_>
      0. 0. 0. 1.98807148e-03 0. 5.96421445e-03 0. 0. 1.39164999e-02 0.
      0. 1.98807148e-03 0. 0. 3.97614297e-03 0. 0. 0. 0. 0. 0.
      1.98807148e-03 0. 0. 0. 0. 0. 0. 0. 0. 0. 3.97614297e-03 0. 0. 0.
      0. 0. 2.78329998e-02 0. 1.98807148e-03 1.98807148e-03
      3.97614297e-03 1.98807148e-03 0. 3.97614297e-03 0. 0. 0. 0. 0.
      5.96421445e-03 0. 0. 1.98807148e-03 1.98807148e-03 5.96421445e-03
      0. 0. 0. 1.98807148e-03 0. 0. 3.97614297e-03 0. 0. 0. 0. 0. 0.
      1.98807148e-03 0. 1.59045719e-02 0. 2.18687858e-02 0. 0.
      1.98807148e-03 0. 0. 3.97614297e-03 3.97614297e-03 0. 0. 0.
      5.96421445e-03 0. 3.97614297e-03 0. 0. 3.97614297e-03 0.
      3.97614297e-03 3.97614297e-03 0. 0. 0. 0. 0. 1.39164999e-02 0. 0.
      0. 0. 0. 0. 3.97614297e-03 0. 0. 1.98807148e-03 0. 0. 0. 0. 0. 0.
      0. 1.98807148e-03 0. 0. 0. 5.96421445e-03 0. 0. 0. 0. 0. 0. 0. 0.
      0. 0. 0. 0. 1.98807148e-03 1.98807148e-03 0. 1.98807148e-03 0. 0.
      0. 0. 1.98807148e-03 0. 0. 0. 5.96421445e-03 1.98807148e-03 0. 0.
      0. 0. 0. 0. 0. 0. 1.98807148e-03 0. 0. 0. 3.97614297e-03 0.
      1.98807148e-03 0. 0. 3.97614297e-03 0. 0. 0. 0. 0. 3.97614297e-03
      3.97614297e-03 0. 3.97614297e-03 0. 5.96421445e-03 5.96421445e-03
      0. 0. 0. 0. 0. 0. 0. 0. 0. 0. 1.98807148e-03 0. 1.98807148e-03 0.
      1.98807148e-03 0. 0. 0. 0. 1.98807148e-03 0. 0. 0. 0.
      1.98807148e-03 0. 1.98807148e-03 1.98807148e-03 0. 0.
      1.98807148e-03 0. 3.97614297e-03 0. 0. 0. 1.98807148e-03
      1.98807148e-03 0. 0. 0. 3.97614297e-03 0. 0. 0. 0. 0. 0. 0. 0.
      1.98807148e-03 5.96421445e-03 0. 0. 0. 1.59045719e-02 0. 0. 0. 0.
      0. 5.96421445e-03 0. 9.94035788e-03 0. 0. 5.96421445e-03 0. 0. 0.
      0. 5.96421445e-03 0. 0. 0. 0. 0. 0. 0. 0. 0. 0. 1.98807148e-03
      3.97614297e-03 0. 0. 0. 1.98807148e-03 0. 3.97614297e-03 0. 0. 0.
      0. 1.98807148e-03 1.98807148e-03 0. 1.59045719e-02 3.97614297e-03
      0. 0. 0. 3.97614297e-03 3.97614297e-03 0. 3.97614297e-03 0. 0. 0.
      1.98807148e-03 3.97614297e-03 0. 0. 0. 5.96421445e-03 0. 0. 0. 0.
      0. 0. 0. 0. 0. 0. 0. 1.98807148e-03 0. 0. 0. 0. 0. 0.
      1.98807148e-03 5.96421445e-03 0. 0. 0. 0. 0. 0. 0. 0. 0. 0.
      3.97614297e-03 0. 0. 1.98807148e-03 0. 0. 0. 0. 0. 1.98807148e-03
      0. 0. 3.97614297e-03 0. 0. 0. 0. 0. 1.98807148e-03 0. 0. 0.
      1.98807148e-03 1.98807148e-03 0. 5.96421445e-03 1.98807148e-03 0.
      0. 3.97614297e-03 1.98807148e-03 0. 0. 0. 5.96421445e-03 0. 0. 0.
      0. 0. 5.96421445e-03 0. 0. 0. 0. 0. 0. 0. 0. 0. 0. 0. 0. 0. 0. 0.
      0. 0. 0. 0. 0. 0. 0. 1.98807148e-03 0. 0. 0. 0. 0. 0. 0.
      3.97614297e-03 0. 0. 0. 1.98807148e-03 1.98807148e-03
      3.97614297e-03 1.98807148e-03 0. 0. 0. 3.97614297e-03 0. 0. 0.
      1.98807148e-03 9.94035788e-03 0. 0. 0. 1.98807148e-03 0. 0.
      1.98807148e-03 0. 0. 0. 0. 7.95228593e-03 0. 0. 0. 0. 0. 0. 0. 0.
      0. 0. 3.97614297e-03 1.98807148e-03 0. 0. 1.98807148e-03 0.
      1.98807148e-03 0. 0. 0. 0. 0. 0. 9.94035788e-03 0. 0. 0. 0.
      1.98807148e-03 0. 0. 1.98807148e-03 0. 0. 0. 0. 0. 0. 0. 0. 0. 0.
      0. 0. 0. 0. 0. 0. 0. 0. 0. 0. 0. 1.98807148e-03 3.97614297e-03 0.
      7.95228593e-03 0. 1.98807148e-03 0. 1.98807148e-03 0. 0. 0. 0. 0.
      0. 0. 0. 0. 0. 5.96421445e-03 0. 0. 0. 3.97614297e-03
      1.98807148e-03 0. 0. 0. 0. 1.98807148e-03 0. 1.98807148e-03
      1.98807148e-03 3.97614297e-03 0. 1.98807148e-03 0. 1.98807148e-03
      1.98807148e-03 0. 1.98807148e-03 1.98807148e-03 1.98807148e-03 0.
      0. 5.96421445e-03 0. 1.98807148e-03 0. 0. 0. 0. 0. 0. 0. 0. 0. 0.
      0. 1.98807148e-03 1.98807148e-03 0. 1.98807148e-03 0. 0. 0. 0. 0.
      0. 0. 0. 7.95228593e-03 0. 5.96421445e-03 0. 0. 0. 1.98807148e-03
      0. 0. 0. 1.98807148e-03 0. 0. 0. 0. 0. 0. 0. 1.98807148e-03 0. 0.
      0. 0. 3.97614297e-03 0. 1.98807148e-03 0. 5.96421445e-03
      1.98807148e-03 0. 0. 3.97614297e-03 0. 0. 0. 5.96421445e-03 0. 0.
      0. 0. 0. 0. 4.17494997e-02 0. 7.95228593e-03 0. 0. 0. 0.
      1.98807148e-03 0. 0. 1.98807148e-03 0. 0. 0. 1.98807148e-03
      1.98807148e-03 0. 0. 0. 0. 0. 0. 0. 0. 0. 1.98807148e-03 0.
      7.95228593e-03 0. 0. 0. 0. 0. 0. 0. 0. 0. 0. 0. 5.96421445e-03 0.
      0. 0. 0. 0. 0. 1.98807148e-03 0. 0. 0. 0. 0. 0. 0. 0.
      3.97614297e-03 0. 0. 0. 0. 0. 0. 0. 0. 0. 0. 0. 9.94035788e-03 0.
      0. 0. 0. 0. 0. 1.98807148e-03 0. 0. 0. 1.98807148e-03
      3.97614297e-03 0. 0. 0. 0. 1.98807148e-03 0. 0. 0. 0. 0.
      1.98807148e-03 0. 0. 1.98807148e-03 0. 1.98807148e-03
      3.97614297e-03 3.97614297e-03 0. 0. 0. 0. 1.98807148e-03 0. 0. 0.
      0. 0. 0. 1.98807148e-03 1.98807148e-03 0. 0. 5.96421445e-03 0. 0.
      0. 0. 0. 3.97614297e-03 0. 0. 0. 0. 0. 0. 0. 0. 0. 0.
      1.98807148e-03 3.97614297e-03 0. 0. 0. 0. 0. 0. 0. 0. 0. 0. 0. 0.
      1.98807148e-03 0. 0. 0. 0. 0. 0. 0. 0. 0. 0. 0. 0. 0. 0. 0. 0. 0.
      0. 0. 0. 0. 3.97614297e-03 0. 0. 0. 0. 0. 0. 5.96421445e-03
      3.97614297e-03 0. 1.98807148e-03 0. 7.95228593e-03 0. 0.
      1.98807148e-03 0. 0. 0. 5.96421445e-03 0. 0. 0. 3.97614297e-03 0.
      1.98807148e-03 1.98807148e-03 0. 0. 0. 0. 0. 1.98807148e-03 0. 0.
      0. 1.98807148e-03 7.95228593e-03 3.97614297e-03 0. 0.
      1.98807148e-03 0. 1.98807148e-03 0. 0. 0. 0. 1.98807148e-03 0. 0.
      1.98807148e-03 1.98807148e-03 0. 0. 1.98807148e-03 0. 0. 0. 0. 0.
      0. 0. 0. 1.98807148e-03 0. 7.95228593e-03 0. 0. 0. 0. 0. 0. 0. 0.
      1.98807148e-03 7.95228593e-03 0. 0. 0. 0. 0. 0. 0. 0. 0. 0. 0. 0.
      0. 0. 0. 1.98807148e-03 3.97614297e-03 0. 0. 0. 1.98807148e-03 0.
      0. 0. 1.98807148e-03 0. 0. 0. 0. 0. 0. 1.98807148e-03 0. 0.
      3.97614297e-03 0. 0. 1.98807148e-03 7.95228593e-03 0. 0.
      3.97614297e-03 0. 0. 0. 1.59045719e-02 0. 0. 0. 0. 0. 0. 0. 0. 0.
      0. 0. 0. 0. 0. 0. 0. 0. 1.98807148e-03 0. 1.98807148e-03
      1.98807148e-03 1.98807148e-03 1.59045719e-02 0. 1.98807148e-03 0.
      2.18687858e-02 1.98807148e-03 1.98807148e-03 0. 0. 0. 0. 0. 0. 0.
      0. 0. 0. 0. 5.96421445e-03 0. 0. 0. 0. 0. 0. 0. 0. 0. 0. 0. 0.
      1.98807148e-03 0. 0. 5.96421445e-03 0. 0. 0. 0. 0. 0. 0.
      1.98807148e-03 0. 0. 0. 0. 0. 0. 0. 0. 0. 0. 0. 0. 0. 0. 0. 0. 0.
      0. 0. 1.98807148e-03 1.98807148e-03 0. 1.98807148e-03 0. 0. 0.
      1.39164999e-02 3.97614297e-03 0. 0. 0. 3.97614297e-03 0.
      1.98807148e-03 1.98807148e-03 0. 0. 1.98807148e-03 0. 0. 0.
      3.97614297e-03 0. 0. 0. 1.98807148e-03 0. 0. 0. 0. 0. 0. 0. 0.
      1.98807148e-03 1.98807148e-03 0. 0. 0.</_>
    <_>
      0. 0. 0. 0. 0. 4.29184549e-03 2.14592274e-03 2.14592274e-03 0. 0.
      2.14592274e-03 0. 0. 0. 2.14592274e-03 0. 0. 6.43776823e-03 0. 0.
      0. 0. 0. 0. 2.14592274e-03 0. 0. 0. 0. 0. 0. 0. 2.14592274e-03 0.
      0. 0. 0. 0. 4.29184549e-03 0. 2.14592274e-03 0. 0. 0. 0.
      2.14592274e-03 0. 4.29184549e-03 0. 8.58369097e-03 2.14592274e-03
      2.14592274e-03 0. 4.29184549e-03 0. 0. 0. 0. 0. 0. 1.50214592e-02
      0. 0. 0. 0. 0. 0. 1.07296137e-02 0. 0. 2.14592274e-03
      4.29184549e-03 0. 0. 4.29184549e-03 0. 1.07296137e-02 0. 0. 0. 0.
      0. 0. 0. 0. 0. 0. 0. 0. 0. 4.29184549e-03 0. 0. 0. 0.
      3.21888402e-02 4.29184549e-03 0. 3.00429184e-02 6.43776823e-03
      2.14592274e-03 0. 0. 0. 0. 0. 0. 0. 0. 0. 0. 0. 0. 2.14592274e-03
      0. 2.14592274e-03 0. 0. 0. 0. 4.29184549e-03 0. 0. 0. 0. 0. 0. 0.
      0. 0. 0. 2.14592274e-03 0. 0. 0. 0. 4.29184549e-03 6.43776823e-03
      0. 0. 0. 0. 0. 0. 0. 0. 0. 4.29184549e-03 0. 0. 0. 0.
      6.43776823e-03 0. 0. 0. 0. 0. 0. 0. 0. 0. 0. 4.29184549e-03
      1.28755365e-02 0. 0. 0. 0. 4.29184549e-03 0. 0. 0. 0.
      2.14592274e-03 0. 4.29184549e-03 0. 0. 0. 0. 0. 0. 0. 0. 0.
      1.50214592e-02 1.07296137e-02 0. 0. 2.14592274e-03 0. 0. 0.
      8.58369097e-03 0. 0. 0. 2.14592274e-03 2.14592274e-03 0. 0. 0.
      6.43776823e-03 2.14592274e-03 2.14592274e-03 0. 0. 4.29184549e-03
      0. 4.29184549e-03 0. 0. 2.14592274e-03 0. 0. 2.14592274e-03 0.
      2.14592274e-03 0. 0. 0. 0. 0. 2.14592274e-03 0. 0. 0.
      4.29184549e-03 0. 0. 0. 0. 0. 0. 0. 0. 0. 0. 0. 0. 0.
      2.14592274e-03 0. 0. 0. 0. 0. 0. 0. 0. 0. 0. 2.14592274e-03
      8.58369097e-03 0. 0. 0. 0. 0. 0. 0. 0. 0. 0. 0. 0. 0. 0. 0. 0. 0.
      0. 0. 0. 0. 0. 0. 0. 0. 0. 0. 0. 4.29184549e-03 2.14592274e-03
      4.29184549e-03 0. 0. 0. 0. 0. 0. 0. 2.14592274e-03 0. 0.
      6.43776823e-03 6.43776823e-03 0. 2.14592274e-03 0. 0. 0.
      2.14592274e-03 0. 0. 0. 0. 0. 0. 0. 0. 0. 0. 2.14592274e-03 0. 0.
      0. 0. 8.58369097e-03 0. 0. 0. 0. 0. 0. 0. 0. 0. 0. 0. 0. 0.
      6.43776823e-03 0. 0. 0. 1.71673819e-02 0. 0. 6.43776823e-03 0. 0.
      0. 0. 0. 2.14592274e-03 0. 0. 8.58369097e-03 8.58369097e-03
      4.29184549e-03 0. 2.14592274e-03 0. 2.14592274e-03 0.
      2.14592274e-03 2.14592274e-03 0. 0. 0. 0. 2.14592274e-03 0.
      2.14592274e-03 0. 2.57510729e-02 0. 0. 4.29184549e-03 0. 0.
      2.14592274e-03 2.14592274e-03 0. 0. 0. 0. 1.07296137e-02 0. 0. 0.
      0. 0. 4.29184549e-03 0. 0. 0. 0. 0. 0. 0. 0. 0. 0. 0. 0. 0. 0.
      4.29184549e-03 2.14592274e-03 0. 0. 0. 0. 0. 0. 0. 0. 0. 0. 0. 0.
      0. 0. 0. 0. 0. 0. 2.14592274e-03 0. 0. 0. 0. 0. 0. 0.
      2.14592274e-03 0. 0. 0. 1.07296137e-02 0. 0. 2.14592274e-03 0. 0.
      4.29184549e-03 0. 0. 0. 0. 0. 0. 2.14592274e-02 0. 0. 0. 0. 0. 0.
      0. 0. 4.29184549e-03 0. 0. 0. 0. 0. 0. 0. 0. 0. 0. 0. 0. 0. 0. 0.
      0. 0. 0. 2.14592274e-03 0. 0. 0. 0. 0. 1.28755365e-02
      2.14592274e-03 0. 0. 0. 0. 0. 0. 0. 0. 0. 0. 4.29184549e-03 0. 0.
      0. 0. 0. 0. 0. 0. 2.14592274e-03 0. 0. 4.29184549e-03 0. 0.
      4.29184549e-03 0. 0. 0. 0. 2.14592274e-03 0. 0. 1.50214592e-02
      4.29184549e-03 0. 0. 0. 0. 0. 4.29184549e-03 0. 0. 0. 0. 0.
      2.14592274e-03 8.58369097e-03 0. 0. 0. 0. 0. 0. 2.14592274e-03 0.
      0. 0. 6.43776823e-03 0. 0. 0. 0. 0. 2.14592274e-03 0.
      6.43776823e-03 0. 6.43776823e-03 0. 2.14592274e-03 0. 0. 0.
      2.14592274e-03 0. 0. 0. 0. 0. 8.58369097e-03 0. 0. 1.07296137e-02
      0. 0. 2.14592274e-03 0. 0. 0. 0. 0. 0. 0. 0. 0. 6.43776823e-03 0.
      0. 0. 0. 2.14592274e-03 0. 0. 0. 0. 0. 2.14592274e-03
      4.29184549e-03 2.14592274e-03 1.07296137e-02 0. 0. 0. 0. 0. 0. 0.
      0. 0. 0. 0. 0. 0. 0. 2.14592274e-03 0. 0. 0. 2.14592274e-03 0. 0.
      0. 0. 0. 0. 0. 4.29184549e-03 2.14592274e-03 0. 0. 0. 0. 0. 0. 0.
      2.14592274e-03 0. 0. 0. 2.14592274e-03 1.07296137e-02 0. 0. 0. 0.
      0. 0. 0. 0. 6.43776823e-03 0. 0. 0. 0. 6.43776823e-03 0. 0.
      4.29184549e-03 0. 0. 0. 0. 0. 0. 0. 0. 0. 0. 2.14592274e-03 0. 0.
      6.43776823e-03 0. 0. 4.29184549e-03 0. 4.29184549e-03 0. 0. 0. 0.
      4.29184549e-03 0. 0. 0. 0. 0. 4.29184549e-03 0. 0. 2.14592274e-03
      0. 0. 0. 0. 0. 0. 4.29184549e-03 0. 0. 0. 0. 0. 0. 0. 0. 0. 0. 0.
      0. 2.14592274e-03 0. 0. 4.29184549e-03 0. 2.14592274e-03 0.
      6.43776823e-03 0. 0. 0. 0. 0. 0. 0. 0. 0. 0. 0. 0. 0.
      2.14592274e-03 0. 0. 0. 0. 0. 4.29184549e-03 0. 0. 0. 0.
      2.14592274e-03 0. 6.43776823e-03 4.29184549e-03 0. 4.29184549e-03
      0. 2.14592274e-03 2.14592274e-03 6.43776823e-03 0. 0. 0. 0. 0. 0.
      0. 0. 0. 0. 0. 0. 2.14592274e-03 0. 0. 0. 0. 0. 0. 0. 0. 0. 0. 0.
      0. 4.29184549e-03 0. 0. 0. 0. 0. 0. 2.14592274e-03 0. 0.
      4.29184549e-03 0. 0. 2.14592274e-03 4.29184549e-03 0. 0. 0. 0. 0.
      0. 0. 0. 2.14592274e-03 0. 0. 0. 4.29184549e-03 0. 0. 0. 0.
      4.29184549e-03 0. 2.14592274e-03 4.29184549e-03 2.14592274e-03 0.
      0. 8.58369097e-03 0. 0. 0. 0. 0. 2.14592274e-03 0. 0. 0.
      2.14592274e-03 0. 0. 0. 0. 0. 0. 0. 0. 0. 0. 2.14592274e-03
      2.14592274e-03 0. 0. 0. 0. 0. 0. 0. 0. 0. 0. 0. 0. 0. 0.
      8.58369097e-03 0. 0. 0. 4.29184549e-03 2.14592274e-03 0.
      2.14592274e-03 0. 0. 0. 0. 0. 0. 0. 0. 0. 0. 2.14592274e-03
      1.28755365e-02 0. 0. 0. 1.71673819e-02 0. 0. 0. 4.29184549e-03 0.
      2.14592274e-03 0. 0. 0. 0. 0. 0. 0. 0. 0. 0. 0. 0. 2.14592274e-03
      0. 4.29184549e-03 0. 0. 0. 0. 0. 0. 0. 0. 0. 2.14592274e-03 0. 0.
      0. 4.29184549e-03 0. 0. 0. 0. 0. 0. 0. 2.14592274e-03 0. 0. 0. 0.
      0. 0. 0. 0. 0. 0. 0. 0. 0. 0. 0. 0. 0. 0. 2.14592274e-03 0. 0. 0.
      1.50214592e-02 4.29184549e-03 0. 0. 0. 6.43776823e-03
      2.14592274e-03 0. 0. 0. 2.14592274e-03 0. 0. 6.43776823e-03 0. 0.
      0. 0. 2.14592274e-03 0. 0. 0. 0. 0. 0. 0. 0. 0. 0. 0. 0.
      6.43776823e-03 0. 0. 6.43776823e-03 2.14592274e-03 0. 0. 0. 0. 0.
      6.43776823e-03 0. 2.14592274e-03 0. 0. 0. 0. 0. 0. 0. 0. 0. 0. 0.
      0. 0. 0. 0. 0. 0. 2.14592274e-03 0. 0. 0. 0.</_>
    <_>
      0. 0. 0. 6.57894742e-03 0. 0. 0. 0. 0. 0. 0. 0. 0. 0. 0. 0. 0. 0.
      0. 0. 1.31578948e-02 0. 0. 0. 0. 0. 0. 0. 0. 0. 0. 0. 0. 0. 0. 0.
      0. 0. 0. 0. 0. 0. 6.57894742e-03 0. 0. 0. 0. 0. 0. 0. 0. 0. 0. 0.
      6.57894742e-03 0. 0. 0. 1.31578948e-02 0. 6.57894742e-03 0. 0. 0.
      0. 0. 0. 0. 0. 0. 0. 0. 0. 0. 0. 0. 1.97368413e-02 0. 0. 0. 0. 0.
      0. 0. 6.57894742e-03 0. 0. 0. 0. 0. 0. 0. 0. 0. 0. 0. 0. 0.
      1.31578948e-02 0. 0. 0. 0. 0. 0. 0. 0. 0. 0. 0. 0. 0. 0. 0. 0. 0.
      0. 0. 0. 0. 0. 0. 0. 0. 0. 0. 0. 0. 0. 0. 6.57894742e-03 0. 0. 0.
      0. 0. 0. 0. 0. 0. 0. 1.31578948e-02 0. 0. 0. 0. 0. 0. 0. 0. 0. 0.
      0. 0. 1.31578948e-02 6.57894742e-03 0. 6.57894742e-03
      1.31578948e-02 0. 0. 0. 0. 0. 0. 0. 0. 0. 0. 0. 0. 0. 0. 0. 0. 0.
      6.57894742e-03 0. 0. 6.57894742e-03 6.57894742e-03 0. 0. 0. 0. 0.
      0. 0. 0. 0. 6.57894742e-03 0. 0. 0. 0. 0. 0. 0. 0. 0. 0. 0. 0. 0.
      1.31578948e-02 0. 0. 6.57894742e-03 0. 0. 6.57894742e-03 0. 0. 0.
      0. 0. 6.57894742e-03 0. 0. 0. 0. 0. 6.57894742e-03 0. 0. 0. 0. 0.
      2.63157897e-02 0. 0. 0. 0. 0. 0. 0. 0. 0. 0. 0. 0. 0. 0. 0. 0. 0.
      0. 0. 0. 0. 0. 0. 0. 0. 0. 0. 0. 0. 0. 0. 0. 0. 0. 0.
      6.57894742e-03 0. 0. 0. 0. 0. 0. 0. 0. 0. 0. 0. 0. 0. 0. 0. 0. 0.
      0. 0. 6.57894742e-03 0. 0. 0. 0. 0. 0. 0. 0. 6.57894742e-03 0. 0.
      0. 0. 0. 0. 0. 0. 0. 0. 0. 0. 0. 0. 0. 0. 0. 6.57894742e-03 0. 0.
      0. 0. 0. 0. 0. 0. 0. 0. 0. 0. 0. 0. 6.57894742e-03 0. 0. 0. 0. 0.
      6.57894742e-03 0. 0. 0. 0. 6.57894742e-03 0. 0. 1.97368413e-02 0.
      0. 0. 0. 1.31578948e-02 0. 6.57894742e-03 0. 1.97368413e-02 0.
      6.57894742e-03 0. 0. 0. 0. 0. 0. 0. 0. 0. 0. 0. 0. 0. 0. 0. 0. 0.
      0. 0. 0. 0. 1.97368413e-02 0. 0. 0. 0. 0. 0. 0. 0. 0. 0. 0. 0. 0.
      0. 0. 0. 0. 6.57894742e-03 0. 0. 0. 0. 0. 0. 0. 0. 0.
      6.57894742e-03 0. 0. 0. 0. 0. 0. 0. 0. 0. 0. 0. 0. 0. 0. 0. 0. 0.
      0. 0. 0. 0. 0. 0. 0. 0. 0. 0. 0. 6.57894742e-03 0. 0. 0. 0. 0. 0.
      1.97368413e-02 0. 0. 0. 6.57894742e-03 0. 0. 0. 0. 0. 0. 0. 0. 0.
      0. 0. 0. 0. 0. 0. 0. 0. 0. 6.57894742e-03 0. 0. 0. 0. 0. 0. 0. 0.
      0. 0. 0. 0. 0. 0. 6.57894742e-03 0. 0. 0. 0. 0. 0. 0. 0. 0. 0.
      6.57894742e-03 6.57894742e-03 0. 0. 0. 0. 0. 0. 0. 0. 0.
      1.31578948e-02 0. 0. 6.57894742e-03 0. 0. 0. 0. 0. 0. 0. 0.
      3.28947380e-02 0. 0. 0. 0. 3.28947380e-02 0. 1.97368413e-02 0. 0.
      0. 0. 6.57894742e-03 0. 0. 0. 0. 0. 0. 0. 0. 0. 0. 0. 0.
      1.31578948e-02 0. 0. 0. 0. 0. 0. 0. 0. 0. 0. 0. 0. 0. 0. 0. 0. 0.
      0. 0. 0. 0. 0. 0. 0. 0. 0. 0. 0. 0. 0. 0. 0. 0. 1.31578948e-02 0.
      0. 0. 0. 0. 0. 0. 0. 0. 0. 0. 0. 0. 0. 0. 0. 0. 0. 0. 0. 0. 0. 0.
      0. 3.28947380e-02 0. 2.63157897e-02 0. 6.57894742e-03 0. 0. 0. 0.
      0. 0. 0. 0. 0. 0. 0. 0. 0. 0. 0. 0. 0. 0. 0. 0. 0. 2.63157897e-02
      0. 0. 0. 0. 0. 0. 0. 0. 0. 0. 0. 0. 0. 0. 0. 0. 0. 0. 0.
      6.57894742e-03 1.31578948e-02 6.57894742e-03 6.57894742e-03 0. 0.
      0. 0. 0. 0. 0. 0. 0. 0. 0. 0. 0. 0. 0. 0. 0. 3.28947380e-02 0. 0.
      0. 0. 0. 0. 0. 0. 0. 0. 0. 0. 0. 0. 0. 0. 0. 0. 0. 0. 0. 0.
      6.57894742e-03 1.31578948e-02 0. 0. 0. 0. 1.97368413e-02 0. 0. 0.
      0. 0. 0. 0. 0. 0. 0. 0. 0. 0. 6.57894742e-03 0. 0. 0. 0. 0. 0. 0.
      0. 0. 0. 0. 0. 0. 0. 0. 0. 0. 0. 0. 0. 0. 0. 0. 0. 0. 0. 0. 0. 0.
      0. 0. 0. 0. 0. 0. 6.57894742e-03 0. 0. 0. 0. 0. 1.31578948e-02 0.
      0. 0. 0. 0. 0. 0. 0. 0. 0. 0. 0. 0. 0. 0. 0. 0. 0. 0. 0. 0. 0. 0.
      0. 6.57894742e-03 0. 0. 6.57894742e-03 0. 0. 0. 0. 0. 0. 0. 0.
      6.57894742e-03 0. 0. 0. 6.57894742e-03 0. 6.57894742e-03
      1.31578948e-02 0. 0. 0. 0. 0. 0. 0. 0. 0. 0. 0. 0. 0. 0. 0. 0. 0.
      0. 0. 0. 0. 0. 6.57894742e-03 0. 0. 0. 0. 0. 6.57894742e-03 0. 0.
      0. 0. 0. 0. 0. 0. 0. 0. 0. 0. 0. 0. 0. 0. 0. 6.57894742e-03 0. 0.
      0. 0. 0. 6.57894742e-03 0. 0. 0. 0. 0. 0. 0. 6.57894742e-03 0.
      6.57894742e-03 0. 0. 0. 0. 0. 0. 0. 0. 0. 6.57894742e-03
      6.57894742e-03 0. 0. 0. 0. 0. 0. 0. 0. 0. 0. 0. 0. 0. 0. 0. 0. 0.
      0. 0. 0. 0. 0. 0. 6.57894742e-03 0. 0. 0. 0. 0. 0. 0. 0. 0. 0. 0.
      0. 0. 0. 0. 0. 1.31578948e-02 1.31578948e-02 0. 0. 0. 0. 0. 0. 0.
      0. 0. 6.57894742e-03 0. 0. 0. 0. 0. 0. 0. 0. 0. 0. 0. 0. 0. 0. 0.
      0. 0. 0. 0. 0. 0. 0. 6.57894742e-03 0. 0. 0. 0. 0. 0. 0. 0. 0. 0.
      0. 0. 0. 0. 0. 0. 0. 0. 0. 0. 0. 0. 0. 0. 0. 0. 0. 0. 0. 0. 0. 0.
      0. 0. 0. 0. 6.57894742e-03 0. 1.97368413e-02 6.57894742e-03 0. 0.
      0. 0. 0. 0. 0. 0. 0. 0. 6.57894742e-03 0. 0. 0. 0. 6.57894742e-03
      0. 0. 0. 0. 0.</_>
    <_>
      4.25531901e-03 0. 0. 0. 0. 0. 0. 0. 0. 0. 4.25531901e-03 0. 0.
      8.51063803e-03 0. 0. 0. 0. 0. 4.25531901e-03 0. 8.51063803e-03 0.
      0. 1.27659570e-02 0. 2.12765951e-02 0. 0. 0. 0. 8.51063803e-03 0.
      0. 0. 4.25531901e-03 0. 0. 0. 0. 0. 0. 0. 0. 0. 0. 0. 0. 0.
      8.51063803e-03 0. 0. 0. 0. 4.25531901e-03 0. 4.25531901e-03 0. 0.
      0. 0. 0. 0. 0. 0. 0. 0. 0. 4.25531901e-03 0. 0. 0. 0. 0. 0. 0. 0.
      0. 0. 0. 4.25531901e-03 4.25531901e-03 0. 0. 0. 0. 0. 0. 0.
      4.25531901e-03 0. 4.25531901e-03 0. 0. 0. 0. 0. 0. 0. 0. 0. 0. 0.
      8.51063803e-03 4.25531901e-03 0. 0. 0. 0. 0. 0. 0. 0. 0. 0.
      4.25531901e-03 0. 0. 4.25531901e-03 0. 0. 4.25531901e-03 0. 0. 0.
      0. 4.25531901e-03 0. 0. 4.25531901e-03 0. 0. 0. 8.51063803e-03
      4.25531901e-03 0. 0. 0. 0. 0. 0. 1.27659570e-02 0. 0. 0. 0.
      4.25531901e-03 8.51063803e-03 0. 0. 4.25531901e-03 0.
      4.25531901e-03 0. 0. 0. 0. 0. 0. 4.25531901e-03 4.25531901e-03 0.
      0. 8.51063803e-03 0. 0. 0. 0. 0. 0. 0. 4.25531901e-03 0. 0. 0.
      4.25531901e-03 0. 0. 0. 0. 0. 0. 0. 4.25531901e-03 0. 0. 0. 0. 0.
      0. 0. 0. 0. 0. 0. 4.25531901e-03 0. 0. 0. 0. 0. 0. 0. 0. 0. 0. 0.
      0. 0. 0. 0. 0. 0. 0. 4.25531901e-03 0. 0. 0. 0. 0. 0. 0. 0. 0.
      4.25531901e-03 4.25531901e-03 0. 0. 0. 0. 8.51063803e-03 0.
      4.25531901e-03 0. 0. 4.25531901e-03 0. 0. 8.51063803e-03
      4.25531901e-03 4.25531901e-03 0. 0. 0. 0. 0. 0. 0. 4.25531901e-03
      0. 0. 8.51063803e-03 0. 0. 0. 0. 0. 0. 0. 0. 0. 0. 2.55319141e-02
      0. 0. 0. 0. 4.25531901e-03 0. 0. 0. 0. 0. 0. 0. 0. 0.
      4.25531901e-03 0. 0. 0. 0. 0. 0. 0. 0. 0. 0. 0. 4.25531901e-03 0.
      0. 0. 0. 0. 0. 0. 0. 0. 0. 0. 0. 0. 0. 0. 0. 0. 8.51063803e-03 0.
      0. 0. 0. 0. 0. 0. 0. 0. 0. 8.51063803e-03 0. 0. 0. 8.51063803e-03
      0. 0. 4.25531901e-03 0. 0. 0. 0. 0. 0. 0. 0. 0. 0. 0. 0. 0. 0. 0.
      4.25531901e-03 0. 1.27659570e-02 0. 0. 0. 0. 8.51063803e-03 0. 0.
      0. 0. 8.51063803e-03 0. 4.25531901e-03 0. 0. 0. 4.25531901e-03 0.
      0. 0. 0. 0. 4.25531901e-03 2.12765951e-02 0. 4.25531901e-03 0. 0.
      0. 0. 0. 0. 4.25531901e-03 0. 0. 0. 0. 0. 0. 0. 0. 0. 0. 0. 0. 0.
      0. 0. 0. 0. 0. 0. 0. 0. 4.25531901e-03 0. 0. 0. 0. 0. 0. 0. 0. 0.
      4.25531901e-03 0. 0. 0. 0. 0. 0. 0. 0. 0. 0. 0. 0. 0. 0. 0. 0. 0.
      0. 0. 0. 0. 0. 0. 0. 0. 0. 0. 0. 0. 0. 0. 0. 0. 0. 0. 0. 0. 0. 0.
      0. 0. 0. 0. 8.51063803e-03 0. 0. 0. 0. 0. 0. 0. 0. 8.51063803e-03
      0. 0. 0. 0. 0. 0. 0. 0. 0. 0. 8.51063803e-03 0. 0. 0. 0.
      4.25531901e-03 0. 0. 0. 0. 0. 0. 0. 0. 0. 0. 0. 4.25531901e-03 0.
      8.51063803e-03 0. 0. 0. 1.27659570e-02 8.51063803e-03 0. 0.
      8.51063803e-03 0. 0. 0. 0. 4.25531901e-03 0. 0. 0. 0. 0. 0.
      4.25531901e-03 0. 1.27659570e-02 0. 0. 0. 0. 0. 0. 0. 0. 0.
      8.51063803e-03 4.25531901e-03 2.55319141e-02 0. 8.51063803e-03
      4.25531901e-03 0. 0. 0. 0. 0. 0. 0. 0. 0. 0. 4.25531901e-03 0. 0.
      0. 4.25531901e-03 0. 0. 0. 4.25531901e-03 0. 1.27659570e-02 0. 0.
      4.25531901e-03 0. 4.25531901e-03 0. 0. 0. 0. 0. 0. 0.
      1.27659570e-02 0. 0. 0. 0. 4.25531901e-03 0. 0. 0. 0. 0. 0.
      4.25531901e-03 0. 4.25531901e-03 0. 0. 0. 4.25531901e-03 0. 0. 0.
      0. 0. 0. 0. 0. 0. 8.51063803e-03 0. 0. 0. 1.70212761e-02 0. 0. 0.
      0. 0. 0. 0. 0. 0. 0. 8.51063803e-03 0. 0. 0. 0. 0. 0. 0.
      4.25531901e-03 0. 1.27659570e-02 0. 8.51063803e-03 4.25531901e-03
      4.25531901e-03 0. 4.25531901e-03 0. 0. 0. 0. 0. 0. 0.
      4.25531901e-03 0. 0. 0. 0. 0. 0. 0. 8.51063803e-03 0. 0. 0. 0. 0.
      0. 0. 0. 4.25531901e-03 0. 0. 0. 0. 0. 0. 4.25531901e-03 0. 0. 0.
      0. 0. 0. 0. 0. 0. 0. 0. 0. 0. 4.25531901e-03 8.51063803e-03
      4.25531901e-03 0. 0. 0. 0. 0. 0. 0. 0. 0. 0. 0. 0. 0. 0. 0. 0. 0.
      0. 0. 0. 8.51063803e-03 4.25531901e-03 0. 1.27659570e-02 0. 0. 0.
      0. 0. 4.25531901e-03 0. 0. 0. 8.51063803e-03 0. 0. 0. 0. 0.
      4.25531901e-03 0. 0. 0. 0. 0. 8.51063803e-03 0. 8.51063803e-03
      8.51063803e-03 0. 0. 0. 0. 0. 0. 0. 0. 0. 0. 0. 0. 4.25531901e-03
      1.27659570e-02 0. 0. 0. 0. 0. 0. 0. 4.25531901e-03 0. 0. 0. 0. 0.
      0. 0. 0. 0. 0. 0. 0. 0. 0. 0. 0. 0. 0. 0. 0. 4.25531901e-03 0.
      4.25531901e-03 0. 0. 0. 0. 0. 0. 0. 4.25531901e-03 0. 0. 0. 0.
      8.51063803e-03 4.25531901e-03 0. 0. 0. 4.25531901e-03 0. 0.
      4.25531901e-03 0. 8.51063803e-03 0. 0. 8.51063803e-03 0.
      4.25531901e-03 0. 0. 0. 0. 4.25531901e-03 0. 0. 0. 0. 0. 0. 0. 0.
      0. 0. 0. 0. 0. 0. 0. 0. 0. 0. 0. 0. 0. 0. 0. 0. 8.51063803e-03 0.
      0. 0. 0. 0. 0. 0. 4.25531901e-03 0. 0. 0. 0. 0. 0. 0. 0. 0. 0. 0.
      0. 0. 0. 0. 0. 0. 0. 0. 0. 0. 0. 0. 8.51063803e-03 0.
      4.25531901e-03 0. 0. 0. 0. 0. 0. 0. 0. 0. 0. 0. 0. 0.
      4.25531901e-03 0. 0. 0. 0. 0. 0. 0. 0. 0. 0. 0. 4.25531901e-03 0.
      0. 0. 0. 0. 0. 0. 0. 0. 0. 0. 0. 0. 0. 0. 0. 0. 0. 0. 0. 0. 0.
      4.25531901e-03 0. 0. 0. 0. 0. 0. 4.25531901e-03 0. 0. 0. 0. 0. 0.
      0. 0. 0. 0. 0. 0. 0. 0. 0. 0. 0. 0. 0. 0. 0. 0. 0. 0. 0. 0. 0. 0.
      0. 0. 0. 0. 0. 0. 0. 0. 0. 0. 0. 0. 4.25531901e-03 0. 0. 0. 0. 0.
      0. 0. 0. 4.25531901e-03 0. 0. 4.25531901e-03 0. 0. 0.
      4.25531901e-03 0. 0. 0. 0. 4.25531901e-03 0. 4.25531901e-03 0. 0.
      4.25531901e-03 0. 0. 0. 4.25531901e-03 0. 0. 0. 0. 0. 0. 0.
      4.25531901e-03 0. 0. 0. 0. 0. 0. 0. 8.51063803e-03 0. 0.</_>
    <_>
      0. 0. 0. 0. 0. 0. 0. 0. 0. 0. 0. 0. 0. 0. 0. 0. 0. 1.10701108e-02
      0. 0. 0. 0. 0. 0. 0. 0. 1.47601478e-02 0. 0. 1.10701108e-02 0.
      7.38007389e-03 3.69003695e-03 3.69003695e-03 0. 0. 0. 0. 0.
      3.69003695e-03 0. 0. 3.69003695e-03 0. 0. 3.69003695e-03 0. 0. 0.
      0. 3.69003695e-03 1.10701108e-02 0. 0. 0. 0. 1.10701108e-02 0. 0.
      0. 0. 0. 0. 0. 0. 0. 0. 0. 0. 0. 0. 0. 0. 0. 0. 3.69003695e-03 0.
      0. 0. 0. 0. 0. 0. 0. 0. 0. 7.38007389e-03 0. 0. 0. 0.
      7.38007389e-03 0. 0. 0. 0. 0. 0. 3.69003695e-03 0. 0. 0. 0. 0. 0.
      0. 0. 3.69003695e-03 0. 0. 3.69003695e-03 0. 0. 0. 0. 0.
      3.69003695e-03 0. 0. 0. 3.69003695e-03 1.47601478e-02
      7.38007389e-03 0. 0. 0. 0. 1.84501857e-02 0. 0. 0. 0. 0.
      3.69003695e-03 0. 0. 0. 0. 0. 0. 0. 3.69003695e-03 0.
      3.69003695e-03 0. 0. 0. 3.69003695e-03 0. 0. 0. 0. 0. 0. 0.
      1.47601478e-02 3.69003695e-03 0. 0. 0. 0. 0. 0. 0. 0. 0. 0.
      3.69003695e-03 3.69003695e-03 0. 0. 3.69003695e-03 3.69003695e-03
      0. 0. 3.69003695e-03 0. 0. 0. 0. 4.42804433e-02 0. 0.
      7.38007389e-03 3.69003695e-03 0. 0. 7.38007389e-03 0. 0. 0. 0.
      3.69003695e-03 0. 0. 0. 0. 0. 0. 0. 0. 0. 3.69003695e-03 0.
      3.69003695e-03 0. 0. 0. 0. 0. 0. 0. 0. 0. 0. 0. 7.38007389e-03 0.
      0. 0. 0. 0. 3.69003695e-03 0. 0. 0. 0. 0. 3.69003695e-03 0.
      3.69003695e-03 0. 0. 0. 0. 0. 0. 0. 0. 0. 0. 0. 0. 0. 0. 0. 0. 0.
      0. 1.47601478e-02 0. 0. 1.10701108e-02 0. 0. 0. 0. 0. 0. 0. 0. 0.
      2.58302577e-02 0. 0. 0. 0. 3.69003695e-03 0. 0. 3.69003695e-03 0.
      0. 0. 0. 0. 0. 0. 3.69003695e-03 0. 0. 3.69003695e-03 0. 0. 0.
      3.69003695e-03 0. 0. 0. 0. 0. 0. 0. 0. 0. 0. 0. 0. 0. 0. 0. 0. 0.
      0. 0. 0. 7.38007389e-03 0. 0. 3.69003695e-03 0. 0. 3.69003695e-03
      0. 3.69003695e-03 0. 0. 0. 0. 0. 2.21402217e-02 0. 0. 0. 0. 0. 0.
      0. 0. 0. 0. 3.69003695e-03 0. 0. 0. 0. 0. 0. 0. 0. 0. 0. 0. 0. 0.
      0. 0. 0. 0. 0. 0. 0. 0. 0. 2.21402217e-02 0. 0. 0. 0.
      7.38007389e-03 3.69003695e-03 0. 0. 0. 0. 7.38007389e-03
      1.10701108e-02 0. 7.38007389e-03 0. 0. 0. 0. 0. 0. 0. 0. 0. 0.
      3.69003695e-03 0. 0. 0. 0. 0. 3.69003695e-03 0. 0. 0. 0. 0. 0. 0.
      0. 0. 0. 0. 0. 0. 0. 0. 0. 0. 0. 0. 0. 0. 0. 0. 3.69003695e-03 0.
      3.69003695e-03 1.10701108e-02 0. 0. 0. 3.69003695e-03 0. 0. 0.
      1.10701108e-02 0. 0. 0. 0. 0. 0. 0. 0. 0. 1.10701108e-02 0. 0.
      3.69003695e-03 0. 3.69003695e-03 0. 0. 0. 0. 0. 0. 0. 0. 0. 0. 0.
      0. 0. 0. 0. 0. 0. 0. 0. 0. 0. 7.38007389e-03 0. 0. 3.69003695e-03
      0. 0. 0. 0. 0. 0. 0. 0. 0. 0. 0. 0. 0. 0. 3.69003695e-03 0. 0. 0.
      0. 0. 0. 0. 3.69003695e-03 0. 0. 0. 0. 0. 0. 0. 0. 0. 0. 0. 0. 0.
      0. 0. 0. 0. 0. 0. 0. 0. 0. 0. 0. 3.69003695e-03 0. 0. 0.
      7.38007389e-03 3.69003695e-03 0. 0. 0. 0. 0. 0. 0. 0. 0.
      7.38007389e-03 0. 0. 3.69003695e-03 0. 3.69003695e-03
      3.69003695e-03 0. 0. 0. 1.47601478e-02 3.69003695e-03 0. 0. 0.
      3.69003695e-03 0. 3.69003695e-03 1.10701108e-02 1.10701108e-02 0.
      0. 0. 7.38007389e-03 0. 3.69003695e-03 0. 0. 0. 0. 0. 0. 0.
      2.21402217e-02 0. 0. 0. 0. 0. 0. 0. 0. 0. 0. 0. 0. 0. 0. 0. 0. 0.
      0. 0. 0. 0. 1.47601478e-02 0. 0. 0. 0. 0. 0. 0. 0. 0. 0. 0. 0. 0.
      0. 0. 0. 0. 0. 0. 0. 0. 3.69003695e-03 3.69003695e-03 0. 0. 0. 0.
      0. 0. 0. 0. 0. 0. 0. 0. 0. 0. 0. 0. 0. 3.69003695e-03 0. 0. 0. 0.
      3.69003695e-03 0. 0. 0. 3.69003695e-03 3.69003695e-03 0. 0.
      3.69003695e-03 0. 0. 0. 0. 0. 0. 0. 0. 0. 0. 0. 0. 0.
      3.69003695e-03 0. 0. 0. 0. 0. 0. 0. 0. 7.38007389e-03
      7.38007389e-03 0. 0. 0. 3.69003695e-03 0. 0. 0. 0. 0. 0.
      3.69003695e-03 3.69003695e-03 0. 0. 0. 0. 0. 3.69003695e-03 0. 0.
      0. 0. 0. 0. 0. 0. 0. 0. 0. 3.69003695e-03 0. 0. 3.69003695e-03 0.
      0. 7.38007389e-03 0. 0. 0. 0. 3.69003695e-03 0. 3.69003695e-03 0.
      0. 0. 0. 0. 0. 0. 0. 0. 0. 0. 0. 0. 0. 3.69003695e-03 0.
      7.38007389e-03 0. 0. 0. 0. 0. 0. 0. 0. 0. 0. 0. 3.69003695e-03 0.
      0. 3.69003695e-03 0. 0. 0. 0. 0. 0. 0. 0. 0. 3.69003695e-03
      3.69003695e-03 0. 0. 0. 0. 0. 0. 0. 0. 0. 0. 0. 0. 0. 0. 0. 0. 0.
      0. 0. 0. 0. 0. 0. 0. 0. 0. 3.69003695e-03 0. 0. 0. 7.38007389e-03
      0. 0. 0. 0. 0. 3.69003695e-03 0. 0. 0. 0. 0. 0. 0. 0.
      2.21402217e-02 0. 0. 3.69003695e-03 0. 0. 3.69003695e-03
      3.69003695e-03 0. 0. 0. 0. 3.69003695e-03 0. 0. 3.69003695e-03
      7.38007389e-03 0. 0. 0. 3.69003695e-03 0. 0. 0. 0. 0. 0. 0. 0. 0.
      0. 0. 7.38007389e-03 0. 0. 1.10701108e-02 0. 0. 0. 0. 0. 0. 0. 0.
      0. 0. 0. 0. 0. 0. 0. 0. 0. 7.38007389e-03 1.10701108e-02 0. 0. 0.
      0. 0. 0. 0. 0. 0. 0. 0. 7.38007389e-03 7.38007389e-03
      7.38007389e-03 0. 1.47601478e-02 0. 0. 0. 0. 0. 0. 0. 0. 0. 0. 0.
      0. 0. 3.69003695e-03 0. 3.69003695e-03 0. 0. 7.38007389e-03 0.
      3.69003695e-03 0. 0. 0. 0. 0. 0. 0. 0. 0. 0. 0. 0. 0. 0. 0. 0. 0.
      0. 0. 0. 0. 0. 0. 0. 0. 0. 0. 0. 0. 0. 0. 0. 0. 0. 0. 0. 0.
      7.38007389e-03 0. 0. 0. 0. 0. 0. 3.69003695e-03 0. 0. 0. 0. 0. 0.
      3.69003695e-03 0. 0. 0. 0. 0. 0. 7.38007389e-03 0. 0. 0. 0. 0. 0.
      0. 0. 0. 0. 0. 0. 0. 0. 0. 0. 0. 0. 0. 0. 0. 0. 0. 0. 0. 0. 0. 0.
      0. 0. 0. 0. 0. 0. 0. 0. 7.38007389e-03 0. 7.38007389e-03 0.
      3.69003695e-03 0. 0. 0. 0. 0. 0. 0. 0. 0. 0. 0. 0. 0. 0.
      3.69003695e-03 0. 0. 0. 0. 0.</_>
    <_>
      3.38983047e-03 0. 0. 0. 0. 0. 3.38983047e-03 0. 0. 1.35593219e-02
      6.77966094e-03 0. 3.38983047e-03 0. 0. 0. 0. 0. 0. 0. 0. 0. 0. 0.
      0. 0. 3.38983047e-03 6.77966094e-03 0. 0. 0. 0. 0. 0. 0.
      3.38983047e-03 0. 0. 0. 0. 0. 0. 3.38983047e-03 3.38983047e-03 0.
      0. 0. 0. 3.38983047e-03 0. 0. 3.38983047e-03 0. 0. 1.69491526e-02
      0. 0. 0. 6.77966094e-03 6.77966094e-03 0. 0. 0. 0. 0. 0. 0. 0. 0.
      0. 3.38983047e-03 3.38983047e-03 0. 0. 0. 0. 0. 0. 0.
      3.38983047e-03 0. 0. 0. 0. 0. 0. 6.77966094e-03 0. 0. 0. 0. 0. 0.
      0. 0. 0. 0. 0. 0. 0. 0. 0. 0. 0. 0. 0. 0. 0. 0. 0. 0.
      6.77966094e-03 0. 0. 0. 0. 0. 0. 0. 0. 6.77966094e-03
      6.77966094e-03 3.38983047e-03 3.38983047e-03 0. 0. 0. 0. 0.
      3.38983047e-03 6.77966094e-03 2.03389823e-02 0. 0. 0. 0. 0. 0. 0.
      0. 0. 0. 0. 0. 0. 0. 0. 0. 0. 0. 0. 0. 0. 0. 0. 1.35593219e-02
      3.38983047e-03 1.69491526e-02 0. 0. 0. 3.38983047e-03 0. 0. 0. 0.
      0. 0. 0. 0. 0. 0. 0. 0. 0. 0. 0. 3.38983047e-03 0. 0.
      1.01694912e-02 0. 0. 3.38983047e-03 0. 0. 0. 3.38983047e-03 0. 0.
      0. 3.38983047e-03 0. 0. 0. 3.38983047e-03 0. 0. 0. 0. 0. 0. 0. 0.
      0. 0. 0. 3.38983047e-03 0. 0. 6.77966094e-03 6.77966094e-03 0. 0.
      0. 0. 0. 0. 0. 6.77966094e-03 0. 0. 0. 6.77966094e-03
      6.77966094e-03 0. 0. 0. 3.38983047e-03 0. 6.77966094e-03 0.
      6.77966094e-03 0. 0. 3.38983047e-03 0. 0. 0. 6.77966094e-03
      6.77966094e-03 0. 0. 0. 3.38983047e-03 0. 0. 0. 0. 0.
      3.38983047e-03 0. 3.38983047e-03 0. 0. 0. 6.77966094e-03 0. 0. 0.
      0. 0. 3.38983047e-03 0. 3.38983047e-03 0. 0. 0. 0. 0. 0. 0.
      3.38983047e-03 0. 0. 0. 0. 0. 0. 0. 0. 0. 3.38983047e-03
      1.35593219e-02 0. 3.38983047e-03 0. 0. 0. 0. 0. 0. 0. 0. 0. 0. 0.
      0. 0. 0. 0. 0. 2.03389823e-02 0. 0. 3.38983047e-03 0.
      3.38983047e-03 0. 0. 0. 0. 0. 0. 0. 0. 0. 0. 0. 3.38983047e-03 0.
      0. 0. 0. 0. 3.38983047e-03 0. 0. 0. 0. 0. 0. 0. 0. 3.38983047e-03
      0. 0. 3.38983047e-03 0. 0. 0. 3.38983047e-03 0. 0. 0. 0. 0. 0. 0.
      0. 0. 0. 0. 0. 0. 0. 0. 3.38983047e-03 0. 0. 0. 0. 0. 0. 0. 0. 0.
      0. 0. 0. 3.38983047e-03 0. 0. 3.38983047e-03 6.77966094e-03 0. 0.
      0. 0. 3.38983047e-03 0. 0. 0. 0. 0. 0. 0. 0. 0. 0. 0. 0. 0. 0. 0.
      0. 0. 0. 0. 0. 3.38983047e-03 0. 0. 0. 0. 0. 0. 0. 1.01694912e-02
      0. 0. 1.35593219e-02 0. 0. 3.38983047e-03 0. 1.01694912e-02 0. 0.
      0. 0. 0. 0. 3.38983047e-03 0. 0. 6.77966094e-03 0. 0. 0. 0. 0. 0.
      0. 0. 0. 0. 0. 0. 0. 0. 0. 0. 0. 0. 0. 0. 0. 0. 0. 0. 0. 0.
      6.77966094e-03 0. 3.38983047e-03 3.38983047e-03 0. 0. 0. 0. 0. 0.
      0. 0. 0. 0. 0. 0. 0. 0. 0. 0. 0. 0. 3.38983047e-03 0. 0. 0. 0. 0.
      0. 0. 0. 0. 0. 6.77966094e-03 0. 0. 0. 0. 0. 0. 0. 0. 0. 0. 0.
      3.38983047e-03 0. 0. 0. 0. 0. 0. 3.38983047e-03 0. 0.
      6.77966094e-03 3.38983047e-03 0. 0. 0. 0. 1.01694912e-02 0. 0.
      3.38983047e-03 0. 3.38983047e-03 0. 0. 3.38983047e-03
      6.77966094e-03 3.38983047e-03 3.38983047e-03 0. 3.38983047e-03 0.
      3.38983047e-03 0. 0. 0. 0. 0. 3.38983047e-03 3.38983047e-03 0. 0.
      0. 0. 3.38983047e-03 0. 1.35593219e-02 0. 3.38983047e-03 0. 0.
      3.38983047e-03 0. 0. 0. 0. 0. 0. 0. 0. 0. 0. 0. 0. 0. 0. 0. 0. 0.
      3.38983047e-03 0. 6.77966094e-03 0. 0. 0. 0. 0. 0. 0. 0. 0.
      3.38983047e-03 6.77966094e-03 0. 0. 3.38983047e-03 0. 0. 0. 0.
      3.38983047e-03 0. 0. 0. 0. 0. 3.38983047e-03 0. 3.38983047e-03 0.
      0. 0. 0. 0. 0. 0. 3.38983047e-03 0. 0. 0. 0. 0. 0. 0. 0. 0. 0.
      1.35593219e-02 0. 0. 0. 0. 0. 0. 0. 0. 0. 3.38983047e-03 0. 0. 0.
      3.38983047e-03 0. 0. 0. 3.38983047e-03 0. 0. 0. 0. 1.01694912e-02
      0. 0. 0. 0. 0. 0. 6.77966094e-03 3.38983047e-03 6.77966094e-03 0.
      0. 0. 0. 0. 0. 0. 0. 3.38983047e-03 0. 3.38983047e-03 0. 0.
      1.69491526e-02 0. 0. 0. 0. 0. 0. 3.38983047e-03 0. 3.38983047e-03
      0. 0. 0. 0. 3.38983047e-03 0. 0. 0. 0. 0. 0. 0. 3.38983047e-03
      6.77966094e-03 1.01694912e-02 0. 0. 0. 3.38983047e-03 0. 0. 0. 0.
      0. 0. 0. 0. 3.38983047e-03 0. 0. 6.77966094e-03 0. 3.38983047e-03
      0. 0. 0. 3.38983047e-03 0. 0. 0. 0. 0. 0. 6.77966094e-03
      3.38983047e-03 0. 0. 6.77966094e-03 0. 0. 0. 0. 1.35593219e-02 0.
      0. 0. 0. 0. 0. 0. 3.38983047e-03 0. 0. 0. 0. 0. 0. 0. 0. 0. 0. 0.
      0. 3.38983047e-03 0. 3.38983047e-03 3.38983047e-03 0. 0. 0. 0.
      2.03389823e-02 0. 0. 0. 0. 0. 0. 0. 0. 0. 3.38983047e-03
      3.38983047e-03 0. 0. 0. 0. 0. 0. 0. 0. 0. 0. 3.38983047e-03 0.
      6.77966094e-03 0. 0. 0. 0. 0. 0. 6.77966094e-03 0. 0. 0. 0. 0.
      3.38983047e-03 0. 0. 0. 0. 0. 0. 3.38983047e-03 0. 0. 0. 0. 0. 0.
      0. 0. 0. 0. 0. 0. 0. 0. 0. 1.01694912e-02 0. 0. 0. 0. 0. 0. 0. 0.
      0. 0. 0. 0. 0. 0. 0. 0. 0. 0. 0. 0. 0. 0. 0. 0. 0. 0. 0. 0. 0. 0.
      0. 0. 0. 0. 0. 0. 6.77966094e-03 0. 0. 0. 0. 0. 0. 0.
      3.38983047e-03 0. 0. 0. 0. 0. 0. 0. 0. 0. 0. 0. 3.38983047e-03 0.
      0. 0. 6.77966094e-03 0. 0. 0. 0. 1.69491526e-02 0. 0.
      3.38983047e-03 6.77966094e-03 0. 0. 0. 0. 0. 0. 0. 0. 0. 0. 0.
      3.38983047e-03 0. 0. 0. 3.38983047e-03 3.38983047e-03 0. 0. 0.
      3.38983047e-03 0. 0. 0. 0. 0. 0. 0. 0. 0. 6.77966094e-03 0. 0. 0.
      3.38983047e-03 0. 0. 0. 0. 0. 0. 0. 0. 0. 0. 3.38983047e-03 0.
      3.38983047e-03 0. 3.38983047e-03 0. 0. 0. 0. 0. 0. 3.38983047e-03
      0. 0. 0. 0. 3.38983047e-03 0. 0. 0. 3.38983047e-03 3.38983047e-03
      0. 0. 0. 0. 0. 0. 3.38983047e-03 0. 0. 3.38983047e-03 0.
      3.38983047e-03 0. 0. 0. 3.38983047e-03 0. 0. 0. 0. 3.38983047e-03
      0. 0. 0. 0. 0. 1.01694912e-02 0. 6.77966094e-03 0. 3.38983047e-03
      0. 0. 0. 0. 0. 0. 0. 6.77966094e-03 0. 0. 1.01694912e-02 0. 0. 0.
      6.77966094e-03 3.38983047e-03 0. 0. 0. 0.</_>
    <_>
      0. 0. 0. 0. 0. 0. 1.79533218e-03 0. 7.18132872e-03 0.
      1.79533218e-03 0. 0. 0. 5.38599677e-03 0. 0. 0. 0. 0.
      3.59066436e-03 0. 0. 0. 0. 1.79533218e-03 1.79533218e-03 0. 0.
      3.59066436e-03 1.79533218e-03 0. 0. 0. 3.59066436e-03 0. 0.
      1.79533218e-03 1.79533218e-03 0. 0. 1.79533218e-03 1.79533218e-03
      0. 1.79533218e-03 0. 0. 0. 0. 0. 0. 3.59066436e-03 0. 0.
      1.79533218e-03 0. 0. 0. 0. 0. 0. 0. 1.79533218e-03 0. 0. 0. 0. 0.
      1.79533218e-03 0. 0. 1.79533218e-03 0. 7.18132872e-03 0. 0. 0. 0.
      0. 0. 0. 1.79533218e-03 0. 3.59066436e-03 3.59066436e-03 0. 0. 0.
      0. 0. 0. 0. 0. 0. 0. 0. 0. 0. 3.59066436e-03 3.59066436e-03 0.
      3.59066436e-03 0. 0. 0. 0. 0. 0. 0. 0. 0. 7.18132872e-03 0. 0. 0.
      1.79533218e-03 1.79533218e-03 1.79533218e-03 0. 0. 8.97666067e-03
      0. 0. 0. 1.79533218e-03 1.79533218e-03 0. 0. 3.59066436e-03
      3.59066436e-03 0. 0. 3.59066436e-03 5.38599677e-03 0.
      1.79533218e-03 0. 0. 0. 1.79533218e-03 0. 1.79533218e-03
      3.59066436e-03 5.38599677e-03 0. 0. 0. 0. 0. 0. 0. 0. 0. 0. 0. 0.
      3.59066436e-03 1.79533218e-03 0. 1.07719935e-02 0. 3.59066436e-03
      0. 0. 0. 0. 1.79533218e-03 0. 0. 1.79533218e-03 0. 1.79533218e-03
      3.59066436e-03 0. 0. 0. 3.59066436e-03 0. 3.59066436e-03
      5.38599677e-03 1.79533218e-03 0. 0. 1.79533218e-03 1.79533218e-03
      0. 0. 0. 0. 3.59066436e-03 0. 0. 0. 1.79533218e-03 0. 0. 0. 0. 0.
      0. 0. 0. 0. 0. 5.38599677e-03 5.38599677e-03 0. 7.18132872e-03 0.
      0. 1.79533213e-02 0. 0. 0. 1.79533218e-03 0. 0. 0. 0. 0. 0. 0. 0.
      0. 3.59066436e-03 1.79533218e-03 0. 0. 0. 0. 1.79533218e-03 0.
      5.38599677e-03 3.59066436e-03 0. 0. 0. 0. 0. 0. 0. 0. 0. 0. 0. 0.
      1.79533218e-03 5.38599677e-03 0. 3.59066436e-03 0. 0. 0. 0. 0. 0.
      7.18132872e-03 0. 0. 0. 0. 0. 1.79533218e-03 0. 1.79533218e-03 0.
      0. 0. 1.79533218e-03 1.79533218e-03 0. 3.59066436e-03 0. 0.
      7.18132872e-03 8.97666067e-03 3.59066436e-03 0. 0. 0. 0.
      7.18132872e-03 0. 1.79533218e-03 0. 5.38599677e-03 0.
      3.59066436e-03 1.79533218e-03 0. 1.79533218e-03 3.59066436e-03
      7.18132872e-03 1.79533218e-03 0. 0. 3.59066436e-03 0. 0.
      1.79533218e-03 5.38599677e-03 0. 3.59066436e-03 5.38599677e-03
      5.38599677e-03 0. 0. 1.79533218e-03 0. 1.79533218e-03 0. 0. 0. 0.
      0. 0. 0. 0. 0. 1.79533218e-03 8.97666067e-03 0. 3.59066436e-03 0.
      5.38599677e-03 0. 0. 0. 5.38599677e-03 0. 0. 0. 0. 7.18132872e-03
      3.59066436e-03 0. 0. 0. 1.79533218e-03 0. 1.25673255e-02 0. 0. 0.
      0. 0. 1.79533218e-03 1.79533218e-03 0. 0. 1.79533218e-03
      1.79533218e-03 0. 0. 0. 0. 0. 0. 1.79533218e-03 0. 0. 0. 0.
      5.38599677e-03 1.79533218e-03 0. 0. 0. 0. 0. 0. 1.79533218e-03 0.
      1.79533218e-03 1.79533218e-03 3.59066436e-03 0. 0. 0. 0. 0. 0. 0.
      1.79533218e-03 0. 0. 0. 1.79533218e-03 1.25673255e-02 0.
      1.79533218e-03 0. 0. 1.79533218e-03 0. 0. 0. 0. 1.79533218e-03 0.
      1.79533218e-03 0. 0. 0. 1.79533218e-03 0. 0. 1.79533218e-03
      1.79533218e-03 1.79533218e-03 0. 0. 0. 1.79533218e-03
      3.59066436e-03 0. 7.18132872e-03 0. 1.79533218e-03 0.
      1.79533218e-03 0. 0. 1.79533218e-03 3.59066436e-03 0.
      1.79533218e-03 3.59066436e-03 0. 0. 1.79533218e-03 0.
      1.79533218e-03 3.59066436e-03 0. 0. 1.25673255e-02 0. 0. 0. 0. 0.
      0. 3.59066436e-03 0. 0. 0. 5.38599677e-03 0. 0. 1.79533218e-03 0.
      0. 0. 1.79533218e-03 0. 0. 1.79533218e-03 0. 0. 1.79533218e-03 0.
      1.79533218e-03 0. 3.59066436e-03 0. 0. 0. 0. 0. 0. 0.
      3.59066436e-03 0. 0. 1.79533218e-03 0. 0. 0. 0. 1.79533218e-03 0.
      0. 0. 5.38599677e-03 1.79533218e-03 3.59066436e-03 0.
      3.59066436e-03 0. 0. 0. 7.18132872e-03 0. 0. 0. 5.38599677e-03 0.
      1.79533218e-03 7.18132872e-03 0. 0. 1.79533218e-03 0. 0. 0.
      1.79533218e-03 3.59066436e-03 3.59066436e-03 1.79533218e-03 0.
      5.38599677e-03 0. 0. 1.79533218e-03 0. 0. 7.18132872e-03 0. 0. 0.
      8.97666067e-03 0. 0. 0. 0. 0. 0. 1.79533218e-03 0. 0. 0. 0. 0. 0.
      0. 0. 0. 3.59066436e-03 0. 1.25673255e-02 0. 0. 1.79533218e-03 0.
      7.18132872e-03 0. 1.79533218e-03 0. 0. 0. 3.59066436e-03 0. 0. 0.
      0. 0. 0. 1.79533218e-03 1.79533218e-03 0. 0. 0. 0. 0. 0.
      3.59066436e-03 0. 0. 3.59066436e-03 0. 0. 0. 0. 0. 0.
      1.79533218e-03 3.59066436e-03 1.79533218e-03 0. 3.59066436e-03 0.
      0. 3.59066436e-03 0. 0. 0. 0. 0. 0. 0. 0. 7.18132872e-03
      3.59066436e-03 1.79533213e-02 0. 3.59066436e-03 0. 0. 0.
      3.59066436e-03 1.79533218e-03 1.79533218e-03 1.79533218e-03 0. 0.
      1.79533218e-03 0. 0. 0. 0. 0. 3.59066436e-03 5.38599677e-03 0. 0.
      1.79533218e-03 0. 0. 0. 0. 0. 1.79533218e-03 0. 1.79533218e-03
      3.59066436e-03 0. 3.59066436e-03 0. 0. 3.59066436e-03
      3.59066436e-03 0. 0. 0. 3.59066436e-03 0. 0. 0. 1.79533218e-03 0.
      3.59066436e-03 0. 1.79533218e-03 0. 0. 1.79533218e-03 0.
      3.59066436e-03 3.59066436e-03 0. 0. 0. 0. 0. 0. 0. 0. 0.
      1.79533218e-03 3.59066436e-03 0. 0. 0. 0. 0. 5.38599677e-03 0. 0.
      5.38599677e-03 0. 0. 0. 0. 0. 0. 0. 0. 0. 1.79533218e-03 0. 0. 0.
      0. 1.79533218e-03 0. 1.79533218e-03 0. 1.79533218e-03
      1.79533218e-03 1.79533218e-03 0. 1.79533218e-03 0. 0.
      1.79533218e-03 0. 0. 0. 1.79533218e-03 0. 0. 3.59066436e-03 0. 0.
      0. 0. 0. 0. 0. 0. 0. 0. 1.79533218e-03 1.79533218e-03
      1.79533218e-03 0. 0. 0. 0. 0. 0. 1.79533218e-03 3.59066436e-03 0.
      0. 0. 0. 0. 0. 3.59066436e-03 0. 1.79533218e-03 0. 0. 0. 0. 0. 0.
      0. 5.38599677e-03 3.59066436e-03 0. 0. 0. 5.38599677e-03 0. 0. 0.
      0. 0. 1.79533218e-03 0. 0. 0. 3.59066436e-03 0. 0. 0. 0. 0. 0. 0.
      0. 0. 0. 0. 0. 0. 1.79533218e-03 0. 0. 0. 1.79533218e-03 0.
      1.79533218e-03 1.79533218e-03 0. 0. 0. 0. 0. 3.59066436e-03 0. 0.
      3.59066436e-03 0. 0. 1.79533218e-03 0. 0. 0. 0. 0. 0. 0.
      3.59066436e-03 0. 0. 1.79533218e-03 1.79533218e-03 1.79533218e-03
      0. 0. 0. 0. 1.79533218e-03 0. 0. 3.59066436e-03 0. 0. 0. 0. 0. 0.
      0. 0. 0. 1.79533218e-03 0. 1.79533218e-03 0. 1.79533218e-03 0. 0.
      0. 0. 0. 0. 0. 0. 0. 0. 0. 7.18132872e-03 0. 0. 1.79533218e-03 0.
      0. 0. 0. 0. 0. 0. 0. 0. 0. 0. 1.79533218e-03 0. 0. 0. 0.
      1.07719935e-02 7.18132872e-03 0. 0. 0. 0. 0. 0. 1.79533218e-03 0.
      0. 0. 0. 1.79533218e-03 0. 0. 0. 1.79533218e-03 0. 5.38599677e-03
      3.59066436e-03 3.59066436e-03 0. 0. 5.38599677e-03 0.
      1.79533218e-03 0. 0. 0. 0. 0. 1.79533218e-03 1.79533218e-03 0. 0.
      0. 0. 0. 0. 3.59066436e-03 0. 0. 0. 0. 0. 0. 7.18132872e-03 0. 0.
      0. 0. 1.79533218e-03 0. 0. 0. 0. 1.79533218e-03 0. 0. 0. 0. 0. 0.
      0. 0. 5.38599677e-03 1.79533218e-03 0. 1.79533218e-03 0. 0.
      3.59066436e-03 0. 0. 0. 3.59066436e-03 0. 3.59066436e-03 0. 0. 0.
      0. 1.79533218e-03 1.79533218e-03 0. 0. 0. 3.59066436e-03 0. 0. 0.
      0. 0. 3.59066436e-03 0. 0. 0. 1.79533218e-03 0. 3.59066436e-03
      3.59066436e-03 0. 1.79533218e-03 0. 0. 0. 0. 0. 7.18132872e-03 0.
      0. 1.79533218e-03 0. 0. 0. 0. 0. 0. 0. 1.79533218e-03 0.
      5.38599677e-03 0. 1.79533218e-03 0. 0. 1.79533218e-03 0. 0. 0. 0.
      0. 1.79533218e-03 0. 0. 0. 0. 0. 0. 0. 1.79533218e-03
      1.79533218e-03 0. 0.</_>
    <_>
      0. 2.59740255e-03 7.79220741e-03 2.59740255e-03 0. 5.19480510e-03
      0. 0. 0. 0. 5.19480510e-03 0. 0. 0. 0. 0. 0. 0. 0. 0. 0. 0. 0. 0.
      2.59740255e-03 2.59740255e-03 0. 5.19480510e-03 0. 0. 0.
      2.59740255e-03 2.59740255e-03 5.19480510e-03 5.19480510e-03 0.
      2.59740255e-03 0. 0. 1.03896102e-02 0. 2.59740255e-03
      5.19480510e-03 0. 0. 0. 5.19480510e-03 2.59740255e-03 0. 0. 0. 0.
      2.59740255e-03 0. 1.55844148e-02 2.59740255e-03 0. 0. 0. 0.
      2.59740255e-03 0. 0. 0. 2.59740255e-03 0. 2.59740255e-03 0.
      1.29870130e-02 0. 0. 5.19480510e-03 0. 5.19480510e-03 0. 0. 0. 0.
      0. 0. 0. 0. 0. 0. 0. 0. 5.19480510e-03 0. 0. 0. 0. 0. 0. 0.
      7.79220741e-03 0. 0. 0. 0. 0. 0. 0. 0. 0. 1.03896102e-02 0.
      2.59740255e-03 1.55844148e-02 0. 0. 0. 0. 2.59740255e-03 0.
      7.79220741e-03 7.79220741e-03 5.19480510e-03 2.59740255e-03
      2.59740255e-03 2.59740255e-03 0. 0. 0. 0. 0. 5.19480510e-03
      2.59740255e-03 0. 0. 2.59740255e-03 0. 0. 1.55844148e-02
      2.59740255e-03 7.79220741e-03 0. 5.19480510e-03 0. 0. 0. 0. 0. 0.
      0. 0. 0. 2.59740255e-03 0. 0. 0. 0. 0. 0. 2.59740255e-03 0.
      2.59740255e-03 0. 0. 0. 0. 0. 0. 0. 0. 2.59740255e-03 0.
      2.59740255e-03 0. 0. 2.59740255e-03 0. 7.79220741e-03
      2.59740255e-03 2.59740255e-03 0. 0. 0. 2.59740255e-03 0. 0. 0. 0.
      0. 2.59740255e-03 0. 0. 0. 0. 0. 2.59740255e-03 2.59740255e-03
      2.59740255e-03 0. 0. 0. 0. 0. 0. 0. 2.59740255e-03 0. 0.
      2.59740255e-03 0. 0. 0. 0. 5.19480510e-03 0. 0. 0. 0. 0. 0. 0.
      2.59740255e-03 0. 0. 0. 0. 0. 0. 0. 0. 0. 5.19480510e-03 0. 0. 0.
      0. 0. 0. 5.19480510e-03 0. 0. 0. 2.59740255e-03 0. 0. 0.
      5.19480510e-03 0. 5.19480510e-03 5.19480510e-03 0. 0.
      5.19480510e-03 0. 0. 0. 5.19480510e-03 0. 1.03896102e-02 0.
      7.79220741e-03 0. 0. 0. 5.19480510e-03 0. 0. 0. 0. 7.79220741e-03
      0. 0. 0. 0. 0. 0. 0. 5.19480510e-03 0. 0. 0. 0. 0. 2.59740255e-03
      0. 2.59740255e-03 0. 5.19480510e-03 0. 0. 0. 0. 2.59740255e-03 0.
      0. 0. 0. 0. 0. 0. 0. 0. 2.59740255e-03 0. 2.59740255e-03 0. 0. 0.
      0. 0. 5.19480510e-03 0. 0. 0. 0. 0. 0. 0. 2.59740255e-03 0.
      5.19480510e-03 0. 0. 0. 0. 5.19480510e-03 0. 1.03896102e-02
      2.59740255e-03 0. 0. 0. 0. 0. 0. 0. 0. 0. 2.59740255e-03 0. 0.
      2.59740255e-03 0. 0. 0. 0. 2.59740255e-03 5.19480510e-03 0.
      2.59740255e-03 0. 0. 0. 0. 0. 0. 0. 0. 0. 0. 0. 0. 0. 0. 0. 0. 0.
      0. 2.59740255e-03 0. 2.59740255e-03 0. 0. 2.59740255e-03 0. 0. 0.
      0. 0. 2.59740255e-03 2.59740255e-03 0. 0. 0. 0. 0. 0. 0. 0. 0.
      1.29870130e-02 2.59740255e-03 0. 0. 0. 0. 2.59740255e-03 0. 0. 0.
      0. 0. 0. 0. 7.79220741e-03 0. 0. 0. 0. 0. 0. 0. 0. 0. 0.
      1.03896102e-02 0. 0. 0. 0. 0. 0. 1.03896102e-02 0. 0. 0. 0. 0.
      2.59740255e-03 0. 0. 0. 0. 0. 0. 5.19480510e-03 2.59740255e-03 0.
      0. 7.79220741e-03 0. 0. 0. 2.59740255e-03 0. 2.59740255e-03
      2.59740255e-03 0. 0. 0. 2.59740255e-03 0. 0. 0. 7.79220741e-03 0.
      0. 0. 5.19480510e-03 0. 0. 0. 0. 2.59740255e-03 0. 2.59740255e-03
      2.59740255e-03 0. 0. 0. 2.59740255e-03 7.79220741e-03 0. 0. 0. 0.
      5.19480510e-03 0. 0. 0. 5.19480510e-03 0. 0. 0. 0. 0.
      2.59740255e-03 5.19480510e-03 2.59740255e-03 2.59740255e-03 0.
      2.59740255e-03 0. 0. 2.59740255e-03 0. 0. 0. 5.19480510e-03 0. 0.
      0. 0. 0. 5.19480510e-03 0. 0. 0. 0. 5.19480510e-03 0.
      2.59740255e-03 0. 0. 0. 0. 0. 2.59740255e-03 0. 2.59740255e-03 0.
      0. 2.59740255e-03 0. 0. 2.59740255e-03 0. 0. 2.59740255e-03 0. 0.
      0. 0. 0. 0. 0. 0. 0. 0. 0. 0. 5.19480510e-03 0. 0. 7.79220741e-03
      0. 7.79220741e-03 0. 7.79220741e-03 0. 0. 0. 0. 0. 2.59740255e-03
      0. 0. 2.59740255e-03 0. 0. 0. 0. 0. 0. 0. 0. 2.59740255e-03 0. 0.
      5.19480510e-03 0. 0. 0. 0. 0. 0. 5.19480510e-03 0. 2.59740255e-03
      2.59740255e-03 0. 0. 0. 0. 0. 0. 2.59740255e-03 0. 0. 0. 0. 0. 0.
      1.03896102e-02 0. 0. 0. 0. 0. 0. 0. 0. 0. 5.19480510e-03 0. 0. 0.
      2.59740255e-03 1.03896102e-02 2.59740255e-03 5.19480510e-03
      1.03896102e-02 0. 0. 2.59740255e-03 0. 0. 0. 0. 0. 5.19480510e-03
      0. 0. 0. 0. 0. 2.59740255e-03 0. 0. 0. 0. 0. 0. 0. 7.79220741e-03
      0. 0. 0. 2.59740255e-03 0. 0. 0. 0. 2.59740255e-03 0.
      1.29870130e-02 0. 2.59740255e-03 0. 0. 0. 0. 5.19480510e-03 0. 0.
      0. 0. 0. 0. 0. 0. 0. 0. 0. 0. 0. 0. 0. 0. 0. 2.59740255e-03
      2.59740255e-03 0. 0. 0. 0. 0. 0. 0. 0. 2.59740255e-03 0. 0. 0.
      2.59740255e-03 0. 0. 1.03896102e-02 0. 0. 0. 0. 0. 0. 0. 0. 0. 0.
      0. 0. 0. 0. 0. 0. 5.19480510e-03 0. 0. 0. 0. 0. 0. 0. 0.
      2.59740255e-03 0. 0. 0. 0. 0. 0. 0. 0. 5.19480510e-03
      2.59740255e-03 0. 0. 0. 0. 0. 0. 0. 0. 0. 0. 0. 0. 0.
      2.59740255e-03 0. 0. 2.59740255e-03 0. 0. 5.19480510e-03 0.
      2.59740255e-03 0. 5.19480510e-03 0. 0. 0. 2.59740255e-03 0.
      2.59740255e-03 0. 5.19480510e-03 2.59740255e-03 0. 0. 0. 0. 0. 0.
      0. 2.59740255e-03 0. 0. 0. 2.59740255e-03 0. 0. 0. 0. 0. 0. 0. 0.
      0. 0. 0. 0. 0. 0. 0. 5.19480510e-03 0. 0. 2.59740255e-03 0. 0.
      2.59740255e-03 0. 0. 0. 0. 0. 2.59740255e-03 2.59740255e-03 0. 0.
      0. 0. 0. 2.59740255e-03 2.59740255e-03 2.59740255e-03 0.
      2.59740255e-03 0. 2.59740255e-03 0. 5.19480510e-03 2.59740255e-03
      0. 0. 2.59740255e-03 2.59740255e-03 0. 0. 5.19480510e-03 0. 0.
      5.19480510e-03 0. 2.59740255e-03 2.59740255e-03 0. 0. 0. 0. 0. 0.
      0. 0. 0. 0. 0. 0. 0. 0. 0. 0. 0. 0. 0. 0. 0. 0. 0. 0. 0. 0. 0. 0.
      0. 0. 0. 2.59740255e-03 0. 0. 0. 5.19480510e-03 0. 0. 0.
      2.59740255e-03 0. 2.59740255e-03 0. 1.29870130e-02 0.
      2.59740255e-03 0. 0. 2.59740255e-03 0. 0. 1.03896102e-02 0. 0. 0.
      2.33766232e-02 2.59740255e-03 0. 0. 0. 2.59740255e-03 0. 0. 0. 0.
      0. 0. 0. 0. 0. 0. 0. 2.59740255e-03 0. 0. 0. 0. 0. 2.59740255e-03
      0. 2.59740255e-03 0. 0. 0. 0. 0. 0. 0. 0. 0. 0. 0. 0. 0. 0. 0. 0.
      0. 0. 0. 0. 0. 0. 0. 0. 0. 0. 0. 0. 0. 0. 0. 0. 0. 0. 0. 0. 0. 0.
      0. 0. 0. 0. 0. 0. 0. 0. 0. 0. 0. 0. 2.59740255e-03 0. 0. 0. 0. 0.
      0. 0. 0. 0. 0. 0. 0. 0. 0. 0. 5.19480510e-03 0. 0. 0. 0.
      5.19480510e-03 0. 0. 0. 2.59740255e-03 0. 2.59740255e-03 0. 0. 0.
      7.79220741e-03 0. 0. 0. 0. 0. 0. 0. 0. 0. 0. 0. 0. 0.
      2.59740255e-03 0. 0. 0.</_>
    <_>
      0. 2.74725282e-03 2.74725282e-03 0. 0. 0. 0. 0. 2.74725282e-03 0.
      0. 0. 2.74725282e-03 0. 0. 0. 0. 8.24175868e-03 0. 0. 0.
      2.74725282e-03 0. 0. 0. 0. 2.74725282e-03 0. 0. 0. 1.09890113e-02
      8.24175868e-03 0. 1.09890113e-02 0. 0. 0. 1.92307699e-02
      2.74725282e-03 2.74725282e-03 0. 2.74725282e-03 0. 2.74725282e-03
      0. 0. 0. 0. 0. 0. 0. 1.64835174e-02 0. 0. 5.49450563e-03 0. 0. 0.
      0. 0. 2.74725282e-03 0. 5.49450563e-03 0. 5.49450563e-03 0.
      2.74725282e-03 0. 0. 0. 0. 2.74725282e-03 0. 0. 0. 0. 0. 0. 0. 0.
      2.74725282e-03 0. 0. 0. 0. 0. 0. 0. 2.74725282e-03 0. 0. 0. 0. 0.
      2.74725282e-03 0. 0. 0. 0. 0. 0. 0. 0. 2.74725282e-03
      2.74725282e-03 0. 0. 2.74725282e-03 8.24175868e-03 0. 0. 0. 0. 0.
      2.74725282e-03 0. 2.74725282e-03 2.74725282e-03 0. 0.
      8.24175868e-03 2.74725282e-03 0. 0. 0. 0. 0. 5.49450563e-03 0. 0.
      0. 0. 0. 2.74725282e-03 0. 0. 0. 0. 0. 0. 5.49450563e-03
      2.74725282e-03 0. 0. 0. 2.74725282e-03 2.74725282e-03 0.
      2.74725282e-03 0. 0. 0. 0. 0. 0. 0. 0. 0. 0. 1.64835174e-02 0. 0.
      0. 2.74725282e-03 0. 0. 0. 0. 0. 0. 0. 0. 8.24175868e-03
      2.74725282e-03 0. 2.74725282e-03 0. 0. 0. 0. 2.74725282e-03 0.
      2.74725282e-03 0. 0. 0. 0. 2.74725282e-03 2.74725282e-03 0. 0. 0.
      0. 2.74725282e-03 2.74725282e-03 0. 0. 0. 0. 0. 0. 0.
      5.49450563e-03 0. 0. 0. 0. 8.24175868e-03 0. 0. 0. 0. 0. 0.
      5.49450563e-03 0. 5.49450563e-03 0. 0. 2.74725282e-03 0. 0. 0. 0.
      0. 0. 0. 0. 0. 0. 2.74725282e-03 0. 0. 0. 0. 2.74725282e-03 0. 0.
      8.24175868e-03 0. 0. 0. 0. 0. 0. 0. 0. 2.74725282e-03 0. 0. 0. 0.
      1.09890113e-02 0. 0. 0. 5.49450563e-03 0. 0. 0. 0. 0. 0. 0. 0. 0.
      0. 0. 0. 0. 0. 8.24175868e-03 0. 0. 0. 0. 0. 0. 0. 0. 0.
      8.24175868e-03 2.74725282e-03 0. 0. 0. 0. 0. 0. 0. 0. 0.
      2.74725282e-03 0. 0. 0. 0. 0. 0. 0. 0. 0. 0. 2.74725282e-03 0.
      2.74725282e-03 0. 0. 0. 0. 0. 0. 0. 0. 5.49450563e-03 0. 0. 0. 0.
      0. 0. 2.74725282e-03 0. 0. 0. 0. 5.49450563e-03 0. 0. 0. 0.
      2.74725282e-03 0. 0. 0. 0. 0. 0. 0. 0. 2.74725282e-03
      2.74725282e-03 5.49450563e-03 0. 2.74725282e-03 0. 0. 0. 0. 0. 0.
      0. 0. 2.74725282e-03 0. 0. 0. 0. 0. 0. 5.49450563e-03 0. 0. 0. 0.
      0. 0. 0. 5.49450563e-03 0. 0. 0. 0. 2.74725282e-03 0. 0. 0. 0.
      5.49450563e-03 0. 0. 0. 5.49450563e-03 0. 2.74725282e-03 0. 0. 0.
      2.74725282e-03 0. 0. 0. 0. 0. 0. 2.74725282e-03 0. 2.74725282e-03
      5.49450563e-03 0. 0. 0. 0. 0. 0. 0. 0. 0. 0. 0. 0. 0.
      2.74725282e-03 0. 0. 0. 6.59340695e-02 0. 0. 0. 0. 0. 0. 0. 0. 0.
      0. 0. 0. 0. 2.74725282e-03 0. 0. 0. 5.49450563e-03 0. 0. 0. 0. 0.
      8.24175868e-03 0. 0. 2.74725282e-03 0. 0. 2.74725282e-03 0.
      2.74725282e-03 5.49450563e-03 0. 0. 0. 0. 0. 8.24175868e-03 0. 0.
      5.49450563e-03 0. 0. 0. 0. 0. 0. 0. 5.49450563e-03 0. 0.
      5.49450563e-03 1.37362638e-02 0. 0. 0. 0. 0. 0. 0. 0. 0. 0. 0.
      2.74725282e-03 0. 0. 0. 0. 0. 0. 0. 0. 0. 2.74725282e-03 0. 0. 0.
      0. 0. 0. 0. 0. 0. 0. 0. 0. 0. 0. 0. 0. 0. 0. 0. 0. 0. 0. 0. 0. 0.
      0. 7.14285746e-02 0. 0. 0. 0. 2.74725282e-03 0. 0. 0. 0. 0. 0. 0.
      0. 0. 0. 2.74725282e-03 0. 0. 2.74725282e-03 0. 0. 0. 0.
      2.74725282e-03 0. 0. 2.74725282e-03 0. 0. 2.74725282e-03 0.
      2.74725282e-03 0. 0. 0. 0. 0. 0. 0. 0. 2.74725282e-03 0.
      1.37362638e-02 2.74725282e-03 0. 0. 0. 0. 0. 0. 2.74725282e-03 0.
      5.49450563e-03 0. 0. 0. 0. 0. 0. 0. 0. 0. 0. 0. 0. 0. 0.
      1.37362638e-02 0. 0. 0. 0. 0. 0. 0. 0. 0. 5.49450563e-03 0. 0. 0.
      0. 1.09890113e-02 1.64835174e-02 2.74725282e-03 0. 0. 0.
      8.24175868e-03 0. 2.74725282e-03 0. 0. 0. 0. 0. 8.24175868e-03 0.
      0. 0. 0. 0. 0. 0. 0. 5.49450563e-03 0. 0. 0. 0. 2.74725282e-03 0.
      0. 0. 0. 0. 0. 0. 0. 0. 0. 0. 0. 0. 2.74725282e-03 0. 0. 0. 0. 0.
      0. 0. 0. 0. 0. 8.24175868e-03 0. 0. 5.49450563e-03 0. 0. 0. 0. 0.
      0. 0. 2.74725282e-03 0. 2.74725282e-03 0. 0. 0. 0. 0. 0. 0. 0.
      2.74725282e-03 2.74725282e-03 0. 0. 0. 0. 0. 0. 0. 5.49450563e-03
      0. 0. 0. 0. 0. 0. 0. 0. 0. 0. 0. 0. 8.24175868e-03 2.74725282e-03
      0. 0. 0. 0. 0. 2.74725282e-03 2.74725282e-03 0. 0. 0. 0. 0. 0.
      1.09890113e-02 0. 0. 8.24175868e-03 0. 0. 0. 0. 0. 0. 0. 0. 0. 0.
      0. 0. 0. 0. 0. 2.74725282e-03 2.74725282e-03 0. 0. 0. 0. 0. 0. 0.
      0. 0. 0. 0. 0. 0. 0. 8.24175868e-03 2.74725282e-03 0. 0. 0. 0. 0.
      0. 0. 0. 0. 0. 0. 5.49450563e-03 0. 0. 0. 0. 2.74725282e-03 0. 0.
      0. 2.74725282e-03 0. 5.49450563e-03 0. 2.74725282e-03 0. 0. 0. 0.
      0. 0. 0. 0. 2.74725282e-03 0. 5.49450563e-03 2.74725282e-03 0. 0.
      0. 0. 0. 0. 0. 0. 0. 0. 8.24175868e-03 0. 0. 5.49450563e-03 0.
      2.74725282e-03 0. 0. 0. 0. 0. 0. 0. 0. 0. 0. 0. 0. 0. 0.
      2.74725282e-03 0. 0. 0. 0. 0. 0. 0. 0. 1.37362638e-02 0. 0. 0. 0.
      0. 0. 0. 0. 0. 0. 0. 0. 0. 0. 0. 0. 0. 0. 0. 0. 0. 2.74725282e-03
      0. 0. 0. 0. 5.49450563e-03 0. 2.74725282e-03 0. 0. 0.
      2.74725282e-03 0. 0. 2.74725282e-03 0. 2.74725282e-03 0. 0. 0. 0.
      0. 0. 0. 0. 0. 2.74725282e-03 0. 0. 0. 0. 0. 0. 0. 0. 0. 0. 0. 0.
      0. 0. 0. 2.74725282e-03 0. 0. 0. 0. 5.49450563e-03 0.
      2.74725282e-03 0. 5.49450563e-03 0. 2.74725282e-03 0. 0. 0.
      5.49450563e-03 0. 2.74725282e-03 2.74725282e-03 2.74725282e-03 0.
      0. 0. 0. 0. 0. 2.74725282e-03 0. 0. 0. 0. 2.74725282e-03
      2.74725282e-03 0. 0. 0. 2.74725282e-03 0. 2.74725282e-03 0. 0.
      2.74725282e-03 2.74725282e-03 0. 0. 0. 0. 0. 0. 0. 0. 0. 0. 0.
      2.74725282e-03 0. 0. 0. 0. 0. 0. 5.49450563e-03 0. 0.
      2.74725282e-03 0. 0. 0. 0. 0. 0. 0. 0. 0. 0. 0. 2.74725282e-03 0.
      0. 0. 2.74725282e-03 0. 0. 2.74725282e-03 0. 0. 0. 0. 0. 0. 0.
      8.24175868e-03 0. 0. 0. 0. 0. 0. 0. 0. 0. 0. 5.49450563e-03 0. 0.
      0. 0. 0. 0.</_>
    <_>
      0. 0. 0. 9.80392192e-03 0. 0. 0. 0. 0. 0. 2.45098048e-03 0.
      4.90196096e-03 0. 0. 0. 0. 7.35294167e-03 0. 0. 7.35294167e-03 0.
      0. 0. 4.90196096e-03 0. 4.90196096e-03 0. 0. 0. 0. 0.
      2.45098048e-03 0. 9.80392192e-03 0. 0. 1.71568636e-02 0.
      1.47058833e-02 0. 0. 4.90196096e-03 0. 0. 0. 0. 0. 0.
      2.45098048e-03 0. 0. 0. 0. 0. 2.45098048e-03 4.90196096e-03 0.
      2.45098048e-03 2.45098048e-03 0. 0. 0. 0. 4.90196096e-03 0.
      2.45098048e-03 0. 0. 0. 0. 2.69607846e-02 0. 4.90196096e-03 0.
      2.45098048e-03 0. 0. 0. 0. 7.35294167e-03 0. 0. 0. 0. 0. 0.
      2.45098048e-03 0. 0. 0. 0. 0. 2.45098048e-03 4.90196096e-03 0.
      2.45098048e-03 0. 4.90196096e-03 0. 0. 0. 0. 0. 0. 0. 0. 0.
      2.45098048e-03 0. 0. 0. 0. 4.90196096e-03 0. 0. 2.45098048e-03
      2.45098048e-03 0. 0. 0. 0. 1.96078438e-02 0. 0. 2.45098048e-03 0.
      2.45098048e-03 0. 0. 2.45098048e-03 0. 0. 4.90196096e-03 0. 0. 0.
      0. 0. 0. 2.45098048e-03 7.35294167e-03 0. 0. 0. 0. 4.90196096e-03
      0. 0. 0. 0. 0. 0. 0. 0. 9.80392192e-03 0. 0. 0. 7.35294167e-03
      2.45098048e-03 0. 0. 0. 0. 0. 0. 0. 2.45098048e-03 0. 0.
      2.45098048e-03 0. 0. 0. 2.45098048e-03 4.90196096e-03 0.
      2.45098048e-03 0. 0. 0. 0. 2.45098048e-03 0. 0. 0. 0.
      2.45098048e-03 0. 0. 0. 0. 0. 0. 0. 0. 0. 0. 0. 0. 0. 0. 0. 0. 0.
      0. 1.22549022e-02 0. 0. 0. 0. 0. 0. 0. 0. 0. 0. 0. 0. 0. 0.
      4.90196096e-03 0. 0. 4.90196096e-03 0. 0. 4.90196096e-03 0. 0. 0.
      2.45098048e-03 0. 2.45098048e-03 0. 0. 0. 0. 0. 2.45098048e-03 0.
      0. 2.45098048e-03 0. 0. 2.45098048e-03 0. 0. 2.45098048e-03 0. 0.
      2.45098048e-03 4.90196096e-03 0. 2.45098048e-03 0. 0. 0. 0. 0. 0.
      0. 2.45098048e-03 0. 0. 0. 0. 0. 0. 0. 2.45098048e-03 0. 0.
      7.35294167e-03 0. 0. 4.90196096e-03 0. 0. 0. 4.90196096e-03 0. 0.
      2.45098048e-03 2.45098048e-03 2.45098048e-03 0. 2.45098048e-03 0.
      0. 0. 0. 4.90196096e-03 0. 0. 0. 0. 0. 2.45098048e-03
      2.45098048e-03 0. 0. 2.45098048e-03 9.80392192e-03 0. 0. 0.
      2.45098048e-03 0. 0. 0. 0. 0. 4.90196096e-03 0. 0. 0. 0. 0.
      2.45098048e-03 2.45098048e-03 7.35294167e-03 0. 0. 0.
      7.35294167e-03 0. 0. 0. 0. 0. 0. 0. 0. 0. 0. 0. 0. 0.
      1.22549022e-02 2.45098048e-03 0. 0. 0. 0. 0. 2.45098048e-03 0. 0.
      0. 0. 0. 2.45098048e-03 0. 0. 0. 0. 0. 0. 4.90196096e-03
      2.45098048e-03 0. 0. 0. 0. 2.45098048e-03 0. 4.90196096e-03 0. 0.
      0. 0. 0. 0. 4.90196096e-03 0. 0. 0. 0. 0. 7.35294167e-03 0. 0. 0.
      0. 0. 0. 0. 0. 2.45098048e-03 4.90196096e-03 0. 0. 0.
      4.90196096e-03 0. 0. 0. 0. 0. 2.45098048e-03 7.35294167e-03 0.
      2.45098048e-03 0. 0. 0. 0. 0. 0. 2.45098048e-03 0. 0.
      4.90196096e-03 0. 1.96078438e-02 0. 0. 0. 0. 0. 7.35294167e-03 0.
      0. 2.45098048e-03 0. 2.45098048e-03 0. 0. 2.45098048e-03
      4.90196096e-03 0. 0. 4.90196096e-03 2.45098048e-03 0.
      2.45098048e-03 0. 0. 0. 0. 0. 4.90196096e-03 0. 0. 0. 0. 0.
      2.45098048e-03 0. 0. 0. 0. 0. 4.90196096e-03 0. 0. 0. 0. 0. 0. 0.
      0. 0. 0. 0. 0. 0. 0. 2.45098048e-03 2.45098048e-03 0. 0. 0. 0. 0.
      0. 0. 0. 0. 0. 2.45098048e-03 0. 2.45098048e-03 0. 0. 0. 0. 0. 0.
      0. 0. 0. 0. 0. 0. 0. 0. 0. 0. 0. 2.45098048e-03 4.90196096e-03
      2.45098048e-03 0. 0. 0. 0. 0. 0. 0. 2.45098048e-03 0. 0. 0. 0.
      4.90196096e-03 0. 1.22549022e-02 0. 0. 4.90196096e-03 0. 0. 0. 0.
      2.45098048e-03 0. 0. 0. 2.45098048e-03 0. 0. 0. 0. 0. 0.
      2.45098048e-03 0. 0. 0. 0. 0. 0. 0. 0. 0. 9.80392192e-03 0. 0. 0.
      0. 0. 0. 0. 2.45098048e-03 0. 0. 0. 0. 0. 7.35294167e-03
      7.35294167e-03 0. 0. 0. 0. 2.45098048e-03 0. 0. 0. 0. 0. 0. 0. 0.
      0. 7.35294167e-03 0. 0. 0. 0. 0. 0. 0. 0. 1.47058833e-02 0.
      4.90196096e-03 0. 0. 0. 2.45098048e-03 0. 0. 0. 4.90196096e-03 0.
      0. 0. 4.90196096e-03 2.45098048e-03 4.90196096e-03 0.
      2.45098048e-03 2.45098048e-03 0. 0. 0. 0. 0. 0. 0. 0. 0.
      2.45098048e-03 2.45098048e-03 0. 0. 0. 0. 0. 0. 2.45098048e-03
      2.45098048e-03 0. 0. 2.45098048e-03 0. 0. 0. 2.45098048e-03 0. 0.
      0. 0. 0. 0. 4.90196096e-03 0. 0. 2.45098048e-03 0. 0. 0.
      2.45098048e-03 0. 0. 0. 0. 0. 0. 0. 0. 2.45098048e-03 0. 0.
      2.45098048e-03 0. 2.45098048e-03 2.45098048e-03 0. 0. 0. 0. 0. 0.
      0. 0. 0. 0. 0. 0. 0. 0. 0. 0. 0. 0. 0. 0. 0. 1.22549022e-02
      4.90196096e-03 0. 0. 0. 0. 2.45098048e-03 2.45098048e-03 0. 0. 0.
      0. 2.45098048e-03 0. 0. 2.45098048e-03 0. 0. 0. 0. 0. 0. 0. 0. 0.
      0. 0. 0. 0. 0. 0. 4.90196096e-03 0. 0. 7.35294167e-03 0. 0. 0. 0.
      4.90196096e-03 2.45098048e-03 2.45098048e-03 0. 7.35294167e-03 0.
      0. 0. 0. 0. 2.45098048e-03 0. 0. 0. 0. 0. 0. 0. 0. 0.
      2.45098048e-03 0. 0. 0. 4.90196096e-03 0. 0. 0. 0. 0. 0. 0. 0. 0.
      0. 0. 0. 9.80392192e-03 2.45098048e-03 0. 0. 0. 4.90196096e-03 0.
      0. 0. 0. 0. 0. 0. 2.45098048e-03 2.45098048e-03 0. 4.90196096e-03
      0. 0. 2.45098048e-03 0. 0. 2.45098048e-03 0. 0. 0. 0. 0. 0.
      2.45098048e-03 0. 0. 0. 0. 0. 4.90196096e-03 2.45098048e-03 0. 0.
      7.35294167e-03 0. 0. 0. 0. 4.90196096e-03 0. 0. 0. 2.45098048e-03
      0. 4.90196096e-03 0. 0. 0. 0. 0. 0. 0. 0. 0. 7.35294167e-03 0. 0.
      0. 0. 0. 4.90196096e-03 0. 9.80392192e-03 0. 0. 0. 0. 0. 0. 0. 0.
      0. 0. 2.45098048e-03 0. 0. 0. 0. 0. 0. 0. 2.45098048e-03 0.
      2.45098048e-03 0. 0. 0. 0. 0. 0. 1.71568636e-02 2.45098048e-03 0.
      0. 0. 2.45098048e-03 2.45098048e-03 2.45098048e-03 0. 0.
      1.22549022e-02 0. 0. 2.45098048e-03 2.45098048e-03 0.
      2.45098048e-03 0. 0. 0. 1.22549022e-02 0. 0. 0. 0. 0.
      2.45098048e-03 0. 0. 0. 0. 0. 0. 0. 0. 0. 0. 0. 0. 0. 0.
      2.45098048e-03 4.90196096e-03 0. 0. 0. 0. 4.90196096e-03 0. 0.
      2.45098048e-03 0. 0. 0. 2.45098048e-03 0. 0. 0. 0. 0. 0. 0. 0. 0.
      4.90196096e-03 2.45098048e-03 0. 0. 0. 0. 1.22549022e-02
      7.35294167e-03 4.90196096e-03 0. 0. 0. 0. 0. 0. 0. 0. 0. 0. 0.
      2.45098048e-03 0. 0. 0. 0. 0. 0. 0. 0. 2.45098048e-03 0. 0. 0. 0.
      0. 0. 0. 0. 2.45098048e-03 0. 0. 0. 2.45098048e-03 0. 0. 0. 0. 0.
      2.45098048e-03 0. 0. 0. 0. 0. 0. 0. 4.90196096e-03 0. 0. 0. 0. 0.
      0. 0. 2.45098048e-03 0. 0. 0. 0. 0. 0. 0. 0. 2.45098048e-03 0. 0.
      0. 0. 0. 0. 2.45098048e-03</_>
    <_>
      0. 0. 0. 0. 0. 0. 0. 0. 0. 0. 0. 0. 2.26757373e-03 6.80272095e-03
      2.26757373e-03 0. 0. 6.80272095e-03 0. 6.80272095e-03
      2.26757373e-03 0. 0. 0. 0. 0. 1.13378689e-02 0. 0. 0.
      2.26757373e-03 2.26757373e-03 0. 0. 2.26757373e-03 0. 0.
      2.26757373e-03 2.26757373e-03 1.36054419e-02 2.26757373e-03 0. 0.
      0. 0. 0. 0. 0. 2.26757373e-03 0. 0. 0. 0. 2.26757373e-03
      2.26757373e-03 2.26757373e-03 0. 2.26757373e-03 0. 0. 0. 0. 0.
      2.26757373e-03 2.26757373e-03 0. 2.26757373e-03 0. 0.
      4.53514745e-03 0. 0. 0. 0. 0. 4.53514745e-03 0. 2.26757373e-03 0.
      0. 0. 0. 0. 0. 0. 0. 2.26757373e-03 0. 0. 0. 0. 0. 0.
      2.26757373e-03 0. 0. 4.53514745e-03 0. 0. 0. 0. 0. 0. 0. 0. 0. 0.
      0. 6.80272095e-03 0. 4.53514745e-03 2.26757373e-03 0. 0.
      2.26757373e-03 0. 2.26757373e-03 4.53514745e-03 0. 2.26757373e-03
      0. 4.53514745e-03 2.26757373e-03 0. 0. 0. 0. 0. 0. 0. 0. 0.
