<?xml version="1.0"?>
<opencv_storage>
<opencv_ml_svm>
  <format>3</format>
  <svmType>C_SVC</svmType>
  <kernel>
    <type>LINEAR</type></kernel>
  <C>1.</C>
  <term_criteria><iterations>100</iterations></term_criteria>
  <var_count>1000</var_count>
  <class_count>2</class_count>
  <class_labels type_id="opencv-matrix">
    <rows>2</rows>
    <cols>1</cols>
    <dt>i</dt>
    <data>
      -1 1</data></class_labels>
  <sv_total>1</sv_total>
  <support_vectors>
    <_>
      4.75364970e-03 -1.05713157e-03 -4.51721950e-03 -8.54615308e-03
      2.88493233e-03 1.02172792e-03 6.55596843e-04 4.32896864e-04
      1.98161392e-03 8.73897970e-03 -4.01240977e-04 5.53319277e-03
      -3.78137198e-03 2.81152944e-03 -2.07543606e-03 1.45488745e-03
      4.16252326e-04 -1.80808138e-02 4.75270674e-03 -4.27799346e-03
      -8.02256260e-03 4.42509912e-03 6.38302136e-03 1.79371086e-03
      -3.07091442e-03 -3.97836370e-03 6.02079381e-04 2.55648931e-03
      1.90270285e-03 1.17087376e-03 -8.01997818e-03 -6.94935163e-03
      -6.10525429e-04 -1.31238559e-02 -1.69428661e-02 6.66878652e-03
      -1.06575829e-03 -7.22115394e-03 -2.14766385e-03 -4.03753929e-02
      -1.69829570e-03 1.99608272e-03 -5.33579057e-03 7.07188295e-03
      9.48147662e-03 3.06024426e-03 3.04622023e-04 9.25556989e-04
      5.62019413e-04 4.54761274e-03 3.99390562e-03 -1.49571542e-02
      -2.59740255e-03 1.39405634e-02 -1.49111543e-02 4.16565593e-03
      1.64305400e-02 -3.55464104e-03 1.03595415e-02 3.78353614e-03
      -1.87495680e-04 1.40629243e-03 -3.69030307e-03 2.81102723e-03
      -1.04697589e-02 6.33710530e-03 -6.22006273e-03 1.33574207e-03
      -1.31754130e-02 7.24679930e-03 5.15218824e-03 7.17670657e-03
      2.32451037e-03 -2.50285421e-03 2.00006482e-03 -1.39209433e-02
      1.43973082e-02 4.97289840e-03 4.92390106e-03 1.00377817e-02
      2.49666069e-03 4.27268882e-04 1.94461655e-03 -3.58878309e-03
      3.86596587e-03 1.95415374e-02 6.65915385e-03 -1.06442938e-04
      -1.55907613e-03 8.05101544e-03 4.51422588e-04 9.95993987e-03
      9.09890607e-03 -1.65526569e-03 -1.10101113e-02 1.10179279e-02
      -7.90499430e-03 3.89203080e-03 1.01457499e-02 -6.89425913e-04
      4.32896864e-04 -5.27375902e-04 5.10873133e-03 1.51885464e-03
      3.76405846e-03 1.26539273e-02 -1.32893398e-03 -1.50518436e-02
      -1.05815195e-02 7.28932116e-03 2.52525322e-03 -4.98516485e-03
      1.21056652e-02 -2.19543022e-03 -1.14007415e-02 -1.33076438e-03
      -1.64910052e-02 -8.86568986e-03 3.14647611e-03 4.90526363e-05
      -8.64846259e-03 9.81519185e-03 -1.93664022e-02 1.90751755e-03
      3.37719568e-03 9.73628717e-04 5.67571842e-04 1.22149419e-02
      -8.15906620e-04 5.93961158e-04 8.45340895e-04 2.05873530e-02
      -2.02321596e-02 -3.91900353e-03 1.35742472e-02 2.93799327e-03
      1.20884867e-03 -1.18887145e-03 4.50374529e-04 4.81380848e-03
      -7.94548634e-03 2.72241217e-04 -3.20136477e-03 -3.92858405e-03
      2.11001141e-03 4.56164964e-03 -1.06762853e-02 6.98490627e-03
      -2.74725282e-03 3.87418404e-04 -1.04249604e-02 2.31272168e-03
      3.75427684e-04 -4.58358787e-03 5.00072679e-03 1.13459839e-03
      5.36561885e-04 7.92568375e-04 1.12719985e-03 -2.83158887e-02
      4.79403138e-03 3.18048447e-02 -2.26757373e-03 3.55411175e-04
      6.51315786e-03 -6.05639396e-03 -2.14209734e-03 6.62215007e-03
      7.35186459e-03 -3.11256968e-03 4.37159277e-03 1.06214099e-02
      -9.29166935e-03 -3.45875206e-03 8.86121299e-03 8.68078135e-03
      7.37687619e-03 4.16082935e-03 -3.96977365e-03 -7.87355937e-03
      1.55221252e-02 -1.19040711e-02 5.32574067e-03 -1.54638151e-03
      1.19113747e-03 0. 1.13742473e-02 2.71924236e-03 -9.97413322e-03
      1.58561231e-03 -2.74487655e-04 1.45613309e-03 1.78198854e-03
      1.73404778e-03 1.35008464e-04 -1.24825572e-03 2.97744432e-03 0.
      4.32896864e-04 -4.65206802e-03 8.28742341e-04 5.49753476e-03
      4.94564883e-04 5.58145391e-03 1.87141425e-03 -3.33789992e-03
      2.86837853e-03 -1.84056424e-02 2.05397047e-03 4.62719984e-03
      -1.11280791e-02 1.51861715e-03 6.14000892e-05 4.72768489e-03
      5.10030659e-04 -1.79999182e-03 -7.87253585e-03 1.67065277e-03
      5.99250570e-03 1.57887815e-04 1.88115825e-06 1.15636084e-03
      1.44115137e-03 1.84404582e-03 -6.41150575e-04 -5.77293616e-03
      3.55923176e-03 4.54388419e-03 5.91116445e-03 3.88923124e-03
      2.75402912e-03 3.56453005e-03 -6.45645661e-03 -8.16847943e-03
      1.04512798e-03 -2.85751862e-03 -2.05283845e-03 5.92134148e-03
      8.58624745e-03 5.75157348e-03 4.67810454e-03 6.42205123e-03
      -6.05357578e-04 -5.58611611e-03 1.53542613e-04 1.21049362e-03
      -9.44111776e-03 -7.80651486e-03 8.57506506e-03 2.23070430e-03
      -3.83666321e-03 1.09361354e-02 -1.69880092e-02 -1.54799270e-03
      -3.82607384e-03 7.05443276e-03 -8.96993559e-03 5.61269792e-03
      -2.85026757e-03 2.22367584e-03 5.77788521e-03 4.43695672e-03
      2.37283763e-02 -6.80514751e-03 1.09489383e-02 9.72770620e-03
      1.07116187e-02 2.57584802e-03 1.33885990e-03 -8.10165796e-03
      2.41106329e-03 -1.89456977e-02 4.59225196e-03 2.59462581e-03
      -2.24234583e-03 6.41639624e-03 -2.42276560e-03 -3.22180517e-06
      2.98905699e-03 -1.60703657e-03 3.82159045e-03 -2.14302577e-02
      -2.69862870e-03 3.69019969e-03 9.07645735e-04 -7.26722460e-03
      -6.84391009e-04 1.19973179e-02 2.28643185e-03 1.11427708e-02
      -4.91124997e-03 1.81093684e-03 -8.74040462e-03 -1.00397039e-03
      1.24311354e-03 -8.13029706e-04 -7.37693859e-03 -1.60324271e-03
      -1.95715576e-03 -6.88571204e-03 -6.26624515e-03 4.98432200e-03
      3.96250235e-03 -1.71326529e-02 -1.97360665e-02 4.32522828e-03
      9.00003966e-03 2.82571791e-03 -1.98639147e-02 1.64718390e-03
      4.40457650e-03 6.36898400e-03 2.14235974e-03 1.90730102e-03
      -4.40456439e-03 3.58373771e-04 -3.67781124e-03 7.12698698e-03
      1.68297403e-02 -8.42332433e-04 -8.24771170e-03 -1.68901477e-02
      -1.96514018e-02 8.11558217e-03 -5.38599677e-03 3.00655467e-03
      -6.28890097e-03 6.00111205e-03 1.20608113e-03 4.90760012e-03
      1.16413634e-03 -4.72340907e-04 2.13630637e-03 -7.12575158e-03
      1.78985810e-03 7.54905283e-04 3.46079422e-03 1.32503249e-02
      -1.15921674e-03 -1.13262031e-02 -2.46340688e-02 -4.28603031e-03
      -1.57775485e-03 -6.84506772e-03 -1.54828490e-03 3.05338227e-03
      -9.48064146e-04 5.48741920e-03 6.30461145e-03 4.95998655e-04
      3.93685605e-03 2.68441858e-03 4.51380759e-03 -3.60786333e-03
      1.29310805e-02 7.74750765e-03 7.71278283e-03 4.66711633e-03
      8.17267864e-04 1.15038380e-02 -9.37820412e-03 -1.19868582e-02
      5.68229286e-03 -6.58042682e-03 -1.86307169e-02 7.33569870e-03
      8.94207880e-03 5.37207164e-03 3.15886782e-03 5.46975061e-03
      2.89846049e-03 1.07370710e-04 2.71192892e-03 3.10077658e-03
      -4.10451833e-03 -9.80897923e-04 4.98381723e-03 8.01789574e-04
      -4.30632895e-03 1.00036031e-02 -1.29459181e-03 -5.21111442e-03
      -4.28401213e-03 -1.79533218e-03 -1.57342665e-02 4.88212705e-03
      9.92299151e-03 -1.32151612e-03 -1.49271600e-02 2.71192892e-03
      -2.98946653e-03 -2.17486802e-03 1.94085424e-03 2.53798999e-03
      1.05461793e-03 -4.35975101e-03 2.42098724e-03 7.79044162e-03
      -1.35112973e-02 4.49694460e-03 4.06261021e-03 4.52076411e-03
      2.60993419e-03 5.29501867e-03 -1.28101220e-03 1.83380407e-03
      1.18817668e-03 -2.33798428e-03 4.75280453e-03 3.64997168e-03
      1.29715418e-02 6.59160782e-03 3.15663009e-03 -3.12681950e-04
      -6.21211156e-03 1.40629243e-03 -5.02826385e-02 2.17189104e-03
      -3.00841313e-03 4.29782504e-03 4.07807622e-03 7.47903250e-03
      -9.49546415e-03 3.59475687e-02 -3.16876848e-03 -4.55112429e-03
      -4.50163288e-03 -7.10770953e-03 -1.56071526e-03 3.41789285e-03
      -1.08075319e-02 1.19737233e-03 2.06438638e-03 -1.76310691e-03
      -9.11597256e-03 -3.98942124e-04 7.31696666e-04 -3.47765093e-03
      2.65464216e-04 -9.10643861e-03 -5.63163636e-03 3.84436594e-03
      -2.48756213e-03 -1.12398779e-02 -3.54151265e-03 9.57138091e-03
      -1.45029649e-03 -3.56358592e-03 -7.46981660e-03 -6.66499231e-03
      2.00003991e-03 4.58003441e-03 -5.19480510e-03 6.70397794e-03
      -5.67714032e-03 -2.01037917e-02 2.44806916e-03 -1.37007926e-02
      -2.87771947e-03 -1.10606337e-03 5.07788546e-03 1.28558476e-03
      1.25408318e-04 3.87393311e-03 -1.71848596e-03 -7.79220741e-03
      -5.49450563e-03 2.47044791e-03 2.80439085e-03 -5.49450563e-03
      -2.05491073e-02 -2.57310253e-02 -3.59066436e-03 6.33332878e-03
      -2.77381786e-03 4.43973020e-03 6.64181495e-03 1.95207563e-03
      5.93060069e-03 2.18301010e-03 -5.24250267e-04 -9.72995255e-03
      -1.40635790e-02 -1.13998970e-03 -7.96272419e-03 -1.06672449e-02
      6.63919747e-03 2.63957260e-03 5.74557809e-03 -7.24269822e-03
      2.65124138e-03 3.70514317e-05 -1.16535304e-02 8.66682827e-03
      1.31813751e-04 1.17422836e-02 -2.44001462e-03 5.39802341e-03
      -2.01175571e-03 -6.54709432e-03 1.14458492e-02 1.60357915e-03
      -8.33504461e-03 -9.26668383e-03 1.29760262e-02 6.91008708e-03
      9.43440292e-03 2.65727658e-03 3.52350180e-03 7.35848118e-03
      6.76663034e-03 -1.50505081e-03 2.72940611e-03 -7.27885927e-04
      2.15461049e-02 -4.03990597e-03 3.84227693e-04 -1.18758418e-02
      4.79894876e-03 -3.63206044e-02 9.81520396e-04 -1.04965959e-02
      6.54400734e-04 1.84176886e-03 -2.02047895e-03 2.53935484e-03
      -7.11846212e-03 1.48453133e-03 2.14134157e-03 9.84533411e-03
      7.32090184e-03 -2.45098048e-03 -5.81307162e-04 1.18115516e-02
      5.53437136e-03 -2.57142121e-03 4.79369424e-03 5.37601020e-03
      -1.26277246e-02 3.03260167e-03 -1.68841928e-02 7.53380265e-03
      1.18803214e-02 7.76104955e-03 3.93061870e-04 5.42307412e-03
      6.86654530e-04 4.69329907e-03 -8.59731901e-03 -1.44856214e-03
      5.71412127e-03 5.51364559e-04 2.59575038e-03 1.05034094e-03
      5.26005263e-03 1.92921725e-03 -1.65147951e-03 2.42098724e-03
      3.15131666e-03 -3.09283659e-03 -3.91348993e-04 6.40867790e-03
      -2.34073661e-02 -1.41339079e-02 1.33574207e-03 5.18861692e-03
      -3.70093016e-03 -8.58641602e-03 4.20558453e-03 2.63007428e-03
      -3.74896498e-03 -5.60916401e-03 -3.64207639e-03 3.06697120e-03
      1.26846856e-03 5.12862531e-03 4.63819923e-03 1.23281928e-03
      8.92496668e-03 6.01995178e-03 2.94331089e-03 6.00277679e-03
      2.13126870e-04 -5.85823786e-03 1.15636084e-03 0. 1.28049357e-03
      6.82062237e-03 4.32896864e-04 1.37093551e-02 3.66111356e-03
      1.33574207e-03 -3.54984775e-03 1.43738259e-02 -1.27200019e-02
      4.32214979e-03 -9.96356597e-04 -1.31539768e-04 2.63067521e-03
      3.35226185e-03 -8.10702890e-03 -3.98442899e-05 -2.54416689e-02
      -2.26909276e-02 -1.05665368e-03 -1.66275389e-02 1.27478503e-03
      6.34234282e-04 -9.34049953e-03 5.05631848e-04 -1.40007352e-02
      1.79257523e-03 1.29879615e-03 -1.09027140e-02 2.39748824e-02
      9.53650509e-04 -6.27085799e-03 -7.72102084e-03 1.39576625e-02
      5.52179059e-03 9.12984274e-03 1.21049362e-03 1.97090325e-03
      1.15636084e-03 2.34351587e-03 -1.85588598e-02 4.44795052e-03
      -1.34400697e-03 -1.32225091e-02 2.98905699e-03 9.76836425e-04
      -7.65503850e-03 -6.14615681e-04 2.75111874e-03 2.59618950e-03
      -4.64364392e-04 8.66675051e-04 1.74579408e-03 3.37595586e-03
      -1.33075127e-02 0. -5.33070043e-03 4.42841882e-03 2.63635139e-03
      3.11396504e-03 4.75726789e-03 -6.24982035e-03 -2.48756213e-03
      -1.51719083e-04 -2.09063641e-03 -4.97512426e-03 0. 6.74552377e-03
      8.75634048e-03 1.54146785e-02 -3.55229015e-04 4.44647018e-03
      1.69541389e-02 -2.12328904e-03 9.59938765e-03 2.90232841e-02
      1.61793199e-03 7.72007555e-03 -1.96950234e-04 -1.80926756e-03
      -3.77715472e-03 -5.45129413e-03 6.55545108e-03 4.27173683e-03
      1.88989495e-03 4.95530060e-03 8.76558851e-03 3.20123392e-03
      3.70514317e-05 -5.20198792e-03 -2.68328004e-03 7.16747541e-04
      5.25189098e-03 -1.76730729e-03 1.95780231e-04 3.65454121e-03
      -8.21771938e-03 6.47905143e-03 -1.76130619e-03 5.40267071e-03
      -3.56883183e-03 4.31569899e-03 1.89001800e-03 -1.85039430e-03
      2.15584878e-03 4.08432726e-03 5.87802520e-03 7.35008065e-03
      8.28742341e-04 3.48087121e-03 -1.51014188e-04 1.48265017e-03
      9.77867749e-03 -1.01385675e-02 -6.99406676e-03 4.21842001e-03
      3.84513964e-03 -2.12222477e-03 6.56384695e-03 5.40689332e-03
      -3.25498241e-03 2.96248239e-03 8.76659248e-03 6.77327393e-03
      -1.18923802e-02 4.75270674e-03 2.59430846e-03 5.70473028e-03
      -3.81275732e-03 -1.08822212e-02 -1.79533218e-03 2.35071231e-04
      -1.87251214e-02 3.60554736e-03 -3.70665570e-03 2.59155035e-03
      -3.37878661e-03 3.61426268e-03 -1.26253972e-02 -1.49732991e-03
      1.08779597e-04 -5.94664924e-03 1.28049357e-03 3.83376610e-03
      8.65793729e-04 -1.19148684e-03 1.77727230e-02 -4.32988891e-04
      -7.29982136e-03 -2.80174706e-03 2.68678600e-03 -9.68883047e-04
      -7.40099465e-04 2.28167954e-03 2.14573508e-03 -2.26045516e-03
      -9.14843660e-03 1.19684916e-03 4.54265485e-03 -5.96720306e-03
      -8.57774075e-03 1.78627111e-03 -2.59740255e-03 9.53650509e-04
      -1.78966206e-02 8.13979539e-04 8.39588977e-03 -4.53514745e-03
      2.96530034e-03 -2.26757373e-03 1.15199503e-03 1.85257159e-05
      1.15636084e-03 -1.40255108e-03 -8.52342788e-03 8.01829807e-03
      7.34970300e-03 -1.81515962e-02 1.48265017e-03 -4.90196096e-03
      9.13521461e-03 1.26846856e-03 4.47136723e-03 3.53759923e-03
      2.28539435e-03 3.99282621e-03 -1.33330957e-03 9.27868858e-03
      -5.33733889e-03 5.18861692e-03 -6.95752725e-03 9.02719051e-03
      1.40629243e-03 -1.41618643e-02 5.40840486e-03 3.99282621e-03
      6.88038126e-04 -6.02954067e-03 1.98422885e-03 -4.18829452e-03
      1.53288117e-03 -4.38872463e-04 -4.34531074e-04 1.51229557e-02
      2.91861175e-03 1.81812719e-02 -1.42093340e-03 6.98981155e-03
      3.46908253e-03 -1.96189783e-03 -6.50776830e-03 7.03795056e-04
      -9.41984169e-03 -1.79389063e-02 1.00025395e-02 3.80267296e-03
      -5.88255050e-03 -6.65151165e-04 -2.81630037e-03 8.01271107e-03
      5.49309480e-04 -9.36785899e-03 8.15391773e-04 9.50998534e-03
      -1.00130597e-02 -3.91132571e-03 5.18287579e-03 3.57818347e-03
      -3.98431160e-03 9.36168944e-05 0. -8.95943586e-03 1.89702143e-03
      -6.64595165e-04 5.19580347e-03 2.31924616e-02 2.79960036e-03
      2.93793669e-03 1.26113708e-04 1.53164426e-03 2.74991919e-03
      1.21049362e-03 -2.24791840e-02 1.73980405e-03 6.36349758e-03
      -3.75445420e-03 -4.14638175e-03 1.26846856e-03 7.74836808e-04
      -3.89490067e-03 -1.35094859e-02 -2.26757373e-03 -1.08126970e-03
      -2.85560847e-04 1.92074047e-03 8.65032338e-03 1.57333370e-02
      5.59259159e-03 1.28049357e-03 3.87418404e-04 7.78630469e-03
      2.37346999e-03 -3.89490067e-03 1.25491840e-03 4.22879262e-03
      7.05838017e-03 -9.84010100e-03 3.08413827e-03 2.37635337e-03
      8.00210575e-04 -3.72315459e-02 -4.53256583e-03 1.90730102e-03
      9.40783508e-03 -1.95715576e-03 -5.19823330e-03 -4.86803707e-03
      -2.45098048e-03 -2.16574538e-02 1.09894145e-02 -4.38063778e-02
      9.53650509e-04 2.12289696e-03 -3.56546859e-03 2.45651021e-03
      2.86236592e-03 -2.53816624e-03 1.19239418e-03 -1.38254315e-02
      1.81860302e-03 -2.55718660e-02 -1.80475006e-03 7.22163217e-03
      -4.53514745e-03 -1.11599907e-03 2.59435968e-03 8.99941940e-03
      4.87537496e-03 2.43685441e-03 8.28742341e-04 6.25253515e-03
      1.40629243e-03 3.95084586e-04 -5.26863558e-04 4.51422588e-04
      1.53164426e-03 2.09472165e-03 -4.86497628e-03 8.06190260e-03 0.
      -9.82695492e-04 -1.09365936e-02 -4.93604410e-03 1.35047380e-02
      -4.81738662e-03 -4.28189896e-03 9.53650509e-04 1.68804601e-02
      9.82628856e-03 -1.00491196e-03 -1.49732991e-03 -7.12183258e-03
      -1.79533218e-03 -4.30476991e-03 -5.66919940e-03 4.29306785e-03
      -4.51662159e-03 -4.03274596e-03 5.96926361e-03 4.16329410e-03
      5.07083256e-03 1.63481086e-02 5.17406082e-03 9.20904055e-03
      -4.90196096e-03 4.87357099e-03 -5.38599677e-03 -9.94465430e-04
      -3.85846570e-03 -1.62109360e-02 -1.22549022e-02 -6.39929110e-03
      -1.10380976e-02 -8.42329673e-03 6.28492853e-04 5.08800149e-04
      -1.86748302e-03 2.56456714e-03 -6.33791741e-03 1.37279357e-03
      2.68645748e-03 2.17189104e-03 1.92074047e-03 3.56944371e-03
      -3.36199324e-03 7.18213944e-03 1.15636084e-03 1.44203636e-03
      -1.37815275e-03 1.85257159e-05 7.21829711e-04 8.59435275e-03
      2.08718330e-03 6.10193005e-03 2.00376569e-04 1.21049362e-03
      3.11596529e-03 -7.72323785e-03 6.81633502e-03 -6.06905902e-03
      -9.64905880e-03 -5.24948398e-03 -1.24048686e-03 5.33250510e-04
      1.94596942e-03 7.34520797e-03 -9.68330249e-04 2.81213783e-03
      7.57190771e-03 -1.78013183e-03 4.18729661e-03 3.43881408e-03
      -3.30940657e-03 6.66952599e-03 4.79202438e-03 1.21049362e-03
      -7.72237685e-03 1.57399074e-04 8.41767155e-03 2.73099518e-03
      3.84258665e-03 1.70042226e-03 1.97522575e-03 -7.01552490e-04
      8.98495689e-03 1.53164426e-03 2.32249469e-04 -1.09265409e-02
      -1.80232397e-03 3.58373771e-04 -9.73025989e-03 5.97567251e-03
      5.11767389e-03 2.52187531e-03 -4.20482270e-03 2.60829437e-03
      1.92074047e-03 -2.45098048e-03 -5.49450563e-03 8.23051576e-03
      3.52771045e-03 4.86013392e-04 -7.97706656e-03 2.42098724e-03
      -5.86080924e-03</_></support_vectors>
  <uncompressed_sv_total>26</uncompressed_sv_total>
  <uncompressed_support_vectors>
    <_>
      0. 0. 0. 0. 0. 0. 1.79533218e-03 0. 7.18132872e-03 0.
      1.79533218e-03 0. 0. 0. 5.38599677e-03 0. 0. 0. 0. 0.
      3.59066436e-03 0. 0. 0. 0. 1.79533218e-03 1.79533218e-03 0. 0.
      3.59066436e-03 1.79533218e-03 0. 0. 0. 3.59066436e-03 0. 0.
      1.79533218e-03 1.79533218e-03 0. 0. 1.79533218e-03 1.79533218e-03
      0. 1.79533218e-03 0. 0. 0. 0. 0. 0. 3.59066436e-03 0. 0.
      1.79533218e-03 0. 0. 0. 0. 0. 0. 0. 1.79533218e-03 0. 0. 0. 0. 0.
      1.79533218e-03 0. 0. 1.79533218e-03 0. 7.18132872e-03 0. 0. 0. 0.
      0. 0. 0. 1.79533218e-03 0. 3.59066436e-03 3.59066436e-03 0. 0. 0.
      0. 0. 0. 0. 0. 0. 0. 0. 0. 0. 3.59066436e-03 3.59066436e-03 0.
      3.59066436e-03 0. 0. 0. 0. 0. 0. 0. 0. 0. 7.18132872e-03 0. 0. 0.
      1.79533218e-03 1.79533218e-03 1.79533218e-03 0. 0. 8.97666067e-03
      0. 0. 0. 1.79533218e-03 1.79533218e-03 0. 0. 3.59066436e-03
      3.59066436e-03 0. 0. 3.59066436e-03 5.38599677e-03 0.
      1.79533218e-03 0. 0. 0. 1.79533218e-03 0. 1.79533218e-03
      3.59066436e-03 5.38599677e-03 0. 0. 0. 0. 0. 0. 0. 0. 0. 0. 0. 0.
      3.59066436e-03 1.79533218e-03 0. 1.07719935e-02 0. 3.59066436e-03
      0. 0. 0. 0. 1.79533218e-03 0. 0. 1.79533218e-03 0. 1.79533218e-03
      3.59066436e-03 0. 0. 0. 3.59066436e-03 0. 3.59066436e-03
      5.38599677e-03 1.79533218e-03 0. 0. 1.79533218e-03 1.79533218e-03
      0. 0. 0. 0. 3.59066436e-03 0. 0. 0. 1.79533218e-03 0. 0. 0. 0. 0.
      0. 0. 0. 0. 0. 5.38599677e-03 5.38599677e-03 0. 7.18132872e-03 0.
      0. 1.79533213e-02 0. 0. 0. 1.79533218e-03 0. 0. 0. 0. 0. 0. 0. 0.
      0. 3.59066436e-03 1.79533218e-03 0. 0. 0. 0. 1.79533218e-03 0.
      5.38599677e-03 3.59066436e-03 0. 0. 0. 0. 0. 0. 0. 0. 0. 0. 0. 0.
      1.79533218e-03 5.38599677e-03 0. 3.59066436e-03 0. 0. 0. 0. 0. 0.
      7.18132872e-03 0. 0. 0. 0. 0. 1.79533218e-03 0. 1.79533218e-03 0.
      0. 0. 1.79533218e-03 1.79533218e-03 0. 3.59066436e-03 0. 0.
      7.18132872e-03 8.97666067e-03 3.59066436e-03 0. 0. 0. 0.
      7.18132872e-03 0. 1.79533218e-03 0. 5.38599677e-03 0.
      3.59066436e-03 1.79533218e-03 0. 1.79533218e-03 3.59066436e-03
      7.18132872e-03 1.79533218e-03 0. 0. 3.59066436e-03 0. 0.
      1.79533218e-03 5.38599677e-03 0. 3.59066436e-03 5.38599677e-03
      5.38599677e-03 0. 0. 1.79533218e-03 0. 1.79533218e-03 0. 0. 0. 0.
      0. 0. 0. 0. 0. 1.79533218e-03 8.97666067e-03 0. 3.59066436e-03 0.
      5.38599677e-03 0. 0. 0. 5.38599677e-03 0. 0. 0. 0. 7.18132872e-03
      3.59066436e-03 0. 0. 0. 1.79533218e-03 0. 1.25673255e-02 0. 0. 0.
      0. 0. 1.79533218e-03 1.79533218e-03 0. 0. 1.79533218e-03
      1.79533218e-03 0. 0. 0. 0. 0. 0. 1.79533218e-03 0. 0. 0. 0.
      5.38599677e-03 1.79533218e-03 0. 0. 0. 0. 0. 0. 1.79533218e-03 0.
      1.79533218e-03 1.79533218e-03 3.59066436e-03 0. 0. 0. 0. 0. 0. 0.
      1.79533218e-03 0. 0. 0. 1.79533218e-03 1.25673255e-02 0.
      1.79533218e-03 0. 0. 1.79533218e-03 0. 0. 0. 0. 1.79533218e-03 0.
      1.79533218e-03 0. 0. 0. 1.79533218e-03 0. 0. 1.79533218e-03
      1.79533218e-03 1.79533218e-03 0. 0. 0. 1.79533218e-03
      3.59066436e-03 0. 7.18132872e-03 0. 1.79533218e-03 0.
      1.79533218e-03 0. 0. 1.79533218e-03 3.59066436e-03 0.
      1.79533218e-03 3.59066436e-03 0. 0. 1.79533218e-03 0.
      1.79533218e-03 3.59066436e-03 0. 0. 1.25673255e-02 0. 0. 0. 0. 0.
      0. 3.59066436e-03 0. 0. 0. 5.38599677e-03 0. 0. 1.79533218e-03 0.
      0. 0. 1.79533218e-03 0. 0. 1.79533218e-03 0. 0. 1.79533218e-03 0.
      1.79533218e-03 0. 3.59066436e-03 0. 0. 0. 0. 0. 0. 0.
      3.59066436e-03 0. 0. 1.79533218e-03 0. 0. 0. 0. 1.79533218e-03 0.
      0. 0. 5.38599677e-03 1.79533218e-03 3.59066436e-03 0.
      3.59066436e-03 0. 0. 0. 7.18132872e-03 0. 0. 0. 5.38599677e-03 0.
      1.79533218e-03 7.18132872e-03 0. 0. 1.79533218e-03 0. 0. 0.
      1.79533218e-03 3.59066436e-03 3.59066436e-03 1.79533218e-03 0.
      5.38599677e-03 0. 0. 1.79533218e-03 0. 0. 7.18132872e-03 0. 0. 0.
      8.97666067e-03 0. 0. 0. 0. 0. 0. 1.79533218e-03 0. 0. 0. 0. 0. 0.
      0. 0. 0. 3.59066436e-03 0. 1.25673255e-02 0. 0. 1.79533218e-03 0.
      7.18132872e-03 0. 1.79533218e-03 0. 0. 0. 3.59066436e-03 0. 0. 0.
      0. 0. 0. 1.79533218e-03 1.79533218e-03 0. 0. 0. 0. 0. 0.
      3.59066436e-03 0. 0. 3.59066436e-03 0. 0. 0. 0. 0. 0.
      1.79533218e-03 3.59066436e-03 1.79533218e-03 0. 3.59066436e-03 0.
      0. 3.59066436e-03 0. 0. 0. 0. 0. 0. 0. 0. 7.18132872e-03
      3.59066436e-03 1.79533213e-02 0. 3.59066436e-03 0. 0. 0.
      3.59066436e-03 1.79533218e-03 1.79533218e-03 1.79533218e-03 0. 0.
      1.79533218e-03 0. 0. 0. 0. 0. 3.59066436e-03 5.38599677e-03 0. 0.
      1.79533218e-03 0. 0. 0. 0. 0. 1.79533218e-03 0. 1.79533218e-03
      3.59066436e-03 0. 3.59066436e-03 0. 0. 3.59066436e-03
      3.59066436e-03 0. 0. 0. 3.59066436e-03 0. 0. 0. 1.79533218e-03 0.
      3.59066436e-03 0. 1.79533218e-03 0. 0. 1.79533218e-03 0.
      3.59066436e-03 3.59066436e-03 0. 0. 0. 0. 0. 0. 0. 0. 0.
      1.79533218e-03 3.59066436e-03 0. 0. 0. 0. 0. 5.38599677e-03 0. 0.
      5.38599677e-03 0. 0. 0. 0. 0. 0. 0. 0. 0. 1.79533218e-03 0. 0. 0.
      0. 1.79533218e-03 0. 1.79533218e-03 0. 1.79533218e-03
      1.79533218e-03 1.79533218e-03 0. 1.79533218e-03 0. 0.
      1.79533218e-03 0. 0. 0. 1.79533218e-03 0. 0. 3.59066436e-03 0. 0.
      0. 0. 0. 0. 0. 0. 0. 0. 1.79533218e-03 1.79533218e-03
      1.79533218e-03 0. 0. 0. 0. 0. 0. 1.79533218e-03 3.59066436e-03 0.
      0. 0. 0. 0. 0. 3.59066436e-03 0. 1.79533218e-03 0. 0. 0. 0. 0. 0.
      0. 5.38599677e-03 3.59066436e-03 0. 0. 0. 5.38599677e-03 0. 0. 0.
      0. 0. 1.79533218e-03 0. 0. 0. 3.59066436e-03 0. 0. 0. 0. 0. 0. 0.
      0. 0. 0. 0. 0. 0. 1.79533218e-03 0. 0. 0. 1.79533218e-03 0.
      1.79533218e-03 1.79533218e-03 0. 0. 0. 0. 0. 3.59066436e-03 0. 0.
      3.59066436e-03 0. 0. 1.79533218e-03 0. 0. 0. 0. 0. 0. 0.
      3.59066436e-03 0. 0. 1.79533218e-03 1.79533218e-03 1.79533218e-03
      0. 0. 0. 0. 1.79533218e-03 0. 0. 3.59066436e-03 0. 0. 0. 0. 0. 0.
      0. 0. 0. 1.79533218e-03 0. 1.79533218e-03 0. 1.79533218e-03 0. 0.
      0. 0. 0. 0. 0. 0. 0. 0. 0. 7.18132872e-03 0. 0. 1.79533218e-03 0.
      0. 0. 0. 0. 0. 0. 0. 0. 0. 0. 1.79533218e-03 0. 0. 0. 0.
      1.07719935e-02 7.18132872e-03 0. 0. 0. 0. 0. 0. 1.79533218e-03 0.
      0. 0. 0. 1.79533218e-03 0. 0. 0. 1.79533218e-03 0. 5.38599677e-03
      3.59066436e-03 3.59066436e-03 0. 0. 5.38599677e-03 0.
      1.79533218e-03 0. 0. 0. 0. 0. 1.79533218e-03 1.79533218e-03 0. 0.
      0. 0. 0. 0. 3.59066436e-03 0. 0. 0. 0. 0. 0. 7.18132872e-03 0. 0.
      0. 0. 1.79533218e-03 0. 0. 0. 0. 1.79533218e-03 0. 0. 0. 0. 0. 0.
      0. 0. 5.38599677e-03 1.79533218e-03 0. 1.79533218e-03 0. 0.
      3.59066436e-03 0. 0. 0. 3.59066436e-03 0. 3.59066436e-03 0. 0. 0.
      0. 1.79533218e-03 1.79533218e-03 0. 0. 0. 3.59066436e-03 0. 0. 0.
      0. 0. 3.59066436e-03 0. 0. 0. 1.79533218e-03 0. 3.59066436e-03
      3.59066436e-03 0. 1.79533218e-03 0. 0. 0. 0. 0. 7.18132872e-03 0.
      0. 1.79533218e-03 0. 0. 0. 0. 0. 0. 0. 1.79533218e-03 0.
      5.38599677e-03 0. 1.79533218e-03 0. 0. 1.79533218e-03 0. 0. 0. 0.
      0. 1.79533218e-03 0. 0. 0. 0. 0. 0. 0. 1.79533218e-03
      1.79533218e-03 0. 0.</_>
    <_>
      0. 2.59740255e-03 7.79220741e-03 2.59740255e-03 0. 5.19480510e-03
      0. 0. 0. 0. 5.19480510e-03 0. 0. 0. 0. 0. 0. 0. 0. 0. 0. 0. 0. 0.
      2.59740255e-03 2.59740255e-03 0. 5.19480510e-03 0. 0. 0.
      2.59740255e-03 2.59740255e-03 5.19480510e-03 5.19480510e-03 0.
      2.59740255e-03 0. 0. 1.03896102e-02 0. 2.59740255e-03
      5.19480510e-03 0. 0. 0. 5.19480510e-03 2.59740255e-03 0. 0. 0. 0.
      2.59740255e-03 0. 1.55844148e-02 2.59740255e-03 0. 0. 0. 0.
      2.59740255e-03 0. 0. 0. 2.59740255e-03 0. 2.59740255e-03 0.
      1.29870130e-02 0. 0. 5.19480510e-03 0. 5.19480510e-03 0. 0. 0. 0.
      0. 0. 0. 0. 0. 0. 0. 0. 5.19480510e-03 0. 0. 0. 0. 0. 0. 0.
      7.79220741e-03 0. 0. 0. 0. 0. 0. 0. 0. 0. 1.03896102e-02 0.
      2.59740255e-03 1.55844148e-02 0. 0. 0. 0. 2.59740255e-03 0.
      7.79220741e-03 7.79220741e-03 5.19480510e-03 2.59740255e-03
      2.59740255e-03 2.59740255e-03 0. 0. 0. 0. 0. 5.19480510e-03
      2.59740255e-03 0. 0. 2.59740255e-03 0. 0. 1.55844148e-02
      2.59740255e-03 7.79220741e-03 0. 5.19480510e-03 0. 0. 0. 0. 0. 0.
      0. 0. 0. 2.59740255e-03 0. 0. 0. 0. 0. 0. 2.59740255e-03 0.
      2.59740255e-03 0. 0. 0. 0. 0. 0. 0. 0. 2.59740255e-03 0.
      2.59740255e-03 0. 0. 2.59740255e-03 0. 7.79220741e-03
      2.59740255e-03 2.59740255e-03 0. 0. 0. 2.59740255e-03 0. 0. 0. 0.
      0. 2.59740255e-03 0. 0. 0. 0. 0. 2.59740255e-03 2.59740255e-03
      2.59740255e-03 0. 0. 0. 0. 0. 0. 0. 2.59740255e-03 0. 0.
      2.59740255e-03 0. 0. 0. 0. 5.19480510e-03 0. 0. 0. 0. 0. 0. 0.
      2.59740255e-03 0. 0. 0. 0. 0. 0. 0. 0. 0. 5.19480510e-03 0. 0. 0.
      0. 0. 0. 5.19480510e-03 0. 0. 0. 2.59740255e-03 0. 0. 0.
      5.19480510e-03 0. 5.19480510e-03 5.19480510e-03 0. 0.
      5.19480510e-03 0. 0. 0. 5.19480510e-03 0. 1.03896102e-02 0.
      7.79220741e-03 0. 0. 0. 5.19480510e-03 0. 0. 0. 0. 7.79220741e-03
      0. 0. 0. 0. 0. 0. 0. 5.19480510e-03 0. 0. 0. 0. 0. 2.59740255e-03
      0. 2.59740255e-03 0. 5.19480510e-03 0. 0. 0. 0. 2.59740255e-03 0.
      0. 0. 0. 0. 0. 0. 0. 0. 2.59740255e-03 0. 2.59740255e-03 0. 0. 0.
      0. 0. 5.19480510e-03 0. 0. 0. 0. 0. 0. 0. 2.59740255e-03 0.
      5.19480510e-03 0. 0. 0. 0. 5.19480510e-03 0. 1.03896102e-02
      2.59740255e-03 0. 0. 0. 0. 0. 0. 0. 0. 0. 2.59740255e-03 0. 0.
      2.59740255e-03 0. 0. 0. 0. 2.59740255e-03 5.19480510e-03 0.
      2.59740255e-03 0. 0. 0. 0. 0. 0. 0. 0. 0. 0. 0. 0. 0. 0. 0. 0. 0.
      0. 2.59740255e-03 0. 2.59740255e-03 0. 0. 2.59740255e-03 0. 0. 0.
      0. 0. 2.59740255e-03 2.59740255e-03 0. 0. 0. 0. 0. 0. 0. 0. 0.
      1.29870130e-02 2.59740255e-03 0. 0. 0. 0. 2.59740255e-03 0. 0. 0.
      0. 0. 0. 0. 7.79220741e-03 0. 0. 0. 0. 0. 0. 0. 0. 0. 0.
      1.03896102e-02 0. 0. 0. 0. 0. 0. 1.03896102e-02 0. 0. 0. 0. 0.
      2.59740255e-03 0. 0. 0. 0. 0. 0. 5.19480510e-03 2.59740255e-03 0.
      0. 7.79220741e-03 0. 0. 0. 2.59740255e-03 0. 2.59740255e-03
      2.59740255e-03 0. 0. 0. 2.59740255e-03 0. 0. 0. 7.79220741e-03 0.
      0. 0. 5.19480510e-03 0. 0. 0. 0. 2.59740255e-03 0. 2.59740255e-03
      2.59740255e-03 0. 0. 0. 2.59740255e-03 7.79220741e-03 0. 0. 0. 0.
      5.19480510e-03 0. 0. 0. 5.19480510e-03 0. 0. 0. 0. 0.
      2.59740255e-03 5.19480510e-03 2.59740255e-03 2.59740255e-03 0.
      2.59740255e-03 0. 0. 2.59740255e-03 0. 0. 0. 5.19480510e-03 0. 0.
      0. 0. 0. 5.19480510e-03 0. 0. 0. 0. 5.19480510e-03 0.
      2.59740255e-03 0. 0. 0. 0. 0. 2.59740255e-03 0. 2.59740255e-03 0.
      0. 2.59740255e-03 0. 0. 2.59740255e-03 0. 0. 2.59740255e-03 0. 0.
      0. 0. 0. 0. 0. 0. 0. 0. 0. 0. 5.19480510e-03 0. 0. 7.79220741e-03
      0. 7.79220741e-03 0. 7.79220741e-03 0. 0. 0. 0. 0. 2.59740255e-03
      0. 0. 2.59740255e-03 0. 0. 0. 0. 0. 0. 0. 0. 2.59740255e-03 0. 0.
      5.19480510e-03 0. 0. 0. 0. 0. 0. 5.19480510e-03 0. 2.59740255e-03
      2.59740255e-03 0. 0. 0. 0. 0. 0. 2.59740255e-03 0. 0. 0. 0. 0. 0.
      1.03896102e-02 0. 0. 0. 0. 0. 0. 0. 0. 0. 5.19480510e-03 0. 0. 0.
      2.59740255e-03 1.03896102e-02 2.59740255e-03 5.19480510e-03
      1.03896102e-02 0. 0. 2.59740255e-03 0. 0. 0. 0. 0. 5.19480510e-03
      0. 0. 0. 0. 0. 2.59740255e-03 0. 0. 0. 0. 0. 0. 0. 7.79220741e-03
      0. 0. 0. 2.59740255e-03 0. 0. 0. 0. 2.59740255e-03 0.
      1.29870130e-02 0. 2.59740255e-03 0. 0. 0. 0. 5.19480510e-03 0. 0.
      0. 0. 0. 0. 0. 0. 0. 0. 0. 0. 0. 0. 0. 0. 0. 2.59740255e-03
      2.59740255e-03 0. 0. 0. 0. 0. 0. 0. 0. 2.59740255e-03 0. 0. 0.
      2.59740255e-03 0. 0. 1.03896102e-02 0. 0. 0. 0. 0. 0. 0. 0. 0. 0.
      0. 0. 0. 0. 0. 0. 5.19480510e-03 0. 0. 0. 0. 0. 0. 0. 0.
      2.59740255e-03 0. 0. 0. 0. 0. 0. 0. 0. 5.19480510e-03
      2.59740255e-03 0. 0. 0. 0. 0. 0. 0. 0. 0. 0. 0. 0. 0.
      2.59740255e-03 0. 0. 2.59740255e-03 0. 0. 5.19480510e-03 0.
      2.59740255e-03 0. 5.19480510e-03 0. 0. 0. 2.59740255e-03 0.
      2.59740255e-03 0. 5.19480510e-03 2.59740255e-03 0. 0. 0. 0. 0. 0.
      0. 2.59740255e-03 0. 0. 0. 2.59740255e-03 0. 0. 0. 0. 0. 0. 0. 0.
      0. 0. 0. 0. 0. 0. 0. 5.19480510e-03 0. 0. 2.59740255e-03 0. 0.
      2.59740255e-03 0. 0. 0. 0. 0. 2.59740255e-03 2.59740255e-03 0. 0.
      0. 0. 0. 2.59740255e-03 2.59740255e-03 2.59740255e-03 0.
      2.59740255e-03 0. 2.59740255e-03 0. 5.19480510e-03 2.59740255e-03
      0. 0. 2.59740255e-03 2.59740255e-03 0. 0. 5.19480510e-03 0. 0.
      5.19480510e-03 0. 2.59740255e-03 2.59740255e-03 0. 0. 0. 0. 0. 0.
      0. 0. 0. 0. 0. 0. 0. 0. 0. 0. 0. 0. 0. 0. 0. 0. 0. 0. 0. 0. 0. 0.
      0. 0. 0. 2.59740255e-03 0. 0. 0. 5.19480510e-03 0. 0. 0.
      2.59740255e-03 0. 2.59740255e-03 0. 1.29870130e-02 0.
      2.59740255e-03 0. 0. 2.59740255e-03 0. 0. 1.03896102e-02 0. 0. 0.
      2.33766232e-02 2.59740255e-03 0. 0. 0. 2.59740255e-03 0. 0. 0. 0.
      0. 0. 0. 0. 0. 0. 0. 2.59740255e-03 0. 0. 0. 0. 0. 2.59740255e-03
      0. 2.59740255e-03 0. 0. 0. 0. 0. 0. 0. 0. 0. 0. 0. 0. 0. 0. 0. 0.
      0. 0. 0. 0. 0. 0. 0. 0. 0. 0. 0. 0. 0. 0. 0. 0. 0. 0. 0. 0. 0. 0.
      0. 0. 0. 0. 0. 0. 0. 0. 0. 0. 0. 0. 2.59740255e-03 0. 0. 0. 0. 0.
      0. 0. 0. 0. 0. 0. 0. 0. 0. 0. 5.19480510e-03 0. 0. 0. 0.
      5.19480510e-03 0. 0. 0. 2.59740255e-03 0. 2.59740255e-03 0. 0. 0.
      7.79220741e-03 0. 0. 0. 0. 0. 0. 0. 0. 0. 0. 0. 0. 0.
      2.59740255e-03 0. 0. 0.</_>
    <_>
      0. 2.74725282e-03 2.74725282e-03 0. 0. 0. 0. 0. 2.74725282e-03 0.
      0. 0. 2.74725282e-03 0. 0. 0. 0. 8.24175868e-03 0. 0. 0.
      2.74725282e-03 0. 0. 0. 0. 2.74725282e-03 0. 0. 0. 1.09890113e-02
      8.24175868e-03 0. 1.09890113e-02 0. 0. 0. 1.92307699e-02
      2.74725282e-03 2.74725282e-03 0. 2.74725282e-03 0. 2.74725282e-03
      0. 0. 0. 0. 0. 0. 0. 1.64835174e-02 0. 0. 5.49450563e-03 0. 0. 0.
      0. 0. 2.74725282e-03 0. 5.49450563e-03 0. 5.49450563e-03 0.
      2.74725282e-03 0. 0. 0. 0. 2.74725282e-03 0. 0. 0. 0. 0. 0. 0. 0.
      2.74725282e-03 0. 0. 0. 0. 0. 0. 0. 2.74725282e-03 0. 0. 0. 0. 0.
      2.74725282e-03 0. 0. 0. 0. 0. 0. 0. 0. 2.74725282e-03
      2.74725282e-03 0. 0. 2.74725282e-03 8.24175868e-03 0. 0. 0. 0. 0.
      2.74725282e-03 0. 2.74725282e-03 2.74725282e-03 0. 0.
      8.24175868e-03 2.74725282e-03 0. 0. 0. 0. 0. 5.49450563e-03 0. 0.
      0. 0. 0. 2.74725282e-03 0. 0. 0. 0. 0. 0. 5.49450563e-03
      2.74725282e-03 0. 0. 0. 2.74725282e-03 2.74725282e-03 0.
      2.74725282e-03 0. 0. 0. 0. 0. 0. 0. 0. 0. 0. 1.64835174e-02 0. 0.
      0. 2.74725282e-03 0. 0. 0. 0. 0. 0. 0. 0. 8.24175868e-03
      2.74725282e-03 0. 2.74725282e-03 0. 0. 0. 0. 2.74725282e-03 0.
      2.74725282e-03 0. 0. 0. 0. 2.74725282e-03 2.74725282e-03 0. 0. 0.
      0. 2.74725282e-03 2.74725282e-03 0. 0. 0. 0. 0. 0. 0.
      5.49450563e-03 0. 0. 0. 0. 8.24175868e-03 0. 0. 0. 0. 0. 0.
      5.49450563e-03 0. 5.49450563e-03 0. 0. 2.74725282e-03 0. 0. 0. 0.
      0. 0. 0. 0. 0. 0. 2.74725282e-03 0. 0. 0. 0. 2.74725282e-03 0. 0.
      8.24175868e-03 0. 0. 0. 0. 0. 0. 0. 0. 2.74725282e-03 0. 0. 0. 0.
      1.09890113e-02 0. 0. 0. 5.49450563e-03 0. 0. 0. 0. 0. 0. 0. 0. 0.
      0. 0. 0. 0. 0. 8.24175868e-03 0. 0. 0. 0. 0. 0. 0. 0. 0.
      8.24175868e-03 2.74725282e-03 0. 0. 0. 0. 0. 0. 0. 0. 0.
      2.74725282e-03 0. 0. 0. 0. 0. 0. 0. 0. 0. 0. 2.74725282e-03 0.
      2.74725282e-03 0. 0. 0. 0. 0. 0. 0. 0. 5.49450563e-03 0. 0. 0. 0.
      0. 0. 2.74725282e-03 0. 0. 0. 0. 5.49450563e-03 0. 0. 0. 0.
      2.74725282e-03 0. 0. 0. 0. 0. 0. 0. 0. 2.74725282e-03
      2.74725282e-03 5.49450563e-03 0. 2.74725282e-03 0. 0. 0. 0. 0. 0.
      0. 0. 2.74725282e-03 0. 0. 0. 0. 0. 0. 5.49450563e-03 0. 0. 0. 0.
      0. 0. 0. 5.49450563e-03 0. 0. 0. 0. 2.74725282e-03 0. 0. 0. 0.
      5.49450563e-03 0. 0. 0. 5.49450563e-03 0. 2.74725282e-03 0. 0. 0.
      2.74725282e-03 0. 0. 0. 0. 0. 0. 2.74725282e-03 0. 2.74725282e-03
      5.49450563e-03 0. 0. 0. 0. 0. 0. 0. 0. 0. 0. 0. 0. 0.
      2.74725282e-03 0. 0. 0. 6.59340695e-02 0. 0. 0. 0. 0. 0. 0. 0. 0.
      0. 0. 0. 0. 2.74725282e-03 0. 0. 0. 5.49450563e-03 0. 0. 0. 0. 0.
      8.24175868e-03 0. 0. 2.74725282e-03 0. 0. 2.74725282e-03 0.
      2.74725282e-03 5.49450563e-03 0. 0. 0. 0. 0. 8.24175868e-03 0. 0.
      5.49450563e-03 0. 0. 0. 0. 0. 0. 0. 5.49450563e-03 0. 0.
      5.49450563e-03 1.37362638e-02 0. 0. 0. 0. 0. 0. 0. 0. 0. 0. 0.
      2.74725282e-03 0. 0. 0. 0. 0. 0. 0. 0. 0. 2.74725282e-03 0. 0. 0.
      0. 0. 0. 0. 0. 0. 0. 0. 0. 0. 0. 0. 0. 0. 0. 0. 0. 0. 0. 0. 0. 0.
      0. 7.14285746e-02 0. 0. 0. 0. 2.74725282e-03 0. 0. 0. 0. 0. 0. 0.
      0. 0. 0. 2.74725282e-03 0. 0. 2.74725282e-03 0. 0. 0. 0.
      2.74725282e-03 0. 0. 2.74725282e-03 0. 0. 2.74725282e-03 0.
      2.74725282e-03 0. 0. 0. 0. 0. 0. 0. 0. 2.74725282e-03 0.
      1.37362638e-02 2.74725282e-03 0. 0. 0. 0. 0. 0. 2.74725282e-03 0.
      5.49450563e-03 0. 0. 0. 0. 0. 0. 0. 0. 0. 0. 0. 0. 0. 0.
      1.37362638e-02 0. 0. 0. 0. 0. 0. 0. 0. 0. 5.49450563e-03 0. 0. 0.
      0. 1.09890113e-02 1.64835174e-02 2.74725282e-03 0. 0. 0.
      8.24175868e-03 0. 2.74725282e-03 0. 0. 0. 0. 0. 8.24175868e-03 0.
      0. 0. 0. 0. 0. 0. 0. 5.49450563e-03 0. 0. 0. 0. 2.74725282e-03 0.
      0. 0. 0. 0. 0. 0. 0. 0. 0. 0. 0. 0. 2.74725282e-03 0. 0. 0. 0. 0.
      0. 0. 0. 0. 0. 8.24175868e-03 0. 0. 5.49450563e-03 0. 0. 0. 0. 0.
      0. 0. 2.74725282e-03 0. 2.74725282e-03 0. 0. 0. 0. 0. 0. 0. 0.
      2.74725282e-03 2.74725282e-03 0. 0. 0. 0. 0. 0. 0. 5.49450563e-03
      0. 0. 0. 0. 0. 0. 0. 0. 0. 0. 0. 0. 8.24175868e-03 2.74725282e-03
      0. 0. 0. 0. 0. 2.74725282e-03 2.74725282e-03 0. 0. 0. 0. 0. 0.
      1.09890113e-02 0. 0. 8.24175868e-03 0. 0. 0. 0. 0. 0. 0. 0. 0. 0.
      0. 0. 0. 0. 0. 2.74725282e-03 2.74725282e-03 0. 0. 0. 0. 0. 0. 0.
      0. 0. 0. 0. 0. 0. 0. 8.24175868e-03 2.74725282e-03 0. 0. 0. 0. 0.
      0. 0. 0. 0. 0. 0. 5.49450563e-03 0. 0. 0. 0. 2.74725282e-03 0. 0.
      0. 2.74725282e-03 0. 5.49450563e-03 0. 2.74725282e-03 0. 0. 0. 0.
      0. 0. 0. 0. 2.74725282e-03 0. 5.49450563e-03 2.74725282e-03 0. 0.
      0. 0. 0. 0. 0. 0. 0. 0. 8.24175868e-03 0. 0. 5.49450563e-03 0.
      2.74725282e-03 0. 0. 0. 0. 0. 0. 0. 0. 0. 0. 0. 0. 0. 0.
      2.74725282e-03 0. 0. 0. 0. 0. 0. 0. 0. 1.37362638e-02 0. 0. 0. 0.
      0. 0. 0. 0. 0. 0. 0. 0. 0. 0. 0. 0. 0. 0. 0. 0. 0. 2.74725282e-03
      0. 0. 0. 0. 5.49450563e-03 0. 2.74725282e-03 0. 0. 0.
      2.74725282e-03 0. 0. 2.74725282e-03 0. 2.74725282e-03 0. 0. 0. 0.
      0. 0. 0. 0. 0. 2.74725282e-03 0. 0. 0. 0. 0. 0. 0. 0. 0. 0. 0. 0.
      0. 0. 0. 2.74725282e-03 0. 0. 0. 0. 5.49450563e-03 0.
      2.74725282e-03 0. 5.49450563e-03 0. 2.74725282e-03 0. 0. 0.
      5.49450563e-03 0. 2.74725282e-03 2.74725282e-03 2.74725282e-03 0.
      0. 0. 0. 0. 0. 2.74725282e-03 0. 0. 0. 0. 2.74725282e-03
      2.74725282e-03 0. 0. 0. 2.74725282e-03 0. 2.74725282e-03 0. 0.
      2.74725282e-03 2.74725282e-03 0. 0. 0. 0. 0. 0. 0. 0. 0. 0. 0.
      2.74725282e-03 0. 0. 0. 0. 0. 0. 5.49450563e-03 0. 0.
      2.74725282e-03 0. 0. 0. 0. 0. 0. 0. 0. 0. 0. 0. 2.74725282e-03 0.
      0. 0. 2.74725282e-03 0. 0. 2.74725282e-03 0. 0. 0. 0. 0. 0. 0.
      8.24175868e-03 0. 0. 0. 0. 0. 0. 0. 0. 0. 0. 5.49450563e-03 0. 0.
      0. 0. 0. 0.</_>
    <_>
      0. 0. 0. 9.80392192e-03 0. 0. 0. 0. 0. 0. 2.45098048e-03 0.
      4.90196096e-03 0. 0. 0. 0. 7.35294167e-03 0. 0. 7.35294167e-03 0.
      0. 0. 4.90196096e-03 0. 4.90196096e-03 0. 0. 0. 0. 0.
      2.45098048e-03 0. 9.80392192e-03 0. 0. 1.71568636e-02 0.
      1.47058833e-02 0. 0. 4.90196096e-03 0. 0. 0. 0. 0. 0.
      2.45098048e-03 0. 0. 0. 0. 0. 2.45098048e-03 4.90196096e-03 0.
      2.45098048e-03 2.45098048e-03 0. 0. 0. 0. 4.90196096e-03 0.
      2.45098048e-03 0. 0. 0. 0. 2.69607846e-02 0. 4.90196096e-03 0.
      2.45098048e-03 0. 0. 0. 0. 7.35294167e-03 0. 0. 0. 0. 0. 0.
      2.45098048e-03 0. 0. 0. 0. 0. 2.45098048e-03 4.90196096e-03 0.
      2.45098048e-03 0. 4.90196096e-03 0. 0. 0. 0. 0. 0. 0. 0. 0.
      2.45098048e-03 0. 0. 0. 0. 4.90196096e-03 0. 0. 2.45098048e-03
      2.45098048e-03 0. 0. 0. 0. 1.96078438e-02 0. 0. 2.45098048e-03 0.
      2.45098048e-03 0. 0. 2.45098048e-03 0. 0. 4.90196096e-03 0. 0. 0.
      0. 0. 0. 2.45098048e-03 7.35294167e-03 0. 0. 0. 0. 4.90196096e-03
      0. 0. 0. 0. 0. 0. 0. 0. 9.80392192e-03 0. 0. 0. 7.35294167e-03
      2.45098048e-03 0. 0. 0. 0. 0. 0. 0. 2.45098048e-03 0. 0.
      2.45098048e-03 0. 0. 0. 2.45098048e-03 4.90196096e-03 0.
      2.45098048e-03 0. 0. 0. 0. 2.45098048e-03 0. 0. 0. 0.
      2.45098048e-03 0. 0. 0. 0. 0. 0. 0. 0. 0. 0. 0. 0. 0. 0. 0. 0. 0.
      0. 1.22549022e-02 0. 0. 0. 0. 0. 0. 0. 0. 0. 0. 0. 0. 0. 0.
      4.90196096e-03 0. 0. 4.90196096e-03 0. 0. 4.90196096e-03 0. 0. 0.
      2.45098048e-03 0. 2.45098048e-03 0. 0. 0. 0. 0. 2.45098048e-03 0.
      0. 2.45098048e-03 0. 0. 2.45098048e-03 0. 0. 2.45098048e-03 0. 0.
      2.45098048e-03 4.90196096e-03 0. 2.45098048e-03 0. 0. 0. 0. 0. 0.
      0. 2.45098048e-03 0. 0. 0. 0. 0. 0. 0. 2.45098048e-03 0. 0.
      7.35294167e-03 0. 0. 4.90196096e-03 0. 0. 0. 4.90196096e-03 0. 0.
      2.45098048e-03 2.45098048e-03 2.45098048e-03 0. 2.45098048e-03 0.
      0. 0. 0. 4.90196096e-03 0. 0. 0. 0. 0. 2.45098048e-03
      2.45098048e-03 0. 0. 2.45098048e-03 9.80392192e-03 0. 0. 0.
      2.45098048e-03 0. 0. 0. 0. 0. 4.90196096e-03 0. 0. 0. 0. 0.
      2.45098048e-03 2.45098048e-03 7.35294167e-03 0. 0. 0.
      7.35294167e-03 0. 0. 0. 0. 0. 0. 0. 0. 0. 0. 0. 0. 0.
      1.22549022e-02 2.45098048e-03 0. 0. 0. 0. 0. 2.45098048e-03 0. 0.
      0. 0. 0. 2.45098048e-03 0. 0. 0. 0. 0. 0. 4.90196096e-03
      2.45098048e-03 0. 0. 0. 0. 2.45098048e-03 0. 4.90196096e-03 0. 0.
      0. 0. 0. 0. 4.90196096e-03 0. 0. 0. 0. 0. 7.35294167e-03 0. 0. 0.
      0. 0. 0. 0. 0. 2.45098048e-03 4.90196096e-03 0. 0. 0.
      4.90196096e-03 0. 0. 0. 0. 0. 2.45098048e-03 7.35294167e-03 0.
      2.45098048e-03 0. 0. 0. 0. 0. 0. 2.45098048e-03 0. 0.
      4.90196096e-03 0. 1.96078438e-02 0. 0. 0. 0. 0. 7.35294167e-03 0.
      0. 2.45098048e-03 0. 2.45098048e-03 0. 0. 2.45098048e-03
      4.90196096e-03 0. 0. 4.90196096e-03 2.45098048e-03 0.
      2.45098048e-03 0. 0. 0. 0. 0. 4.90196096e-03 0. 0. 0. 0. 0.
      2.45098048e-03 0. 0. 0. 0. 0. 4.90196096e-03 0. 0. 0. 0. 0. 0. 0.
      0. 0. 0. 0. 0. 0. 0. 2.45098048e-03 2.45098048e-03 0. 0. 0. 0. 0.
      0. 0. 0. 0. 0. 2.45098048e-03 0. 2.45098048e-03 0. 0. 0. 0. 0. 0.
      0. 0. 0. 0. 0. 0. 0. 0. 0. 0. 0. 2.45098048e-03 4.90196096e-03
      2.45098048e-03 0. 0. 0. 0. 0. 0. 0. 2.45098048e-03 0. 0. 0. 0.
      4.90196096e-03 0. 1.22549022e-02 0. 0. 4.90196096e-03 0. 0. 0. 0.
      2.45098048e-03 0. 0. 0. 2.45098048e-03 0. 0. 0. 0. 0. 0.
      2.45098048e-03 0. 0. 0. 0. 0. 0. 0. 0. 0. 9.80392192e-03 0. 0. 0.
      0. 0. 0. 0. 2.45098048e-03 0. 0. 0. 0. 0. 7.35294167e-03
      7.35294167e-03 0. 0. 0. 0. 2.45098048e-03 0. 0. 0. 0. 0. 0. 0. 0.
      0. 7.35294167e-03 0. 0. 0. 0. 0. 0. 0. 0. 1.47058833e-02 0.
      4.90196096e-03 0. 0. 0. 2.45098048e-03 0. 0. 0. 4.90196096e-03 0.
      0. 0. 4.90196096e-03 2.45098048e-03 4.90196096e-03 0.
      2.45098048e-03 2.45098048e-03 0. 0. 0. 0. 0. 0. 0. 0. 0.
      2.45098048e-03 2.45098048e-03 0. 0. 0. 0. 0. 0. 2.45098048e-03
      2.45098048e-03 0. 0. 2.45098048e-03 0. 0. 0. 2.45098048e-03 0. 0.
      0. 0. 0. 0. 4.90196096e-03 0. 0. 2.45098048e-03 0. 0. 0.
      2.45098048e-03 0. 0. 0. 0. 0. 0. 0. 0. 2.45098048e-03 0. 0.
      2.45098048e-03 0. 2.45098048e-03 2.45098048e-03 0. 0. 0. 0. 0. 0.
      0. 0. 0. 0. 0. 0. 0. 0. 0. 0. 0. 0. 0. 0. 0. 1.22549022e-02
      4.90196096e-03 0. 0. 0. 0. 2.45098048e-03 2.45098048e-03 0. 0. 0.
      0. 2.45098048e-03 0. 0. 2.45098048e-03 0. 0. 0. 0. 0. 0. 0. 0. 0.
      0. 0. 0. 0. 0. 0. 4.90196096e-03 0. 0. 7.35294167e-03 0. 0. 0. 0.
      4.90196096e-03 2.45098048e-03 2.45098048e-03 0. 7.35294167e-03 0.
      0. 0. 0. 0. 2.45098048e-03 0. 0. 0. 0. 0. 0. 0. 0. 0.
      2.45098048e-03 0. 0. 0. 4.90196096e-03 0. 0. 0. 0. 0. 0. 0. 0. 0.
      0. 0. 0. 9.80392192e-03 2.45098048e-03 0. 0. 0. 4.90196096e-03 0.
      0. 0. 0. 0. 0. 0. 2.45098048e-03 2.45098048e-03 0. 4.90196096e-03
      0. 0. 2.45098048e-03 0. 0. 2.45098048e-03 0. 0. 0. 0. 0. 0.
      2.45098048e-03 0. 0. 0. 0. 0. 4.90196096e-03 2.45098048e-03 0. 0.
      7.35294167e-03 0. 0. 0. 0. 4.90196096e-03 0. 0. 0. 2.45098048e-03
      0. 4.90196096e-03 0. 0. 0. 0. 0. 0. 0. 0. 0. 7.35294167e-03 0. 0.
      0. 0. 0. 4.90196096e-03 0. 9.80392192e-03 0. 0. 0. 0. 0. 0. 0. 0.
      0. 0. 2.45098048e-03 0. 0. 0. 0. 0. 0. 0. 2.45098048e-03 0.
      2.45098048e-03 0. 0. 0. 0. 0. 0. 1.71568636e-02 2.45098048e-03 0.
      0. 0. 2.45098048e-03 2.45098048e-03 2.45098048e-03 0. 0.
      1.22549022e-02 0. 0. 2.45098048e-03 2.45098048e-03 0.
      2.45098048e-03 0. 0. 0. 1.22549022e-02 0. 0. 0. 0. 0.
      2.45098048e-03 0. 0. 0. 0. 0. 0. 0. 0. 0. 0. 0. 0. 0. 0.
      2.45098048e-03 4.90196096e-03 0. 0. 0. 0. 4.90196096e-03 0. 0.
      2.45098048e-03 0. 0. 0. 2.45098048e-03 0. 0. 0. 0. 0. 0. 0. 0. 0.
      4.90196096e-03 2.45098048e-03 0. 0. 0. 0. 1.22549022e-02
      7.35294167e-03 4.90196096e-03 0. 0. 0. 0. 0. 0. 0. 0. 0. 0. 0.
      2.45098048e-03 0. 0. 0. 0. 0. 0. 0. 0. 2.45098048e-03 0. 0. 0. 0.
      0. 0. 0. 0. 2.45098048e-03 0. 0. 0. 2.45098048e-03 0. 0. 0. 0. 0.
      2.45098048e-03 0. 0. 0. 0. 0. 0. 0. 4.90196096e-03 0. 0. 0. 0. 0.
      0. 0. 2.45098048e-03 0. 0. 0. 0. 0. 0. 0. 0. 2.45098048e-03 0. 0.
      0. 0. 0. 0. 2.45098048e-03</_>
    <_>
      0. 0. 0. 0. 0. 0. 0. 0. 0. 0. 0. 0. 2.26757373e-03 6.80272095e-03
      2.26757373e-03 0. 0. 6.80272095e-03 0. 6.80272095e-03
      2.26757373e-03 0. 0. 0. 0. 0. 1.13378689e-02 0. 0. 0.
      2.26757373e-03 2.26757373e-03 0. 0. 2.26757373e-03 0. 0.
      2.26757373e-03 2.26757373e-03 1.36054419e-02 2.26757373e-03 0. 0.
      0. 0. 0. 0. 0. 2.26757373e-03 0. 0. 0. 0. 2.26757373e-03
      2.26757373e-03 2.26757373e-03 0. 2.26757373e-03 0. 0. 0. 0. 0.
      2.26757373e-03 2.26757373e-03 0. 2.26757373e-03 0. 0.
      4.53514745e-03 0. 0. 0. 0. 0. 4.53514745e-03 0. 2.26757373e-03 0.
      0. 0. 0. 0. 0. 0. 0. 2.26757373e-03 0. 0. 0. 0. 0. 0.
      2.26757373e-03 0. 0. 4.53514745e-03 0. 0. 0. 0. 0. 0. 0. 0. 0. 0.
      0. 6.80272095e-03 0. 4.53514745e-03 2.26757373e-03 0. 0.
      2.26757373e-03 0. 2.26757373e-03 4.53514745e-03 0. 2.26757373e-03
      0. 4.53514745e-03 2.26757373e-03 0. 0. 0. 0. 0. 0. 0. 0. 0.
      2.26757373e-03 0. 0. 0. 0. 0. 0. 0. 0. 4.53514745e-03 0. 0. 0. 0.
      9.07029491e-03 0. 0. 0. 2.26757373e-03 0. 2.26757373e-03
      4.53514745e-03 0. 0. 0. 4.53514745e-03 0. 0. 0. 0. 2.26757373e-03
      0. 0. 0. 0. 0. 0. 0. 0. 2.26757373e-03 0. 2.26757373e-03 0.
      4.53514745e-03 0. 0. 2.26757373e-03 0. 4.53514745e-03
      1.58730168e-02 0. 2.26757373e-03 0. 0. 0. 2.26757373e-03 0. 0. 0.
      0. 0. 0. 0. 0. 2.26757373e-03 0. 0. 0. 0. 0. 0. 0. 2.26757373e-03
      0. 0. 0. 0. 0. 0. 2.26757373e-03 0. 0. 0. 0. 6.80272095e-03 0. 0.
      0. 0. 0. 0. 2.26757373e-03 0. 0. 0. 0. 0. 0. 0. 0. 2.26757373e-03
      0. 0. 0. 2.26757373e-03 0. 0. 0. 0. 0. 0. 2.26757373e-03
      2.26757373e-03 0. 0. 2.26757373e-03 0. 2.26757373e-03
      2.26757373e-03 0. 0. 0. 0. 0. 0. 0. 0. 2.26757373e-03 0. 0.
      6.80272095e-03 0. 0. 0. 0. 0. 0. 0. 0. 0. 0. 0. 0. 0. 0. 0. 0. 0.
      0. 2.26757373e-03 2.26757373e-03 0. 0. 6.80272095e-03
      2.26757373e-03 2.26757373e-03 0. 0. 9.07029491e-03 0. 0. 0. 0.
      4.53514745e-03 0. 0. 0. 2.26757373e-03 0. 2.26757373e-03 0.
      9.07029491e-03 0. 0. 0. 0. 0. 0. 0. 2.26757373e-03 0. 0. 0. 0. 0.
      0. 2.26757373e-03 0. 2.26757373e-03 2.26757373e-03 6.80272095e-03
      2.26757373e-03 0. 0. 0. 0. 0. 0. 0. 0. 0. 0. 0. 0. 0. 0. 0.
      9.07029491e-03 0. 0. 0. 4.53514745e-03 4.53514745e-03 0. 0. 0.
      2.26757373e-03 0. 0. 0. 0. 2.26757373e-03 0. 0. 2.26757373e-03 0.
      2.26757373e-03 0. 2.26757373e-03 0. 2.26757373e-03 2.26757373e-03
      2.26757377e-02 0. 2.26757373e-03 0. 0. 0. 0. 0. 0. 0. 0. 0. 0. 0.
      0. 2.26757373e-03 0. 0. 0. 0. 0. 9.07029491e-03 0. 0. 0. 0. 0. 0.
      0. 0. 0. 0. 0. 0. 0. 0. 0. 0. 0. 0. 0. 2.26757373e-03 0. 0. 0.
      6.80272095e-03 0. 0. 0. 0. 0. 0. 0. 0. 0. 0. 0. 0. 0. 0. 0. 0. 0.
      4.53514745e-03 4.53514745e-03 0. 6.80272095e-03 0. 0. 0. 0. 0. 0.
      0. 2.26757373e-03 0. 0. 0. 0. 0. 0. 0. 2.26757373e-03 0. 0. 0. 0.
      2.26757373e-03 0. 0. 0. 0. 0. 1.13378689e-02 0. 0. 0. 0. 0. 0. 0.
      0. 0. 4.53514745e-03 0. 0. 0. 4.53514745e-03 0. 2.26757373e-03 0.
      0. 0. 2.26757373e-03 0. 0. 4.53514745e-03 4.53514745e-03
      6.80272095e-03 0. 2.26757373e-03 0. 0. 0. 0. 2.26757373e-03 0. 0.
      0. 0. 2.26757373e-03 0. 0. 0. 0. 0. 0. 0. 6.80272095e-03
      4.53514745e-03 2.26757373e-03 0. 0. 2.26757373e-03 0. 0. 0. 0. 0.
      0. 0. 6.80272095e-03 0. 2.26757373e-03 0. 0. 0. 0. 0.
      4.53514745e-03 2.26757373e-03 0. 2.26757377e-02 0. 0. 0. 0. 0.
      4.53514745e-03 2.26757373e-03 0. 0. 0. 0. 0. 0. 0. 0. 0. 0. 0.
      4.53514745e-03 4.53514745e-03 0. 2.26757373e-03 0. 0.
      2.26757373e-03 0. 0. 0. 0. 9.07029491e-03 0. 0. 0. 0.
      2.26757373e-03 0. 2.26757373e-03 0. 0. 0. 2.26757373e-03 0.
      2.26757373e-03 2.26757373e-03 9.07029491e-03 0. 0. 0. 0.
      2.26757373e-03 0. 4.53514745e-03 2.26757373e-03 0. 0.
      4.53514745e-03 2.26757373e-03 0. 0. 0. 0. 0. 0. 0. 0. 0.
      2.26757373e-03 0. 0. 0. 0. 0. 0. 2.26757373e-03 0. 0. 0. 0. 0.
      4.53514745e-03 0. 2.26757373e-03 0. 1.36054419e-02 0.
      2.26757373e-03 0. 0. 0. 6.80272095e-03 4.53514745e-03 0. 0. 0. 0.
      0. 0. 4.53514745e-03 4.53514745e-03 0. 0. 0. 0. 0. 6.80272095e-03
      0. 0. 0. 0. 2.26757373e-03 4.53514745e-03 0. 0. 0. 0. 0. 0.
      2.26757373e-03 0. 4.53514745e-03 0. 0. 0. 0. 0. 0. 0. 0.
      6.80272095e-03 0. 0. 0. 4.53514745e-03 0. 0. 0. 0. 4.53514745e-03
      0. 2.26757373e-03 0. 0. 0. 0. 0. 0. 0. 0. 2.26757373e-03 0. 0. 0.
      0. 0. 0. 0. 0. 0. 0. 0. 0. 2.26757373e-03 0. 2.26757373e-03 0. 0.
      0. 0. 0. 0. 2.26757373e-03 2.26757373e-03 2.26757373e-03 0. 0.
      2.26757373e-03 0. 0. 4.53514745e-03 0. 0. 2.26757373e-03
      1.36054419e-02 0. 0. 0. 4.53514745e-03 2.26757373e-03 0.
      2.26757373e-03 0. 0. 0. 2.26757373e-03 4.53514745e-03 0.
      6.80272095e-03 0. 2.26757373e-03 0. 0. 0. 0. 2.26757373e-03 0. 0.
      9.07029491e-03 0. 0. 2.26757373e-03 0. 0. 0. 0. 0. 0. 0.
      2.26757373e-03 2.26757373e-03 0. 0. 0. 4.53514745e-03 0. 0.
      4.53514745e-03 0. 2.26757373e-03 0. 0. 0. 0. 0. 0. 0.
      6.80272095e-03 0. 0. 0. 0. 0. 0. 0. 0. 2.26757373e-03 0.
      4.53514745e-03 0. 2.26757373e-03 0. 0. 2.26757373e-03 0. 0. 0. 0.
      0. 0. 0. 0. 0. 0. 2.26757373e-03 0. 4.53514745e-03 0. 0. 0.
      1.13378689e-02 0. 0. 0. 0. 0. 4.53514745e-03 0. 0. 0.
      2.26757373e-03 0. 0. 0. 0. 2.26757373e-03 0. 0. 0. 0. 0. 0. 0. 0.
      0. 0. 0. 0. 2.26757373e-03 0. 0. 0. 0. 2.26757373e-03 0.
      4.53514745e-03 0. 0. 0. 4.53514745e-03 9.07029491e-03
      2.26757373e-03 0. 0. 0. 0. 0. 0. 0. 0. 0. 0. 4.53514745e-03 0. 0.
      0. 2.26757373e-03 0. 0. 2.26757373e-03 4.53514745e-03
      2.26757373e-03 0. 0. 0. 0. 2.26757373e-03 0. 0. 0. 0. 0. 0.
      6.80272095e-03 0. 0. 0. 2.26757373e-03 1.13378689e-02 0.
      2.26757373e-03 0. 6.80272095e-03 4.53514745e-03 0. 0. 0. 0. 0. 0.
      0. 0. 0. 0. 0. 0. 0. 2.26757373e-03 0. 0. 0. 9.07029491e-03
      4.53514745e-03 0. 4.53514745e-03 2.26757373e-03 0. 2.26757373e-03
      0. 0. 0. 2.26757373e-03 0. 2.26757373e-03 2.26757373e-03 0.
      4.53514745e-03 2.26757373e-03 0. 0. 2.26757373e-03 0. 0. 0. 0. 0.
      0. 0. 2.26757373e-03 1.58730168e-02 0. 0. 2.26757373e-03
      1.13378689e-02 0. 2.26757373e-03 2.26757373e-03 4.53514745e-03 0.
      0. 0. 0. 0. 0. 0. 0. 0. 0. 0. 0. 0. 0. 0. 0. 0. 0. 0. 0. 0.
      4.53514745e-03 9.07029491e-03 0. 0. 4.53514745e-03 0. 0. 0. 0. 0.
      0. 0. 0. 4.53514745e-03 2.26757373e-03 0. 0. 0. 0. 0. 0. 0. 0.
      2.26757373e-03 2.26757373e-03 0. 0. 2.26757373e-03 0. 0. 0.
      2.26757373e-03 0. 0. 0. 0. 2.26757373e-03 0. 0. 0. 0.
      2.26757373e-03 0. 0. 0. 4.53514745e-03</_>
    <_>
      0. 0. 2.48756213e-03 0. 0. 2.48756213e-03 0. 0. 0. 0. 0. 0. 0. 0.
      0. 2.48756213e-03 0. 2.48756213e-03 0. 0. 0. 0. 0. 0. 0. 0. 0. 0.
      0. 0. 2.48756213e-03 4.97512426e-03 0. 0. 0. 0. 0. 7.46268639e-03
      0. 4.97512426e-03 4.97512426e-03 0. 2.48756213e-03 0. 0.
      2.48756213e-03 2.48756213e-03 0. 0. 2.48756213e-03 9.95024852e-03
      1.24378111e-02 0. 0. 9.95024852e-03 0. 0. 2.48756213e-03
      4.97512426e-03 0. 0. 0. 0. 2.48756213e-03 0. 0. 0. 0.
      2.48756213e-03 0. 0. 0. 0. 2.48756213e-03 0. 1.49253728e-02 0.
      2.48756213e-03 0. 0. 2.48756213e-03 0. 0. 0. 0. 0. 0. 0. 0. 0. 0.
      0. 0. 0. 0. 0. 2.48756213e-03 0. 0. 0. 0. 0. 0. 0. 0. 0. 0. 0. 0.
      0. 0. 0. 0. 0. 0. 0. 4.97512426e-03 0. 0. 0. 2.48756213e-03
      7.46268639e-03 7.46268639e-03 0. 0. 0. 0. 2.48756213e-03 0.
      2.48756213e-03 0. 0. 0. 0. 0. 0. 0. 2.48756213e-03 2.48756213e-03
      2.48756213e-03 0. 0. 0. 0. 0. 0. 0. 0. 0. 0. 1.49253728e-02 0. 0.
      0. 0. 0. 0. 0. 0. 2.48756213e-03 0. 0. 0. 0. 0. 7.46268639e-03 0.
      0. 0. 0. 0. 0. 0. 0. 0. 0. 0. 0. 4.97512426e-03 2.48756213e-03
      2.48756213e-03 0. 0. 2.48756213e-03 2.48756213e-03 0. 0. 0.
      7.46268639e-03 0. 0. 0. 2.48756213e-03 0. 0. 7.46268639e-03 0. 0.
      0. 2.48756213e-03 0. 0. 0. 0. 0. 2.48756213e-03 0. 2.48756213e-03
      0. 0. 0. 0. 2.48756213e-03 0. 0. 0. 2.48756213e-03 0. 0. 0. 0. 0.
      0. 0. 2.48756213e-03 0. 0. 0. 0. 2.48756213e-03 2.48756213e-03 0.
      1.24378111e-02 7.46268639e-03 0. 2.48756213e-03 0. 0. 0.
      2.48756213e-03 0. 0. 0. 2.48756213e-03 0. 0. 0. 0. 0. 0. 0. 0. 0.
      0. 0. 0. 0. 0. 0. 0. 0. 0. 2.48756213e-03 0. 0. 0. 0. 0. 0.
      7.46268639e-03 0. 4.97512426e-03 0. 0. 7.46268639e-03 0. 0.
      2.48756213e-03 0. 4.97512426e-03 2.48756213e-03 0. 7.46268639e-03
      2.48756213e-03 0. 0. 0. 0. 0. 0. 0. 0. 0. 0. 0. 4.97512426e-03
      2.48756213e-03 2.48756213e-03 0. 2.48756213e-03 0. 0. 0.
      4.97512426e-03 0. 0. 0. 0. 1.74129345e-02 0. 0. 0. 0. 0. 0. 0.
      4.97512426e-03 2.48756213e-03 7.46268639e-03 0. 1.49253728e-02
      2.48756213e-03 7.46268639e-03 0. 0. 7.46268639e-03 0. 0. 0. 0. 0.
      2.48756213e-03 0. 0. 0. 0. 0. 0. 0. 4.97512426e-03 0. 0. 0.
      4.97512426e-03 0. 0. 0. 0. 0. 0. 0. 0. 0. 0. 0. 0. 0. 0. 0. 0. 0.
      9.95024852e-03 0. 0. 0. 2.48756213e-03 7.46268639e-03 0. 0. 0. 0.
      0. 0. 0. 4.97512426e-03 0. 0. 0. 0. 0. 2.48756213e-03 0. 0. 0. 0.
      0. 0. 2.48756213e-03 0. 0. 0. 0. 0. 0. 0. 0. 0. 0. 4.97512426e-03
      0. 0. 0. 0. 0. 0. 0. 0. 4.97512426e-03 0. 0. 0. 2.48756213e-03 0.
      0. 0. 0. 4.97512426e-03 0. 2.48756213e-03 0. 2.48756213e-03 0.
      4.97512426e-03 2.48756213e-03 0. 2.48756213e-03 7.46268639e-03 0.
      0. 0. 2.48756213e-03 2.48756213e-03 0. 0. 0. 2.48756213e-03 0. 0.
      2.48756213e-03 7.46268639e-03 2.48756213e-03 0. 2.48756213e-03 0.
      2.48756213e-03 0. 0. 0. 0. 0. 0. 4.97512426e-03 0. 0.
      7.46268639e-03 1.24378111e-02 0. 2.48756213e-03 0. 2.48756213e-03
      0. 2.48756213e-03 0. 0. 0. 0. 0. 2.48756213e-03 0. 0.
      2.48756213e-03 2.23880596e-02 0. 0. 0. 2.48756213e-03 0. 0. 0. 0.
      0. 0. 2.48756213e-03 0. 0. 7.46268639e-03 0. 0. 0. 4.97512426e-03
      0. 0. 0. 0. 2.48756213e-03 0. 0. 0. 0. 0. 0. 0. 0. 0. 0. 0. 0. 0.
      2.48756213e-03 0. 0. 0. 9.95024852e-03 2.48756213e-03 0. 0.
      2.48756213e-03 0. 0. 1.24378111e-02 2.48756213e-03 7.46268639e-03
      0. 2.48756213e-03 4.97512426e-03 0. 0. 0. 0. 0. 2.48756213e-03 0.
      0. 0. 0. 0. 0. 0. 4.97512426e-03 0. 0. 0. 0. 0. 0. 0.
      2.48756213e-03 0. 0. 0. 0. 2.48756213e-03 0. 4.97512426e-03 0.
      2.48756213e-03 0. 0. 0. 2.48756213e-03 0. 2.48756213e-03
      4.97512426e-03 0. 0. 0. 2.48756213e-03 7.46268639e-03 0. 0. 0. 0.
      0. 0. 0. 0. 2.48756213e-03 0. 0. 0. 0. 0. 0. 0. 0. 0. 0. 0. 0. 0.
      0. 0. 0. 0. 0. 0. 0. 0. 2.48756213e-03 0. 1.24378111e-02 0.
      2.48756213e-03 0. 0. 4.97512426e-03 0. 0. 0. 2.48756213e-03 0.
      2.48756213e-03 2.48756213e-03 7.46268639e-03 0. 0. 0.
      2.48756213e-03 0. 0. 0. 0. 0. 0. 0. 2.48756213e-03 0. 0.
      7.46268639e-03 0. 0. 0. 0. 0. 0. 0. 2.48756213e-03 0. 0. 0. 0. 0.
      0. 0. 0. 2.48756213e-03 0. 2.48756213e-03 0. 0. 4.97512426e-03 0.
      0. 0. 0. 0. 0. 0. 0. 0. 0. 0. 0. 2.48756213e-03 0. 4.97512426e-03
      0. 0. 0. 0. 2.48756213e-03 0. 0. 0. 7.46268639e-03 2.48756213e-03
      0. 0. 0. 0. 0. 0. 0. 0. 0. 4.97512426e-03 0. 0. 0. 0. 0. 0. 0. 0.
      0. 0. 0. 0. 4.97512426e-03 0. 0. 0. 7.46268639e-03 0. 0. 0. 0. 0.
      0. 0. 0. 0. 0. 0. 0. 0. 2.48756213e-03 1.24378111e-02 0.
      4.97512426e-03 0. 0. 0. 2.48756213e-03 0. 0. 0. 0. 0. 0. 0. 0. 0.
      0. 0. 0. 0. 2.48756213e-03 0. 0. 0. 2.48756213e-03 0. 0.
      9.95024852e-03 0. 0. 0. 0. 2.48756213e-03 0. 0. 0. 0. 0. 0. 0. 0.
      0. 0. 0. 0. 7.46268639e-03 0. 0. 0. 0. 0. 0. 0. 0. 0. 0.
      2.48756213e-03 0. 0. 0. 0. 9.95024852e-03 0. 0. 0. 4.97512426e-03
      0. 0. 2.48756213e-03 0. 0. 0. 0. 0. 0. 0. 0. 0. 0. 0.
      7.46268639e-03 4.97512426e-03 0. 2.48756213e-03 0. 2.48756213e-03
      0. 0. 0. 4.97512426e-03 0. 0. 2.48756213e-03 0. 0. 0. 0.
      2.48756213e-03 0. 4.97512426e-03 0. 4.97512426e-03 0. 0. 0. 0.
      2.48756213e-03 0. 0. 0. 2.48756213e-03 0. 0. 2.48756213e-03
      4.97512426e-03 0. 0. 0. 0. 0. 2.48756213e-03 0. 0. 0. 0.
      4.97512426e-03 0. 0. 0. 0. 0. 0. 0. 0. 4.97512426e-03 0. 0. 0.
      2.48756213e-03 0. 0. 0. 0. 0. 2.48756213e-03 0. 4.97512426e-03 0.
      2.73631830e-02 0. 0. 0. 0. 0. 0. 0. 2.48756213e-03 0.
      4.97512426e-03 0. 7.46268639e-03 0. 0. 0. 0. 0. 0. 0. 0. 0. 0. 0.
      0. 0. 0. 0. 0. 0. 0. 4.97512426e-03 0. 0. 2.48756213e-03 0. 0. 0.
      0. 2.48756213e-03 0. 0. 0. 2.48756213e-03 0. 0. 0. 2.48756213e-03
      0. 0. 0. 0. 0. 0. 0. 0. 0. 0. 0. 0. 0. 0. 0. 0. 0. 0. 0. 0. 0. 0.
      0. 0. 0. 0. 0. 0. 0. 0. 0. 0. 0. 0. 0. 0. 0. 0. 0. 4.97512426e-03
      0. 2.48756213e-03 0. 2.48756213e-03 0. 0. 0. 0. 0. 0. 0. 0. 0. 0.
      0. 0. 0. 0. 4.97512426e-03 0. 2.48756213e-03 0. 0. 0. 0. 0. 0. 0.
      2.48756213e-03 0. 0. 0. 7.46268639e-03 0. 0. 0. 9.95024852e-03
      2.48756213e-03 0. 0. 0. 0. 0. 0. 9.95024852e-03 0. 0.</_>
    <_>
      4.25531901e-03 0. 0. 0. 0. 0. 0. 0. 0. 0. 4.25531901e-03 0. 0.
      8.51063803e-03 0. 0. 0. 0. 0. 4.25531901e-03 0. 8.51063803e-03 0.
      0. 1.27659570e-02 0. 2.12765951e-02 0. 0. 0. 0. 8.51063803e-03 0.
      0. 0. 4.25531901e-03 0. 0. 0. 0. 0. 0. 0. 0. 0. 0. 0. 0. 0.
      8.51063803e-03 0. 0. 0. 0. 4.25531901e-03 0. 4.25531901e-03 0. 0.
      0. 0. 0. 0. 0. 0. 0. 0. 0. 4.25531901e-03 0. 0. 0. 0. 0. 0. 0. 0.
      0. 0. 0. 4.25531901e-03 4.25531901e-03 0. 0. 0. 0. 0. 0. 0.
      4.25531901e-03 0. 4.25531901e-03 0. 0. 0. 0. 0. 0. 0. 0. 0. 0. 0.
      8.51063803e-03 4.25531901e-03 0. 0. 0. 0. 0. 0. 0. 0. 0. 0.
      4.25531901e-03 0. 0. 4.25531901e-03 0. 0. 4.25531901e-03 0. 0. 0.
      0. 4.25531901e-03 0. 0. 4.25531901e-03 0. 0. 0. 8.51063803e-03
      4.25531901e-03 0. 0. 0. 0. 0. 0. 1.27659570e-02 0. 0. 0. 0.
      4.25531901e-03 8.51063803e-03 0. 0. 4.25531901e-03 0.
      4.25531901e-03 0. 0. 0. 0. 0. 0. 4.25531901e-03 4.25531901e-03 0.
      0. 8.51063803e-03 0. 0. 0. 0. 0. 0. 0. 4.25531901e-03 0. 0. 0.
      4.25531901e-03 0. 0. 0. 0. 0. 0. 0. 4.25531901e-03 0. 0. 0. 0. 0.
      0. 0. 0. 0. 0. 0. 4.25531901e-03 0. 0. 0. 0. 0. 0. 0. 0. 0. 0. 0.
      0. 0. 0. 0. 0. 0. 0. 4.25531901e-03 0. 0. 0. 0. 0. 0. 0. 0. 0.
      4.25531901e-03 4.25531901e-03 0. 0. 0. 0. 8.51063803e-03 0.
      4.25531901e-03 0. 0. 4.25531901e-03 0. 0. 8.51063803e-03
      4.25531901e-03 4.25531901e-03 0. 0. 0. 0. 0. 0. 0. 4.25531901e-03
      0. 0. 8.51063803e-03 0. 0. 0. 0. 0. 0. 0. 0. 0. 0. 2.55319141e-02
      0. 0. 0. 0. 4.25531901e-03 0. 0. 0. 0. 0. 0. 0. 0. 0.
      4.25531901e-03 0. 0. 0. 0. 0. 0. 0. 0. 0. 0. 0. 4.25531901e-03 0.
      0. 0. 0. 0. 0. 0. 0. 0. 0. 0. 0. 0. 0. 0. 0. 0. 8.51063803e-03 0.
      0. 0. 0. 0. 0. 0. 0. 0. 0. 8.51063803e-03 0. 0. 0. 8.51063803e-03
      0. 0. 4.25531901e-03 0. 0. 0. 0. 0. 0. 0. 0. 0. 0. 0. 0. 0. 0. 0.
      4.25531901e-03 0. 1.27659570e-02 0. 0. 0. 0. 8.51063803e-03 0. 0.
      0. 0. 8.51063803e-03 0. 4.25531901e-03 0. 0. 0. 4.25531901e-03 0.
      0. 0. 0. 0. 4.25531901e-03 2.12765951e-02 0. 4.25531901e-03 0. 0.
      0. 0. 0. 0. 4.25531901e-03 0. 0. 0. 0. 0. 0. 0. 0. 0. 0. 0. 0. 0.
      0. 0. 0. 0. 0. 0. 0. 0. 4.25531901e-03 0. 0. 0. 0. 0. 0. 0. 0. 0.
      4.25531901e-03 0. 0. 0. 0. 0. 0. 0. 0. 0. 0. 0. 0. 0. 0. 0. 0. 0.
      0. 0. 0. 0. 0. 0. 0. 0. 0. 0. 0. 0. 0. 0. 0. 0. 0. 0. 0. 0. 0. 0.
      0. 0. 0. 0. 8.51063803e-03 0. 0. 0. 0. 0. 0. 0. 0. 8.51063803e-03
      0. 0. 0. 0. 0. 0. 0. 0. 0. 0. 8.51063803e-03 0. 0. 0. 0.
      4.25531901e-03 0. 0. 0. 0. 0. 0. 0. 0. 0. 0. 0. 4.25531901e-03 0.
      8.51063803e-03 0. 0. 0. 1.27659570e-02 8.51063803e-03 0. 0.
      8.51063803e-03 0. 0. 0. 0. 4.25531901e-03 0. 0. 0. 0. 0. 0.
      4.25531901e-03 0. 1.27659570e-02 0. 0. 0. 0. 0. 0. 0. 0. 0.
      8.51063803e-03 4.25531901e-03 2.55319141e-02 0. 8.51063803e-03
      4.25531901e-03 0. 0. 0. 0. 0. 0. 0. 0. 0. 0. 4.25531901e-03 0. 0.
      0. 4.25531901e-03 0. 0. 0. 4.25531901e-03 0. 1.27659570e-02 0. 0.
      4.25531901e-03 0. 4.25531901e-03 0. 0. 0. 0. 0. 0. 0.
      1.27659570e-02 0. 0. 0. 0. 4.25531901e-03 0. 0. 0. 0. 0. 0.
      4.25531901e-03 0. 4.25531901e-03 0. 0. 0. 4.25531901e-03 0. 0. 0.
      0. 0. 0. 0. 0. 0. 8.51063803e-03 0. 0. 0. 1.70212761e-02 0. 0. 0.
      0. 0. 0. 0. 0. 0. 0. 8.51063803e-03 0. 0. 0. 0. 0. 0. 0.
      4.25531901e-03 0. 1.27659570e-02 0. 8.51063803e-03 4.25531901e-03
      4.25531901e-03 0. 4.25531901e-03 0. 0. 0. 0. 0. 0. 0.
      4.25531901e-03 0. 0. 0. 0. 0. 0. 0. 8.51063803e-03 0. 0. 0. 0. 0.
      0. 0. 0. 4.25531901e-03 0. 0. 0. 0. 0. 0. 4.25531901e-03 0. 0. 0.
      0. 0. 0. 0. 0. 0. 0. 0. 0. 0. 4.25531901e-03 8.51063803e-03
      4.25531901e-03 0. 0. 0. 0. 0. 0. 0. 0. 0. 0. 0. 0. 0. 0. 0. 0. 0.
      0. 0. 0. 8.51063803e-03 4.25531901e-03 0. 1.27659570e-02 0. 0. 0.
      0. 0. 4.25531901e-03 0. 0. 0. 8.51063803e-03 0. 0. 0. 0. 0.
      4.25531901e-03 0. 0. 0. 0. 0. 8.51063803e-03 0. 8.51063803e-03
      8.51063803e-03 0. 0. 0. 0. 0. 0. 0. 0. 0. 0. 0. 0. 4.25531901e-03
      1.27659570e-02 0. 0. 0. 0. 0. 0. 0. 4.25531901e-03 0. 0. 0. 0. 0.
      0. 0. 0. 0. 0. 0. 0. 0. 0. 0. 0. 0. 0. 0. 0. 4.25531901e-03 0.
      4.25531901e-03 0. 0. 0. 0. 0. 0. 0. 4.25531901e-03 0. 0. 0. 0.
      8.51063803e-03 4.25531901e-03 0. 0. 0. 4.25531901e-03 0. 0.
      4.25531901e-03 0. 8.51063803e-03 0. 0. 8.51063803e-03 0.
      4.25531901e-03 0. 0. 0. 0. 4.25531901e-03 0. 0. 0. 0. 0. 0. 0. 0.
      0. 0. 0. 0. 0. 0. 0. 0. 0. 0. 0. 0. 0. 0. 0. 0. 8.51063803e-03 0.
      0. 0. 0. 0. 0. 0. 4.25531901e-03 0. 0. 0. 0. 0. 0. 0. 0. 0. 0. 0.
      0. 0. 0. 0. 0. 0. 0. 0. 0. 0. 0. 0. 8.51063803e-03 0.
      4.25531901e-03 0. 0. 0. 0. 0. 0. 0. 0. 0. 0. 0. 0. 0.
      4.25531901e-03 0. 0. 0. 0. 0. 0. 0. 0. 0. 0. 0. 4.25531901e-03 0.
      0. 0. 0. 0. 0. 0. 0. 0. 0. 0. 0. 0. 0. 0. 0. 0. 0. 0. 0. 0. 0.
      4.25531901e-03 0. 0. 0. 0. 0. 0. 4.25531901e-03 0. 0. 0. 0. 0. 0.
      0. 0. 0. 0. 0. 0. 0. 0. 0. 0. 0. 0. 0. 0. 0. 0. 0. 0. 0. 0. 0. 0.
      0. 0. 0. 0. 0. 0. 0. 0. 0. 0. 0. 0. 4.25531901e-03 0. 0. 0. 0. 0.
      0. 0. 0. 4.25531901e-03 0. 0. 4.25531901e-03 0. 0. 0.
      4.25531901e-03 0. 0. 0. 0. 4.25531901e-03 0. 4.25531901e-03 0. 0.
      4.25531901e-03 0. 0. 0. 4.25531901e-03 0. 0. 0. 0. 0. 0. 0.
      4.25531901e-03 0. 0. 0. 0. 0. 0. 0. 8.51063803e-03 0. 0.</_>
    <_>
      4.84261522e-03 2.42130761e-03 0. 0. 0. 0. 0. 0. 0. 0.
      7.26392306e-03 2.42130761e-03 7.26392306e-03 2.42130761e-03 0.
      2.42130761e-03 0. 4.84261522e-03 9.68523044e-03 0. 0. 0. 0. 0. 0.
      0. 7.26392306e-03 0. 0. 0. 0. 0. 0. 2.42130761e-03 0. 0. 0. 0. 0.
      0. 0. 4.84261522e-03 0. 0. 0. 2.42130761e-03 0. 2.42130761e-03 0.
      0. 4.84261522e-03 1.93704609e-02 0. 0. 0. 0. 1.93704609e-02 0. 0.
      0. 2.42130761e-03 0. 0. 2.42130761e-03 0. 4.84261522e-03 0. 0. 0.
      0. 0. 0. 0. 0. 2.42130761e-03 2.42130761e-03 0. 0. 4.84261522e-03
      2.42130761e-03 0. 0. 0. 0. 0. 0. 0. 2.42130761e-03 2.42130761e-03
      0. 0. 0. 0. 0. 0. 2.42130761e-03 0. 0. 0. 2.42130761e-03 0. 0. 0.
      0. 0. 0. 0. 2.42130761e-03 2.42130761e-03 0. 0. 0. 2.42130761e-03
      0. 0. 0. 0. 0. 0. 0. 0. 2.17917692e-02 4.84261522e-03 0. 0. 0. 0.
      7.26392306e-03 0. 2.42130761e-03 0. 2.42130761e-03 0. 0. 0. 0. 0.
      0. 0. 2.42130761e-03 0. 0. 0. 0. 0. 0. 0. 0. 0. 0. 0. 0. 0. 0. 0.
      2.42130761e-03 0. 0. 0. 0. 0. 0. 0. 0. 0. 0. 0. 0. 7.26392306e-03
      0. 0. 0. 0. 2.42130761e-03 0. 2.42130761e-03 0. 0. 0. 0.
      4.84261522e-03 0. 0. 2.42130761e-03 0. 0. 0. 0. 0. 0. 0. 0. 0.
      7.26392306e-03 0. 0. 2.42130761e-03 0. 0. 0. 0. 0. 1.45278461e-02
      0. 0. 0. 0. 0. 2.42130761e-03 0. 0. 0. 0. 0. 2.42130761e-03 0.
      7.26392306e-03 0. 0. 0. 0. 0. 2.42130761e-03 0. 0. 0. 0. 0. 0.
      2.42130761e-03 0. 7.26392306e-03 4.84261522e-03 0. 0. 0. 0. 0. 0.
      0. 0. 0. 0. 0. 0. 0. 0. 0. 0. 0. 0. 4.84261522e-03 0. 0. 0.
      1.93704609e-02 2.42130761e-03 0. 2.42130761e-03 0. 0. 0.
      4.84261522e-03 0. 2.42130761e-03 0. 0. 0. 2.42130761e-03 0. 0. 0.
      0. 0. 2.42130761e-03 0. 0. 0. 0. 0. 0. 2.42130761e-03 0. 0. 0.
      7.26392306e-03 0. 0. 0. 0. 0. 0. 2.42130761e-03 0. 0. 0. 0. 0. 0.
      0. 0. 0. 0. 9.68523044e-03 0. 2.42130761e-03 0. 0. 0. 0. 0. 0. 0.
      0. 0. 0. 0. 1.69491526e-02 2.66343839e-02 0. 4.84261522e-03 0.
      2.42130761e-03 0. 0. 0. 4.84261522e-03 0. 2.42130761e-03 0. 0.
      2.42130761e-03 0. 0. 0. 0. 0. 0. 0. 0. 0. 2.42130761e-03 0. 0.
      2.42130761e-03 0. 0. 0. 0. 0. 0. 0. 0. 2.42130761e-03
      2.42130761e-03 0. 2.42130761e-03 0. 4.84261522e-03 7.26392306e-03
      2.42130761e-03 0. 0. 0. 0. 0. 1.21065378e-02 0. 1.21065378e-02
      2.42130761e-03 2.42130761e-03 0. 0. 7.26392306e-03 0.
      4.84261522e-03 0. 0. 2.42130761e-03 0. 0. 2.42130761e-03 0. 0. 0.
      0. 0. 0. 0. 0. 0. 0. 0. 0. 0. 0. 0. 0. 0. 0. 0. 0. 0. 0. 0. 0.
      2.42130761e-03 0. 0. 0. 0. 4.84261522e-03 0. 0. 0. 0.
      2.42130761e-03 0. 0. 0. 0. 2.42130761e-03 2.42130761e-03 0. 0. 0.
      2.42130761e-03 0. 0. 0. 0. 0. 0. 0. 0. 0. 0. 0. 2.42130761e-03 0.
      0. 0. 0. 0. 0. 0. 7.26392306e-03 2.42130761e-03 0. 0. 0. 0. 0. 0.
      0. 0. 0. 2.42130761e-03 0. 7.26392306e-03 2.42130761e-03 0. 0. 0.
      0. 0. 0. 2.42130761e-03 0. 0. 0. 0. 0. 2.42130761e-03 0. 0.
      2.42130761e-03 0. 0. 0. 0. 0. 0. 0. 2.42130761e-03 2.42130761e-03
      0. 0. 0. 0. 0. 0. 2.42130761e-03 0. 0. 1.93704609e-02 0. 0. 0. 0.
      0. 0. 0. 0. 0. 0. 0. 0. 0. 0. 0. 0. 7.26392306e-03 0.
      2.42130761e-03 0. 0. 0. 0. 2.42130761e-03 0. 2.42130761e-03
      4.84261522e-03 2.42130761e-03 0. 0. 9.68523044e-03 0. 0.
      1.45278461e-02 0. 0. 0. 0. 0. 0. 0. 0. 2.42130761e-03 0. 0. 0. 0.
      2.42130761e-03 0. 2.42130761e-03 2.42130761e-03 0. 0. 0. 0. 0. 0.
      0. 0. 0. 0. 0. 0. 2.42130761e-03 0. 0. 0. 0. 0. 0. 0. 0. 0.
      2.42130761e-03 0. 0. 0. 0. 0. 0. 0. 0. 1.45278461e-02
      2.42130761e-03 0. 0. 0. 0. 0. 0. 0. 0. 0. 0. 0. 0. 0.
      7.26392306e-03 0. 0. 0. 0. 0. 0. 1.69491526e-02 7.26392306e-03
      2.42130761e-03 2.42130761e-03 0. 2.42130761e-03 0. 0. 0.
      2.42130761e-03 0. 0. 2.42130761e-03 0. 0. 0. 2.42130761e-03 0. 0.
      0. 0. 0. 0. 0. 4.84261522e-03 0. 0. 0. 0. 0. 2.42130761e-03
      2.42130761e-03 0. 0. 0. 0. 2.42130761e-03 0. 0. 2.42130761e-03 0.
      0. 0. 0. 7.26392306e-03 0. 0. 0. 0. 0. 0. 0. 2.42130761e-03 0. 0.
      1.93704609e-02 0. 0. 2.42130761e-03 0. 2.42130761e-03 0. 0. 0. 0.
      0. 0. 0. 0. 2.42130761e-03 0. 0. 0. 0. 2.42130761e-03 0. 0. 0. 0.
      0. 0. 0. 0. 0. 4.84261522e-03 0. 7.26392306e-03 0. 0.
      2.42130761e-03 2.42130761e-03 9.68523044e-03 0. 0. 0. 0. 0. 0. 0.
      2.42130761e-03 0. 2.42130761e-03 2.42130761e-03 0. 0. 0. 0. 0. 0.
      0. 9.68523044e-03 0. 0. 0. 2.42130761e-03 0. 4.84261522e-03
      4.84261522e-03 0. 0. 0. 0. 0. 0. 0. 4.84261522e-03 0. 0.
      4.84261522e-03 0. 0. 0. 0. 0. 0. 0. 0. 0. 0. 2.42130761e-03 0. 0.
      0. 0. 0. 0. 0. 0. 0. 0. 4.84261522e-03 0. 0. 0. 0. 0. 0. 0. 0. 0.
      0. 0. 2.42130761e-03 0. 0. 0. 0. 0. 0. 0. 0. 2.42130761e-03 0.
      7.26392306e-03 0. 0. 0. 0. 0. 2.42130761e-03 0. 7.26392306e-03 0.
      0. 0. 0. 2.42130761e-03 0. 1.45278461e-02 0. 0. 0. 4.84261522e-03
      0. 0. 0. 0. 0. 0. 0. 0. 0. 2.42130761e-03 0. 0. 7.26392306e-03 0.
      0. 0. 7.26392306e-03 0. 0. 0. 0. 0. 0. 0. 0. 9.68523044e-03 0.
      3.38983051e-02 0. 0. 0. 0. 2.42130761e-03 0. 2.42130761e-03 0. 0.
      0. 0. 0. 0. 0. 0. 0. 0. 0. 0. 0. 1.69491526e-02 4.84261522e-03 0.
      0. 0. 0. 0. 2.42130761e-03 2.42130761e-03 0. 0. 0. 4.84261522e-03
      0. 0. 1.21065378e-02 0. 0. 0. 0. 0. 0. 0. 0. 0. 0. 0. 0. 0. 0. 0.
      0. 0. 4.84261522e-03 0. 0. 4.84261522e-03 0. 0. 0. 0. 0. 0. 0.
      7.26392306e-03 0. 0. 0. 0. 0. 0. 0. 0. 0. 0. 0. 0. 0.
      2.42130761e-03 0. 0. 0. 0. 0. 0. 0. 0. 0. 0. 2.42130761e-03 0. 0.
      0. 0. 0. 0. 0. 0. 0. 0. 0. 2.42130761e-03 0. 0. 0. 0. 0.
      2.42130761e-03 0. 0. 0. 0. 0. 0. 0. 0. 0. 0. 0. 0. 0. 0. 0. 0. 0.
      0. 0. 0. 0. 0. 0. 2.42130761e-03 0. 0. 4.84261522e-03 0. 0. 0. 0.
      0. 0. 0. 7.26392306e-03 0. 0. 2.42130761e-03 0. 0. 0. 0. 0. 0. 0.
      0. 0. 0. 2.42130761e-03 0. 0. 0. 2.42130761e-03 0. 0. 0. 0. 0. 0.
      4.84261522e-03 4.84261522e-03 4.84261522e-03 0. 0. 0. 0. 0. 0. 0.
      0. 0.</_>
    <_>
      0. 0. 0. 0. 0. 0. 0. 0. 0. 0. 0. 0. 0. 0. 0. 0. 0. 0. 0. 0. 0. 0.
      0. 0. 0. 0. 8.51063803e-03 0. 0. 0. 0. 0. 0. 0. 0. 0. 0. 0. 0. 0.
      0. 8.51063803e-03 8.51063803e-03 0. 0. 0. 0. 0. 0. 0. 0.
      4.25531901e-03 0. 0. 8.51063803e-03 0. 4.25531901e-03 0.
      1.27659570e-02 0. 0. 0. 0. 0. 0. 0. 0. 0. 4.25531901e-03 0.
      4.25531901e-03 0. 0. 0. 0. 4.25531901e-03 4.25531901e-03 0. 0. 0.
      0. 0. 0. 0. 0. 0. 4.25531901e-03 0. 0. 0. 0. 0. 0. 0. 0. 0. 0. 0.
      0. 0. 0. 0. 0. 0. 0. 0. 0. 0. 4.25531901e-03 0. 0. 0. 0. 0. 0. 0.
      0. 0. 0. 0. 0. 8.51063803e-03 0. 0. 0. 0. 0. 0. 0. 0. 0.
      2.55319141e-02 0. 0. 4.25531901e-03 0. 0. 0. 0. 0. 0. 0. 0. 0. 0.
      0. 0. 0. 0. 0. 0. 0. 0. 0. 0. 0. 0. 0. 4.25531901e-03 0. 0. 0. 0.
      0. 0. 0. 8.51063803e-03 0. 8.51063803e-03 0. 0. 0. 0. 0. 0. 0.
      8.51063803e-03 0. 0. 0. 0. 0. 0. 0. 0. 0. 0. 0. 0. 0. 0. 0. 0. 0.
      4.25531901e-03 0. 0. 0. 0. 0. 0. 0. 0. 0. 0. 0. 0. 0. 0. 0.
      8.51063803e-03 0. 0. 0. 0. 0. 0. 0. 0. 0. 0. 0. 0. 0. 0. 0. 0. 0.
      0. 0. 0. 0. 8.51063803e-03 8.51063803e-03 0. 0. 0. 0. 0.
      4.25531901e-03 0. 0. 0. 0. 0. 0. 0. 0. 0. 4.25531901e-03 0.
      1.27659570e-02 0. 0. 0. 0. 0. 0. 0. 0. 0. 0. 3.82978693e-02
      4.25531901e-03 0. 0. 0. 0. 0. 0. 0. 4.25531901e-03 0. 0. 0. 0. 0.
      0. 0. 0. 0. 4.25531901e-03 0. 0. 0. 0. 0. 0. 0. 4.25531901e-03 0.
      0. 0. 0. 0. 0. 0. 0. 0. 0. 0. 4.25531901e-03 0. 0. 0. 0. 0.
      4.25531901e-03 0. 0. 4.25531901e-03 4.25531901e-03 0. 0. 0. 0. 0.
      0. 4.25531901e-02 0. 1.27659570e-02 0. 0. 0. 0. 0. 0.
      4.25531901e-03 0. 1.27659570e-02 0. 0. 0. 0. 0. 0. 0. 0. 0.
      4.25531901e-03 4.25531901e-03 0. 0. 0. 0. 0. 0. 0. 0. 0. 0. 0. 0.
      0. 4.25531901e-03 0. 0. 0. 0. 0. 0. 0. 0. 0. 0. 4.25531901e-03
      1.70212761e-02 0. 0. 0. 0. 0. 0. 0. 0. 0. 0. 0. 0. 0. 0. 0. 0. 0.
      0. 0. 4.25531901e-03 0. 0. 0. 0. 0. 0. 0. 0. 4.25531901e-03 0. 0.
      8.51063803e-03 0. 8.51063803e-03 0. 0. 1.27659570e-02 0.
      8.51063803e-03 0. 0. 0. 0. 0. 0. 0. 0. 0. 0. 1.70212761e-02 0. 0.
      0. 0. 0. 0. 0. 0. 0. 0. 0. 0. 0. 0. 4.25531901e-03 0. 0. 0. 0. 0.
      0. 0. 0. 0. 0. 0. 0. 4.25531901e-03 4.25531901e-03 0. 0. 0. 0. 0.
      4.25531901e-03 0. 0. 4.25531901e-03 0. 0. 0. 0. 0. 4.25531901e-03
      0. 0. 0. 0. 0. 0. 0. 0. 0. 0. 0. 0. 0. 0. 0. 0. 0. 0. 0.
      4.25531901e-03 0. 4.25531901e-03 0. 0. 0. 0. 0. 2.12765951e-02 0.
      0. 0. 4.25531901e-03 0. 0. 0. 4.25531901e-03 0. 0. 0. 0. 0. 0. 0.
      0. 0. 4.25531901e-03 4.25531901e-03 2.12765951e-02 0. 0. 0.
      4.25531901e-03 0. 0. 0. 0. 0. 0. 4.25531901e-03 0. 0.
      4.25531901e-03 4.25531901e-03 0. 0. 2.55319141e-02 4.25531901e-03
      0. 0. 0. 0. 0. 0. 0. 0. 0. 0. 4.25531901e-03 0. 0. 0.
      8.51063803e-03 4.25531901e-03 0. 0. 0. 0. 0. 0. 0. 8.51063803e-03
      0. 0. 0. 0. 4.25531901e-03 0. 0. 0. 0. 0. 4.25531901e-03 0. 0. 0.
      0. 4.25531901e-03 0. 0. 0. 8.51063803e-03 0. 0. 0. 1.27659570e-02
      0. 4.25531901e-03 8.51063803e-03 0. 0. 0. 4.25531901e-03 0. 0. 0.
      0. 0. 0. 0. 0. 0. 0. 0. 0. 0. 4.25531901e-03 0. 0. 0. 0. 0. 0. 0.
      4.25531901e-03 0. 0. 0. 0. 0. 0. 0. 0. 0. 1.27659570e-02 0. 0. 0.
      0. 0. 0. 0. 0. 0. 4.25531901e-03 0. 0. 0. 0. 0. 0. 0. 0. 0. 0. 0.
      0. 0. 1.27659570e-02 0. 0. 0. 0. 0. 0. 0. 0. 0. 0. 0. 0. 0.
      4.25531901e-03 0. 0. 8.51063803e-03 0. 0. 0. 0. 4.25531901e-03 0.
      0. 0. 0. 0. 0. 0. 0. 4.25531901e-03 0. 0. 0. 0. 0. 0. 0. 0. 0.
      4.25531901e-03 0. 0. 0. 4.25531901e-03 0. 0. 0. 0. 0. 0.
      2.97872331e-02 4.25531901e-03 0. 0. 0. 0. 0. 0. 0. 8.51063803e-03
      0. 4.25531901e-03 4.25531901e-03 0. 0. 0. 4.25531901e-03 0. 0. 0.
      0. 0. 4.25531901e-03 0. 4.25531901e-03 0. 4.25531901e-03
      4.25531901e-03 0. 0. 0. 0. 1.70212761e-02 0. 0. 0. 0. 0. 0. 0.
      4.25531901e-03 0. 4.25531901e-03 8.51063803e-03 0. 0. 0. 0.
      4.25531901e-03 0. 0. 0. 0. 0. 0. 0. 0. 0. 0. 0. 8.51063803e-03
      8.51063803e-03 0. 0. 0. 0. 0. 0. 0. 0. 0. 0. 0. 0. 0. 0. 0. 0. 0.
      0. 0. 4.25531901e-03 0. 4.25531901e-03 0. 0. 0. 0. 0. 0. 0. 0. 0.
      0. 0. 0. 4.25531901e-03 0. 0. 0. 0. 0. 0. 0. 0. 0. 0. 0. 0. 0. 0.
      0. 0. 0. 0. 4.25531901e-03 0. 0. 0. 0. 0. 0. 0. 0. 0. 0. 0. 0. 0.
      0. 0. 0. 0. 0. 0. 0. 0. 0. 0. 0. 0. 0. 0. 0. 0. 0. 0. 0. 0. 0. 0.
      1.70212761e-02 0. 0. 0. 0. 0. 0. 0. 0. 0. 0. 0. 0. 0. 0. 0. 0. 0.
      0. 0. 0. 0. 0. 0. 0. 0. 0. 0. 0. 0. 0. 0. 0. 0. 0. 0.
      1.70212761e-02 0. 0. 0. 0. 0. 0. 0. 0. 0. 0. 0. 0. 0. 0. 0. 0. 0.
      4.25531901e-03 0. 4.25531901e-03 0. 0. 0. 0. 0. 0. 0. 0. 0. 0. 0.
      0. 0. 0. 0. 0. 0. 0. 4.25531901e-03 1.27659570e-02 0. 0. 0. 0. 0.
      0. 0. 0. 0. 0. 0. 0. 0. 0. 0. 0. 0. 0. 0. 0. 0. 0. 0. 0. 0. 0. 0.
      0. 1.70212761e-02 0. 0. 0. 0. 0. 4.25531901e-03 0. 0.
      4.25531901e-03 0. 0. 0. 0. 4.25531901e-03 0. 0. 0. 0. 0.
      8.51063803e-03 0. 0. 0. 0. 0. 0. 0. 0. 0. 0. 4.25531901e-03 0. 0.
      0. 0. 4.25531901e-03 0. 0. 0. 0. 0. 0. 8.51063803e-03 0. 0. 0. 0.
      4.25531901e-03 4.25531901e-03 0. 0. 0. 4.25531901e-03</_>
    <_>
      0. 0. 0. 0. 0. 0. 0. 0. 0. 0. 0. 0. 0. 0. 0. 0. 0. 1.10701108e-02
      0. 0. 0. 0. 0. 0. 0. 0. 1.47601478e-02 0. 0. 1.10701108e-02 0.
      7.38007389e-03 3.69003695e-03 3.69003695e-03 0. 0. 0. 0. 0.
      3.69003695e-03 0. 0. 3.69003695e-03 0. 0. 3.69003695e-03 0. 0. 0.
      0. 3.69003695e-03 1.10701108e-02 0. 0. 0. 0. 1.10701108e-02 0. 0.
      0. 0. 0. 0. 0. 0. 0. 0. 0. 0. 0. 0. 0. 0. 0. 0. 3.69003695e-03 0.
      0. 0. 0. 0. 0. 0. 0. 0. 0. 7.38007389e-03 0. 0. 0. 0.
      7.38007389e-03 0. 0. 0. 0. 0. 0. 3.69003695e-03 0. 0. 0. 0. 0. 0.
      0. 0. 3.69003695e-03 0. 0. 3.69003695e-03 0. 0. 0. 0. 0.
      3.69003695e-03 0. 0. 0. 3.69003695e-03 1.47601478e-02
      7.38007389e-03 0. 0. 0. 0. 1.84501857e-02 0. 0. 0. 0. 0.
      3.69003695e-03 0. 0. 0. 0. 0. 0. 0. 3.69003695e-03 0.
      3.69003695e-03 0. 0. 0. 3.69003695e-03 0. 0. 0. 0. 0. 0. 0.
      1.47601478e-02 3.69003695e-03 0. 0. 0. 0. 0. 0. 0. 0. 0. 0.
      3.69003695e-03 3.69003695e-03 0. 0. 3.69003695e-03 3.69003695e-03
      0. 0. 3.69003695e-03 0. 0. 0. 0. 4.42804433e-02 0. 0.
      7.38007389e-03 3.69003695e-03 0. 0. 7.38007389e-03 0. 0. 0. 0.
      3.69003695e-03 0. 0. 0. 0. 0. 0. 0. 0. 0. 3.69003695e-03 0.
      3.69003695e-03 0. 0. 0. 0. 0. 0. 0. 0. 0. 0. 0. 7.38007389e-03 0.
      0. 0. 0. 0. 3.69003695e-03 0. 0. 0. 0. 0. 3.69003695e-03 0.
      3.69003695e-03 0. 0. 0. 0. 0. 0. 0. 0. 0. 0. 0. 0. 0. 0. 0. 0. 0.
      0. 1.47601478e-02 0. 0. 1.10701108e-02 0. 0. 0. 0. 0. 0. 0. 0. 0.
      2.58302577e-02 0. 0. 0. 0. 3.69003695e-03 0. 0. 3.69003695e-03 0.
      0. 0. 0. 0. 0. 0. 3.69003695e-03 0. 0. 3.69003695e-03 0. 0. 0.
      3.69003695e-03 0. 0. 0. 0. 0. 0. 0. 0. 0. 0. 0. 0. 0. 0. 0. 0. 0.
      0. 0. 0. 7.38007389e-03 0. 0. 3.69003695e-03 0. 0. 3.69003695e-03
      0. 3.69003695e-03 0. 0. 0. 0. 0. 2.21402217e-02 0. 0. 0. 0. 0. 0.
      0. 0. 0. 0. 3.69003695e-03 0. 0. 0. 0. 0. 0. 0. 0. 0. 0. 0. 0. 0.
      0. 0. 0. 0. 0. 0. 0. 0. 0. 2.21402217e-02 0. 0. 0. 0.
      7.38007389e-03 3.69003695e-03 0. 0. 0. 0. 7.38007389e-03
      1.10701108e-02 0. 7.38007389e-03 0. 0. 0. 0. 0. 0. 0. 0. 0. 0.
      3.69003695e-03 0. 0. 0. 0. 0. 3.69003695e-03 0. 0. 0. 0. 0. 0. 0.
      0. 0. 0. 0. 0. 0. 0. 0. 0. 0. 0. 0. 0. 0. 0. 0. 3.69003695e-03 0.
      3.69003695e-03 1.10701108e-02 0. 0. 0. 3.69003695e-03 0. 0. 0.
      1.10701108e-02 0. 0. 0. 0. 0. 0. 0. 0. 0. 1.10701108e-02 0. 0.
      3.69003695e-03 0. 3.69003695e-03 0. 0. 0. 0. 0. 0. 0. 0. 0. 0. 0.
      0. 0. 0. 0. 0. 0. 0. 0. 0. 0. 7.38007389e-03 0. 0. 3.69003695e-03
      0. 0. 0. 0. 0. 0. 0. 0. 0. 0. 0. 0. 0. 0. 3.69003695e-03 0. 0. 0.
      0. 0. 0. 0. 3.69003695e-03 0. 0. 0. 0. 0. 0. 0. 0. 0. 0. 0. 0. 0.
      0. 0. 0. 0. 0. 0. 0. 0. 0. 0. 0. 3.69003695e-03 0. 0. 0.
      7.38007389e-03 3.69003695e-03 0. 0. 0. 0. 0. 0. 0. 0. 0.
      7.38007389e-03 0. 0. 3.69003695e-03 0. 3.69003695e-03
      3.69003695e-03 0. 0. 0. 1.47601478e-02 3.69003695e-03 0. 0. 0.
      3.69003695e-03 0. 3.69003695e-03 1.10701108e-02 1.10701108e-02 0.
      0. 0. 7.38007389e-03 0. 3.69003695e-03 0. 0. 0. 0. 0. 0. 0.
      2.21402217e-02 0. 0. 0. 0. 0. 0. 0. 0. 0. 0. 0. 0. 0. 0. 0. 0. 0.
      0. 0. 0. 0. 1.47601478e-02 0. 0. 0. 0. 0. 0. 0. 0. 0. 0. 0. 0. 0.
      0. 0. 0. 0. 0. 0. 0. 0. 3.69003695e-03 3.69003695e-03 0. 0. 0. 0.
      0. 0. 0. 0. 0. 0. 0. 0. 0. 0. 0. 0. 0. 3.69003695e-03 0. 0. 0. 0.
      3.69003695e-03 0. 0. 0. 3.69003695e-03 3.69003695e-03 0. 0.
      3.69003695e-03 0. 0. 0. 0. 0. 0. 0. 0. 0. 0. 0. 0. 0.
      3.69003695e-03 0. 0. 0. 0. 0. 0. 0. 0. 7.38007389e-03
      7.38007389e-03 0. 0. 0. 3.69003695e-03 0. 0. 0. 0. 0. 0.
      3.69003695e-03 3.69003695e-03 0. 0. 0. 0. 0. 3.69003695e-03 0. 0.
      0. 0. 0. 0. 0. 0. 0. 0. 0. 3.69003695e-03 0. 0. 3.69003695e-03 0.
      0. 7.38007389e-03 0. 0. 0. 0. 3.69003695e-03 0. 3.69003695e-03 0.
      0. 0. 0. 0. 0. 0. 0. 0. 0. 0. 0. 0. 0. 3.69003695e-03 0.
      7.38007389e-03 0. 0. 0. 0. 0. 0. 0. 0. 0. 0. 0. 3.69003695e-03 0.
      0. 3.69003695e-03 0. 0. 0. 0. 0. 0. 0. 0. 0. 3.69003695e-03
      3.69003695e-03 0. 0. 0. 0. 0. 0. 0. 0. 0. 0. 0. 0. 0. 0. 0. 0. 0.
      0. 0. 0. 0. 0. 0. 0. 0. 0. 3.69003695e-03 0. 0. 0. 7.38007389e-03
      0. 0. 0. 0. 0. 3.69003695e-03 0. 0. 0. 0. 0. 0. 0. 0.
      2.21402217e-02 0. 0. 3.69003695e-03 0. 0. 3.69003695e-03
      3.69003695e-03 0. 0. 0. 0. 3.69003695e-03 0. 0. 3.69003695e-03
      7.38007389e-03 0. 0. 0. 3.69003695e-03 0. 0. 0. 0. 0. 0. 0. 0. 0.
      0. 0. 7.38007389e-03 0. 0. 1.10701108e-02 0. 0. 0. 0. 0. 0. 0. 0.
      0. 0. 0. 0. 0. 0. 0. 0. 0. 7.38007389e-03 1.10701108e-02 0. 0. 0.
      0. 0. 0. 0. 0. 0. 0. 0. 7.38007389e-03 7.38007389e-03
      7.38007389e-03 0. 1.47601478e-02 0. 0. 0. 0. 0. 0. 0. 0. 0. 0. 0.
      0. 0. 3.69003695e-03 0. 3.69003695e-03 0. 0. 7.38007389e-03 0.
      3.69003695e-03 0. 0. 0. 0. 0. 0. 0. 0. 0. 0. 0. 0. 0. 0. 0. 0. 0.
      0. 0. 0. 0. 0. 0. 0. 0. 0. 0. 0. 0. 0. 0. 0. 0. 0. 0. 0. 0.
      7.38007389e-03 0. 0. 0. 0. 0. 0. 3.69003695e-03 0. 0. 0. 0. 0. 0.
      3.69003695e-03 0. 0. 0. 0. 0. 0. 7.38007389e-03 0. 0. 0. 0. 0. 0.
      0. 0. 0. 0. 0. 0. 0. 0. 0. 0. 0. 0. 0. 0. 0. 0. 0. 0. 0. 0. 0. 0.
      0. 0. 0. 0. 0. 0. 0. 0. 7.38007389e-03 0. 7.38007389e-03 0.
      3.69003695e-03 0. 0. 0. 0. 0. 0. 0. 0. 0. 0. 0. 0. 0. 0.
      3.69003695e-03 0. 0. 0. 0. 0.</_>
    <_>
      3.38983047e-03 0. 0. 0. 0. 0. 3.38983047e-03 0. 0. 1.35593219e-02
      6.77966094e-03 0. 3.38983047e-03 0. 0. 0. 0. 0. 0. 0. 0. 0. 0. 0.
      0. 0. 3.38983047e-03 6.77966094e-03 0. 0. 0. 0. 0. 0. 0.
      3.38983047e-03 0. 0. 0. 0. 0. 0. 3.38983047e-03 3.38983047e-03 0.
      0. 0. 0. 3.38983047e-03 0. 0. 3.38983047e-03 0. 0. 1.69491526e-02
      0. 0. 0. 6.77966094e-03 6.77966094e-03 0. 0. 0. 0. 0. 0. 0. 0. 0.
      0. 3.38983047e-03 3.38983047e-03 0. 0. 0. 0. 0. 0. 0.
      3.38983047e-03 0. 0. 0. 0. 0. 0. 6.77966094e-03 0. 0. 0. 0. 0. 0.
      0. 0. 0. 0. 0. 0. 0. 0. 0. 0. 0. 0. 0. 0. 0. 0. 0. 0.
      6.77966094e-03 0. 0. 0. 0. 0. 0. 0. 0. 6.77966094e-03
      6.77966094e-03 3.38983047e-03 3.38983047e-03 0. 0. 0. 0. 0.
      3.38983047e-03 6.77966094e-03 2.03389823e-02 0. 0. 0. 0. 0. 0. 0.
      0. 0. 0. 0. 0. 0. 0. 0. 0. 0. 0. 0. 0. 0. 0. 0. 1.35593219e-02
      3.38983047e-03 1.69491526e-02 0. 0. 0. 3.38983047e-03 0. 0. 0. 0.
      0. 0. 0. 0. 0. 0. 0. 0. 0. 0. 0. 3.38983047e-03 0. 0.
      1.01694912e-02 0. 0. 3.38983047e-03 0. 0. 0. 3.38983047e-03 0. 0.
      0. 3.38983047e-03 0. 0. 0. 3.38983047e-03 0. 0. 0. 0. 0. 0. 0. 0.
      0. 0. 0. 3.38983047e-03 0. 0. 6.77966094e-03 6.77966094e-03 0. 0.
      0. 0. 0. 0. 0. 6.77966094e-03 0. 0. 0. 6.77966094e-03
      6.77966094e-03 0. 0. 0. 3.38983047e-03 0. 6.77966094e-03 0.
      6.77966094e-03 0. 0. 3.38983047e-03 0. 0. 0. 6.77966094e-03
      6.77966094e-03 0. 0. 0. 3.38983047e-03 0. 0. 0. 0. 0.
      3.38983047e-03 0. 3.38983047e-03 0. 0. 0. 6.77966094e-03 0. 0. 0.
      0. 0. 3.38983047e-03 0. 3.38983047e-03 0. 0. 0. 0. 0. 0. 0.
      3.38983047e-03 0. 0. 0. 0. 0. 0. 0. 0. 0. 3.38983047e-03
      1.35593219e-02 0. 3.38983047e-03 0. 0. 0. 0. 0. 0. 0. 0. 0. 0. 0.
      0. 0. 0. 0. 0. 2.03389823e-02 0. 0. 3.38983047e-03 0.
      3.38983047e-03 0. 0. 0. 0. 0. 0. 0. 0. 0. 0. 0. 3.38983047e-03 0.
      0. 0. 0. 0. 3.38983047e-03 0. 0. 0. 0. 0. 0. 0. 0. 3.38983047e-03
      0. 0. 3.38983047e-03 0. 0. 0. 3.38983047e-03 0. 0. 0. 0. 0. 0. 0.
      0. 0. 0. 0. 0. 0. 0. 0. 3.38983047e-03 0. 0. 0. 0. 0. 0. 0. 0. 0.
      0. 0. 0. 3.38983047e-03 0. 0. 3.38983047e-03 6.77966094e-03 0. 0.
      0. 0. 3.38983047e-03 0. 0. 0. 0. 0. 0. 0. 0. 0. 0. 0. 0. 0. 0. 0.
      0. 0. 0. 0. 0. 3.38983047e-03 0. 0. 0. 0. 0. 0. 0. 1.01694912e-02
      0. 0. 1.35593219e-02 0. 0. 3.38983047e-03 0. 1.01694912e-02 0. 0.
      0. 0. 0. 0. 3.38983047e-03 0. 0. 6.77966094e-03 0. 0. 0. 0. 0. 0.
      0. 0. 0. 0. 0. 0. 0. 0. 0. 0. 0. 0. 0. 0. 0. 0. 0. 0. 0. 0.
      6.77966094e-03 0. 3.38983047e-03 3.38983047e-03 0. 0. 0. 0. 0. 0.
      0. 0. 0. 0. 0. 0. 0. 0. 0. 0. 0. 0. 3.38983047e-03 0. 0. 0. 0. 0.
      0. 0. 0. 0. 0. 6.77966094e-03 0. 0. 0. 0. 0. 0. 0. 0. 0. 0. 0.
      3.38983047e-03 0. 0. 0. 0. 0. 0. 3.38983047e-03 0. 0.
      6.77966094e-03 3.38983047e-03 0. 0. 0. 0. 1.01694912e-02 0. 0.
      3.38983047e-03 0. 3.38983047e-03 0. 0. 3.38983047e-03
      6.77966094e-03 3.38983047e-03 3.38983047e-03 0. 3.38983047e-03 0.
      3.38983047e-03 0. 0. 0. 0. 0. 3.38983047e-03 3.38983047e-03 0. 0.
      0. 0. 3.38983047e-03 0. 1.35593219e-02 0. 3.38983047e-03 0. 0.
      3.38983047e-03 0. 0. 0. 0. 0. 0. 0. 0. 0. 0. 0. 0. 0. 0. 0. 0. 0.
      3.38983047e-03 0. 6.77966094e-03 0. 0. 0. 0. 0. 0. 0. 0. 0.
      3.38983047e-03 6.77966094e-03 0. 0. 3.38983047e-03 0. 0. 0. 0.
      3.38983047e-03 0. 0. 0. 0. 0. 3.38983047e-03 0. 3.38983047e-03 0.
      0. 0. 0. 0. 0. 0. 3.38983047e-03 0. 0. 0. 0. 0. 0. 0. 0. 0. 0.
      1.35593219e-02 0. 0. 0. 0. 0. 0. 0. 0. 0. 3.38983047e-03 0. 0. 0.
      3.38983047e-03 0. 0. 0. 3.38983047e-03 0. 0. 0. 0. 1.01694912e-02
      0. 0. 0. 0. 0. 0. 6.77966094e-03 3.38983047e-03 6.77966094e-03 0.
      0. 0. 0. 0. 0. 0. 0. 3.38983047e-03 0. 3.38983047e-03 0. 0.
      1.69491526e-02 0. 0. 0. 0. 0. 0. 3.38983047e-03 0. 3.38983047e-03
      0. 0. 0. 0. 3.38983047e-03 0. 0. 0. 0. 0. 0. 0. 3.38983047e-03
      6.77966094e-03 1.01694912e-02 0. 0. 0. 3.38983047e-03 0. 0. 0. 0.
      0. 0. 0. 0. 3.38983047e-03 0. 0. 6.77966094e-03 0. 3.38983047e-03
      0. 0. 0. 3.38983047e-03 0. 0. 0. 0. 0. 0. 6.77966094e-03
      3.38983047e-03 0. 0. 6.77966094e-03 0. 0. 0. 0. 1.35593219e-02 0.
      0. 0. 0. 0. 0. 0. 3.38983047e-03 0. 0. 0. 0. 0. 0. 0. 0. 0. 0. 0.
      0. 3.38983047e-03 0. 3.38983047e-03 3.38983047e-03 0. 0. 0. 0.
      2.03389823e-02 0. 0. 0. 0. 0. 0. 0. 0. 0. 3.38983047e-03
      3.38983047e-03 0. 0. 0. 0. 0. 0. 0. 0. 0. 0. 3.38983047e-03 0.
      6.77966094e-03 0. 0. 0. 0. 0. 0. 6.77966094e-03 0. 0. 0. 0. 0.
      3.38983047e-03 0. 0. 0. 0. 0. 0. 3.38983047e-03 0. 0. 0. 0. 0. 0.
      0. 0. 0. 0. 0. 0. 0. 0. 0. 1.01694912e-02 0. 0. 0. 0. 0. 0. 0. 0.
      0. 0. 0. 0. 0. 0. 0. 0. 0. 0. 0. 0. 0. 0. 0. 0. 0. 0. 0. 0. 0. 0.
      0. 0. 0. 0. 0. 0. 6.77966094e-03 0. 0. 0. 0. 0. 0. 0.
      3.38983047e-03 0. 0. 0. 0. 0. 0. 0. 0. 0. 0. 0. 3.38983047e-03 0.
      0. 0. 6.77966094e-03 0. 0. 0. 0. 1.69491526e-02 0. 0.
      3.38983047e-03 6.77966094e-03 0. 0. 0. 0. 0. 0. 0. 0. 0. 0. 0.
      3.38983047e-03 0. 0. 0. 3.38983047e-03 3.38983047e-03 0. 0. 0.
      3.38983047e-03 0. 0. 0. 0. 0. 0. 0. 0. 0. 6.77966094e-03 0. 0. 0.
      3.38983047e-03 0. 0. 0. 0. 0. 0. 0. 0. 0. 0. 3.38983047e-03 0.
      3.38983047e-03 0. 3.38983047e-03 0. 0. 0. 0. 0. 0. 3.38983047e-03
      0. 0. 0. 0. 3.38983047e-03 0. 0. 0. 3.38983047e-03 3.38983047e-03
      0. 0. 0. 0. 0. 0. 3.38983047e-03 0. 0. 3.38983047e-03 0.
      3.38983047e-03 0. 0. 0. 3.38983047e-03 0. 0. 0. 0. 3.38983047e-03
      0. 0. 0. 0. 0. 1.01694912e-02 0. 6.77966094e-03 0. 3.38983047e-03
      0. 0. 0. 0. 0. 0. 0. 6.77966094e-03 0. 0. 1.01694912e-02 0. 0. 0.
      6.77966094e-03 3.38983047e-03 0. 0. 0. 0.</_>
    <_>
      0. 0. 3.52112669e-03 0. 0. 3.52112669e-03 0. 0. 0. 0. 0. 0. 0. 0.
      0. 3.52112669e-03 0. 0. 0. 0. 0. 0. 3.52112669e-03 0. 0. 0. 0.
      7.04225339e-03 0. 0. 1.05633801e-02 3.52112669e-03 0. 0.
      3.52112669e-03 0. 0. 1.05633801e-02 0. 0. 0. 0. 0. 2.11267602e-02
      0. 0. 0. 0. 0. 0. 0. 0. 0. 0. 0. 3.52112669e-03 3.52112669e-03 0.
      0. 0. 0. 0. 0. 0. 3.52112669e-03 3.52112669e-03 0. 0.
      3.52112669e-03 0. 0. 1.40845068e-02 0. 0. 0. 0. 7.04225339e-03
      1.05633801e-02 0. 0. 1.05633801e-02 0. 0. 0. 0. 4.92957756e-02 0.
      0. 0. 0. 0. 0. 0. 0. 0. 0. 0. 0. 3.52112669e-03 0. 0. 0. 0. 0. 0.
      1.40845068e-02 0. 0. 3.52112669e-03 0. 0. 0. 3.52112669e-03 0. 0.
      0. 0. 0. 0. 3.52112669e-03 0. 0. 0. 0. 0. 3.52112669e-03 0.
      3.52112669e-03 0. 0. 0. 3.52112669e-03 3.52112669e-03 0. 0. 0. 0.
      0. 0. 0. 0. 7.04225339e-03 0. 0. 0. 0. 0. 0. 0. 0. 0. 0. 0. 0. 0.
      0. 0. 0. 0. 1.05633801e-02 0. 0. 0. 0. 0. 0. 0. 0. 0. 0. 0.
      1.05633801e-02 0. 0. 0. 0. 1.40845068e-02 0. 0. 0. 3.52112669e-03
      0. 0. 0. 3.52112669e-03 0. 0. 0. 0. 3.52112669e-03 0. 0. 0. 0. 0.
      0. 0. 0. 0. 0. 0. 7.04225339e-03 0. 0. 0. 0. 0. 1.05633801e-02 0.
      0. 0. 0. 0. 0. 3.52112669e-03 0. 0. 0. 0. 0. 0. 0. 0. 0. 0. 0. 0.
      7.04225339e-03 3.52112669e-03 0. 0. 0. 0. 0. 7.04225339e-03 0. 0.
      0. 0. 0. 0. 0. 0. 3.52112669e-03 0. 3.52112669e-03 0. 0. 0. 0.
      3.52112669e-03 0. 3.52112669e-03 0. 0. 0. 0. 0. 0. 0. 0.
      3.52112669e-03 0. 0. 0. 1.05633801e-02 0. 0. 0. 0. 0. 0.
      3.52112669e-03 0. 0. 3.52112669e-03 0. 2.11267602e-02 0. 0. 0. 0.
      3.52112669e-03 0. 0. 0. 0. 0. 0. 0. 0. 0. 0. 0. 0. 0. 0. 0. 0. 0.
      0. 0. 0. 0. 0. 0. 0. 0. 0. 0. 0. 0. 3.52112669e-03 0.
      1.40845068e-02 0. 0. 0. 0. 0. 3.52112669e-03 0. 0. 0. 0.
      3.52112669e-03 0. 0. 0. 0. 0. 0. 7.04225339e-03 0. 0. 0. 0. 0. 0.
      0. 0. 0. 0. 0. 0. 0. 0. 0. 0. 0. 0. 0. 3.52112669e-03 0. 0. 0. 0.
      0. 0. 0. 0. 0. 0. 0. 0. 0. 0. 0. 0. 0. 0. 0. 0. 0. 0. 0. 0. 0. 0.
      3.52112669e-03 0. 0. 3.52112669e-03 0. 0. 0. 0. 0. 0. 0. 0. 0. 0.
      0. 0. 3.52112669e-03 7.04225339e-03 7.04225339e-03 0. 0. 0.
      7.04225339e-03 7.04225339e-03 0. 0. 3.52112669e-03 0. 0. 0.
      3.52112669e-03 0. 3.52112669e-03 0. 0. 0. 0. 1.05633801e-02 0. 0.
      0. 0. 0. 0. 0. 0. 0. 0. 0. 0. 0. 7.04225339e-03 3.52112669e-03 0.
      0. 0. 0. 0. 0. 0. 0. 7.04225339e-03 0. 0. 0. 0. 0. 0. 0.
      7.04225339e-03 0. 0. 0. 0. 0. 0. 0. 0. 0. 3.52112669e-03 0. 0.
      3.52112669e-03 0. 0. 0. 0. 0. 3.52112669e-03 3.52112669e-03 0.
      3.52112669e-03 0. 0. 0. 7.04225339e-03 0. 0. 0. 0. 0. 0. 0. 0. 0.
      0. 0. 0. 0. 0. 0. 0. 0. 0. 0. 0. 0. 0. 0. 0. 0. 1.40845068e-02 0.
      0. 0. 1.40845068e-02 0. 0. 0. 0. 0. 0. 3.52112669e-03 0. 0. 0. 0.
      0. 0. 0. 1.05633801e-02 0. 0. 0. 0. 0. 0. 0. 0. 0. 0. 0. 0. 0. 0.
      0. 3.52112669e-03 0. 0. 0. 0. 3.52112669e-03 0. 0. 0. 0. 0. 0. 0.
      0. 0. 0. 0. 0. 0. 0. 0. 0. 7.04225339e-03 0. 0. 0. 0. 0. 0. 0. 0.
      0. 0. 0. 0. 0. 3.52112669e-03 0. 0. 0. 0. 1.05633801e-02 0. 0. 0.
      0. 0. 0. 0. 0. 0. 0. 1.40845068e-02 0. 1.05633801e-02 0. 0.
      1.05633801e-02 0. 0. 0. 0. 3.52112669e-03 0. 0. 0. 0. 0. 0.
      3.52112669e-03 0. 2.11267602e-02 0. 0. 0. 0. 1.05633801e-02
      7.04225339e-03 0. 7.04225339e-03 0. 0. 0. 0. 1.05633801e-02
      7.04225339e-03 3.52112669e-03 0. 0. 0. 0. 0. 0. 0. 0. 0. 0.
      3.52112669e-03 0. 0. 0. 0. 7.04225339e-03 0. 0. 0. 0.
      3.52112669e-03 0. 0. 0. 0. 0. 0. 0. 0. 0. 0. 1.05633801e-02
      7.04225339e-03 3.52112669e-03 0. 3.16901393e-02 0. 0. 0. 0. 0. 0.
      0. 0. 0. 0. 7.04225339e-03 0. 3.52112669e-03 0. 0. 0. 0. 0. 0. 0.
      7.04225339e-03 0. 0. 0. 0. 3.52112669e-03 0. 0. 0. 0. 0. 0. 0. 0.
      0. 0. 0. 0. 0. 0. 1.05633801e-02 0. 0. 0. 0. 7.04225339e-03 0. 0.
      0. 7.04225339e-03 0. 0. 0. 0. 0. 0. 0. 0. 0. 0. 0. 0. 0. 0. 0. 0.
      0. 0. 0. 0. 0. 0. 0. 0. 0. 0. 0. 0. 0. 0. 0. 0. 0. 0. 0. 0. 0. 0.
      3.52112669e-03 0. 0. 0. 0. 0. 0. 0. 0. 7.04225339e-03 0. 0. 0. 0.
      0. 0. 0. 0. 0. 0. 0. 0. 0. 0. 0. 0. 0. 0. 0. 0. 0. 0.
      3.52112669e-03 0. 0. 0. 0. 0. 0. 0. 3.52112669e-03 0. 0. 0.
      2.46478878e-02 0. 0. 0. 0. 0. 0. 0. 0. 0. 0. 0. 0. 0. 0. 0. 0. 0.
      0. 0. 0. 0. 0. 3.52112669e-03 0. 0. 3.52112669e-03 0. 0.
      1.05633801e-02 0. 0. 0. 0. 0. 0. 3.52112669e-03 0. 0. 0.
      7.04225339e-03 0. 0. 0. 0. 3.52112669e-03 0. 0. 3.52112669e-03 0.
      3.52112669e-03 0. 0. 0. 0. 1.05633801e-02 3.52112669e-03 0. 0.
      3.52112669e-03 0. 0. 0. 0. 0. 0. 0. 0. 0. 0. 0. 0. 0. 0. 0. 0. 0.
      0. 3.52112669e-03 0. 0. 7.04225339e-03 0. 0. 0. 7.04225339e-03 0.
      0. 0. 0. 0. 0. 0. 0. 0. 0. 0. 0. 0. 0. 0. 1.40845068e-02 0.
      3.52112669e-03 0. 0. 3.52112669e-03 0. 0. 0. 0. 0. 3.52112669e-03
      3.52112669e-03 0. 0. 0. 0. 0. 0. 7.04225339e-03 0. 0.
      7.04225339e-03 0. 0. 0. 0. 0. 0. 3.52112669e-03 0. 0. 0. 0. 0. 0.
      3.52112669e-03 0. 0. 0. 0. 3.52112669e-03 0. 0. 0. 0. 0. 0. 0. 0.
      0. 0. 0. 0. 0. 0. 0. 0. 0. 3.52112669e-03 0. 0. 0. 0. 0. 0.
      3.52112669e-03 0. 0. 0. 0. 0. 0. 0. 0. 0. 0. 0. 0. 3.52112669e-03
      0. 0. 0. 0. 0. 0. 0. 0. 0. 0. 0. 0. 0. 0. 0. 0. 0. 0. 0.
      3.52112669e-03 0. 0. 0. 0. 0. 0. 0. 7.04225339e-03 0.</_>
    <_>
      0. 0. 2.14592274e-02 0. 0. 4.29184549e-03 0. 0. 0. 0. 0. 0. 0. 0.
      0. 0. 0. 0. 0. 0. 0. 0. 0. 0. 0. 0. 0. 0. 0. 0. 0. 4.29184549e-03
      0. 0. 8.58369097e-03 8.58369097e-03 0. 2.57510729e-02 0. 0. 0. 0.
      0. 8.58369097e-03 0. 4.29184549e-03 4.29184549e-03 0. 0. 0. 0. 0.
      0. 0. 8.58369097e-03 1.71673819e-02 0. 0. 0. 0. 0. 0. 0.
      4.29184549e-03 0. 0. 0. 0. 0. 8.58369097e-03 0. 3.00429184e-02 0.
      0. 0. 0. 8.58369097e-03 0. 0. 0. 1.28755365e-02 0. 0. 0. 0.
      1.71673819e-02 4.29184549e-03 0. 0. 0. 0. 4.29184549e-03 0. 0. 0.
      0. 0. 0. 0. 0. 0. 0. 8.58369097e-03 0. 0. 0. 0. 0. 0. 0. 0. 0. 0.
      0. 0. 0. 0. 0. 0. 0. 0. 0. 0. 4.29184549e-03 0. 0. 0.
      1.28755365e-02 0. 0. 0. 0. 0. 4.29184549e-03 2.57510729e-02 0. 0.
      0. 0. 0. 0. 2.14592274e-02 0. 0. 0. 0. 0. 0. 0. 0. 0. 0. 0. 0. 0.
      0. 0. 0. 0. 4.29184549e-03 0. 0. 0. 0. 4.29184549e-03 0. 0. 0. 0.
      0. 0. 2.57510729e-02 0. 0. 0. 0. 2.14592274e-02 0. 0. 0. 0. 0.
      4.29184549e-03 0. 0. 0. 0. 0. 0. 0. 0. 0. 0. 0. 0. 0. 0. 0. 0. 0.
      0. 0. 0. 0. 0. 0. 0. 3.00429184e-02 0. 0. 0. 0. 0. 0. 0. 0. 0. 0.
      0. 0. 0. 0. 0. 0. 0. 0. 0. 0. 0. 0. 0. 0. 0. 0. 0. 0. 0. 0.
      1.71673819e-02 0. 0. 0. 0. 0. 0. 0. 0. 0. 0. 0. 0. 0. 0.
      4.29184549e-03 0. 0. 0. 0. 0. 4.29184549e-03 0. 1.28755365e-02 0.
      0. 0. 0. 0. 0. 0. 0. 0. 0. 0. 1.71673819e-02 0. 0. 0.
      4.29184549e-03 0. 0. 8.58369097e-03 0. 0. 0. 0. 0. 0. 0. 0.
      8.58369097e-03 0. 0. 0. 0. 0. 0. 0. 0. 0. 0. 0. 0. 0. 0.
      4.29184549e-03 0. 1.71673819e-02 0. 0. 0. 0. 0. 0. 0.
      4.29184549e-03 0. 8.58369097e-03 8.58369097e-03 0. 0.
      4.29184549e-03 0. 0. 4.29184549e-03 0. 1.28755365e-02 0. 0. 0. 0.
      0. 0. 0. 0. 0. 0. 4.29184549e-03 0. 0. 0. 0. 0. 0. 0. 0. 0. 0. 0.
      0. 0. 0. 4.29184549e-03 0. 0. 0. 0. 0. 0. 0. 0. 0. 0.
      4.29184549e-03 0. 0. 0. 0. 1.28755365e-02 0. 0. 0. 0. 0. 0. 0. 0.
      0. 0. 0. 0. 0. 0. 0. 0. 0. 0. 0. 4.29184549e-03 0. 0. 0. 0. 0. 0.
      0. 0. 0. 0. 0. 0. 0. 1.28755365e-02 0. 0. 0. 0. 0. 0.
      4.29184549e-03 4.29184549e-03 0. 4.29184549e-03 0. 0. 0. 0. 0. 0.
      0. 0. 0. 0. 0. 0. 0. 0. 0. 0. 0. 0. 0. 0. 0. 0. 0. 0. 0. 0. 0. 0.
      4.29184549e-03 0. 0. 0. 0. 0. 0. 0. 4.29184549e-03 0. 0. 0. 0.
      8.58369097e-03 0. 0. 0. 0. 0. 0. 0. 0. 0. 0. 0. 0. 0. 0. 0. 0. 0.
      0. 0. 0. 0. 0. 0. 0. 0. 0. 0. 0. 0. 0. 0. 0. 0. 0. 0. 0. 0. 0. 0.
      0. 0. 0. 0. 0. 0. 0. 4.29184549e-03 0. 0. 0. 1.71673819e-02 0. 0.
      0. 0. 0. 2.14592274e-02 0. 0. 0. 0. 0. 0. 0. 0. 4.29184549e-03 0.
      1.71673819e-02 0. 0. 0. 0. 0. 0. 0. 0. 0. 0. 0. 0. 0. 0. 0. 0.
      4.29184549e-03 0. 0. 0. 0. 0. 0. 8.58369097e-03 0. 0. 0. 0. 0. 0.
      0. 0. 0. 0. 0. 0. 0. 0. 0. 0. 0. 0. 0. 0. 0. 0. 0. 0. 0. 0. 0. 0.
      0. 0. 4.29184549e-03 0. 0. 8.58369097e-03 1.28755365e-02
      4.29184549e-03 0. 0. 0. 0. 0. 1.71673819e-02 0. 1.28755365e-02 0.
      0. 0. 0. 0. 0. 0. 1.71673819e-02 4.29184549e-03 1.28755365e-02 0.
      0. 0. 0. 0. 0. 0. 0. 0. 4.29184549e-03 0. 4.29184549e-03 0.
      1.28755365e-02 0. 0. 0. 0. 0. 0. 0. 0. 0. 0. 0. 0. 0. 0.
      4.29184549e-03 0. 0. 0. 0. 0. 0. 0. 0. 0. 0. 0. 0. 0.
      8.58369097e-03 0. 0. 4.29184549e-03 0. 0. 0. 0. 0. 0. 0. 0. 0. 0.
      0. 0. 0. 0. 0. 0. 0. 0. 0. 0. 0. 4.29184549e-03 0. 0. 0. 0. 0. 0.
      0. 0. 0. 0. 0. 0. 0. 0. 0. 0. 0. 0. 0. 0. 0. 0. 0. 0. 0. 0. 0. 0.
      0. 0. 0. 0. 0. 0. 0. 0. 0. 0. 0. 0. 0. 0. 0. 0. 0. 0.
      4.29184549e-03 0. 0. 0. 0. 0. 0. 0. 0. 0. 0. 0. 0. 0. 0. 0. 0. 0.
      0. 0. 0. 0. 0. 0. 0. 0. 0. 4.29184549e-03 0. 0. 8.58369097e-03 0.
      0. 0. 0. 0. 0. 0. 0. 0. 0. 0. 0. 0. 0. 0. 0. 0. 0. 0. 0.
      8.58369097e-03 0. 0. 4.29184549e-03 0. 0. 0. 0. 0. 0. 0. 0. 0.
      4.29184549e-03 0. 0. 0. 0. 0. 0. 0. 0. 0. 0. 0. 4.29184549e-03
      4.29184549e-03 0. 0. 0. 0. 0. 0. 0. 0. 0. 0. 0. 0. 0. 0. 0. 0. 0.
      0. 0. 0. 0. 0. 0. 0. 0. 0. 0. 1.71673819e-02 0. 0. 0.
      1.28755365e-02 0. 0. 0. 0. 0. 0. 0. 0. 0. 0. 0. 0. 0. 0. 0. 0. 0.
      0. 0. 0. 0. 0. 4.29184549e-03 0. 0. 0. 0. 0. 0. 0. 0. 0. 0. 0. 0.
      0. 0. 0. 0. 0. 8.58369097e-03 0. 0. 0. 0. 0. 0. 0. 0. 0. 0.
      4.29184549e-03 0. 0. 0. 0. 0. 0. 0. 0. 0. 0. 0. 0. 0. 0. 0. 0. 0.
      8.58369097e-03 0. 0. 0. 0. 0. 0. 0. 0. 4.29184549e-03 0. 0. 0. 0.
      0. 4.29184549e-03 0. 0. 0. 0. 1.71673819e-02 4.29184549e-03 0. 0.
      0. 0. 0. 2.57510729e-02 0. 0. 0. 0. 0. 0. 0. 0. 0. 0. 0.
      1.71673819e-02 0. 0. 0. 0. 0. 0. 0. 0. 0. 0. 0. 0. 0. 0. 0. 0. 0.
      0. 0. 0. 0. 0. 0. 0. 0. 0. 1.28755365e-02 0. 0. 0. 0. 0. 0. 0.
      4.29184549e-03 0. 0. 0. 0. 0. 0. 0. 0. 0. 0. 0. 0. 0. 0. 0.
      4.29184549e-03 0. 0. 4.29184549e-03 0. 0. 0. 0. 0. 0. 0. 0. 0. 0.
      0. 0. 0.</_>
    <_>
      0. 0. 2.80898879e-03 2.80898879e-03 0. 0. 0. 0. 0. 0. 0. 0. 0.
      2.80898879e-03 0. 2.80898879e-03 0. 0. 0. 0. 0. 0. 0. 0. 0. 0. 0.
      0. 0. 0. 0. 2.80898879e-03 0. 0. 0. 0. 0. 0. 1.12359552e-02 0. 0.
      2.80898879e-03 0. 0. 0. 0. 2.80898879e-03 0. 2.80898879e-03 0.
      2.80898879e-03 0. 0. 0. 0. 0. 0. 0. 2.80898879e-03 0. 0. 0. 0. 0.
      5.61797759e-03 2.80898879e-03 2.80898879e-03 0. 0. 0. 0.
      2.80898879e-03 0. 0. 0. 2.80898879e-03 0. 2.80898879e-03 0.
      1.12359552e-02 0. 0. 0. 0. 0. 0. 0. 2.80898879e-03 0. 0. 0.
      5.61797759e-03 0. 0. 0. 2.80898879e-03 0. 0. 0. 0. 0. 0. 0. 0.
      2.80898884e-02 0. 0. 0. 0. 0. 0. 0. 0. 2.80898879e-03 0.
      2.80898879e-03 0. 2.80898879e-03 1.12359552e-02 0. 0. 0. 0. 0. 0.
      0. 0. 2.80898879e-03 0. 8.42696615e-03 0. 0. 0. 0. 0. 0. 0. 0. 0.
      0. 0. 2.80898879e-03 0. 0. 2.80898879e-03 0. 0. 2.80898879e-03 0.
      0. 0. 5.61797759e-03 0. 0. 8.42696615e-03 0. 0. 0. 0. 0. 0. 0. 0.
      0. 0. 0. 0. 0. 0. 0. 0. 0. 5.61797759e-03 0. 5.61797759e-03 0. 0.
      0. 0. 0. 0. 2.80898879e-03 8.42696615e-03 0. 0. 0. 1.68539323e-02
      2.80898879e-03 0. 0. 0. 0. 0. 0. 0. 2.80898879e-03 0. 0. 0. 0. 0.
      0. 0. 0. 5.61797759e-03 0. 0. 0. 0. 0. 0. 0. 0. 0. 0. 0. 0. 0. 0.
      0. 0. 2.80898879e-03 0. 0. 0. 8.42696615e-03 2.80898879e-03 0.
      2.80898879e-03 0. 0. 0. 2.80898879e-03 0. 0. 0. 0. 0. 0. 0. 0.
      1.40449442e-02 2.80898879e-03 2.80898879e-03 0. 0. 0. 0. 0.
      5.61797759e-03 2.80898879e-03 5.61797759e-03 0. 0. 0. 0. 0. 0.
      2.80898879e-03 0. 0. 0. 0. 5.61797759e-03 2.80898879e-03 0. 0. 0.
      0. 2.80898879e-03 0. 0. 0. 0. 2.80898879e-03 0. 0. 0. 0. 0. 0. 0.
      0. 0. 0. 0. 2.80898879e-03 2.80898879e-03 1.12359552e-02 0.
      8.42696615e-03 0. 0. 2.80898879e-03 0. 0. 0. 0. 0. 0.
      2.80898879e-03 0. 0. 0. 0. 1.12359552e-02 0. 0. 0. 2.80898879e-03
      2.80898879e-03 0. 0. 0. 2.80898879e-03 0. 0. 0. 0. 0. 0. 0. 0.
      8.42696615e-03 0. 0. 0. 5.61797759e-03 0. 0. 0. 0. 5.61797759e-03
      0. 2.80898879e-03 0. 0. 5.61797759e-03 0. 0. 0. 0. 0. 0. 0.
      2.80898879e-03 0. 2.80898879e-03 0. 0. 0. 0. 0. 0. 2.80898879e-03
      1.40449442e-02 0. 0. 0. 2.80898879e-03 0. 0. 0. 0. 0.
      5.61797759e-03 0. 0. 5.61797759e-03 0. 0. 0. 0. 0. 5.61797759e-03
      0. 1.12359552e-02 0. 0. 5.61797759e-03 0. 0. 0. 0. 0.
      5.61797759e-03 5.61797759e-03 5.61797759e-03 0. 0. 0.
      5.61797759e-03 0. 0. 0. 0. 0. 8.42696615e-03 0. 0. 0. 0.
      5.61797759e-03 0. 0. 0. 0. 0. 0. 5.61797759e-03 0. 0. 0. 0. 0. 0.
      0. 0. 0. 8.42696615e-03 5.61797759e-03 0. 8.42696615e-03 0. 0. 0.
      0. 8.42696615e-03 0. 0. 0. 0. 0. 0. 0. 2.80898879e-03 0.
      2.80898879e-03 5.61797759e-03 0. 1.12359552e-02 5.61797759e-03 0.
      0. 0. 0. 0. 0. 0. 0. 5.61797759e-03 0. 0. 0. 0. 0. 0. 0. 0. 0.
      2.80898879e-03 2.80898879e-03 0. 2.80898879e-03 0. 0. 0.
      2.80898879e-03 0. 0. 2.80898879e-03 0. 0. 0. 0. 8.42696615e-03 0.
      2.80898879e-03 0. 0. 2.80898879e-03 0. 0. 0. 0. 0. 2.80898879e-03
      0. 0. 0. 0. 0. 2.80898879e-03 0. 0. 0. 0. 2.80898879e-03 0. 0.
      8.42696615e-03 0. 0. 5.61797759e-03 0. 0. 0. 0. 0. 0. 0. 0.
      2.80898879e-03 0. 2.80898879e-03 0. 0. 0. 5.61797759e-03 0.
      8.42696615e-03 0. 2.80898879e-03 0. 0. 0. 0. 0. 0. 0. 0. 0. 0. 0.
      0. 2.80898879e-03 0. 5.61797759e-03 2.80898879e-03 2.80898879e-03
      0. 0. 8.42696615e-03 0. 0. 0. 0. 2.80898879e-03 0. 0. 0.
      1.12359552e-02 0. 5.61797759e-03 0. 0. 0. 0. 0. 0. 0. 0. 0. 0. 0.
      0. 0. 0. 0. 0. 0. 0. 0. 0. 0. 0. 0. 2.80898879e-03 1.40449442e-02
      0. 0. 0. 2.80898879e-03 0. 2.80898879e-03 0. 0. 0. 0. 0.
      2.80898879e-03 0. 0. 0. 2.80898879e-03 0. 0. 0. 0. 0. 0.
      2.80898879e-03 0. 0. 5.61797759e-03 0. 0. 0. 0. 2.80898879e-03 0.
      0. 0. 0. 0. 0. 5.61797759e-03 0. 0. 0. 2.80898879e-03 0. 0.
      2.80898879e-03 5.61797759e-03 0. 0. 0. 0. 0. 0. 0. 0. 0. 0. 0. 0.
      0. 0. 0. 0. 0. 0. 2.80898879e-03 0. 0. 0. 0. 0. 0. 0. 0. 0.
      5.61797759e-03 0. 0. 0. 5.61797759e-03 2.80898879e-03 0. 0. 0. 0.
      0. 5.61797759e-03 5.61797759e-03 0. 0. 2.80898879e-03 0.
      8.42696615e-03 2.80898879e-03 0. 0. 0. 0. 0. 2.80898879e-03
      2.80898879e-03 0. 0. 0. 5.61797759e-03 0. 0. 0. 1.40449442e-02 0.
      0. 0. 0. 0. 0. 0. 2.80898879e-03 0. 0. 0. 0. 0. 0. 0. 0. 0. 0. 0.
      0. 2.80898879e-03 0. 0. 0. 0. 2.80898879e-03 0. 2.80898879e-03 0.
      0. 0. 0. 0. 0. 2.80898879e-03 0. 2.80898879e-03 0. 0. 0. 0. 0. 0.
      0. 0. 2.80898879e-03 0. 2.80898879e-03 0. 0. 0. 2.80898879e-03
      2.80898879e-03 0. 0. 0. 2.80898879e-03 0. 0. 0. 0. 0.
      2.80898879e-03 0. 0. 0. 0. 0. 0. 0. 2.80898879e-03 0. 0. 0. 0. 0.
      0. 0. 0. 0. 0. 0. 0. 0. 0. 0. 2.80898879e-03 0. 0. 0. 0. 0. 0. 0.
      0. 0. 0. 2.80898879e-03 0. 0. 5.61797759e-03 0. 0. 0. 0. 0.
      8.42696615e-03 0. 0. 0. 0. 0. 0. 0. 5.61797759e-03 0.
      8.42696615e-03 0. 0. 0. 5.61797759e-03 0. 0. 0. 0. 0. 0.
      2.80898879e-03 0. 0. 0. 0. 2.80898879e-03 0. 0. 0. 0. 0.
      8.42696615e-03 0. 0. 0. 0. 0. 0. 0. 0. 0. 0. 0. 0. 2.80898879e-03
      0. 0. 0. 2.80898879e-03 0. 0. 0. 0. 0. 0. 0. 1.68539323e-02 0. 0.
      0. 2.80898879e-03 0. 0. 0. 0. 0. 0. 0. 0. 0. 0. 2.80898879e-03 0.
      0. 0. 0. 0. 2.80898879e-03 0. 0. 0. 0. 2.80898879e-03
      1.12359552e-02 0. 0. 0. 1.40449442e-02 8.42696615e-03
      2.80898879e-03 0. 2.80898879e-03 0. 0. 0. 0. 0. 0. 0. 0. 0. 0. 0.
      0. 0. 0. 0. 0. 0. 2.80898879e-03 0. 0. 0. 0. 0. 2.80898879e-03
      5.61797759e-03 0. 0. 0. 0. 0. 8.42696615e-03 0. 0. 0. 0. 0. 0.
      2.80898879e-03 0. 0. 0. 0. 0. 0. 2.80898879e-03 0. 0. 0. 0. 0. 0.
      0. 0. 0. 0. 2.80898879e-03 0. 0. 0. 8.42696615e-03 0. 0.
      2.80898879e-03 0. 0. 0. 0. 0. 0. 0. 0. 0. 0. 0. 0. 0. 0. 0. 0.
      2.80898879e-03 0. 0. 5.61797759e-03 0. 0. 0. 0. 0. 0. 0.
      8.42696615e-03 0. 0. 8.42696615e-03 0. 0. 0. 0. 0. 0.
      5.61797759e-03 0. 0. 0. 0. 0. 0. 0. 0. 0. 0. 0. 0. 0.</_>
    <_>
      0. 0. 1.60513644e-03 3.21027287e-03 9.63081885e-03 0. 0.
      1.60513644e-03 0. 0. 1.60513644e-03 0. 0. 0. 0. 0. 1.60513644e-03
      0. 0. 0. 0. 0. 0. 0. 1.60513644e-03 1.60513644e-03 0. 0. 0. 0. 0.
      0. 1.60513644e-03 1.60513644e-03 0. 0. 0. 0. 0. 3.21027287e-03
      4.81540943e-03 0. 0. 0. 0. 3.21027287e-03 0. 6.42054575e-03
      1.60513644e-03 1.60513644e-03 1.60513644e-03 0. 0. 3.21027287e-03
      0. 0. 0. 1.60513644e-03 0. 0. 4.81540943e-03 0. 0. 0. 0. 0. 0.
      4.81540943e-03 0. 0. 3.21027287e-03 8.02568253e-03 0. 0. 0. 0.
      1.12359552e-02 1.60513644e-03 0. 0. 0. 0. 0. 0. 1.60513644e-03 0.
      0. 0. 0. 0. 1.60513644e-03 0. 0. 0. 1.60513644e-03 2.24719103e-02
      0. 3.21027287e-03 6.42054575e-03 6.42054575e-03 1.60513644e-03 0.
      0. 4.81540943e-03 0. 0. 0. 0. 0. 0. 1.60513644e-03 1.60513644e-03
      0. 0. 0. 0. 0. 4.81540943e-03 0. 0. 1.60513644e-03 0. 0. 0. 0.
      1.60513644e-03 0. 0. 4.81540943e-03 3.21027287e-03 0.
      1.60513644e-03 0. 0. 1.60513644e-03 0. 1.60513644e-03
      4.81540943e-03 0. 0. 0. 0. 0. 0. 0. 0. 1.60513644e-03
      3.21027287e-03 0. 0. 1.60513644e-03 0. 3.21027287e-03 0. 0. 0. 0.
      3.21027287e-03 0. 1.60513644e-03 0. 1.60513644e-03 0.
      3.21027287e-03 8.02568253e-03 0. 0. 0. 0. 4.81540943e-03 0. 0.
