<?xml version="1.0"?>
<opencv_storage>
<opencv_ml_svm>
  <format>3</format>
  <svmType>C_SVC</svmType>
  <kernel>
    <type>LINEAR</type></kernel>
  <C>1.</C>
  <term_criteria><iterations>100</iterations></term_criteria>
  <var_count>1000</var_count>
  <class_count>2</class_count>
  <class_labels type_id="opencv-matrix">
    <rows>2</rows>
    <cols>1</cols>
    <dt>i</dt>
    <data>
      -1 1</data></class_labels>
  <sv_total>1</sv_total>
  <support_vectors>
    <_>
      3.11309099e-03 -4.90417890e-02 4.14216472e-03 3.80124641e-03
      -3.45314443e-02 5.11184195e-03 -7.47437552e-02 1.97459571e-03
      1.39075676e-02 1.19067887e-02 9.58429929e-03 5.89440868e-04
      -2.41588778e-03 2.81291851e-03 -8.53381399e-03 -8.53902381e-03
      -4.17318754e-03 1.27619524e-02 0. 1.46874168e-03 -1.11066947e-04
      3.46238166e-03 3.56581062e-04 -7.26255681e-03 3.21002817e-03
      2.38404935e-03 -2.21391470e-04 6.11572247e-03 0. -4.91310097e-03
      1.16298432e-02 8.12429748e-03 2.36934493e-03 9.18074232e-03
      4.29955591e-03 3.11309099e-03 5.50834113e-04 1.83919892e-02
      8.49484559e-03 -7.63628690e-04 5.07497834e-03 4.62342170e-04
      -2.24211533e-03 6.89008553e-03 3.52504803e-03 3.17324372e-03
      5.96713449e-04 5.12662577e-03 4.02383972e-03 9.37436987e-03
      5.93075994e-03 2.33938098e-02 0. 4.89094248e-03 1.78677142e-02
      -2.67742504e-03 -6.60829153e-03 -4.65065464e-02 -2.14270167e-02
      5.99200139e-03 1.01790223e-02 0. 7.07285199e-03 5.67491865e-04
      5.57059329e-03 7.38112954e-04 2.78316112e-03 8.69554374e-03
      3.93882254e-03 1.29406143e-03 6.42451039e-03 1.84294246e-02
      -2.95566507e-02 1.38803599e-02 -1.87627021e-02 5.03357640e-03
      2.62818113e-02 3.15831834e-03 0. 5.40628936e-03 6.02660468e-03
      -2.47659050e-02 -7.84048289e-02 -2.85685007e-02 7.37201283e-03
      4.99213533e-03 4.12126351e-03 3.81531892e-04 2.04931898e-03
      -7.54172727e-03 3.36047402e-03 3.14325513e-03 1.17888174e-03
      1.45397848e-03 3.73970438e-03 2.42571086e-02 4.24239272e-03
      2.27910280e-03 -7.91090578e-02 1.01031689e-02 -1.62902437e-02
      4.69233235e-03 0. -4.52534221e-02 6.27644872e-03 3.15604010e-03 0.
      2.44406844e-03 9.31082666e-03 -6.96796319e-03 -8.62119067e-03
      1.40757505e-02 -2.55712657e-03 2.31824419e-03 2.40162923e-03
      -1.85233895e-02 5.61151467e-03 6.69695530e-03 1.93793839e-03
      1.81055954e-03 -3.04579098e-05 -3.20000947e-02 -1.92849501e-03
      2.70128017e-03 1.79533218e-03 3.29146464e-03 4.11810848e-04
      -5.80857834e-03 5.90765057e-03 9.24096722e-03 -2.11998355e-02
      1.93374716e-02 4.29955591e-03 9.24312789e-03 3.85155436e-03
      1.79533218e-03 5.05158305e-03 6.13896828e-03 7.66015670e-04
      3.66301602e-03 4.09863796e-03 8.34804680e-03 -6.09734887e-03
      5.78074623e-03 3.81531892e-04 3.81764164e-03 5.04852924e-03
      5.54909417e-03 2.04931898e-03 -4.92610829e-03 4.29642992e-03
      7.63063785e-04 6.09919056e-03 7.04620557e-04 1.48533247e-02
      1.95525065e-02 -1.48300864e-02 1.21871810e-02 9.55590699e-03
      2.17703376e-02 2.61514727e-03 -9.77850780e-02 -4.21389937e-03
      6.82213204e-03 1.24377385e-02 6.45544671e-04 4.11516614e-03
      -6.60361350e-02 -4.25337953e-03 6.33324077e-03 1.17888174e-03
      5.20282751e-03 1.14851519e-02 -9.85698891e-04 -1.11603839e-02
      5.87965641e-03 1.90445669e-02 2.70128017e-03 -1.05397450e-02
      1.21801253e-02 2.33818013e-02 2.84770387e-03 3.19391466e-03
      6.81624794e-03 3.31267831e-03 -4.67289705e-03 1.48581592e-02
      1.49702076e-02 2.69486359e-03 2.91435118e-03 1.58557994e-03
      -4.22807597e-03 1.16076507e-03 6.78823749e-03 9.34146624e-03
      4.14016750e-03 -2.81222891e-02 -4.67289705e-03 1.97459571e-03
      2.18977709e-03 1.17743458e-03 1.30260305e-03 4.49338742e-03
      7.06406171e-03 6.62342645e-04 -1.67395640e-02 0. 1.93292405e-02
      3.94919142e-03 -3.74722644e-03 2.21784506e-02 5.75487083e-03
      2.15181557e-04 3.11487052e-03 7.80263729e-03 -1.03738129e-01
      6.95100927e-04 -4.47837822e-02 -8.90382007e-03 -2.14712578e-03
      -1.41076986e-02 3.81531892e-04 1.17270660e-03 5.75487083e-03
      1.21835303e-02 3.90257267e-03 -9.84217599e-02 1.30260305e-03
      1.79956276e-02 -1.00940969e-02 1.12315984e-02 0. 2.00454798e-02
      6.55604340e-03 -2.18432285e-02 5.37759159e-03 9.03144362e-04
      -5.15463902e-03 -1.56937656e-03 8.87985528e-03 8.76157545e-03
      1.90765946e-03 2.35612760e-03 3.07392748e-03 -4.40082662e-02
      3.56581062e-04 1.79533218e-03 2.63298699e-03 -2.38578836e-03
      -6.64506666e-03 3.79170338e-03 5.00226917e-04 1.24393851e-02
      1.38587831e-03 7.82261603e-03 0. 1.66825280e-02 5.50834113e-04
      3.81531892e-04 9.41751176e-04 1.17888174e-03 3.56581062e-04
      -1.26336645e-05 1.92298088e-03 1.48007032e-02 2.83589517e-03
      2.86926725e-03 8.06560216e-04 2.93488358e-03 2.82240869e-03
      3.94749368e-04 1.30578941e-02 3.64730228e-03 0. -9.66604799e-03
      -6.74475133e-02 -3.94920669e-02 2.76647881e-03 9.45583452e-04
      1.60924485e-03 1.39406335e-03 1.40393656e-02 7.83475116e-03
      1.73719637e-02 -1.65373776e-02 5.89008536e-03 2.46283435e-03
      5.50338812e-03 3.32145975e-03 1.57172792e-03 4.90000285e-03
      5.35898702e-03 9.23064817e-03 1.24965589e-02 1.76615187e-03
      -9.17429477e-03 7.39318412e-03 5.55025088e-03 0. 4.92613669e-03
      6.35624584e-03 3.71556380e-03 1.97983459e-02 1.30163906e-02
      5.38599677e-03 3.94027820e-03 7.89498736e-04 6.48015132e-03
      1.50627096e-03 3.74904810e-03 2.13088980e-03 6.39495580e-03
      3.69491708e-03 0. 1.00419912e-02 -1.45281423e-02 4.30363114e-04
      2.15181557e-04 1.34206479e-02 1.06288427e-02 1.79265570e-02
      2.61681085e-03 -2.23153882e-04 1.49690593e-03 5.38599677e-03
      4.70465794e-03 5.52294636e-03 -2.81178690e-02 5.38599677e-03
      4.03058529e-03 -2.87793372e-02 3.24869086e-03 8.05517379e-03
      1.13389641e-02 7.85235781e-03 1.13955140e-03 5.50834113e-04
      3.46708149e-02 -9.97591857e-03 2.99952133e-03 2.54028346e-02
      5.16240997e-03 -2.04312745e-02 2.37041619e-03 4.44504851e-03
      1.47175845e-02 4.35864506e-03 1.05241342e-02 2.31620693e-03
      -2.05758084e-02 4.53907577e-03 1.35023529e-02 1.53473928e-03
      5.19984681e-03 -1.11276489e-02 4.88278316e-03 2.67146691e-03
      5.26459329e-03 4.08435473e-03 -6.37690304e-03 4.84569743e-03
      1.44944352e-03 -3.03400611e-03 7.71290250e-03 2.98198638e-03
      9.38793411e-04 -1.55025627e-02 2.48725824e-02 6.06301147e-03
      1.17743458e-03 6.06175419e-03 1.79533218e-03 -4.38285545e-02
      2.88082026e-02 1.03659155e-02 5.10414317e-03 -5.99266961e-03
      -4.33739088e-03 4.09863796e-03 1.50296800e-02 -2.09085755e-02 0.
      4.45521902e-03 1.79533218e-03 2.04931898e-03 7.06780329e-03
      -3.39247985e-03 2.77357758e-03 9.69053619e-03 -4.14921045e-02
      1.35014334e-03 7.93072861e-03 -5.71987741e-02 3.56293120e-03
      5.88717288e-04 3.56581714e-03 7.13162124e-04 4.90832841e-03
      9.23360791e-03 1.72971585e-03 1.13550788e-02 9.81753971e-03
      3.12872813e-03 -8.95522942e-04 2.97421403e-03 3.02872551e-03 0.
      4.36577480e-03 1.04886135e-02 -2.99541629e-03 -2.57731955e-02
      7.43424194e-03 3.78440111e-03 2.38477299e-03 -3.20037361e-03 0.
      6.23498810e-03 5.50834113e-04 2.01051380e-03 2.32203025e-03
      7.69857317e-03 -9.92293842e-03 -5.35512110e-03 -7.27853552e-02
      -1.48682380e-02 -9.38382372e-03 3.67024960e-03 5.43988077e-03
      2.67921621e-03 -3.37314196e-02 1.35931214e-02 2.83334800e-03
      8.93317454e-04 -1.27877304e-02 4.09863796e-03 2.37734104e-03
      -5.41591421e-02 1.38044320e-02 4.69175307e-03 6.45544671e-04
      8.60242825e-03 7.89284520e-03 2.15181557e-04 5.63998334e-03
      -7.55999377e-03 -3.30419205e-02 2.40162923e-03 5.38599677e-03
      2.76248110e-03 4.09863796e-03 3.14783677e-03 -6.32504597e-02 0.
      5.99200139e-03 2.78808014e-03 9.92514566e-03 -8.89866799e-03
      2.81383260e-03 4.45521902e-03 8.03898845e-04 -1.88752580e-02
      9.53294511e-04 1.79533218e-03 -5.53962886e-02 4.69233235e-03 0.
      4.09863796e-03 2.20874907e-03 3.56581062e-04 4.09863796e-03
      1.11998897e-02 3.46487644e-03 3.59066436e-03 2.28902278e-03
      7.13162124e-04 1.40082445e-02 -2.58249510e-03 1.83551037e-03
      2.35776347e-03 1.12588564e-02 7.15627242e-03 7.04620557e-04
      5.65950666e-03 3.94749368e-04 5.73830726e-03 2.44087679e-03
      -2.90432386e-03 -3.86061817e-02 -2.84366589e-03 7.82673422e-04
      1.41233904e-03 2.77175661e-03 1.07720969e-02 1.76832266e-03
      2.35375855e-03 8.23621696e-04 7.13463128e-03 9.95640364e-03
      5.90967480e-03 7.18132872e-03 4.19438304e-03 -5.67800179e-02
      -2.72229258e-02 5.82941016e-03 2.32946873e-03 3.84155521e-03
      -1.58213098e-02 8.04792531e-03 8.39339569e-03 -3.42042819e-02
      -7.10698636e-03 9.44616552e-03 5.56738162e-03 1.74948236e-03
      -7.61138275e-02 6.18428038e-03 3.20280134e-03 1.81334850e-03
      -1.39694717e-02 -6.30218238e-02 1.35977718e-03 1.95623506e-02
      5.06635103e-03 8.68358929e-03 8.00413825e-03 2.70128017e-03
      4.18217946e-03 6.24760380e-03 -9.45479516e-03 3.09602963e-03
      -4.21434306e-02 0. 7.04620557e-04 4.72408487e-03 8.98744632e-03
      -5.54893923e-05 -1.33314431e-02 1.86473201e-03 8.41835607e-03
      5.12788398e-03 -4.50240783e-02 3.88552831e-03 7.30170822e-03
      7.71042192e-03 -2.37780325e-02 8.54034256e-03 5.82293281e-03
      6.94380747e-03 4.68377257e-03 7.97310565e-03 0. 1.41309528e-02
      -4.48535159e-02 -3.54940118e-03 2.86781997e-03 -2.54719462e-02
      4.93765436e-03 7.13162124e-04 4.66315215e-03 -5.08783991e-03
      -3.81697598e-03 8.52387212e-03 1.23877088e-02 4.13062144e-03
      8.69554374e-03 -1.03092780e-02 6.91893697e-03 3.54365027e-03
      -8.82841647e-02 5.08252578e-03 4.09273850e-03 4.08565626e-03
      -1.23139285e-03 2.10291985e-03 0. -3.11778346e-03 4.52391214e-05
      1.28220525e-02 3.48892692e-03 6.71751564e-03 6.53642137e-03 0.
      -1.46125136e-02 3.94297484e-03 3.81531892e-04 -4.67289705e-03 0.
      1.30541157e-02 1.97459571e-03 3.04568070e-03 5.29971393e-03
      8.69554374e-03 8.25107191e-03 1.14355478e-02 1.14332065e-02
      2.77822893e-02 5.92801580e-03 6.46896847e-03 1.31684972e-03 0.
      6.00234931e-03 3.16105434e-03 1.07972305e-02 1.67925265e-02
      -1.85684289e-03 4.30363114e-04 8.34230334e-03 0. 6.50026742e-03
      5.96713449e-04 1.76250201e-03 1.28492480e-03 6.42340397e-03
      6.03154162e-03 3.12731392e-03 0. 1.16885742e-02 1.33161293e-03
      4.91183624e-03 2.97548771e-02 1.50650484e-03 3.56581062e-04
      1.79533218e-03 3.81531892e-04 2.36432417e-03 8.60910490e-03
      1.76832266e-03 4.97654267e-03 4.15338529e-03 9.45583452e-04
      5.50687127e-03 6.58430764e-03 1.83829980e-03 5.89440868e-04
      -1.91556513e-02 -3.95424850e-02 3.15726548e-03 9.52162314e-03
      3.47975129e-03 -1.93499844e-03 1.31578948e-02 9.98985581e-03
      8.11441056e-03 2.76558124e-03 7.80418981e-03 3.32827261e-03
      -4.65180464e-02 2.15181557e-04 4.14149836e-03 7.53985578e-03
      4.30363114e-04 -3.65296789e-02 1.57172792e-03 2.38364097e-03
      4.79991781e-03 6.36273669e-03 1.34033279e-03 -3.19453180e-02
      6.17055548e-03 -6.65875301e-02 -1.77364051e-02 1.72899221e-03 0.
      5.55025088e-03 -7.86014274e-03 1.78286782e-03 1.33275101e-02
      3.91965127e-03 7.89976399e-03 5.78265265e-03 -1.79941338e-02
      3.17430915e-03 0. 2.77175661e-03 3.74157424e-03 3.51107842e-03
      -1.50375944e-02 3.02029168e-03 3.14401300e-03 6.90444047e-03
      1.14027492e-03 5.50834113e-04 5.43966331e-03 1.46768875e-02
      7.14585651e-03 4.30363114e-04 1.52253953e-03 -6.96796319e-03
      4.84892260e-03 2.15455331e-02 6.70138048e-03 1.15991710e-03
      4.99769812e-03 1.17743458e-03 -3.85209136e-02 -7.05368593e-02
      5.89440868e-04 8.12091865e-03 2.26422749e-03 9.26245190e-03
      9.22020245e-03 -2.96214595e-03 3.05965869e-03 7.29210954e-03
      -5.15463902e-03 2.90608057e-03 -5.19130426e-03 -1.58969051e-04
      1.86578929e-03 8.62636603e-03 0. -5.15463902e-03 -1.61343850e-02
      7.90251326e-03 1.58060193e-02 1.79533218e-03 3.89136351e-03
      1.57502387e-02 1.17888174e-03 4.30363114e-04 3.52310279e-04
      1.08615239e-03 3.78559344e-04 7.18102092e-03 0. -4.21389937e-03 0.
      0. 3.94749368e-04 3.94919142e-03 -2.30064895e-02 -1.72972642e-02
      3.88761517e-03 -1.74040289e-03 4.40544635e-03 0. 6.27609715e-03
      3.53777222e-03 -3.13144806e-03 1.19101983e-02 5.93683077e-03
      5.58647374e-03 -1.13671683e-02 1.01840338e-02 -4.65325825e-03
      1.30537795e-02 3.05786123e-03 0. 0. 7.44929118e-03 4.91998717e-03
      1.53967394e-02 7.04620557e-04 1.17888174e-03 3.52310279e-04
      3.26333917e-04 1.38587831e-03 3.81531892e-04 -4.41505015e-02 0.
      2.18013348e-03 4.43099625e-03 8.91420431e-03 5.89440868e-04 0.
      2.35776347e-03 0. 2.60015298e-03 5.89440868e-04 6.10138942e-03
      6.99075824e-03 4.15026350e-03 3.42082488e-03 1.84249468e-02
      -1.03092780e-02 1.04231434e-02 -4.98654088e-03 0. 2.15905858e-03
      5.52209886e-03 4.11810848e-04 5.50834113e-04 1.73884146e-02
      2.02455348e-03 2.43085087e-03 5.76974265e-03 1.27449175e-02
      2.81238277e-03 1.42676774e-02 1.06351040e-02 5.26564196e-03
      2.27825157e-03 3.03838053e-03 1.14459568e-03 9.84190265e-04
      5.82022592e-03 9.26884823e-03 6.45544671e-04 6.57832017e-03
      1.79533218e-03 2.95609725e-03 1.12736858e-02 2.15181557e-04
      5.52537618e-03 4.70153056e-03 4.07626387e-03 2.22569541e-03
      7.63063785e-04 8.25597253e-03 3.80584598e-03 3.52310279e-04
      8.10384098e-03 7.12978141e-03 3.56581062e-04 1.98259181e-03 0.
      7.86944176e-04 1.17815810e-03 1.21348929e-02 5.60437096e-03
      1.61312043e-03 3.44783440e-03 5.50834113e-04 -3.97172524e-03
      5.50834113e-04 2.87286425e-03 3.56581062e-04 1.21900449e-02
      1.35356199e-03 4.33235895e-03 4.19627735e-03 1.60779769e-03 0.
      -9.85221658e-03 7.04620557e-04 9.49798524e-03 4.59480938e-03
      2.15181557e-04 2.53344513e-03 0. 3.56581062e-04 -3.91662680e-03
      -7.65940081e-03 0. -1.19354539e-02 -4.66619395e-02 1.53546280e-03
      7.04620557e-04 5.40256035e-03 1.16256904e-03 1.32275075e-02
      7.82673422e-04 9.96588171e-03 0. -3.44732456e-04 1.24812946e-02
      1.07372887e-02 0. 2.12983158e-03 0. 2.04931898e-03 1.15693267e-03
      6.57894742e-03 1.34172747e-02 1.30264554e-02 4.79784794e-03 0.
      5.89440868e-04 2.03554425e-02 0. 0. 2.82440986e-03 1.24828611e-02
      1.97673286e-03 8.30617547e-03 2.68133101e-03 2.22446490e-03
      -4.04318515e-03 7.04620557e-04 5.78074623e-03 -1.64881384e-03
      1.02451034e-02 1.14459568e-03 3.81531892e-04 1.17743458e-03
      9.32366005e-04 0. 1.03109917e-02 1.79533218e-03 3.36047402e-03
      5.50834113e-04 3.47564323e-03 3.52310279e-04 3.64730228e-03
      -2.33644852e-03 5.34002250e-03 8.53676628e-03 5.15525881e-03
      9.46612656e-03 -5.21311676e-03 6.69289147e-03 0. 2.24296730e-02
      6.82810741e-03 1.39625175e-02 1.31578948e-02 4.45094844e-03
      1.79533218e-03 2.61681085e-03 2.78316112e-03 3.93735571e-03
      2.09049881e-03 7.76538439e-03 7.13162124e-04 0. 7.48209190e-03
      -2.30019465e-02 8.22164118e-04 0. 0. 3.56581062e-04 5.38599677e-03
      3.84465116e-03 2.78316112e-03 9.00437226e-05 0. 0. 9.05015506e-03
      -5.16852830e-03 5.34004020e-03 -3.63292475e-03 7.03900447e-03
      4.87884320e-03 5.63998334e-03 1.14673004e-02 4.53790836e-03
      5.50834113e-04 0. -2.08519343e-02 7.13040167e-03 1.97531912e-03
      3.81531892e-04 -1.59129463e-02 6.29194453e-03 1.38587831e-03
      3.19391466e-03 4.63966839e-03 -7.11647153e-05 3.67152947e-03
      -1.49236664e-01 3.56581062e-04 2.06431304e-03 7.66351400e-03
      -1.24911498e-02 9.19802114e-04 3.39162466e-03 4.98328032e-03
      3.56581062e-04 -2.09634751e-02 0. 4.86244913e-03 5.89440868e-04
      5.50834113e-04 1.00125175e-03 1.10600432e-02 5.12788398e-03
      2.31983420e-03 9.08716861e-03 9.94631182e-03 4.08715848e-03
      3.56581062e-04 2.47968221e-03 1.59069255e-03 -1.90362055e-02
      -5.33899642e-04 -2.47411914e-02 2.32203025e-03 1.75070111e-02
      7.52069848e-03 7.68845947e-03 5.50834113e-04 9.79302684e-04
      1.08329225e-02 0. -7.51879718e-03 9.97854979e-04 1.90333871e-03
      -1.40377935e-02 -4.63777110e-02 1.01713184e-02 9.02791321e-03 0.
      0. 4.09863796e-03 -6.22718967e-02 -3.74785513e-02 -7.10725691e-03
      4.03051404e-03 7.13162124e-04 1.86453760e-03</_></support_vectors>
  <uncompressed_sv_total>21</uncompressed_sv_total>
  <uncompressed_support_vectors>
    <_>
      0. 0. 0. 0. 4.56620986e-03 0. 4.56620986e-03 0. 0. 0. 0. 0. 0. 0.
      0. 4.56620986e-03 0. 0. 0. 0. 4.56620986e-03 0. 0. 0. 0. 0. 0. 0.
      0. 0. 0. 0. 0. 0. 0. 0. 0. 4.56620986e-03 0. 0. 0. 0. 0. 0. 0. 0.
      0. 0. 0. 0. 0. 0. 0. 0. 0. 0. 4.56620986e-03 4.56620986e-03
      9.13241971e-03 0. 0. 0. 0. 0. 0. 0. 0. 0. 0. 0. 0. 0. 0. 0. 0. 0.
      0. 0. 0. 0. 0. 0. 1.36986300e-02 2.73972601e-02 0. 0. 0. 0. 0.
      9.13241971e-03 0. 0. 0. 0. 0. 0. 0. 0. 5.47945201e-02 0.
      1.82648394e-02 0. 0. 9.13241971e-03 0. 0. 0. 0. 0. 0. 0. 0.
      4.56620986e-03 0. 0. 0. 0. 0. 0. 0. 0. 0. 0. 0. 0. 0. 0. 0. 0. 0.
      9.13241971e-03 0. 0. 0. 0. 0. 0. 0. 0. 0. 0. 0. 0. 0. 0. 0. 0. 0.
      0. 0. 0. 0. 0. 0. 0. 0. 4.56620986e-03 4.56620986e-03 0. 0. 0.
      4.56620986e-03 4.56620986e-03 0. 0. 0. 0. 1.36986300e-02 0. 0. 0.
      0. 0. 4.56620986e-03 0. 0. 0. 0. 0. 0. 0. 0. 0. 0. 0. 0. 0. 0. 0.
      0. 0. 0. 0. 0. 0. 0. 0. 0. 0. 0. 0. 0. 0. 0. 9.13241971e-03 0. 0.
      0. 0. 0. 0. 0. 0. 0. 0. 2.73972601e-02 0. 9.13241971e-03
      4.56620986e-03 0. 0. 0. 4.56620986e-03 0. 0. 0. 1.36986300e-02 0.
      1.36986300e-02 0. 0. 0. 0. 0. 0. 0. 0. 0. 0. 0. 0. 0. 0. 0.
      1.82648394e-02 0. 0. 0. 0. 4.56620986e-03 0. 4.56620986e-03 0. 0.
      0. 0. 0. 0. 0. 0. 0. 0. 0. 0. 0. 0. 0. 0. 0. 0. 0. 0. 0. 0. 0.
      1.82648394e-02 0. 0. 0. 0. 0. 0. 0. 0. 4.56620986e-03 0. 0. 0. 0.
      0. 0. 0. 0. 0. 0. 0. 0. 0. 0. 0. 0. 0. 0. 0. 0. 0. 0. 0. 0. 0. 0.
      4.56620986e-03 0. 0. 0. 0. 0. 0. 0. 0. 0. 0. 0. 0. 0. 0. 0.
      9.13241971e-03 0. 0. 4.56620986e-03 0. 0. 0. 0. 0. 0. 0. 0. 0.
      1.36986300e-02 0. 4.56620986e-03 0. 0. 0. 0. 0. 0. 2.73972601e-02
      0. 0. 0. 0. 0. 0. 0. 0. 0. 0. 0. 0. 0. 0. 0. 0. 0. 0. 0. 0. 0. 0.
      0. 0. 0. 0. 0. 0. 0. 0. 0. 0. 0. 0. 0. 0. 0. 0. 0. 0.
      4.56620986e-03 0. 1.36986300e-02 0. 0. 0. 0. 0. 0. 0. 0. 0. 0. 0.
      0. 0. 0. 0. 0. 0. 0. 0. 0. 0. 4.56620986e-03 0. 0. 0. 0. 0. 0. 0.
      0. 0. 0. 0. 0. 0. 0. 4.56620986e-03 0. 0. 0. 4.56620986e-03 0. 0.
      0. 4.56620986e-03 0. 0. 0. 0. 0. 0. 0. 4.56620986e-03 0. 0. 0. 0.
      0. 0. 0. 0. 0. 0. 0. 0. 0. 0. 1.36986300e-02 0. 0. 0. 0. 0. 0. 0.
      0. 0. 0. 0. 0. 0. 0. 0. 0. 0. 0. 0. 0. 0. 0. 0. 0. 0.
      4.56620986e-03 4.56620986e-03 0. 0. 0. 0. 0. 0. 0. 0. 0. 0. 0. 0.
      0. 4.10958901e-02 0. 0. 0. 0. 0. 0. 0. 2.73972601e-02 0. 0. 0. 0.
      3.65296789e-02 0. 9.13241971e-03 0. 1.82648394e-02 4.56620986e-03
      0. 0. 0. 0. 0. 0. 0. 0. 0. 0. 0. 0. 0. 0. 0. 0. 0. 0. 0. 0. 0. 0.
      0. 0. 4.56620986e-03 0. 0. 0. 0. 0. 0. 0. 0. 0. 0. 9.13241971e-03
      0. 0. 0. 0. 0. 0. 0. 0. 0. 0. 0. 0. 3.19634676e-02 0. 0. 0. 0. 0.
      0. 0. 4.56620986e-03 0. 0. 0. 0. 0. 0. 0. 0. 0. 0. 9.13241971e-03
      0. 0. 0. 0. 0. 4.56620986e-03 0. 0. 0. 0. 0. 0. 0. 0. 0. 0. 0. 0.
      0. 0. 0. 0. 0. 0. 0. 0. 0. 0. 0. 0. 0. 0. 0. 0. 0. 0. 0. 0. 0. 0.
      0. 0. 0. 0. 9.13241971e-03 0. 4.56620986e-03 4.56620986e-03 0. 0.
      0. 0. 0. 0. 0. 0. 0. 0. 0. 0. 0. 0. 0. 3.65296789e-02 0. 0. 0. 0.
      0. 9.13241971e-03 0. 0. 0. 0. 0. 0. 0. 0. 0. 0. 0. 4.56620986e-03
      0. 0. 0. 0. 0. 0. 0. 0. 0. 0. 0. 0. 0. 0. 0. 0. 0. 0. 0.
      4.56620986e-03 4.56620986e-03 0. 0. 0. 0. 9.13241971e-03 0. 0. 0.
      0. 0. 0. 0. 0. 0. 0. 0. 0. 0. 0. 0. 0. 1.36986300e-02 0. 0. 0. 0.
      0. 0. 0. 0. 0. 0. 0. 0. 4.56620986e-03 0. 0. 0. 0. 0. 0. 0. 0. 0.
      0. 0. 0. 0. 0. 0. 0. 1.36986300e-02 0. 0. 9.13241971e-03 0. 0. 0.
      0. 0. 0. 0. 0. 0. 4.56620986e-03 0. 0. 1.82648394e-02 0. 0. 0. 0.
      0. 0. 0. 0. 0. 0. 0. 0. 0. 0. 0. 0. 0. 0. 0. 0. 0. 0. 0. 0. 0. 0.
      0. 0. 0. 0. 4.56620986e-03 0. 0. 0. 0. 0. 0. 0. 0. 0. 0. 0. 0. 0.
      0. 0. 0. 0. 0. 0. 0. 0. 0. 0. 0. 0. 0. 0. 0. 0. 0. 0. 0. 0. 0. 0.
      0. 0. 0. 0. 0. 0. 0. 0. 0. 0. 0. 0. 0. 0. 0. 0. 0. 0. 0. 0.
      2.28310488e-02 0. 0. 0. 0. 0. 0. 0. 0. 0. 0. 0. 0. 0. 0. 0. 0. 0.
      0. 0. 0. 0. 0. 0. 0. 0. 0. 0. 0. 0. 4.56620986e-03 0. 0. 0. 0. 0.
      0. 0. 0. 0. 0. 0. 0. 0. 0. 0. 0. 0. 0. 0. 0. 0. 0. 0. 0. 0. 0. 0.
      0. 0. 0. 0. 0. 0. 0. 0. 0. 0. 0. 0. 0. 1.36986300e-02 0. 0. 0. 0.
      0. 0. 0. 4.56620986e-03 0. 0. 0. 0. 0. 0. 0. 0. 0. 0. 0. 0. 0. 0.
      0. 0. 0. 4.56620986e-03 0. 0. 0. 0. 0. 0. 9.13241953e-02 0. 0. 0.
      0. 0. 0. 0. 0. 0. 0. 0. 0. 0. 0. 0. 0. 0. 0. 0. 0. 0. 0. 0. 0. 0.
      4.56620986e-03 0. 0. 0. 0. 0. 0. 0. 0. 0. 0. 0. 0. 0. 0. 0. 0. 0.
      0. 1.36986300e-02 0. 0. 0. 0. 0.</_>
    <_>
      0. 0. 0. 0. 0. 0. 0. 0. 0. 0. 0. 0. 0. 0. 5.15463902e-03 0. 0. 0.
      0. 0. 1.03092780e-02 0. 0. 0. 0. 0. 0. 0. 0. 0. 0. 0. 0. 0. 0. 0.
      0. 5.15463902e-03 0. 0. 0. 0. 5.15463902e-03 0. 0. 0. 0. 0. 0. 0.
      0. 0. 0. 0. 1.03092780e-02 5.15463902e-03 5.15463902e-03 0.
      2.06185561e-02 0. 5.15463902e-03 0. 0. 0. 0. 0. 0. 0. 0. 0. 0. 0.
      0. 0. 0. 0. 0. 0. 0. 0. 0. 0. 0. 0. 5.15463902e-03 0. 0. 0. 0. 0.
      0. 0. 0. 0. 0. 5.15463902e-03 0. 0. 5.15463902e-03 0. 0. 0. 0. 0.
      0. 0. 0. 0. 0. 0. 1.03092780e-02 0. 0. 0. 0. 1.03092780e-02 0. 0.
      0. 0. 0. 0. 0. 0. 0. 0. 0. 0. 0. 0. 0. 0. 0. 0. 0. 0. 0. 0. 0. 0.
      0. 5.15463902e-03 0. 0. 0. 0. 0. 0. 0. 0. 0. 0. 0. 0. 0. 0. 0. 0.
      0. 0. 0. 6.18556663e-02 0. 0. 0. 0. 0. 5.15463902e-03 0. 0. 0. 0.
      0. 0. 0. 0. 0. 0. 1.54639166e-02 0. 0. 0. 0. 0. 0. 0. 0. 0. 0.
      5.15463902e-03 0. 0. 0. 0. 0. 0. 0. 0. 0. 0. 0. 0. 0. 0.
      5.15463902e-03 5.15463902e-03 0. 5.15463902e-03 0. 0. 0. 0. 0. 0.
      0. 0. 0. 0. 5.15463902e-03 0. 0. 0. 0. 0. 0. 0. 0. 0. 0.
      1.03092780e-02 0. 0. 0. 0. 0. 0. 0. 5.15463902e-03 1.03092780e-02
      0. 0. 0. 0. 0. 0. 0. 0. 5.15463902e-03 5.15463902e-03 0. 0. 0. 0.
      0. 0. 0. 0. 0. 0. 0. 0. 0. 0. 0. 0. 0. 0. 0. 0. 0. 0. 0. 0. 0.
      1.03092780e-02 2.06185561e-02 0. 0. 0. 0. 0. 0. 0. 0.
      5.15463902e-03 0. 0. 0. 0. 0. 0. 0. 0. 0. 0. 1.03092780e-02 0. 0.
      0. 0. 0. 0. 0. 0. 0. 0. 0. 0. 0. 0. 0. 0. 0. 0. 0. 0. 0. 0. 0. 0.
      0. 0. 0. 0. 0. 0. 5.15463902e-03 0. 0. 0. 0. 0. 0. 0. 0. 0. 0. 0.
      0. 0. 0. 0. 0. 0. 0. 0. 0. 0. 0. 0. 5.15463902e-03 0. 0. 0. 0. 0.
      0. 0. 0. 0. 0. 0. 5.15463902e-03 0. 0. 0. 0. 0. 0. 0. 0. 0. 0. 0.
      0. 0. 0. 0. 0. 0. 0. 0. 0. 0. 0. 0. 0. 0. 0. 0. 0. 0. 0. 0. 0. 0.
      0. 0. 0. 0. 0. 0. 0. 0. 0. 0. 0. 0. 0. 1.03092780e-02
      2.57731955e-02 0. 0. 0. 0. 0. 6.70103058e-02 0. 0. 0. 0. 0. 0.
      7.21649453e-02 0. 0. 0. 0. 0. 5.15463902e-03 0. 0. 0. 0. 0. 0.
      2.06185561e-02 0. 0. 0. 0. 0. 0. 0. 0. 0. 0. 0. 0. 0. 0. 0. 0. 0.
      0. 0. 0. 0. 0. 0. 0. 0. 0. 0. 0. 0. 0. 0. 0. 0. 0. 0. 0. 0. 0. 0.
      0. 0. 0. 0. 0. 0. 0. 0. 0. 0. 5.15463902e-03 0. 1.03092780e-02 0.
      0. 0. 0. 0. 0. 0. 0. 0. 0. 0. 0. 0. 0. 0. 0. 0. 1.54639166e-02 0.
      0. 1.03092780e-02 0. 0. 0. 0. 2.06185561e-02 0. 0. 0. 0.
      9.27835032e-02 0. 0. 0. 0. 0. 0. 0. 0. 0. 0. 0. 0. 0. 0.
      5.15463902e-03 0. 0. 0. 0. 0. 0. 0. 0. 5.15463902e-03 0. 0. 0. 0.
      0. 0. 0. 0. 0. 5.15463902e-03 0. 0. 0. 0. 0. 0. 0. 0. 0. 0. 0.
      1.03092780e-02 0. 0. 0. 0. 0. 0. 0. 0. 0. 0. 0. 0. 0. 0. 0. 0. 0.
      0. 0. 0. 0. 5.15463902e-03 0. 5.15463902e-03 0. 0. 0.
      2.57731955e-02 5.15463902e-03 0. 0. 5.15463902e-03 0. 0. 0. 0. 0.
      0. 0. 0. 0. 0. 0. 0. 0. 0. 0. 0. 1.54639166e-02 0. 0. 0. 0. 0. 0.
      0. 0. 0. 5.15463902e-03 0. 0. 0. 0. 0. 0. 0. 0. 0. 5.15463902e-03
      0. 0. 0. 0. 1.03092780e-02 0. 0. 0. 0. 0. 0. 0. 0. 0. 0. 0. 0. 0.
      0. 0. 0. 0. 0. 0. 3.09278332e-02 4.63917516e-02 0. 0. 0.
      5.15463902e-03 0. 0. 0. 0. 0. 0. 0. 0. 0. 0. 0. 0. 0. 0. 0. 0. 0.
      0. 0. 5.15463902e-03 0. 0. 0. 0. 0. 0. 0. 0. 0. 0. 5.15463902e-03
      0. 0. 0. 0. 0. 0. 5.15463902e-03 0. 5.15463902e-03 0. 0. 0. 0. 0.
      0. 5.15463902e-03 5.15463902e-03 0. 0. 0. 0. 0. 0. 0. 0. 0. 0. 0.
      0. 0. 0. 0. 0. 0. 0. 2.06185561e-02 0. 0. 0. 0. 0. 0. 0. 0. 0. 0.
      0. 0. 0. 0. 0. 0. 0. 0. 0. 0. 0. 0. 0. 0. 0. 0. 0. 0. 0. 0. 0. 0.
      0. 0. 0. 0. 0. 0. 0. 0. 0. 0. 1.03092780e-02 0. 1.03092780e-02 0.
      0. 0. 0. 0. 0. 0. 0. 0. 0. 0. 0. 0. 0. 0. 0. 0. 0. 0. 0. 0. 0. 0.
      0. 0. 0. 0. 0. 0. 0. 0. 0. 0. 0. 0. 0. 0. 0. 0. 0. 0. 0. 0. 0. 0.
      0. 0. 0. 0. 0. 0. 0. 0. 0. 0. 0. 0. 0. 0. 0. 0. 0. 0. 0. 0. 0. 0.
      0. 5.15463902e-03 0. 0. 0. 5.15463902e-03 0. 0. 0. 0. 0. 0. 0. 0.
      0. 0. 0. 0. 0. 0. 0. 0. 0. 0. 0. 0. 0. 0. 0. 0. 0. 5.15463902e-03
      0. 0. 0. 0. 0. 0. 0. 0. 0. 0. 0. 0. 0. 0. 0. 0. 0. 0. 0. 0. 0. 0.
      0. 0. 0. 0. 0. 0. 0. 0. 0. 0. 0. 0. 0. 0. 0. 0. 0. 0.
      5.15463902e-03 0. 0. 0. 0. 0. 0. 0. 0. 0. 0. 0. 0. 0. 0. 0. 0. 0.
      0. 0. 0. 0. 0. 0. 0. 0. 0. 0. 0. 0. 0. 0. 0. 5.15463902e-03 0. 0.
      0. 1.54639166e-02 0. 0. 0. 0. 1.03092780e-02 0. 0. 0. 0. 0. 0. 0.
      0. 0. 0. 0. 0. 0. 0. 0. 0. 0. 0. 0. 0. 0. 0. 0. 0. 0. 0. 0. 0.
      5.15463902e-03 0. 0. 0. 0. 0. 0. 0. 0. 5.15463902e-03 0. 0. 0.</_>
    <_>
      0. 0. 0. 0. 2.85714306e-02 0. 2.85714306e-02 0. 0. 0. 0. 0. 0. 0.
      0. 0. 4.76190494e-03 0. 0. 0. 0. 0. 0. 0. 0. 0. 0. 0. 0.
      4.76190494e-03 0. 0. 0. 0. 0. 0. 0. 0. 0. 0. 0. 0. 0. 0. 0. 0. 0.
      0. 0. 0. 0. 0. 0. 0. 0. 0. 0. 2.85714306e-02 0. 0. 4.76190494e-03
      0. 0. 0. 0. 0. 0. 0. 0. 0. 0. 4.76190494e-03 0. 0. 0. 0. 0. 0. 0.
      0. 0. 0. 1.90476198e-02 4.76190494e-03 0. 0. 4.76190494e-03 0. 0.
      0. 0. 0. 0. 0. 0. 0. 0. 0. 1.42857153e-02 0. 0. 0. 0.
      2.85714306e-02 0. 0. 0. 0. 0. 0. 0. 0. 0. 0. 0. 0. 0. 0. 0. 0.
      4.76190494e-03 0. 0. 0. 0. 0. 0. 0. 0. 0. 9.52380989e-03 0. 0. 0.
      0. 0. 0. 0. 0. 0. 0. 0. 4.76190494e-03 0. 0. 0. 0. 0. 0. 0. 0. 0.
      0. 0. 0. 0. 4.76190494e-03 0. 4.76190494e-03 4.76190494e-03 0.
      9.52380989e-03 0. 0. 0. 0. 0. 4.76190494e-03 0. 0. 0. 0. 0. 0. 0.
      0. 0. 0. 0. 0. 0. 0. 0. 0. 0. 0. 0. 0. 0. 0. 0. 0. 0. 0. 0. 0.
      1.42857153e-02 0. 0. 0. 0. 0. 0. 0. 4.76190494e-03 9.52380989e-03
      0. 0. 0. 0. 4.76190494e-03 0. 0. 0. 0. 5.71428612e-02 0.
      3.33333351e-02 0. 0. 4.76190494e-03 0. 0. 0. 0. 0. 6.19047657e-02
      0. 4.76190494e-03 0. 0. 0. 0. 0. 0. 0. 0. 0. 0. 0. 0. 0. 0. 0. 0.
      0. 0. 0. 0. 9.52380989e-03 0. 0. 0. 0. 0. 0. 0. 0. 0. 0. 0. 0. 0.
      0. 0. 0. 0. 0. 0. 0. 0. 0. 0. 0. 4.76190494e-03 2.85714306e-02
      1.42857153e-02 0. 0. 0. 0. 0. 0. 0. 0. 0. 0. 0. 0. 0. 0. 0. 0. 0.
      0. 0. 0. 0. 0. 0. 0. 0. 0. 0. 0. 0. 0. 0. 0. 0. 0. 0. 0. 0. 0. 0.
      0. 0. 0. 0. 0. 0. 0. 0. 0. 0. 0. 9.52380989e-03 0. 0.
      4.76190494e-03 0. 0. 0. 0. 0. 0. 0. 4.76190494e-03 0. 0. 0. 0. 0.
      0. 0. 0. 0. 0. 1.90476198e-02 0. 0. 0. 0. 0. 0. 0. 0. 0.
      4.76190494e-03 0. 0. 0. 0. 0. 0. 0. 0. 0. 0. 0. 0. 0. 0. 0. 0. 0.
      0. 0. 0. 9.52380989e-03 0. 0. 0. 0. 0. 0. 0. 0. 0. 0. 0.
      9.52380989e-03 0. 0. 0. 0. 0. 0. 0. 0. 0. 0. 0. 0. 0. 0. 0. 0. 0.
      0. 0. 0. 0. 0. 0. 0. 0. 0. 0. 0. 4.76190494e-03 0. 4.76190494e-03
      1.90476198e-02 0. 4.76190494e-03 0. 0. 9.52380989e-03 0. 0. 0. 0.
      0. 0. 1.42857153e-02 0. 0. 0. 0. 0. 0. 0. 9.52380989e-03
      4.76190485e-02 0. 0. 0. 0. 0. 0. 0. 0. 4.76190494e-03 0. 0. 0. 0.
      0. 0. 0. 0. 1.42857153e-02 0. 0. 0. 0. 0. 0. 0. 0. 0. 0. 0. 0.
      4.76190494e-03 0. 0. 0. 0. 0. 0. 0. 0. 0. 4.76190494e-03
      9.52380989e-03 0. 0. 0. 0. 0. 0. 0. 0. 0. 4.76190494e-03 0. 0. 0.
      0. 0. 0. 0. 0. 0. 0. 0. 1.90476198e-02 0. 0. 0. 0. 1.42857153e-02
      0. 0. 0. 0. 4.76190494e-03 0. 0. 0. 0. 0. 0. 0. 0. 4.76190494e-03
      0. 0. 0. 0. 0. 0. 0. 1.42857153e-02 0. 0. 0. 1.42857153e-02 0. 0.
      0. 1.42857153e-02 0. 0. 0. 0. 0. 0. 0. 0. 0. 0. 0. 0. 0. 0.
      4.76190494e-03 0. 0. 0. 0. 0. 0. 0. 0. 2.85714306e-02 0. 0. 0.
      4.76190494e-03 0. 0. 0. 0. 0. 0. 0. 0. 0. 0. 0. 0. 0. 0. 0. 0. 0.
      0. 0. 0. 0. 0. 0. 0. 0. 0. 0. 0. 0. 0. 0. 0. 0. 0. 0. 0. 0. 0. 0.
      0. 0. 0. 0. 0. 0. 0. 0. 0. 0. 0. 0. 0. 0. 0. 0. 0. 0. 0. 0. 0. 0.
      4.76190494e-03 0. 0. 0. 0. 0. 0. 0. 0. 0. 0. 0. 0. 0. 0. 0. 0. 0.
      0. 0. 0. 0. 0. 0. 0. 1.42857153e-02 4.76190494e-03 0. 0. 0.
      4.76190494e-03 0. 0. 0. 0. 0. 0. 0. 0. 0. 0. 0. 0. 0. 0. 0. 0. 0.
      0. 0. 0. 0. 0. 0. 0. 0. 0. 0. 0. 0. 0. 2.38095243e-02 0. 0. 0. 0.
      0. 0. 4.76190494e-03 0. 0. 0. 4.76190494e-03 0. 0. 0. 0. 0. 0. 0.
      0. 0. 0. 0. 0. 0. 0. 0. 0. 0. 0. 0. 0. 0. 0. 0. 4.76190494e-03 0.
      0. 0. 0. 0. 0. 0. 0. 0. 0. 0. 0. 0. 0. 0. 0. 0. 0. 0. 0. 0. 0. 0.
      0. 0. 0. 0. 1.42857153e-02 0. 0. 0. 0. 0. 0. 0. 0. 0. 0. 0. 0. 0.
      0. 0. 0. 0. 0. 0. 0. 0. 0. 0. 0. 0. 0. 0. 0. 0. 0. 0. 0. 0. 0. 0.
      0. 0. 0. 0. 0. 0. 0. 0. 0. 0. 0. 0. 0. 0. 0. 0. 0. 0. 0. 0. 0. 0.
      0. 0. 0. 0. 0. 0. 0. 0. 0. 0. 0. 0. 0. 0. 0. 0. 0. 0. 0. 0. 0. 0.
      0. 0. 0. 0. 0. 0. 0. 9.52380989e-03 0. 0. 0. 0. 0. 0. 0. 0. 0. 0.
      0. 0. 0. 0. 0. 0. 0. 0. 0. 0. 0. 0. 0. 0. 0. 0. 0. 0. 0. 0. 0. 0.
      0. 0. 4.76190494e-03 0. 0. 0. 0. 0. 0. 0. 0. 0. 0. 0. 0. 0. 0. 0.
      0. 0. 0. 0. 0. 0. 0. 0. 0. 0. 0. 0. 0. 0. 0. 0. 0. 0. 0. 0.
      4.76190494e-03 0. 0. 0. 0. 0. 0. 0. 0. 0. 0. 0. 0. 0. 0. 0. 0. 0.
      0. 0. 0. 0. 4.76190494e-03 0. 0. 0. 0. 0. 0. 0. 0. 0. 0.
      1.90476198e-02 0. 0. 0. 0. 0. 0. 0. 0. 4.76190494e-03 0. 0. 0. 0.
      0. 0. 0. 0. 0. 0. 0. 0. 0. 0. 0. 4.76190494e-03 9.52380989e-03 0.
      0. 0. 0. 0. 0. 0. 0. 0. 0. 0. 1.42857153e-02 9.52380989e-03 0. 0.
      0. 0. 0. 9.52380989e-03 4.76190494e-03 0. 0. 0. 0.</_>
    <_>
      0. 3.94088663e-02 0. 4.92610829e-03 4.92610829e-03 0.
      1.47783253e-02 0. 0. 0. 0. 0. 0. 0. 0. 4.92610829e-03 0. 0. 0. 0.
      0. 0. 0. 4.92610829e-03 0. 0. 0. 0. 0. 4.92610829e-03 0. 0. 0. 0.
      0. 0. 0. 0. 0. 0. 0. 4.92610829e-03 0. 0. 0. 0. 0. 0. 0. 0. 0. 0.
      0. 0. 0. 0. 0. 9.85221658e-03 0. 0. 0. 0. 0. 0. 0. 0. 0. 0. 0. 0.
      0. 0. 2.95566507e-02 0. 9.85221658e-03 0. 0. 0. 0. 0. 0.
      4.92610829e-03 2.46305410e-02 0. 0. 0. 0. 0. 0. 0. 0. 0. 0. 0. 0.
      0. 0. 0. 0. 0. 0. 0. 0. 9.85221658e-03 0. 0. 0. 0. 0. 0. 0. 0. 0.
      0. 0. 9.85221658e-03 0. 0. 0. 0. 9.85221658e-03 0. 0. 0. 0. 0. 0.
      0. 0. 0. 9.85221658e-03 4.92610829e-03 0. 0. 0. 0. 0. 0. 0. 0. 0.
      0. 4.92610829e-03 0. 0. 0. 0. 0. 0. 4.92610829e-03 0. 0. 0. 0. 0.
      0. 9.85221658e-03 0. 0. 0. 0. 4.92610829e-03 0. 0. 0. 0. 0.
      1.47783253e-02 0. 0. 0. 0. 0. 0. 0. 0. 0. 0. 0. 0. 0. 0. 0. 0. 0.
      0. 0. 0. 0. 0. 0. 0. 0. 0. 0. 0. 1.47783253e-02 0. 0. 0. 0. 0. 0.
      0. 0. 4.92610829e-03 0. 0. 0. 4.92610829e-03 9.85221658e-03 0. 0.
      0. 0. 9.85221658e-03 0. 0. 0. 4.92610829e-03 0. 0. 0. 0. 0. 0.
      1.97044332e-02 0. 0. 0. 0. 0. 0. 0. 0. 0. 0. 0. 0. 0. 0. 0. 0. 0.
      1.47783253e-02 0. 0. 0. 0. 0. 0. 0. 0. 0. 0. 0. 0. 0. 0. 0. 0. 0.
      0. 0. 0. 0. 0. 0. 0. 0. 0. 0. 0. 0. 0. 0. 1.47783253e-02 0. 0. 0.
      0. 0. 0. 0. 4.92610829e-03 0. 0. 0. 0. 0. 0. 0. 0. 0. 0. 0. 0. 0.
      0. 0. 0. 0. 0. 0. 0. 0. 0. 0. 0. 0. 0. 0. 0. 0. 0. 0. 0. 0. 0. 0.
      0. 0. 0. 0. 0. 0. 0. 4.92610829e-03 0. 0. 1.47783253e-02 0. 0. 0.
      0. 0. 0. 0. 0. 0. 0. 0. 4.92610829e-03 0. 0. 0. 0. 0. 0. 0. 0. 0.
      0. 0. 0. 0. 0. 0. 0. 4.92610829e-03 0. 0. 0. 0. 0. 4.92610829e-03
      0. 0. 0. 0. 0. 0. 3.44827585e-02 0. 0. 0. 0. 4.92610829e-03 0. 0.
      9.85221658e-03 0. 0. 0. 0. 0. 0. 0. 4.92610829e-03 3.44827585e-02
      0. 0. 2.46305410e-02 0. 0. 0. 0. 0. 0. 0. 0. 0. 0. 4.92610829e-03
      0. 0. 0. 0. 0. 0. 0. 4.92610829e-03 0. 0. 4.92610829e-03 0. 0. 0.
      0. 0. 0. 0. 0. 0. 0. 4.92610829e-03 0. 0. 0. 0. 0. 0.
      4.92610829e-03 0. 0. 0. 0. 0. 0. 0. 0. 0. 0. 0. 0. 0. 0. 0. 0. 0.
      0. 0. 0. 0. 0. 0. 9.85221658e-03 0. 0. 0. 9.85221658e-03 0. 0.
      3.44827585e-02 0. 0. 0. 0. 0. 0. 0. 0. 0. 0. 0. 0. 0. 0. 0. 0. 0.
      0. 0. 0. 0. 0. 4.92610829e-03 4.92610829e-03 0. 0. 0. 0. 0. 0. 0.
      0. 0. 0. 0. 0. 0. 9.85221658e-03 0. 0. 0. 0. 4.92610829e-03 0. 0.
      4.92610829e-03 0. 0. 0. 0. 2.95566507e-02 0. 0. 4.92610829e-03 0.
      0. 0. 0. 0. 0. 0. 0. 0. 0. 4.92610829e-03 0. 0. 0. 0. 0. 0. 0. 0.
      0. 0. 0. 4.92610829e-03 0. 0. 0. 4.92610829e-03 0. 0. 0. 0. 0. 0.
      0. 1.47783253e-02 0. 0. 9.85221658e-03 0. 0. 0. 0. 0. 0. 0. 0. 0.
      0. 0. 0. 1.47783253e-02 0. 0. 0. 0. 0. 0. 0. 0. 0. 0. 0. 0. 0.
      9.85221658e-03 0. 0. 0. 0. 0. 0. 0. 0. 0. 0. 0. 0. 0. 0. 0. 0. 0.
      0. 0. 0. 0. 0. 0. 0. 0. 0. 0. 4.92610829e-03 0. 0. 0. 0. 0. 0. 0.
      0. 0. 0. 0. 0. 0. 0. 0. 0. 0. 0. 0. 0. 0. 0. 0. 0. 3.44827585e-02
      0. 0. 0. 0. 0. 4.92610829e-03 0. 0. 0. 0. 0. 0. 0. 0. 0. 0. 0. 0.
      0. 0. 0. 0. 0. 0. 4.92610829e-03 0. 0. 0. 0. 0. 0. 0. 0. 0. 0. 0.
      0. 0. 0. 0. 0. 0. 0. 0. 0. 0. 0. 0. 4.92610829e-03 0.
      4.92610829e-03 0. 0. 0. 0. 0. 0. 0. 2.95566507e-02 9.85221658e-03
      0. 0. 0. 0. 0. 0. 0. 0. 0. 0. 0. 0. 0. 0. 0. 0. 0. 0. 0. 0. 0. 0.
      0. 0. 0. 0. 9.85221658e-03 0. 0. 0. 0. 0. 0. 0. 1.47783253e-02 0.
      0. 0. 0. 0. 0. 0. 0. 0. 0. 0. 0. 0. 0. 0. 0. 0. 0. 0. 0.
      4.92610829e-03 0. 0. 0. 0. 0. 0. 9.85221658e-03 0. 0. 0. 0. 0. 0.
      0. 0. 0. 0. 0. 0. 0. 0. 0. 0. 0. 0. 0. 0. 0. 0. 0. 0. 0. 0. 0. 0.
      0. 0. 0. 0. 0. 0. 0. 0. 0. 0. 0. 0. 0. 0. 0. 0. 0. 0. 0. 0. 0. 0.
      0. 0. 0. 0. 0. 0. 0. 0. 0. 0. 0. 0. 0. 0. 0. 0. 0. 0. 0. 0. 0. 0.
      0. 0. 9.85221658e-03 0. 0. 0. 0. 0. 0. 0. 0. 0. 0. 4.92610829e-03
      0. 0. 0. 0. 0. 0. 0. 0. 0. 0. 0. 0. 0. 0. 0. 0. 0. 0. 0. 0. 0. 0.
      0. 0. 0. 0. 0. 0. 0. 0. 0. 0. 9.85221658e-03 0. 0. 0. 0. 0. 0. 0.
      0. 0. 0. 0. 0. 0. 0. 0. 0. 0. 0. 0. 0. 0. 0. 0. 0. 0. 0. 0. 0. 0.
      0. 0. 0. 0. 0. 0. 0. 0. 0. 4.92610829e-03 4.92610829e-03 0. 0. 0.
      0. 0. 0. 0. 0. 0. 0. 0. 0. 0. 0. 0. 0. 0. 0. 0. 0. 9.85221658e-03
      0. 0. 0. 4.92610829e-03 0. 0. 0. 0. 0. 0. 9.85221658e-03 0. 0. 0.
      0. 0. 0. 0. 0. 0. 0. 0. 0. 0. 0. 0. 0. 0. 0. 0. 0. 0. 0. 0. 0. 0.
      9.85221658e-03 0. 4.92610829e-03 0. 0. 0. 0. 0. 0. 0. 0. 0. 0.
      2.46305410e-02 0. 0. 0. 0. 0. 3.44827585e-02 1.97044332e-02
      4.92610829e-03 0. 0. 0.</_>
    <_>
      0. 1.16822422e-02 0. 0. 0. 0. 3.27102803e-02 0. 0. 0. 0. 0. 0. 0.
      1.16822422e-02 0. 0. 0. 0. 0. 2.33644852e-03 0. 0. 2.33644852e-03
      0. 0. 0. 0. 0. 0. 0. 2.33644852e-03 0. 0. 0. 0. 0. 0. 0. 0. 0.
      2.33644852e-03 1.16822422e-02 0. 0. 0. 0. 0. 0. 0. 0. 0. 0. 0.
      2.33644852e-03 0. 0. 4.67289705e-03 7.00934557e-03 0. 0. 0. 0. 0.
      0. 0. 0. 0. 0. 0. 0. 0. 0. 0. 1.16822422e-02 0. 0. 0. 0. 0. 0.
      7.00934557e-03 2.10280363e-02 0. 0. 0. 0. 0. 0. 0. 0. 0. 0. 0. 0.
      0. 0. 0. 2.57009342e-02 0. 0. 0. 0. 2.33644852e-03 0. 0. 0. 0. 0.
      0. 0. 0. 0. 0. 0. 2.33644852e-03 0. 0. 0. 0. 1.16822422e-02 0. 0.
      0. 0. 0. 0. 0. 0. 0. 4.67289705e-03 2.33644852e-03 0. 0. 0. 0. 0.
      0. 0. 0. 0. 0. 0. 0. 0. 0. 0. 0. 0. 0. 0. 0. 0. 0. 0. 0.
      2.33644852e-03 7.00934557e-03 0. 0. 0. 9.34579410e-03 0. 0. 0. 0.
      0. 2.80373823e-02 0. 0. 0. 0. 0. 0. 0. 0. 0. 0. 0. 0.
      2.33644852e-03 0. 0. 0. 0. 4.67289705e-03 0. 0. 0. 0. 0. 0. 0. 0.
      0. 0. 0. 4.67289705e-03 0. 0. 0. 0. 0. 0. 4.67289705e-03
      4.67289705e-03 0. 0. 0. 0. 0. 0. 0. 0. 0. 9.34579410e-03
      1.40186911e-02 4.67289705e-03 2.33644852e-03 4.67289705e-03
      9.34579410e-03 0. 2.33644852e-03 0. 0. 0. 4.67289705e-03 0. 0. 0.
      0. 0. 0. 0. 0. 0. 0. 0. 0. 0. 0. 0. 0. 0. 1.40186911e-02 0. 0. 0.
      0. 0. 0. 0. 0. 0. 0. 0. 0. 0. 0. 0. 0. 0. 0. 0. 0. 0. 0. 0. 0. 0.
      0. 0. 0. 0. 0. 1.16822422e-02 1.40186911e-02 0. 0. 0. 0.
      2.33644852e-03 0. 2.33644852e-03 2.33644852e-03 7.00934557e-03 0.
      0. 0. 0. 0. 0. 0. 0. 0. 0. 2.33644852e-03 0. 0. 0. 0. 0. 0. 0. 0.
      2.33644852e-03 0. 0. 0. 0. 0. 0. 0. 0. 0. 7.00934557e-03 0. 0. 0.
      0. 0. 0. 0. 0. 0. 0. 0. 7.00934557e-03 0. 0. 4.67289705e-03 0. 0.
      0. 0. 0. 0. 0. 7.00934557e-03 0. 2.33644852e-03 0. 0. 0. 0. 0. 0.
      0. 0. 0. 0. 0. 0. 0. 0. 0. 0. 0. 0. 0. 0. 0. 0. 0. 2.33644852e-03
      0. 9.34579410e-03 0. 0. 0. 0. 0. 9.34579410e-03 0. 0. 0. 0. 0. 0.
      0. 2.33644852e-03 0. 0. 0. 0. 0. 0. 0. 0. 7.00934557e-03 0. 0.
      9.34579410e-03 0. 0. 0. 0. 0. 0. 0. 0. 0. 0. 0. 0. 0. 0. 0. 0. 0.
      0. 0. 0. 0. 0. 0. 0. 0. 0. 0. 0. 0. 0. 2.33644852e-03 0.
      4.67289705e-03 0. 0. 0. 0. 0. 0. 4.67289705e-03 0. 0. 0.
      2.33644852e-03 2.33644852e-03 0. 0. 0. 0. 0. 0. 0. 0. 0. 0. 0. 0.
      0. 0. 0. 0. 0. 0. 2.33644852e-03 2.33644852e-03 0. 0.
      7.00934557e-03 0. 0. 7.00934557e-03 0. 0. 0. 0. 0. 0. 0. 0. 0. 0.
      0. 0. 0. 0. 0. 0. 0. 0. 0. 0. 0. 0. 0. 1.16822422e-02
      2.33644852e-03 0. 0. 0. 0. 0. 0. 0. 0. 0. 0. 0. 0. 7.00934557e-03
      0. 0. 0. 0. 2.33644852e-03 0. 7.00934557e-03 1.16822422e-02 0. 0.
      0. 0. 3.27102803e-02 0. 9.34579410e-03 4.67289705e-03 0. 0. 0. 0.
      0. 0. 0. 0. 0. 0. 2.33644852e-03 0. 0. 0. 0. 0. 0. 0.
      2.33644852e-03 0. 0. 0. 3.97196263e-02 0. 0. 4.67289705e-03 0. 0.
      0. 2.33644852e-03 0. 0. 0. 0. 0. 0. 0. 2.33644852e-03 0. 0. 0.
      2.33644852e-03 0. 0. 0. 0. 0. 0. 0. 0. 3.27102803e-02 0. 0. 0.
      2.33644852e-03 0. 0. 7.00934557e-03 0. 0. 0. 0. 0. 0.
      1.16822422e-02 0. 0. 4.67289705e-03 0. 0. 0. 0. 0. 0. 0. 0.
      2.33644852e-03 2.33644852e-03 0. 0. 0. 0. 0. 0. 0. 0.
      7.00934557e-03 0. 0. 0. 0. 0. 0. 0. 0. 0. 0. 0. 0. 0. 0. 0. 0. 0.
      0. 0. 0. 0. 0. 0. 0. 0. 2.33644852e-03 0. 0. 0. 4.67289705e-03
      4.67289705e-03 0. 0. 0. 0. 0. 0. 0. 0. 0. 0. 0. 0. 0. 0. 0. 0. 0.
      0. 0. 7.00934557e-03 0. 0. 0. 1.63551401e-02 1.63551401e-02 0. 0.
      0. 0. 0. 0. 0. 0. 0. 4.67289705e-03 0. 0. 0. 0. 0. 0. 0. 0. 0. 0.
      0. 0. 0. 7.00934557e-03 0. 2.33644852e-03 0. 0. 0. 0. 0. 0. 0.
      9.34579410e-03 9.34579410e-03 0. 0. 0. 2.33644852e-03 0.
      4.67289705e-03 0. 0. 0. 2.33644852e-03 0. 0. 0. 0. 0. 0. 0. 0. 0.
      0. 0. 0. 0. 0. 0. 0. 7.00934557e-03 0. 0. 0. 0. 0. 0. 0.
      1.16822422e-02 0. 0. 0. 0. 0. 0. 0. 4.67289705e-03 0. 0. 0. 0. 0.
      0. 0. 0. 0. 0. 0. 0. 0. 0. 0. 0. 0. 0. 0. 2.33644852e-03 0. 0. 0.
      0. 0. 0. 0. 0. 0. 0. 0. 0. 0. 0. 0. 0. 0. 0. 0. 0. 0. 0. 0. 0.
      2.33644852e-03 0. 0. 0. 0. 0. 0. 0. 0. 0. 0. 0. 0. 0. 0. 0. 0. 0.
      0. 0. 0. 0. 0. 0. 0. 0. 0. 0. 0. 0. 0. 0. 0. 0. 0. 0. 0. 0. 0. 0.
      0. 0. 0. 0. 0. 0. 0. 0. 0. 0. 0. 0. 0. 2.33644852e-03 0. 0. 0. 0.
      9.34579410e-03 2.33644852e-03 0. 7.00934557e-03 1.63551401e-02 0.
      0. 0. 0. 0. 0. 0. 0. 0. 0. 2.33644852e-03 0. 0. 0. 0. 0. 0. 0. 0.
      0. 0. 0. 0. 0. 0. 0. 0. 0. 0. 0. 2.33644852e-03 1.63551401e-02 0.
      0. 0. 0. 0. 0. 0. 0. 0. 0. 0. 0. 0. 0. 0. 0. 2.33644852e-03 0. 0.
      0. 0. 0. 0. 0. 0. 0. 0. 0. 0. 0. 0. 0. 0. 0. 0. 0. 0. 0.
      2.33644852e-03 2.33644852e-03 0. 0. 0. 0. 0. 0. 0. 0. 0. 0. 0. 0.
      0. 0. 0. 0. 0. 0. 0. 0. 1.86915882e-02 0. 0. 0. 7.00934557e-03 0.
      0. 0. 0. 0. 0. 2.80373823e-02 0. 0. 0. 0. 0. 0. 0. 0.
      1.16822422e-02 0. 0. 0. 0. 0. 0. 0. 0. 0. 0. 0. 0. 0. 0. 0. 0.
      2.33644843e-02 0. 4.67289705e-03 0. 0. 0. 0. 0. 0. 0. 0. 0. 0.
      1.40186911e-02 0. 0. 0. 0. 0. 1.86915882e-02 1.16822422e-02 0. 0.
      0. 0.</_>
    <_>
      0. 0. 0. 0. 0. 0. 0. 0. 0. 0. 0. 0. 7.51879718e-03 0. 0. 0. 0. 0.
      0. 0. 0. 0. 0. 0. 0. 0. 1.50375944e-02 0. 0. 0. 0. 0. 0. 0. 0. 0.
      0. 0. 0. 7.51879718e-03 0. 0. 0. 0. 0. 0. 0. 0. 0. 0. 0. 0. 0. 0.
      0. 0. 0. 0. 7.51879718e-03 0. 0. 0. 0. 0. 0. 0. 0. 0. 0. 0. 0. 0.
      0. 0. 0. 0. 7.51879718e-03 0. 0. 0. 0. 1.50375944e-02 0. 0. 0. 0.
      0. 0. 0. 0. 0. 0. 0. 0. 0. 0. 0. 0. 2.25563906e-02 0. 0. 0. 0. 0.
      0. 0. 0. 0. 0. 7.51879718e-03 0. 0. 0. 0. 0. 0. 0. 0. 0. 0. 0.
      4.51127812e-02 7.51879718e-03 0. 0. 0. 0. 1.50375944e-02 0. 0. 0.
      0. 0. 0. 0. 0. 0. 0. 0. 0. 0. 7.51879718e-03 0. 0. 0. 0. 0. 0. 0.
      0. 0. 0. 0. 0. 0. 0. 0. 0. 0. 0. 0. 1.50375944e-02 0. 0. 0. 0. 0.
      0. 7.51879718e-03 0. 0. 0. 0. 0. 1.50375944e-02 0. 0. 0. 0. 0. 0.
      0. 0. 0. 0. 0. 0. 0. 0. 0. 7.51879718e-03 7.51879718e-03 0. 0. 0.
      0. 0. 0. 0. 0. 0. 0. 0. 0. 0. 0. 0. 0. 0. 0. 0. 0. 0. 0. 0. 0. 0.
      0. 0. 0. 0. 0. 0. 0. 0. 0. 0. 0. 0. 0. 0. 0. 0. 0. 2.25563906e-02
      0. 0. 0. 0. 0. 0. 0. 0. 0. 0. 0. 0. 0. 0. 0. 0. 0. 0. 0. 0. 0. 0.
      0. 0. 0. 0. 0. 2.25563906e-02 0. 0. 0. 0. 0. 0. 0. 0. 0. 0. 0.
      7.51879718e-03 0. 0. 0. 0. 0. 0. 0. 0. 0. 7.51879718e-03 0. 0. 0.
      0. 0. 0. 0. 0. 0. 0. 0. 0. 0. 0. 0. 0. 0. 0. 0. 0. 0. 0. 0. 0. 0.
      0. 0. 0. 0. 0. 7.51879718e-03 0. 0. 0. 0. 0. 0. 7.51879718e-03 0.
      0. 0. 0. 0. 0. 0. 0. 0. 0. 0. 0. 0. 0. 0. 0. 0. 0. 0.
      1.50375944e-02 0. 0. 0. 0. 0. 0. 0. 0. 0. 0. 0. 1.50375944e-02 0.
      0. 0. 0. 0. 0. 0. 0. 0. 0. 0. 1.50375944e-02 0. 0. 0. 0. 0. 0. 0.
      0. 0. 7.51879718e-03 0. 0. 0. 0. 0. 0. 0. 0. 0. 7.51879718e-03 0.
      0. 0. 0. 0. 0. 0. 0. 0. 0. 0. 0. 0. 0. 0. 0. 0. 0. 0. 0. 0. 0. 0.
      0. 0. 0. 0. 0. 0. 0. 0. 0. 0. 0. 7.51879718e-03 7.51879718e-03 0.
      0. 0. 0. 0. 0. 1.50375944e-02 0. 0. 0. 1.50375944e-02 0. 0.
      3.00751887e-02 0. 0. 0. 0. 0. 0. 0. 0. 0. 0. 0. 0. 0. 0.
      6.76691756e-02 0. 0. 0. 0. 0. 0. 0. 0. 0. 0. 0. 0. 0. 0. 0. 0. 0.
      0. 0. 0. 0. 0. 0. 0. 0. 0. 0. 0. 0. 0. 0. 0. 0. 0. 0.
      1.50375944e-02 0. 0. 0. 0. 0. 0. 0. 0. 0. 0. 0. 0. 7.51879718e-03
      0. 3.00751887e-02 0. 0. 0. 0. 0. 0. 0. 7.51879718e-03 0. 0. 0. 0.
      0. 0. 0. 0. 2.25563906e-02 0. 0. 0. 0. 0. 0. 7.51879718e-03 0.
      7.51879718e-03 0. 4.51127812e-02 0. 0. 0. 0. 7.51879718e-03 0. 0.
      0. 0. 0. 0. 0. 0. 0. 7.51879718e-03 0. 0. 0. 0. 0. 0.
      3.00751887e-02 0. 0. 7.51879718e-03 0. 0. 0. 0. 7.51879718e-03 0.
      0. 0. 0. 0. 0. 0. 0. 0. 0. 0. 0. 0. 0. 0. 0. 0. 7.51879718e-03 0.
      0. 0. 0. 0. 0. 0. 0. 0. 0. 0. 0. 0. 0. 0. 0. 0. 0. 0. 0. 0. 0. 0.
      0. 0. 0. 0. 0. 0. 0. 0. 0. 0. 0. 0. 0. 0. 0. 0. 0. 0. 0. 0. 0. 0.
      0. 0. 0. 0. 0. 0. 0. 0. 0. 0. 0. 0. 0. 0. 0. 0. 0. 0. 0. 0. 0. 0.
      6.01503775e-02 0. 0. 0. 0. 0. 0. 0. 0. 0. 0. 3.00751887e-02 0.
      7.51879718e-03 0. 0. 0. 0. 0. 0. 0. 0. 0. 0. 1.50375944e-02 0. 0.
      0. 0. 0. 1.50375944e-02 0. 0. 0. 0. 0. 0. 0. 0. 0. 0.
      7.51879718e-03 0. 0. 0. 0. 0. 0. 0. 1.50375944e-02 0. 0. 0. 0. 0.
      0. 0. 0. 0. 0. 7.51879718e-03 7.51879718e-03 0. 0. 0. 0. 0. 0. 0.
      0. 0. 0. 0. 0. 0. 0. 0. 0. 0. 0. 0. 0. 0. 0. 0. 0. 0.
      7.51879718e-03 0. 0. 0. 0. 0. 0. 0. 0. 0. 0. 7.51879718e-03 0. 0.
      0. 0. 0. 0. 0. 0. 0. 0. 0. 0. 0. 0. 0. 0. 0. 0. 0. 0. 0. 0. 0. 0.
      0. 0. 0. 0. 0. 0. 0. 0. 0. 0. 0. 0. 0. 0. 0. 0. 0. 0. 0. 0. 0. 0.
      0. 0. 0. 0. 0. 0. 0. 0. 0. 0. 0. 0. 0. 0. 0. 0. 0. 0. 0. 0. 0. 0.
      0. 0. 0. 0. 0. 0. 0. 0. 0. 0. 7.51879718e-03 0. 0. 0. 0. 0. 0. 0.
      0. 0. 0. 0. 0. 0. 0. 0. 0. 0. 0. 1.50375944e-02 0. 0. 0. 0. 0. 0.
      0. 0. 0. 0. 0. 7.51879718e-03 0. 0. 0. 0. 0. 0. 0. 0. 0. 0. 0. 0.
      0. 0. 0. 0. 0. 0. 0. 0. 0. 0. 0. 0. 0. 0. 0. 0. 0. 0. 0. 0. 0. 0.
      0. 0. 0. 0. 0. 0. 0. 0. 0. 0. 7.51879718e-03 0. 0. 0. 0. 0. 0. 0.
      0. 0. 0. 0. 0. 0. 0. 0. 0. 0. 0. 0. 0. 0. 0. 0. 0. 0. 0. 0. 0.
      7.51879718e-03 0. 7.51879718e-03 0. 0. 0. 0. 0. 0. 0. 0. 0. 0. 0.
      0. 0. 0. 0. 0. 7.51879718e-03 0. 0. 0. 0. 0. 0. 0. 7.51879718e-03
      0. 0. 0. 0. 0. 0. 0. 0. 0. 0. 0. 0. 0. 0. 0. 0. 0. 2.25563906e-02
      0. 0. 0. 7.51879718e-03 0. 0. 0. 0. 0. 0. 7.51879718e-03 0. 0. 0.
      0. 0. 0. 0. 0. 0. 0. 7.51879718e-03 0. 0. 0. 0.</_>
    <_>
      0. 0. 0. 6.57894742e-03 0. 0. 0. 0. 0. 0. 0. 0. 0. 0. 0. 0. 0. 0.
      0. 0. 1.31578948e-02 0. 0. 0. 0. 0. 0. 0. 0. 0. 0. 0. 0. 0. 0. 0.
      0. 0. 0. 0. 0. 0. 6.57894742e-03 0. 0. 0. 0. 0. 0. 0. 0. 0. 0. 0.
      6.57894742e-03 0. 0. 0. 1.31578948e-02 0. 6.57894742e-03 0. 0. 0.
      0. 0. 0. 0. 0. 0. 0. 0. 0. 0. 0. 0. 1.97368413e-02 0. 0. 0. 0. 0.
      0. 0. 6.57894742e-03 0. 0. 0. 0. 0. 0. 0. 0. 0. 0. 0. 0. 0.
      1.31578948e-02 0. 0. 0. 0. 0. 0. 0. 0. 0. 0. 0. 0. 0. 0. 0. 0. 0.
      0. 0. 0. 0. 0. 0. 0. 0. 0. 0. 0. 0. 0. 0. 6.57894742e-03 0. 0. 0.
      0. 0. 0. 0. 0. 0. 0. 1.31578948e-02 0. 0. 0. 0. 0. 0. 0. 0. 0. 0.
      0. 0. 1.31578948e-02 6.57894742e-03 0. 6.57894742e-03
      1.31578948e-02 0. 0. 0. 0. 0. 0. 0. 0. 0. 0. 0. 0. 0. 0. 0. 0. 0.
      6.57894742e-03 0. 0. 6.57894742e-03 6.57894742e-03 0. 0. 0. 0. 0.
      0. 0. 0. 0. 6.57894742e-03 0. 0. 0. 0. 0. 0. 0. 0. 0. 0. 0. 0. 0.
      1.31578948e-02 0. 0. 6.57894742e-03 0. 0. 6.57894742e-03 0. 0. 0.
      0. 0. 6.57894742e-03 0. 0. 0. 0. 0. 6.57894742e-03 0. 0. 0. 0. 0.
      2.63157897e-02 0. 0. 0. 0. 0. 0. 0. 0. 0. 0. 0. 0. 0. 0. 0. 0. 0.
      0. 0. 0. 0. 0. 0. 0. 0. 0. 0. 0. 0. 0. 0. 0. 0. 0. 0.
      6.57894742e-03 0. 0. 0. 0. 0. 0. 0. 0. 0. 0. 0. 0. 0. 0. 0. 0. 0.
      0. 0. 6.57894742e-03 0. 0. 0. 0. 0. 0. 0. 0. 6.57894742e-03 0. 0.
      0. 0. 0. 0. 0. 0. 0. 0. 0. 0. 0. 0. 0. 0. 0. 6.57894742e-03 0. 0.
      0. 0. 0. 0. 0. 0. 0. 0. 0. 0. 0. 0. 6.57894742e-03 0. 0. 0. 0. 0.
      6.57894742e-03 0. 0. 0. 0. 6.57894742e-03 0. 0. 1.97368413e-02 0.
      0. 0. 0. 1.31578948e-02 0. 6.57894742e-03 0. 1.97368413e-02 0.
      6.57894742e-03 0. 0. 0. 0. 0. 0. 0. 0. 0. 0. 0. 0. 0. 0. 0. 0. 0.
      0. 0. 0. 0. 1.97368413e-02 0. 0. 0. 0. 0. 0. 0. 0. 0. 0. 0. 0. 0.
      0. 0. 0. 0. 6.57894742e-03 0. 0. 0. 0. 0. 0. 0. 0. 0.
      6.57894742e-03 0. 0. 0. 0. 0. 0. 0. 0. 0. 0. 0. 0. 0. 0. 0. 0. 0.
      0. 0. 0. 0. 0. 0. 0. 0. 0. 0. 0. 6.57894742e-03 0. 0. 0. 0. 0. 0.
      1.97368413e-02 0. 0. 0. 6.57894742e-03 0. 0. 0. 0. 0. 0. 0. 0. 0.
      0. 0. 0. 0. 0. 0. 0. 0. 0. 6.57894742e-03 0. 0. 0. 0. 0. 0. 0. 0.
      0. 0. 0. 0. 0. 0. 6.57894742e-03 0. 0. 0. 0. 0. 0. 0. 0. 0. 0.
      6.57894742e-03 6.57894742e-03 0. 0. 0. 0. 0. 0. 0. 0. 0.
      1.31578948e-02 0. 0. 6.57894742e-03 0. 0. 0. 0. 0. 0. 0. 0.
      3.28947380e-02 0. 0. 0. 0. 3.28947380e-02 0. 1.97368413e-02 0. 0.
      0. 0. 6.57894742e-03 0. 0. 0. 0. 0. 0. 0. 0. 0. 0. 0. 0.
      1.31578948e-02 0. 0. 0. 0. 0. 0. 0. 0. 0. 0. 0. 0. 0. 0. 0. 0. 0.
      0. 0. 0. 0. 0. 0. 0. 0. 0. 0. 0. 0. 0. 0. 0. 0. 1.31578948e-02 0.
      0. 0. 0. 0. 0. 0. 0. 0. 0. 0. 0. 0. 0. 0. 0. 0. 0. 0. 0. 0. 0. 0.
      0. 3.28947380e-02 0. 2.63157897e-02 0. 6.57894742e-03 0. 0. 0. 0.
      0. 0. 0. 0. 0. 0. 0. 0. 0. 0. 0. 0. 0. 0. 0. 0. 0. 2.63157897e-02
      0. 0. 0. 0. 0. 0. 0. 0. 0. 0. 0. 0. 0. 0. 0. 0. 0. 0. 0.
      6.57894742e-03 1.31578948e-02 6.57894742e-03 6.57894742e-03 0. 0.
      0. 0. 0. 0. 0. 0. 0. 0. 0. 0. 0. 0. 0. 0. 0. 3.28947380e-02 0. 0.
      0. 0. 0. 0. 0. 0. 0. 0. 0. 0. 0. 0. 0. 0. 0. 0. 0. 0. 0. 0.
      6.57894742e-03 1.31578948e-02 0. 0. 0. 0. 1.97368413e-02 0. 0. 0.
      0. 0. 0. 0. 0. 0. 0. 0. 0. 0. 6.57894742e-03 0. 0. 0. 0. 0. 0. 0.
      0. 0. 0. 0. 0. 0. 0. 0. 0. 0. 0. 0. 0. 0. 0. 0. 0. 0. 0. 0. 0. 0.
      0. 0. 0. 0. 0. 0. 6.57894742e-03 0. 0. 0. 0. 0. 1.31578948e-02 0.
      0. 0. 0. 0. 0. 0. 0. 0. 0. 0. 0. 0. 0. 0. 0. 0. 0. 0. 0. 0. 0. 0.
      0. 6.57894742e-03 0. 0. 6.57894742e-03 0. 0. 0. 0. 0. 0. 0. 0.
      6.57894742e-03 0. 0. 0. 6.57894742e-03 0. 6.57894742e-03
      1.31578948e-02 0. 0. 0. 0. 0. 0. 0. 0. 0. 0. 0. 0. 0. 0. 0. 0. 0.
      0. 0. 0. 0. 0. 6.57894742e-03 0. 0. 0. 0. 0. 6.57894742e-03 0. 0.
      0. 0. 0. 0. 0. 0. 0. 0. 0. 0. 0. 0. 0. 0. 0. 6.57894742e-03 0. 0.
      0. 0. 0. 6.57894742e-03 0. 0. 0. 0. 0. 0. 0. 6.57894742e-03 0.
      6.57894742e-03 0. 0. 0. 0. 0. 0. 0. 0. 0. 6.57894742e-03
      6.57894742e-03 0. 0. 0. 0. 0. 0. 0. 0. 0. 0. 0. 0. 0. 0. 0. 0. 0.
      0. 0. 0. 0. 0. 0. 6.57894742e-03 0. 0. 0. 0. 0. 0. 0. 0. 0. 0. 0.
      0. 0. 0. 0. 0. 1.31578948e-02 1.31578948e-02 0. 0. 0. 0. 0. 0. 0.
      0. 0. 6.57894742e-03 0. 0. 0. 0. 0. 0. 0. 0. 0. 0. 0. 0. 0. 0. 0.
      0. 0. 0. 0. 0. 0. 0. 6.57894742e-03 0. 0. 0. 0. 0. 0. 0. 0. 0. 0.
      0. 0. 0. 0. 0. 0. 0. 0. 0. 0. 0. 0. 0. 0. 0. 0. 0. 0. 0. 0. 0. 0.
      0. 0. 0. 0. 6.57894742e-03 0. 1.97368413e-02 6.57894742e-03 0. 0.
      0. 0. 0. 0. 0. 0. 0. 0. 6.57894742e-03 0. 0. 0. 0. 6.57894742e-03
      0. 0. 0. 0. 0.</_>
    <_>
      4.25531901e-03 0. 0. 0. 0. 0. 0. 0. 0. 0. 4.25531901e-03 0. 0.
      8.51063803e-03 0. 0. 0. 0. 0. 4.25531901e-03 0. 8.51063803e-03 0.
      0. 1.27659570e-02 0. 2.12765951e-02 0. 0. 0. 0. 8.51063803e-03 0.
      0. 0. 4.25531901e-03 0. 0. 0. 0. 0. 0. 0. 0. 0. 0. 0. 0. 0.
      8.51063803e-03 0. 0. 0. 0. 4.25531901e-03 0. 4.25531901e-03 0. 0.
      0. 0. 0. 0. 0. 0. 0. 0. 0. 4.25531901e-03 0. 0. 0. 0. 0. 0. 0. 0.
      0. 0. 0. 4.25531901e-03 4.25531901e-03 0. 0. 0. 0. 0. 0. 0.
      4.25531901e-03 0. 4.25531901e-03 0. 0. 0. 0. 0. 0. 0. 0. 0. 0. 0.
      8.51063803e-03 4.25531901e-03 0. 0. 0. 0. 0. 0. 0. 0. 0. 0.
      4.25531901e-03 0. 0. 4.25531901e-03 0. 0. 4.25531901e-03 0. 0. 0.
      0. 4.25531901e-03 0. 0. 4.25531901e-03 0. 0. 0. 8.51063803e-03
      4.25531901e-03 0. 0. 0. 0. 0. 0. 1.27659570e-02 0. 0. 0. 0.
      4.25531901e-03 8.51063803e-03 0. 0. 4.25531901e-03 0.
      4.25531901e-03 0. 0. 0. 0. 0. 0. 4.25531901e-03 4.25531901e-03 0.
      0. 8.51063803e-03 0. 0. 0. 0. 0. 0. 0. 4.25531901e-03 0. 0. 0.
      4.25531901e-03 0. 0. 0. 0. 0. 0. 0. 4.25531901e-03 0. 0. 0. 0. 0.
      0. 0. 0. 0. 0. 0. 4.25531901e-03 0. 0. 0. 0. 0. 0. 0. 0. 0. 0. 0.
      0. 0. 0. 0. 0. 0. 0. 4.25531901e-03 0. 0. 0. 0. 0. 0. 0. 0. 0.
      4.25531901e-03 4.25531901e-03 0. 0. 0. 0. 8.51063803e-03 0.
      4.25531901e-03 0. 0. 4.25531901e-03 0. 0. 8.51063803e-03
      4.25531901e-03 4.25531901e-03 0. 0. 0. 0. 0. 0. 0. 4.25531901e-03
      0. 0. 8.51063803e-03 0. 0. 0. 0. 0. 0. 0. 0. 0. 0. 2.55319141e-02
      0. 0. 0. 0. 4.25531901e-03 0. 0. 0. 0. 0. 0. 0. 0. 0.
      4.25531901e-03 0. 0. 0. 0. 0. 0. 0. 0. 0. 0. 0. 4.25531901e-03 0.
      0. 0. 0. 0. 0. 0. 0. 0. 0. 0. 0. 0. 0. 0. 0. 0. 8.51063803e-03 0.
      0. 0. 0. 0. 0. 0. 0. 0. 0. 8.51063803e-03 0. 0. 0. 8.51063803e-03
      0. 0. 4.25531901e-03 0. 0. 0. 0. 0. 0. 0. 0. 0. 0. 0. 0. 0. 0. 0.
      4.25531901e-03 0. 1.27659570e-02 0. 0. 0. 0. 8.51063803e-03 0. 0.
      0. 0. 8.51063803e-03 0. 4.25531901e-03 0. 0. 0. 4.25531901e-03 0.
      0. 0. 0. 0. 4.25531901e-03 2.12765951e-02 0. 4.25531901e-03 0. 0.
      0. 0. 0. 0. 4.25531901e-03 0. 0. 0. 0. 0. 0. 0. 0. 0. 0. 0. 0. 0.
      0. 0. 0. 0. 0. 0. 0. 0. 4.25531901e-03 0. 0. 0. 0. 0. 0. 0. 0. 0.
      4.25531901e-03 0. 0. 0. 0. 0. 0. 0. 0. 0. 0. 0. 0. 0. 0. 0. 0. 0.
      0. 0. 0. 0. 0. 0. 0. 0. 0. 0. 0. 0. 0. 0. 0. 0. 0. 0. 0. 0. 0. 0.
      0. 0. 0. 0. 8.51063803e-03 0. 0. 0. 0. 0. 0. 0. 0. 8.51063803e-03
      0. 0. 0. 0. 0. 0. 0. 0. 0. 0. 8.51063803e-03 0. 0. 0. 0.
      4.25531901e-03 0. 0. 0. 0. 0. 0. 0. 0. 0. 0. 0. 4.25531901e-03 0.
      8.51063803e-03 0. 0. 0. 1.27659570e-02 8.51063803e-03 0. 0.
      8.51063803e-03 0. 0. 0. 0. 4.25531901e-03 0. 0. 0. 0. 0. 0.
      4.25531901e-03 0. 1.27659570e-02 0. 0. 0. 0. 0. 0. 0. 0. 0.
      8.51063803e-03 4.25531901e-03 2.55319141e-02 0. 8.51063803e-03
      4.25531901e-03 0. 0. 0. 0. 0. 0. 0. 0. 0. 0. 4.25531901e-03 0. 0.
      0. 4.25531901e-03 0. 0. 0. 4.25531901e-03 0. 1.27659570e-02 0. 0.
      4.25531901e-03 0. 4.25531901e-03 0. 0. 0. 0. 0. 0. 0.
      1.27659570e-02 0. 0. 0. 0. 4.25531901e-03 0. 0. 0. 0. 0. 0.
      4.25531901e-03 0. 4.25531901e-03 0. 0. 0. 4.25531901e-03 0. 0. 0.
      0. 0. 0. 0. 0. 0. 8.51063803e-03 0. 0. 0. 1.70212761e-02 0. 0. 0.
      0. 0. 0. 0. 0. 0. 0. 8.51063803e-03 0. 0. 0. 0. 0. 0. 0.
      4.25531901e-03 0. 1.27659570e-02 0. 8.51063803e-03 4.25531901e-03
      4.25531901e-03 0. 4.25531901e-03 0. 0. 0. 0. 0. 0. 0.
      4.25531901e-03 0. 0. 0. 0. 0. 0. 0. 8.51063803e-03 0. 0. 0. 0. 0.
      0. 0. 0. 4.25531901e-03 0. 0. 0. 0. 0. 0. 4.25531901e-03 0. 0. 0.
      0. 0. 0. 0. 0. 0. 0. 0. 0. 0. 4.25531901e-03 8.51063803e-03
      4.25531901e-03 0. 0. 0. 0. 0. 0. 0. 0. 0. 0. 0. 0. 0. 0. 0. 0. 0.
      0. 0. 0. 8.51063803e-03 4.25531901e-03 0. 1.27659570e-02 0. 0. 0.
      0. 0. 4.25531901e-03 0. 0. 0. 8.51063803e-03 0. 0. 0. 0. 0.
      4.25531901e-03 0. 0. 0. 0. 0. 8.51063803e-03 0. 8.51063803e-03
      8.51063803e-03 0. 0. 0. 0. 0. 0. 0. 0. 0. 0. 0. 0. 4.25531901e-03
      1.27659570e-02 0. 0. 0. 0. 0. 0. 0. 4.25531901e-03 0. 0. 0. 0. 0.
      0. 0. 0. 0. 0. 0. 0. 0. 0. 0. 0. 0. 0. 0. 0. 4.25531901e-03 0.
      4.25531901e-03 0. 0. 0. 0. 0. 0. 0. 4.25531901e-03 0. 0. 0. 0.
      8.51063803e-03 4.25531901e-03 0. 0. 0. 4.25531901e-03 0. 0.
      4.25531901e-03 0. 8.51063803e-03 0. 0. 8.51063803e-03 0.
      4.25531901e-03 0. 0. 0. 0. 4.25531901e-03 0. 0. 0. 0. 0. 0. 0. 0.
      0. 0. 0. 0. 0. 0. 0. 0. 0. 0. 0. 0. 0. 0. 0. 0. 8.51063803e-03 0.
      0. 0. 0. 0. 0. 0. 4.25531901e-03 0. 0. 0. 0. 0. 0. 0. 0. 0. 0. 0.
      0. 0. 0. 0. 0. 0. 0. 0. 0. 0. 0. 0. 8.51063803e-03 0.
      4.25531901e-03 0. 0. 0. 0. 0. 0. 0. 0. 0. 0. 0. 0. 0.
      4.25531901e-03 0. 0. 0. 0. 0. 0. 0. 0. 0. 0. 0. 4.25531901e-03 0.
      0. 0. 0. 0. 0. 0. 0. 0. 0. 0. 0. 0. 0. 0. 0. 0. 0. 0. 0. 0. 0.
      4.25531901e-03 0. 0. 0. 0. 0. 0. 4.25531901e-03 0. 0. 0. 0. 0. 0.
      0. 0. 0. 0. 0. 0. 0. 0. 0. 0. 0. 0. 0. 0. 0. 0. 0. 0. 0. 0. 0. 0.
      0. 0. 0. 0. 0. 0. 0. 0. 0. 0. 0. 0. 4.25531901e-03 0. 0. 0. 0. 0.
      0. 0. 0. 4.25531901e-03 0. 0. 4.25531901e-03 0. 0. 0.
      4.25531901e-03 0. 0. 0. 0. 4.25531901e-03 0. 4.25531901e-03 0. 0.
      4.25531901e-03 0. 0. 0. 4.25531901e-03 0. 0. 0. 0. 0. 0. 0.
      4.25531901e-03 0. 0. 0. 0. 0. 0. 0. 8.51063803e-03 0. 0.</_>
    <_>
      0. 0. 0. 0. 0. 0. 0. 0. 0. 0. 0. 0. 0. 0. 0. 0. 0. 0. 0. 0. 0. 0.
      0. 0. 0. 0. 8.51063803e-03 0. 0. 0. 0. 0. 0. 0. 0. 0. 0. 0. 0. 0.
      0. 8.51063803e-03 8.51063803e-03 0. 0. 0. 0. 0. 0. 0. 0.
      4.25531901e-03 0. 0. 8.51063803e-03 0. 4.25531901e-03 0.
      1.27659570e-02 0. 0. 0. 0. 0. 0. 0. 0. 0. 4.25531901e-03 0.
      4.25531901e-03 0. 0. 0. 0. 4.25531901e-03 4.25531901e-03 0. 0. 0.
      0. 0. 0. 0. 0. 0. 4.25531901e-03 0. 0. 0. 0. 0. 0. 0. 0. 0. 0. 0.
      0. 0. 0. 0. 0. 0. 0. 0. 0. 0. 4.25531901e-03 0. 0. 0. 0. 0. 0. 0.
      0. 0. 0. 0. 0. 8.51063803e-03 0. 0. 0. 0. 0. 0. 0. 0. 0.
      2.55319141e-02 0. 0. 4.25531901e-03 0. 0. 0. 0. 0. 0. 0. 0. 0. 0.
      0. 0. 0. 0. 0. 0. 0. 0. 0. 0. 0. 0. 0. 4.25531901e-03 0. 0. 0. 0.
      0. 0. 0. 8.51063803e-03 0. 8.51063803e-03 0. 0. 0. 0. 0. 0. 0.
      8.51063803e-03 0. 0. 0. 0. 0. 0. 0. 0. 0. 0. 0. 0. 0. 0. 0. 0. 0.
      4.25531901e-03 0. 0. 0. 0. 0. 0. 0. 0. 0. 0. 0. 0. 0. 0. 0.
      8.51063803e-03 0. 0. 0. 0. 0. 0. 0. 0. 0. 0. 0. 0. 0. 0. 0. 0. 0.
      0. 0. 0. 0. 8.51063803e-03 8.51063803e-03 0. 0. 0. 0. 0.
      4.25531901e-03 0. 0. 0. 0. 0. 0. 0. 0. 0. 4.25531901e-03 0.
      1.27659570e-02 0. 0. 0. 0. 0. 0. 0. 0. 0. 0. 3.82978693e-02
      4.25531901e-03 0. 0. 0. 0. 0. 0. 0. 4.25531901e-03 0. 0. 0. 0. 0.
      0. 0. 0. 0. 4.25531901e-03 0. 0. 0. 0. 0. 0. 0. 4.25531901e-03 0.
      0. 0. 0. 0. 0. 0. 0. 0. 0. 0. 4.25531901e-03 0. 0. 0. 0. 0.
      4.25531901e-03 0. 0. 4.25531901e-03 4.25531901e-03 0. 0. 0. 0. 0.
      0. 4.25531901e-02 0. 1.27659570e-02 0. 0. 0. 0. 0. 0.
      4.25531901e-03 0. 1.27659570e-02 0. 0. 0. 0. 0. 0. 0. 0. 0.
      4.25531901e-03 4.25531901e-03 0. 0. 0. 0. 0. 0. 0. 0. 0. 0. 0. 0.
      0. 4.25531901e-03 0. 0. 0. 0. 0. 0. 0. 0. 0. 0. 4.25531901e-03
      1.70212761e-02 0. 0. 0. 0. 0. 0. 0. 0. 0. 0. 0. 0. 0. 0. 0. 0. 0.
      0. 0. 4.25531901e-03 0. 0. 0. 0. 0. 0. 0. 0. 4.25531901e-03 0. 0.
      8.51063803e-03 0. 8.51063803e-03 0. 0. 1.27659570e-02 0.
      8.51063803e-03 0. 0. 0. 0. 0. 0. 0. 0. 0. 0. 1.70212761e-02 0. 0.
      0. 0. 0. 0. 0. 0. 0. 0. 0. 0. 0. 0. 4.25531901e-03 0. 0. 0. 0. 0.
      0. 0. 0. 0. 0. 0. 0. 4.25531901e-03 4.25531901e-03 0. 0. 0. 0. 0.
      4.25531901e-03 0. 0. 4.25531901e-03 0. 0. 0. 0. 0. 4.25531901e-03
      0. 0. 0. 0. 0. 0. 0. 0. 0. 0. 0. 0. 0. 0. 0. 0. 0. 0. 0.
      4.25531901e-03 0. 4.25531901e-03 0. 0. 0. 0. 0. 2.12765951e-02 0.
      0. 0. 4.25531901e-03 0. 0. 0. 4.25531901e-03 0. 0. 0. 0. 0. 0. 0.
      0. 0. 4.25531901e-03 4.25531901e-03 2.12765951e-02 0. 0. 0.
      4.25531901e-03 0. 0. 0. 0. 0. 0. 4.25531901e-03 0. 0.
      4.25531901e-03 4.25531901e-03 0. 0. 2.55319141e-02 4.25531901e-03
      0. 0. 0. 0. 0. 0. 0. 0. 0. 0. 4.25531901e-03 0. 0. 0.
      8.51063803e-03 4.25531901e-03 0. 0. 0. 0. 0. 0. 0. 8.51063803e-03
      0. 0. 0. 0. 4.25531901e-03 0. 0. 0. 0. 0. 4.25531901e-03 0. 0. 0.
      0. 4.25531901e-03 0. 0. 0. 8.51063803e-03 0. 0. 0. 1.27659570e-02
      0. 4.25531901e-03 8.51063803e-03 0. 0. 0. 4.25531901e-03 0. 0. 0.
      0. 0. 0. 0. 0. 0. 0. 0. 0. 0. 4.25531901e-03 0. 0. 0. 0. 0. 0. 0.
      4.25531901e-03 0. 0. 0. 0. 0. 0. 0. 0. 0. 1.27659570e-02 0. 0. 0.
      0. 0. 0. 0. 0. 0. 4.25531901e-03 0. 0. 0. 0. 0. 0. 0. 0. 0. 0. 0.
      0. 0. 1.27659570e-02 0. 0. 0. 0. 0. 0. 0. 0. 0. 0. 0. 0. 0.
      4.25531901e-03 0. 0. 8.51063803e-03 0. 0. 0. 0. 4.25531901e-03 0.
      0. 0. 0. 0. 0. 0. 0. 4.25531901e-03 0. 0. 0. 0. 0. 0. 0. 0. 0.
      4.25531901e-03 0. 0. 0. 4.25531901e-03 0. 0. 0. 0. 0. 0.
      2.97872331e-02 4.25531901e-03 0. 0. 0. 0. 0. 0. 0. 8.51063803e-03
      0. 4.25531901e-03 4.25531901e-03 0. 0. 0. 4.25531901e-03 0. 0. 0.
      0. 0. 4.25531901e-03 0. 4.25531901e-03 0. 4.25531901e-03
      4.25531901e-03 0. 0. 0. 0. 1.70212761e-02 0. 0. 0. 0. 0. 0. 0.
      4.25531901e-03 0. 4.25531901e-03 8.51063803e-03 0. 0. 0. 0.
      4.25531901e-03 0. 0. 0. 0. 0. 0. 0. 0. 0. 0. 0. 8.51063803e-03
      8.51063803e-03 0. 0. 0. 0. 0. 0. 0. 0. 0. 0. 0. 0. 0. 0. 0. 0. 0.
      0. 0. 4.25531901e-03 0. 4.25531901e-03 0. 0. 0. 0. 0. 0. 0. 0. 0.
      0. 0. 0. 4.25531901e-03 0. 0. 0. 0. 0. 0. 0. 0. 0. 0. 0. 0. 0. 0.
      0. 0. 0. 0. 4.25531901e-03 0. 0. 0. 0. 0. 0. 0. 0. 0. 0. 0. 0. 0.
      0. 0. 0. 0. 0. 0. 0. 0. 0. 0. 0. 0. 0. 0. 0. 0. 0. 0. 0. 0. 0. 0.
      1.70212761e-02 0. 0. 0. 0. 0. 0. 0. 0. 0. 0. 0. 0. 0. 0. 0. 0. 0.
      0. 0. 0. 0. 0. 0. 0. 0. 0. 0. 0. 0. 0. 0. 0. 0. 0. 0.
      1.70212761e-02 0. 0. 0. 0. 0. 0. 0. 0. 0. 0. 0. 0. 0. 0. 0. 0. 0.
      4.25531901e-03 0. 4.25531901e-03 0. 0. 0. 0. 0. 0. 0. 0. 0. 0. 0.
      0. 0. 0. 0. 0. 0. 0. 4.25531901e-03 1.27659570e-02 0. 0. 0. 0. 0.
      0. 0. 0. 0. 0. 0. 0. 0. 0. 0. 0. 0. 0. 0. 0. 0. 0. 0. 0. 0. 0. 0.
      0. 1.70212761e-02 0. 0. 0. 0. 0. 4.25531901e-03 0. 0.
      4.25531901e-03 0. 0. 0. 0. 4.25531901e-03 0. 0. 0. 0. 0.
      8.51063803e-03 0. 0. 0. 0. 0. 0. 0. 0. 0. 0. 4.25531901e-03 0. 0.
      0. 0. 4.25531901e-03 0. 0. 0. 0. 0. 0. 8.51063803e-03 0. 0. 0. 0.
      4.25531901e-03 4.25531901e-03 0. 0. 0. 4.25531901e-03</_>
    <_>
      0. 0. 0. 0. 0. 0. 0. 0. 0. 0. 0. 0. 0. 0. 0. 0. 0. 1.10701108e-02
      0. 0. 0. 0. 0. 0. 0. 0. 1.47601478e-02 0. 0. 1.10701108e-02 0.
      7.38007389e-03 3.69003695e-03 3.69003695e-03 0. 0. 0. 0. 0.
      3.69003695e-03 0. 0. 3.69003695e-03 0. 0. 3.69003695e-03 0. 0. 0.
      0. 3.69003695e-03 1.10701108e-02 0. 0. 0. 0. 1.10701108e-02 0. 0.
      0. 0. 0. 0. 0. 0. 0. 0. 0. 0. 0. 0. 0. 0. 0. 0. 3.69003695e-03 0.
      0. 0. 0. 0. 0. 0. 0. 0. 0. 7.38007389e-03 0. 0. 0. 0.
      7.38007389e-03 0. 0. 0. 0. 0. 0. 3.69003695e-03 0. 0. 0. 0. 0. 0.
      0. 0. 3.69003695e-03 0. 0. 3.69003695e-03 0. 0. 0. 0. 0.
      3.69003695e-03 0. 0. 0. 3.69003695e-03 1.47601478e-02
      7.38007389e-03 0. 0. 0. 0. 1.84501857e-02 0. 0. 0. 0. 0.
      3.69003695e-03 0. 0. 0. 0. 0. 0. 0. 3.69003695e-03 0.
      3.69003695e-03 0. 0. 0. 3.69003695e-03 0. 0. 0. 0. 0. 0. 0.
      1.47601478e-02 3.69003695e-03 0. 0. 0. 0. 0. 0. 0. 0. 0. 0.
      3.69003695e-03 3.69003695e-03 0. 0. 3.69003695e-03 3.69003695e-03
      0. 0. 3.69003695e-03 0. 0. 0. 0. 4.42804433e-02 0. 0.
      7.38007389e-03 3.69003695e-03 0. 0. 7.38007389e-03 0. 0. 0. 0.
      3.69003695e-03 0. 0. 0. 0. 0. 0. 0. 0. 0. 3.69003695e-03 0.
      3.69003695e-03 0. 0. 0. 0. 0. 0. 0. 0. 0. 0. 0. 7.38007389e-03 0.
      0. 0. 0. 0. 3.69003695e-03 0. 0. 0. 0. 0. 3.69003695e-03 0.
      3.69003695e-03 0. 0. 0. 0. 0. 0. 0. 0. 0. 0. 0. 0. 0. 0. 0. 0. 0.
      0. 1.47601478e-02 0. 0. 1.10701108e-02 0. 0. 0. 0. 0. 0. 0. 0. 0.
      2.58302577e-02 0. 0. 0. 0. 3.69003695e-03 0. 0. 3.69003695e-03 0.
      0. 0. 0. 0. 0. 0. 3.69003695e-03 0. 0. 3.69003695e-03 0. 0. 0.
      3.69003695e-03 0. 0. 0. 0. 0. 0. 0. 0. 0. 0. 0. 0. 0. 0. 0. 0. 0.
      0. 0. 0. 7.38007389e-03 0. 0. 3.69003695e-03 0. 0. 3.69003695e-03
      0. 3.69003695e-03 0. 0. 0. 0. 0. 2.21402217e-02 0. 0. 0. 0. 0. 0.
      0. 0. 0. 0. 3.69003695e-03 0. 0. 0. 0. 0. 0. 0. 0. 0. 0. 0. 0. 0.
      0. 0. 0. 0. 0. 0. 0. 0. 0. 2.21402217e-02 0. 0. 0. 0.
      7.38007389e-03 3.69003695e-03 0. 0. 0. 0. 7.38007389e-03
      1.10701108e-02 0. 7.38007389e-03 0. 0. 0. 0. 0. 0. 0. 0. 0. 0.
      3.69003695e-03 0. 0. 0. 0. 0. 3.69003695e-03 0. 0. 0. 0. 0. 0. 0.
      0. 0. 0. 0. 0. 0. 0. 0. 0. 0. 0. 0. 0. 0. 0. 0. 3.69003695e-03 0.
      3.69003695e-03 1.10701108e-02 0. 0. 0. 3.69003695e-03 0. 0. 0.
      1.10701108e-02 0. 0. 0. 0. 0. 0. 0. 0. 0. 1.10701108e-02 0. 0.
      3.69003695e-03 0. 3.69003695e-03 0. 0. 0. 0. 0. 0. 0. 0. 0. 0. 0.
      0. 0. 0. 0. 0. 0. 0. 0. 0. 0. 7.38007389e-03 0. 0. 3.69003695e-03
      0. 0. 0. 0. 0. 0. 0. 0. 0. 0. 0. 0. 0. 0. 3.69003695e-03 0. 0. 0.
      0. 0. 0. 0. 3.69003695e-03 0. 0. 0. 0. 0. 0. 0. 0. 0. 0. 0. 0. 0.
      0. 0. 0. 0. 0. 0. 0. 0. 0. 0. 0. 3.69003695e-03 0. 0. 0.
      7.38007389e-03 3.69003695e-03 0. 0. 0. 0. 0. 0. 0. 0. 0.
      7.38007389e-03 0. 0. 3.69003695e-03 0. 3.69003695e-03
      3.69003695e-03 0. 0. 0. 1.47601478e-02 3.69003695e-03 0. 0. 0.
      3.69003695e-03 0. 3.69003695e-03 1.10701108e-02 1.10701108e-02 0.
      0. 0. 7.38007389e-03 0. 3.69003695e-03 0. 0. 0. 0. 0. 0. 0.
      2.21402217e-02 0. 0. 0. 0. 0. 0. 0. 0. 0. 0. 0. 0. 0. 0. 0. 0. 0.
      0. 0. 0. 0. 1.47601478e-02 0. 0. 0. 0. 0. 0. 0. 0. 0. 0. 0. 0. 0.
      0. 0. 0. 0. 0. 0. 0. 0. 3.69003695e-03 3.69003695e-03 0. 0. 0. 0.
      0. 0. 0. 0. 0. 0. 0. 0. 0. 0. 0. 0. 0. 3.69003695e-03 0. 0. 0. 0.
      3.69003695e-03 0. 0. 0. 3.69003695e-03 3.69003695e-03 0. 0.
      3.69003695e-03 0. 0. 0. 0. 0. 0. 0. 0. 0. 0. 0. 0. 0.
      3.69003695e-03 0. 0. 0. 0. 0. 0. 0. 0. 7.38007389e-03
      7.38007389e-03 0. 0. 0. 3.69003695e-03 0. 0. 0. 0. 0. 0.
      3.69003695e-03 3.69003695e-03 0. 0. 0. 0. 0. 3.69003695e-03 0. 0.
      0. 0. 0. 0. 0. 0. 0. 0. 0. 3.69003695e-03 0. 0. 3.69003695e-03 0.
      0. 7.38007389e-03 0. 0. 0. 0. 3.69003695e-03 0. 3.69003695e-03 0.
      0. 0. 0. 0. 0. 0. 0. 0. 0. 0. 0. 0. 0. 3.69003695e-03 0.
      7.38007389e-03 0. 0. 0. 0. 0. 0. 0. 0. 0. 0. 0. 3.69003695e-03 0.
      0. 3.69003695e-03 0. 0. 0. 0. 0. 0. 0. 0. 0. 3.69003695e-03
      3.69003695e-03 0. 0. 0. 0. 0. 0. 0. 0. 0. 0. 0. 0. 0. 0. 0. 0. 0.
      0. 0. 0. 0. 0. 0. 0. 0. 0. 3.69003695e-03 0. 0. 0. 7.38007389e-03
      0. 0. 0. 0. 0. 3.69003695e-03 0. 0. 0. 0. 0. 0. 0. 0.
      2.21402217e-02 0. 0. 3.69003695e-03 0. 0. 3.69003695e-03
      3.69003695e-03 0. 0. 0. 0. 3.69003695e-03 0. 0. 3.69003695e-03
      7.38007389e-03 0. 0. 0. 3.69003695e-03 0. 0. 0. 0. 0. 0. 0. 0. 0.
      0. 0. 7.38007389e-03 0. 0. 1.10701108e-02 0. 0. 0. 0. 0. 0. 0. 0.
      0. 0. 0. 0. 0. 0. 0. 0. 0. 7.38007389e-03 1.10701108e-02 0. 0. 0.
      0. 0. 0. 0. 0. 0. 0. 0. 7.38007389e-03 7.38007389e-03
      7.38007389e-03 0. 1.47601478e-02 0. 0. 0. 0. 0. 0. 0. 0. 0. 0. 0.
      0. 0. 3.69003695e-03 0. 3.69003695e-03 0. 0. 7.38007389e-03 0.
      3.69003695e-03 0. 0. 0. 0. 0. 0. 0. 0. 0. 0. 0. 0. 0. 0. 0. 0. 0.
      0. 0. 0. 0. 0. 0. 0. 0. 0. 0. 0. 0. 0. 0. 0. 0. 0. 0. 0. 0.
      7.38007389e-03 0. 0. 0. 0. 0. 0. 3.69003695e-03 0. 0. 0. 0. 0. 0.
      3.69003695e-03 0. 0. 0. 0. 0. 0. 7.38007389e-03 0. 0. 0. 0. 0. 0.
      0. 0. 0. 0. 0. 0. 0. 0. 0. 0. 0. 0. 0. 0. 0. 0. 0. 0. 0. 0. 0. 0.
      0. 0. 0. 0. 0. 0. 0. 0. 7.38007389e-03 0. 7.38007389e-03 0.
      3.69003695e-03 0. 0. 0. 0. 0. 0. 0. 0. 0. 0. 0. 0. 0. 0.
      3.69003695e-03 0. 0. 0. 0. 0.</_>
    <_>
      3.38983047e-03 0. 0. 0. 0. 0. 3.38983047e-03 0. 0. 1.35593219e-02
      6.77966094e-03 0. 3.38983047e-03 0. 0. 0. 0. 0. 0. 0. 0. 0. 0. 0.
      0. 0. 3.38983047e-03 6.77966094e-03 0. 0. 0. 0. 0. 0. 0.
      3.38983047e-03 0. 0. 0. 0. 0. 0. 3.38983047e-03 3.38983047e-03 0.
      0. 0. 0. 3.38983047e-03 0. 0. 3.38983047e-03 0. 0. 1.69491526e-02
      0. 0. 0. 6.77966094e-03 6.77966094e-03 0. 0. 0. 0. 0. 0. 0. 0. 0.
      0. 3.38983047e-03 3.38983047e-03 0. 0. 0. 0. 0. 0. 0.
      3.38983047e-03 0. 0. 0. 0. 0. 0. 6.77966094e-03 0. 0. 0. 0. 0. 0.
      0. 0. 0. 0. 0. 0. 0. 0. 0. 0. 0. 0. 0. 0. 0. 0. 0. 0.
      6.77966094e-03 0. 0. 0. 0. 0. 0. 0. 0. 6.77966094e-03
      6.77966094e-03 3.38983047e-03 3.38983047e-03 0. 0. 0. 0. 0.
      3.38983047e-03 6.77966094e-03 2.03389823e-02 0. 0. 0. 0. 0. 0. 0.
      0. 0. 0. 0. 0. 0. 0. 0. 0. 0. 0. 0. 0. 0. 0. 0. 1.35593219e-02
      3.38983047e-03 1.69491526e-02 0. 0. 0. 3.38983047e-03 0. 0. 0. 0.
      0. 0. 0. 0. 0. 0. 0. 0. 0. 0. 0. 3.38983047e-03 0. 0.
      1.01694912e-02 0. 0. 3.38983047e-03 0. 0. 0. 3.38983047e-03 0. 0.
      0. 3.38983047e-03 0. 0. 0. 3.38983047e-03 0. 0. 0. 0. 0. 0. 0. 0.
      0. 0. 0. 3.38983047e-03 0. 0. 6.77966094e-03 6.77966094e-03 0. 0.
      0. 0. 0. 0. 0. 6.77966094e-03 0. 0. 0. 6.77966094e-03
      6.77966094e-03 0. 0. 0. 3.38983047e-03 0. 6.77966094e-03 0.
      6.77966094e-03 0. 0. 3.38983047e-03 0. 0. 0. 6.77966094e-03
      6.77966094e-03 0. 0. 0. 3.38983047e-03 0. 0. 0. 0. 0.
      3.38983047e-03 0. 3.38983047e-03 0. 0. 0. 6.77966094e-03 0. 0. 0.
      0. 0. 3.38983047e-03 0. 3.38983047e-03 0. 0. 0. 0. 0. 0. 0.
      3.38983047e-03 0. 0. 0. 0. 0. 0. 0. 0. 0. 3.38983047e-03
      1.35593219e-02 0. 3.38983047e-03 0. 0. 0. 0. 0. 0. 0. 0. 0. 0. 0.
      0. 0. 0. 0. 0. 2.03389823e-02 0. 0. 3.38983047e-03 0.
      3.38983047e-03 0. 0. 0. 0. 0. 0. 0. 0. 0. 0. 0. 3.38983047e-03 0.
      0. 0. 0. 0. 3.38983047e-03 0. 0. 0. 0. 0. 0. 0. 0. 3.38983047e-03
      0. 0. 3.38983047e-03 0. 0. 0. 3.38983047e-03 0. 0. 0. 0. 0. 0. 0.
      0. 0. 0. 0. 0. 0. 0. 0. 3.38983047e-03 0. 0. 0. 0. 0. 0. 0. 0. 0.
      0. 0. 0. 3.38983047e-03 0. 0. 3.38983047e-03 6.77966094e-03 0. 0.
      0. 0. 3.38983047e-03 0. 0. 0. 0. 0. 0. 0. 0. 0. 0. 0. 0. 0. 0. 0.
      0. 0. 0. 0. 0. 3.38983047e-03 0. 0. 0. 0. 0. 0. 0. 1.01694912e-02
      0. 0. 1.35593219e-02 0. 0. 3.38983047e-03 0. 1.01694912e-02 0. 0.
      0. 0. 0. 0. 3.38983047e-03 0. 0. 6.77966094e-03 0. 0. 0. 0. 0. 0.
      0. 0. 0. 0. 0. 0. 0. 0. 0. 0. 0. 0. 0. 0. 0. 0. 0. 0. 0. 0.
      6.77966094e-03 0. 3.38983047e-03 3.38983047e-03 0. 0. 0. 0. 0. 0.
      0. 0. 0. 0. 0. 0. 0. 0. 0. 0. 0. 0. 3.38983047e-03 0. 0. 0. 0. 0.
      0. 0. 0. 0. 0. 6.77966094e-03 0. 0. 0. 0. 0. 0. 0. 0. 0. 0. 0.
      3.38983047e-03 0. 0. 0. 0. 0. 0. 3.38983047e-03 0. 0.
      6.77966094e-03 3.38983047e-03 0. 0. 0. 0. 1.01694912e-02 0. 0.
      3.38983047e-03 0. 3.38983047e-03 0. 0. 3.38983047e-03
      6.77966094e-03 3.38983047e-03 3.38983047e-03 0. 3.38983047e-03 0.
      3.38983047e-03 0. 0. 0. 0. 0. 3.38983047e-03 3.38983047e-03 0. 0.
      0. 0. 3.38983047e-03 0. 1.35593219e-02 0. 3.38983047e-03 0. 0.
      3.38983047e-03 0. 0. 0. 0. 0. 0. 0. 0. 0. 0. 0. 0. 0. 0. 0. 0. 0.
      3.38983047e-03 0. 6.77966094e-03 0. 0. 0. 0. 0. 0. 0. 0. 0.
      3.38983047e-03 6.77966094e-03 0. 0. 3.38983047e-03 0. 0. 0. 0.
      3.38983047e-03 0. 0. 0. 0. 0. 3.38983047e-03 0. 3.38983047e-03 0.
      0. 0. 0. 0. 0. 0. 3.38983047e-03 0. 0. 0. 0. 0. 0. 0. 0. 0. 0.
      1.35593219e-02 0. 0. 0. 0. 0. 0. 0. 0. 0. 3.38983047e-03 0. 0. 0.
      3.38983047e-03 0. 0. 0. 3.38983047e-03 0. 0. 0. 0. 1.01694912e-02
      0. 0. 0. 0. 0. 0. 6.77966094e-03 3.38983047e-03 6.77966094e-03 0.
      0. 0. 0. 0. 0. 0. 0. 3.38983047e-03 0. 3.38983047e-03 0. 0.
      1.69491526e-02 0. 0. 0. 0. 0. 0. 3.38983047e-03 0. 3.38983047e-03
      0. 0. 0. 0. 3.38983047e-03 0. 0. 0. 0. 0. 0. 0. 3.38983047e-03
      6.77966094e-03 1.01694912e-02 0. 0. 0. 3.38983047e-03 0. 0. 0. 0.
      0. 0. 0. 0. 3.38983047e-03 0. 0. 6.77966094e-03 0. 3.38983047e-03
      0. 0. 0. 3.38983047e-03 0. 0. 0. 0. 0. 0. 6.77966094e-03
      3.38983047e-03 0. 0. 6.77966094e-03 0. 0. 0. 0. 1.35593219e-02 0.
      0. 0. 0. 0. 0. 0. 3.38983047e-03 0. 0. 0. 0. 0. 0. 0. 0. 0. 0. 0.
      0. 3.38983047e-03 0. 3.38983047e-03 3.38983047e-03 0. 0. 0. 0.
      2.03389823e-02 0. 0. 0. 0. 0. 0. 0. 0. 0. 3.38983047e-03
      3.38983047e-03 0. 0. 0. 0. 0. 0. 0. 0. 0. 0. 3.38983047e-03 0.
      6.77966094e-03 0. 0. 0. 0. 0. 0. 6.77966094e-03 0. 0. 0. 0. 0.
      3.38983047e-03 0. 0. 0. 0. 0. 0. 3.38983047e-03 0. 0. 0. 0. 0. 0.
      0. 0. 0. 0. 0. 0. 0. 0. 0. 1.01694912e-02 0. 0. 0. 0. 0. 0. 0. 0.
      0. 0. 0. 0. 0. 0. 0. 0. 0. 0. 0. 0. 0. 0. 0. 0. 0. 0. 0. 0. 0. 0.
      0. 0. 0. 0. 0. 0. 6.77966094e-03 0. 0. 0. 0. 0. 0. 0.
      3.38983047e-03 0. 0. 0. 0. 0. 0. 0. 0. 0. 0. 0. 3.38983047e-03 0.
      0. 0. 6.77966094e-03 0. 0. 0. 0. 1.69491526e-02 0. 0.
      3.38983047e-03 6.77966094e-03 0. 0. 0. 0. 0. 0. 0. 0. 0. 0. 0.
      3.38983047e-03 0. 0. 0. 3.38983047e-03 3.38983047e-03 0. 0. 0.
      3.38983047e-03 0. 0. 0. 0. 0. 0. 0. 0. 0. 6.77966094e-03 0. 0. 0.
      3.38983047e-03 0. 0. 0. 0. 0. 0. 0. 0. 0. 0. 3.38983047e-03 0.
      3.38983047e-03 0. 3.38983047e-03 0. 0. 0. 0. 0. 0. 3.38983047e-03
      0. 0. 0. 0. 3.38983047e-03 0. 0. 0. 3.38983047e-03 3.38983047e-03
      0. 0. 0. 0. 0. 0. 3.38983047e-03 0. 0. 3.38983047e-03 0.
      3.38983047e-03 0. 0. 0. 3.38983047e-03 0. 0. 0. 0. 3.38983047e-03
      0. 0. 0. 0. 0. 1.01694912e-02 0. 6.77966094e-03 0. 3.38983047e-03
      0. 0. 0. 0. 0. 0. 0. 6.77966094e-03 0. 0. 1.01694912e-02 0. 0. 0.
      6.77966094e-03 3.38983047e-03 0. 0. 0. 0.</_>
    <_>
      0. 0. 3.52112669e-03 0. 0. 3.52112669e-03 0. 0. 0. 0. 0. 0. 0. 0.
      0. 3.52112669e-03 0. 0. 0. 0. 0. 0. 3.52112669e-03 0. 0. 0. 0.
      7.04225339e-03 0. 0. 1.05633801e-02 3.52112669e-03 0. 0.
      3.52112669e-03 0. 0. 1.05633801e-02 0. 0. 0. 0. 0. 2.11267602e-02
      0. 0. 0. 0. 0. 0. 0. 0. 0. 0. 0. 3.52112669e-03 3.52112669e-03 0.
      0. 0. 0. 0. 0. 0. 3.52112669e-03 3.52112669e-03 0. 0.
      3.52112669e-03 0. 0. 1.40845068e-02 0. 0. 0. 0. 7.04225339e-03
      1.05633801e-02 0. 0. 1.05633801e-02 0. 0. 0. 0. 4.92957756e-02 0.
      0. 0. 0. 0. 0. 0. 0. 0. 0. 0. 0. 3.52112669e-03 0. 0. 0. 0. 0. 0.
      1.40845068e-02 0. 0. 3.52112669e-03 0. 0. 0. 3.52112669e-03 0. 0.
      0. 0. 0. 0. 3.52112669e-03 0. 0. 0. 0. 0. 3.52112669e-03 0.
      3.52112669e-03 0. 0. 0. 3.52112669e-03 3.52112669e-03 0. 0. 0. 0.
      0. 0. 0. 0. 7.04225339e-03 0. 0. 0. 0. 0. 0. 0. 0. 0. 0. 0. 0. 0.
      0. 0. 0. 0. 1.05633801e-02 0. 0. 0. 0. 0. 0. 0. 0. 0. 0. 0.
      1.05633801e-02 0. 0. 0. 0. 1.40845068e-02 0. 0. 0. 3.52112669e-03
      0. 0. 0. 3.52112669e-03 0. 0. 0. 0. 3.52112669e-03 0. 0. 0. 0. 0.
      0. 0. 0. 0. 0. 0. 7.04225339e-03 0. 0. 0. 0. 0. 1.05633801e-02 0.
      0. 0. 0. 0. 0. 3.52112669e-03 0. 0. 0. 0. 0. 0. 0. 0. 0. 0. 0. 0.
      7.04225339e-03 3.52112669e-03 0. 0. 0. 0. 0. 7.04225339e-03 0. 0.
      0. 0. 0. 0. 0. 0. 3.52112669e-03 0. 3.52112669e-03 0. 0. 0. 0.
      3.52112669e-03 0. 3.52112669e-03 0. 0. 0. 0. 0. 0. 0. 0.
      3.52112669e-03 0. 0. 0. 1.05633801e-02 0. 0. 0. 0. 0. 0.
      3.52112669e-03 0. 0. 3.52112669e-03 0. 2.11267602e-02 0. 0. 0. 0.
      3.52112669e-03 0. 0. 0. 0. 0. 0. 0. 0. 0. 0. 0. 0. 0. 0. 0. 0. 0.
      0. 0. 0. 0. 0. 0. 0. 0. 0. 0. 0. 0. 3.52112669e-03 0.
      1.40845068e-02 0. 0. 0. 0. 0. 3.52112669e-03 0. 0. 0. 0.
      3.52112669e-03 0. 0. 0. 0. 0. 0. 7.04225339e-03 0. 0. 0. 0. 0. 0.
      0. 0. 0. 0. 0. 0. 0. 0. 0. 0. 0. 0. 0. 3.52112669e-03 0. 0. 0. 0.
      0. 0. 0. 0. 0. 0. 0. 0. 0. 0. 0. 0. 0. 0. 0. 0. 0. 0. 0. 0. 0. 0.
      3.52112669e-03 0. 0. 3.52112669e-03 0. 0. 0. 0. 0. 0. 0. 0. 0. 0.
      0. 0. 3.52112669e-03 7.04225339e-03 7.04225339e-03 0. 0. 0.
      7.04225339e-03 7.04225339e-03 0. 0. 3.52112669e-03 0. 0. 0.
      3.52112669e-03 0. 3.52112669e-03 0. 0. 0. 0. 1.05633801e-02 0. 0.
      0. 0. 0. 0. 0. 0. 0. 0. 0. 0. 0. 7.04225339e-03 3.52112669e-03 0.
      0. 0. 0. 0. 0. 0. 0. 7.04225339e-03 0. 0. 0. 0. 0. 0. 0.
      7.04225339e-03 0. 0. 0. 0. 0. 0. 0. 0. 0. 3.52112669e-03 0. 0.
      3.52112669e-03 0. 0. 0. 0. 0. 3.52112669e-03 3.52112669e-03 0.
      3.52112669e-03 0. 0. 0. 7.04225339e-03 0. 0. 0. 0. 0. 0. 0. 0. 0.
      0. 0. 0. 0. 0. 0. 0. 0. 0. 0. 0. 0. 0. 0. 0. 0. 1.40845068e-02 0.
      0. 0. 1.40845068e-02 0. 0. 0. 0. 0. 0. 3.52112669e-03 0. 0. 0. 0.
      0. 0. 0. 1.05633801e-02 0. 0. 0. 0. 0. 0. 0. 0. 0. 0. 0. 0. 0. 0.
      0. 3.52112669e-03 0. 0. 0. 0. 3.52112669e-03 0. 0. 0. 0. 0. 0. 0.
      0. 0. 0. 0. 0. 0. 0. 0. 0. 7.04225339e-03 0. 0. 0. 0. 0. 0. 0. 0.
      0. 0. 0. 0. 0. 3.52112669e-03 0. 0. 0. 0. 1.05633801e-02 0. 0. 0.
      0. 0. 0. 0. 0. 0. 0. 1.40845068e-02 0. 1.05633801e-02 0. 0.
      1.05633801e-02 0. 0. 0. 0. 3.52112669e-03 0. 0. 0. 0. 0. 0.
      3.52112669e-03 0. 2.11267602e-02 0. 0. 0. 0. 1.05633801e-02
      7.04225339e-03 0. 7.04225339e-03 0. 0. 0. 0. 1.05633801e-02
      7.04225339e-03 3.52112669e-03 0. 0. 0. 0. 0. 0. 0. 0. 0. 0.
      3.52112669e-03 0. 0. 0. 0. 7.04225339e-03 0. 0. 0. 0.
      3.52112669e-03 0. 0. 0. 0. 0. 0. 0. 0. 0. 0. 1.05633801e-02
      7.04225339e-03 3.52112669e-03 0. 3.16901393e-02 0. 0. 0. 0. 0. 0.
      0. 0. 0. 0. 7.04225339e-03 0. 3.52112669e-03 0. 0. 0. 0. 0. 0. 0.
      7.04225339e-03 0. 0. 0. 0. 3.52112669e-03 0. 0. 0. 0. 0. 0. 0. 0.
      0. 0. 0. 0. 0. 0. 1.05633801e-02 0. 0. 0. 0. 7.04225339e-03 0. 0.
      0. 7.04225339e-03 0. 0. 0. 0. 0. 0. 0. 0. 0. 0. 0. 0. 0. 0. 0. 0.
      0. 0. 0. 0. 0. 0. 0. 0. 0. 0. 0. 0. 0. 0. 0. 0. 0. 0. 0. 0. 0. 0.
      3.52112669e-03 0. 0. 0. 0. 0. 0. 0. 0. 7.04225339e-03 0. 0. 0. 0.
      0. 0. 0. 0. 0. 0. 0. 0. 0. 0. 0. 0. 0. 0. 0. 0. 0. 0.
      3.52112669e-03 0. 0. 0. 0. 0. 0. 0. 3.52112669e-03 0. 0. 0.
      2.46478878e-02 0. 0. 0. 0. 0. 0. 0. 0. 0. 0. 0. 0. 0. 0. 0. 0. 0.
      0. 0. 0. 0. 0. 3.52112669e-03 0. 0. 3.52112669e-03 0. 0.
      1.05633801e-02 0. 0. 0. 0. 0. 0. 3.52112669e-03 0. 0. 0.
      7.04225339e-03 0. 0. 0. 0. 3.52112669e-03 0. 0. 3.52112669e-03 0.
      3.52112669e-03 0. 0. 0. 0. 1.05633801e-02 3.52112669e-03 0. 0.
      3.52112669e-03 0. 0. 0. 0. 0. 0. 0. 0. 0. 0. 0. 0. 0. 0. 0. 0. 0.
      0. 3.52112669e-03 0. 0. 7.04225339e-03 0. 0. 0. 7.04225339e-03 0.
      0. 0. 0. 0. 0. 0. 0. 0. 0. 0. 0. 0. 0. 0. 1.40845068e-02 0.
      3.52112669e-03 0. 0. 3.52112669e-03 0. 0. 0. 0. 0. 3.52112669e-03
      3.52112669e-03 0. 0. 0. 0. 0. 0. 7.04225339e-03 0. 0.
      7.04225339e-03 0. 0. 0. 0. 0. 0. 3.52112669e-03 0. 0. 0. 0. 0. 0.
      3.52112669e-03 0. 0. 0. 0. 3.52112669e-03 0. 0. 0. 0. 0. 0. 0. 0.
      0. 0. 0. 0. 0. 0. 0. 0. 0. 3.52112669e-03 0. 0. 0. 0. 0. 0.
      3.52112669e-03 0. 0. 0. 0. 0. 0. 0. 0. 0. 0. 0. 0. 3.52112669e-03
      0. 0. 0. 0. 0. 0. 0. 0. 0. 0. 0. 0. 0. 0. 0. 0. 0. 0. 0.
      3.52112669e-03 0. 0. 0. 0. 0. 0. 0. 7.04225339e-03 0.</_>
    <_>
      0. 0. 2.80898879e-03 2.80898879e-03 0. 0. 0. 0. 0. 0. 0. 0. 0.
      2.80898879e-03 0. 2.80898879e-03 0. 0. 0. 0. 0. 0. 0. 0. 0. 0. 0.
      0. 0. 0. 0. 2.80898879e-03 0. 0. 0. 0. 0. 0. 1.12359552e-02 0. 0.
      2.80898879e-03 0. 0. 0. 0. 2.80898879e-03 0. 2.80898879e-03 0.
      2.80898879e-03 0. 0. 0. 0. 0. 0. 0. 2.80898879e-03 0. 0. 0. 0. 0.
      5.61797759e-03 2.80898879e-03 2.80898879e-03 0. 0. 0. 0.
      2.80898879e-03 0. 0. 0. 2.80898879e-03 0. 2.80898879e-03 0.
      1.12359552e-02 0. 0. 0. 0. 0. 0. 0. 2.80898879e-03 0. 0. 0.
      5.61797759e-03 0. 0. 0. 2.80898879e-03 0. 0. 0. 0. 0. 0. 0. 0.
      2.80898884e-02 0. 0. 0. 0. 0. 0. 0. 0. 2.80898879e-03 0.
      2.80898879e-03 0. 2.80898879e-03 1.12359552e-02 0. 0. 0. 0. 0. 0.
      0. 0. 2.80898879e-03 0. 8.42696615e-03 0. 0. 0. 0. 0. 0. 0. 0. 0.
      0. 0. 2.80898879e-03 0. 0. 2.80898879e-03 0. 0. 2.80898879e-03 0.
      0. 0. 5.61797759e-03 0. 0. 8.42696615e-03 0. 0. 0. 0. 0. 0. 0. 0.
      0. 0. 0. 0. 0. 0. 0. 0. 0. 5.61797759e-03 0. 5.61797759e-03 0. 0.
      0. 0. 0. 0. 2.80898879e-03 8.42696615e-03 0. 0. 0. 1.68539323e-02
      2.80898879e-03 0. 0. 0. 0. 0. 0. 0. 2.80898879e-03 0. 0. 0. 0. 0.
      0. 0. 0. 5.61797759e-03 0. 0. 0. 0. 0. 0. 0. 0. 0. 0. 0. 0. 0. 0.
      0. 0. 2.80898879e-03 0. 0. 0. 8.42696615e-03 2.80898879e-03 0.
      2.80898879e-03 0. 0. 0. 2.80898879e-03 0. 0. 0. 0. 0. 0. 0. 0.
      1.40449442e-02 2.80898879e-03 2.80898879e-03 0. 0. 0. 0. 0.
      5.61797759e-03 2.80898879e-03 5.61797759e-03 0. 0. 0. 0. 0. 0.
      2.80898879e-03 0. 0. 0. 0. 5.61797759e-03 2.80898879e-03 0. 0. 0.
      0. 2.80898879e-03 0. 0. 0. 0. 2.80898879e-03 0. 0. 0. 0. 0. 0. 0.
      0. 0. 0. 0. 2.80898879e-03 2.80898879e-03 1.12359552e-02 0.
      8.42696615e-03 0. 0. 2.80898879e-03 0. 0. 0. 0. 0. 0.
      2.80898879e-03 0. 0. 0. 0. 1.12359552e-02 0. 0. 0. 2.80898879e-03
      2.80898879e-03 0. 0. 0. 2.80898879e-03 0. 0. 0. 0. 0. 0. 0. 0.
      8.42696615e-03 0. 0. 0. 5.61797759e-03 0. 0. 0. 0. 5.61797759e-03
      0. 2.80898879e-03 0. 0. 5.61797759e-03 0. 0. 0. 0. 0. 0. 0.
      2.80898879e-03 0. 2.80898879e-03 0. 0. 0. 0. 0. 0. 2.80898879e-03
      1.40449442e-02 0. 0. 0. 2.80898879e-03 0. 0. 0. 0. 0.
      5.61797759e-03 0. 0. 5.61797759e-03 0. 0. 0. 0. 0. 5.61797759e-03
      0. 1.12359552e-02 0. 0. 5.61797759e-03 0. 0. 0. 0. 0.
      5.61797759e-03 5.61797759e-03 5.61797759e-03 0. 0. 0.
      5.61797759e-03 0. 0. 0. 0. 0. 8.42696615e-03 0. 0. 0. 0.
      5.61797759e-03 0. 0. 0. 0. 0. 0. 5.61797759e-03 0. 0. 0. 0. 0. 0.
      0. 0. 0. 8.42696615e-03 5.61797759e-03 0. 8.42696615e-03 0. 0. 0.
      0. 8.42696615e-03 0. 0. 0. 0. 0. 0. 0. 2.80898879e-03 0.
      2.80898879e-03 5.61797759e-03 0. 1.12359552e-02 5.61797759e-03 0.
      0. 0. 0. 0. 0. 0. 0. 5.61797759e-03 0. 0. 0. 0. 0. 0. 0. 0. 0.
      2.80898879e-03 2.80898879e-03 0. 2.80898879e-03 0. 0. 0.
      2.80898879e-03 0. 0. 2.80898879e-03 0. 0. 0. 0. 8.42696615e-03 0.
      2.80898879e-03 0. 0. 2.80898879e-03 0. 0. 0. 0. 0. 2.80898879e-03
      0. 0. 0. 0. 0. 2.80898879e-03 0. 0. 0. 0. 2.80898879e-03 0. 0.
      8.42696615e-03 0. 0. 5.61797759e-03 0. 0. 0. 0. 0. 0. 0. 0.
      2.80898879e-03 0. 2.80898879e-03 0. 0. 0. 5.61797759e-03 0.
      8.42696615e-03 0. 2.80898879e-03 0. 0. 0. 0. 0. 0. 0. 0. 0. 0. 0.
      0. 2.80898879e-03 0. 5.61797759e-03 2.80898879e-03 2.80898879e-03
      0. 0. 8.42696615e-03 0. 0. 0. 0. 2.80898879e-03 0. 0. 0.
      1.12359552e-02 0. 5.61797759e-03 0. 0. 0. 0. 0. 0. 0. 0. 0. 0. 0.
      0. 0. 0. 0. 0. 0. 0. 0. 0. 0. 0. 0. 2.80898879e-03 1.40449442e-02
      0. 0. 0. 2.80898879e-03 0. 2.80898879e-03 0. 0. 0. 0. 0.
      2.80898879e-03 0. 0. 0. 2.80898879e-03 0. 0. 0. 0. 0. 0.
      2.80898879e-03 0. 0. 5.61797759e-03 0. 0. 0. 0. 2.80898879e-03 0.
      0. 0. 0. 0. 0. 5.61797759e-03 0. 0. 0. 2.80898879e-03 0. 0.
      2.80898879e-03 5.61797759e-03 0. 0. 0. 0. 0. 0. 0. 0. 0. 0. 0. 0.
      0. 0. 0. 0. 0. 0. 2.80898879e-03 0. 0. 0. 0. 0. 0. 0. 0. 0.
      5.61797759e-03 0. 0. 0. 5.61797759e-03 2.80898879e-03 0. 0. 0. 0.
      0. 5.61797759e-03 5.61797759e-03 0. 0. 2.80898879e-03 0.
      8.42696615e-03 2.80898879e-03 0. 0. 0. 0. 0. 2.80898879e-03
      2.80898879e-03 0. 0. 0. 5.61797759e-03 0. 0. 0. 1.40449442e-02 0.
      0. 0. 0. 0. 0. 0. 2.80898879e-03 0. 0. 0. 0. 0. 0. 0. 0. 0. 0. 0.
      0. 2.80898879e-03 0. 0. 0. 0. 2.80898879e-03 0. 2.80898879e-03 0.
      0. 0. 0. 0. 0. 2.80898879e-03 0. 2.80898879e-03 0. 0. 0. 0. 0. 0.
      0. 0. 2.80898879e-03 0. 2.80898879e-03 0. 0. 0. 2.80898879e-03
      2.80898879e-03 0. 0. 0. 2.80898879e-03 0. 0. 0. 0. 0.
      2.80898879e-03 0. 0. 0. 0. 0. 0. 0. 2.80898879e-03 0. 0. 0. 0. 0.
      0. 0. 0. 0. 0. 0. 0. 0. 0. 0. 2.80898879e-03 0. 0. 0. 0. 0. 0. 0.
      0. 0. 0. 2.80898879e-03 0. 0. 5.61797759e-03 0. 0. 0. 0. 0.
      8.42696615e-03 0. 0. 0. 0. 0. 0. 0. 5.61797759e-03 0.
      8.42696615e-03 0. 0. 0. 5.61797759e-03 0. 0. 0. 0. 0. 0.
      2.80898879e-03 0. 0. 0. 0. 2.80898879e-03 0. 0. 0. 0. 0.
      8.42696615e-03 0. 0. 0. 0. 0. 0. 0. 0. 0. 0. 0. 0. 2.80898879e-03
      0. 0. 0. 2.80898879e-03 0. 0. 0. 0. 0. 0. 0. 1.68539323e-02 0. 0.
      0. 2.80898879e-03 0. 0. 0. 0. 0. 0. 0. 0. 0. 0. 2.80898879e-03 0.
      0. 0. 0. 0. 2.80898879e-03 0. 0. 0. 0. 2.80898879e-03
      1.12359552e-02 0. 0. 0. 1.40449442e-02 8.42696615e-03
      2.80898879e-03 0. 2.80898879e-03 0. 0. 0. 0. 0. 0. 0. 0. 0. 0. 0.
      0. 0. 0. 0. 0. 0. 2.80898879e-03 0. 0. 0. 0. 0. 2.80898879e-03
      5.61797759e-03 0. 0. 0. 0. 0. 8.42696615e-03 0. 0. 0. 0. 0. 0.
      2.80898879e-03 0. 0. 0. 0. 0. 0. 2.80898879e-03 0. 0. 0. 0. 0. 0.
      0. 0. 0. 0. 2.80898879e-03 0. 0. 0. 8.42696615e-03 0. 0.
      2.80898879e-03 0. 0. 0. 0. 0. 0. 0. 0. 0. 0. 0. 0. 0. 0. 0. 0.
      2.80898879e-03 0. 0. 5.61797759e-03 0. 0. 0. 0. 0. 0. 0.
      8.42696615e-03 0. 0. 8.42696615e-03 0. 0. 0. 0. 0. 0.
      5.61797759e-03 0. 0. 0. 0. 0. 0. 0. 0. 0. 0. 0. 0. 0.</_>
    <_>
      0. 0. 1.60513644e-03 3.21027287e-03 9.63081885e-03 0. 0.
      1.60513644e-03 0. 0. 1.60513644e-03 0. 0. 0. 0. 0. 1.60513644e-03
      0. 0. 0. 0. 0. 0. 0. 1.60513644e-03 1.60513644e-03 0. 0. 0. 0. 0.
      0. 1.60513644e-03 1.60513644e-03 0. 0. 0. 0. 0. 3.21027287e-03
      4.81540943e-03 0. 0. 0. 0. 3.21027287e-03 0. 6.42054575e-03
      1.60513644e-03 1.60513644e-03 1.60513644e-03 0. 0. 3.21027287e-03
      0. 0. 0. 1.60513644e-03 0. 0. 4.81540943e-03 0. 0. 0. 0. 0. 0.
      4.81540943e-03 0. 0. 3.21027287e-03 8.02568253e-03 0. 0. 0. 0.
      1.12359552e-02 1.60513644e-03 0. 0. 0. 0. 0. 0. 1.60513644e-03 0.
      0. 0. 0. 0. 1.60513644e-03 0. 0. 0. 1.60513644e-03 2.24719103e-02
      0. 3.21027287e-03 6.42054575e-03 6.42054575e-03 1.60513644e-03 0.
      0. 4.81540943e-03 0. 0. 0. 0. 0. 0. 1.60513644e-03 1.60513644e-03
      0. 0. 0. 0. 0. 4.81540943e-03 0. 0. 1.60513644e-03 0. 0. 0. 0.
      1.60513644e-03 0. 0. 4.81540943e-03 3.21027287e-03 0.
      1.60513644e-03 0. 0. 1.60513644e-03 0. 1.60513644e-03
      4.81540943e-03 0. 0. 0. 0. 0. 0. 0. 0. 1.60513644e-03
      3.21027287e-03 0. 0. 1.60513644e-03 0. 3.21027287e-03 0. 0. 0. 0.
      3.21027287e-03 0. 1.60513644e-03 0. 1.60513644e-03 0.
      3.21027287e-03 8.02568253e-03 0. 0. 0. 0. 4.81540943e-03 0. 0.
      1.60513644e-03 0. 3.21027287e-03 0. 1.60513644e-03 0. 0. 0.
      3.21027287e-03 0. 0. 0. 0. 0. 4.81540943e-03 3.21027287e-03 0.
      9.63081885e-03 1.60513644e-03 0. 0. 8.02568253e-03 1.60513644e-03
      0. 0. 0. 1.60513644e-03 1.60513644e-03 3.21027287e-03 0. 0.
      4.81540943e-03 6.42054575e-03 0. 0. 0. 3.21027287e-03 0.
      4.81540943e-03 0. 0. 1.60513644e-03 0. 0. 1.60513644e-03
      6.42054575e-03 1.60513644e-03 0. 0. 0. 0. 0. 3.21027287e-03 0.
      3.21027287e-03 0. 4.81540943e-03 0. 0. 0. 0. 0. 0. 0. 0. 0. 0.
      1.60513644e-03 0. 0. 1.60513644e-03 0. 0. 0. 0. 0. 1.60513644e-03
      0. 0. 0. 0. 0. 3.21027287e-03 0. 0. 0. 0. 0. 0. 0. 0. 0. 0.
      4.81540943e-03 1.60513644e-03 0. 1.60513644e-03 0. 0.
      1.60513644e-03 0. 0. 0. 3.21027287e-03 0. 0. 0. 0. 0.
      1.60513644e-03 0. 1.12359552e-02 0. 1.60513644e-03 1.60513644e-03
      0. 0. 0. 0. 0. 0. 6.42054575e-03 4.81540943e-03 0. 4.81540943e-03
      3.21027287e-03 0. 3.21027287e-03 1.60513644e-03 0. 0.
      4.81540943e-03 0. 0. 0. 0. 0. 3.21027287e-03 0. 0. 8.02568253e-03
      0. 6.42054575e-03 0. 0. 0. 0. 1.60513644e-03 0. 0. 0. 0. 0. 0. 0.
      0. 0. 0. 0. 0. 0. 0. 0. 1.60513644e-03 0. 3.69181372e-02 0. 0.
      3.21027287e-03 0. 0. 0. 0. 1.60513644e-03 3.21027287e-03 0. 0.
      1.60513644e-03 6.42054575e-03 3.21027287e-03 1.60513644e-03
      1.60513644e-03 0. 3.21027287e-03 0. 3.21027287e-03 0.
      3.21027287e-03 0. 1.60513644e-03 0. 1.60513644e-03 0.
      1.60513644e-03 0. 2.24719103e-02 0. 3.21027287e-03 1.60513644e-03
      0. 0. 1.60513644e-03 1.60513644e-03 0. 0. 1.60513644e-03 0.
      9.63081885e-03 1.60513644e-03 0. 0. 0. 0. 1.60513644e-03 0. 0. 0.
      0. 1.12359552e-02 1.60513644e-03 0. 1.60513644e-03 1.60513644e-03
      0. 0. 0. 0. 0. 3.21027287e-03 1.60513644e-03 0. 0. 0. 0. 0.
      3.21027287e-03 0. 0. 0. 1.60513644e-03 0. 0. 0. 0. 0. 0. 0.
      3.21027287e-03 6.42054575e-03 0. 1.60513644e-03 4.81540943e-03
      1.60513644e-03 0. 1.60513644e-03 0. 1.60513644e-03 0. 0. 0.
      1.60513644e-03 1.60513644e-03 0. 0. 0. 1.60513644e-03 0. 0. 0. 0.
      0. 0. 1.60513644e-03 3.21027287e-03 0. 0. 0. 0. 0. 0. 0. 0.
      3.21027287e-03 0. 1.60513644e-03 1.60513644e-03 0. 1.60513644e-03
      0. 0. 0. 0. 0. 0. 0. 0. 0. 0. 0. 0. 0. 0. 0. 1.60513644e-03
      1.60513644e-03 0. 0. 8.02568253e-03 1.60513644e-03 0.
      1.60513644e-03 0. 0. 0. 0. 0. 0. 0. 1.60513644e-03 0. 0. 0. 0. 0.
      1.60513644e-03 0. 0. 0. 3.21027287e-03 3.21027287e-03 0.
      1.60513644e-03 0. 0. 1.60513644e-03 4.81540943e-03 0.
      3.21027287e-03 0. 3.21027287e-03 0. 1.60513644e-03 1.12359552e-02
      4.81540943e-03 1.60513644e-03 3.21027287e-03 9.63081885e-03
      1.60513644e-03 0. 0. 0. 0. 0. 0. 0. 1.60513644e-03 6.42054575e-03
      0. 0. 0. 0. 0. 0. 1.60513644e-03 0. 0. 0. 1.60513644e-03
      1.60513644e-03 0. 1.60513644e-03 3.21027287e-03 0. 3.21027287e-03
      0. 3.21027287e-03 0. 4.81540943e-03 0. 1.60513644e-03 0. 0.
      4.81540943e-03 3.21027287e-03 0. 0. 4.81540943e-03 0. 0.
      3.21027287e-03 0. 1.60513644e-03 4.81540943e-03 0. 0. 0. 0.
      1.60513644e-03 0. 0. 0. 0. 0. 0. 0. 9.63081885e-03 0. 0.
      3.21027287e-03 0. 1.60513644e-03 0. 0. 0. 0. 1.60513644e-03
      1.60513644e-03 3.21027287e-03 9.63081885e-03 4.81540943e-03 0.
      1.60513644e-03 0. 0. 3.21027287e-03 0. 0. 0. 1.60513644e-03 0. 0.
      0. 0. 0. 4.81540943e-03 0. 0. 0. 1.60513644e-03 0. 0. 0. 0. 0. 0.
      0. 3.21027287e-03 1.60513644e-03 0. 0. 0. 0. 0. 0. 0. 0. 0. 0. 0.
      0. 1.60513644e-03 0. 0. 1.60513644e-03 4.81540943e-03 0. 0. 0. 0.
      1.60513644e-03 0. 1.60513644e-03 0. 0. 3.21027287e-03 0. 0.
      3.21027287e-03 0. 0. 0. 0. 1.60513644e-03 0. 0. 1.60513644e-03
      1.60513644e-03 0. 4.81540943e-03 1.60513644e-03 0. 3.21027287e-03
      1.60513644e-03 0. 3.21027287e-03 0. 3.21027287e-03 0. 0. 0. 0. 0.
      0. 8.02568253e-03 0. 0. 0. 3.21027287e-03 0. 0. 0. 0. 0. 0.
      1.60513644e-03 0. 0. 0. 1.60513644e-03 0. 3.21027287e-03
      3.21027287e-03 0. 0. 0. 9.63081885e-03 0. 1.60513644e-03 0. 0.
      4.81540943e-03 0. 0. 4.81540943e-03 0. 3.21027287e-03 0.
      6.42054575e-03 0. 0. 3.21027287e-03 0. 0. 0. 0. 0. 0. 0. 0. 0. 0.
      0. 0. 0. 0. 0. 0. 3.21027287e-03 0. 0. 0. 0. 1.60513644e-03 0.
      4.81540943e-03 0. 0. 4.81540943e-03 0. 0. 0. 8.02568253e-03 0.
      1.60513644e-03 0. 0. 0. 0. 0. 0. 0. 0. 0. 1.60513644e-03 0. 0.
      1.60513644e-03 0. 0. 0. 0. 0. 0. 0. 0. 0. 0. 1.60513644e-03 0.
      1.60513644e-03 0. 0. 0. 0. 0. 0. 0. 4.81540943e-03 0. 0. 0.
      3.21027287e-03 0. 0. 0. 0. 0. 0. 0. 0. 0. 0. 0. 0. 4.81540943e-03
      0. 0. 0. 0. 0. 0. 0. 0. 1.60513644e-03 0. 0. 3.21027287e-03 0. 0.
      0. 0. 0. 0. 0. 0. 1.60513644e-03 1.60513644e-03 0. 0. 0. 0. 0. 0.
      3.21027287e-03 0. 3.21027287e-03 0. 1.60513644e-03 3.21027287e-03
      3.21027287e-03 0. 0. 0. 0. 0. 0. 0. 0. 0. 0. 1.60513644e-03 0. 0.
      0. 0. 0. 0. 1.60513644e-03 1.60513644e-03 0. 3.21027287e-03 0. 0.
      0. 0. 0. 0. 0. 0. 0. 0. 3.21027287e-03 9.63081885e-03 0. 0. 0.
      1.60513644e-03 0. 0. 0. 4.81540943e-03 0. 1.60513644e-03 0.
      1.60513644e-03 0. 0. 0. 0. 1.60513644e-03 0. 0. 3.21027287e-03 0.
      0. 0. 0. 1.60513644e-03 0. 0. 0. 0. 0. 0. 0. 0. 0. 0. 0. 0. 0.
      4.81540943e-03 0. 0. 0. 0. 0. 0. 0. 0. 0. 0. 0. 0. 0.
      4.81540943e-03 0. 0. 0. 0. 0. 0. 0. 0. 0. 0. 1.60513644e-03 0.
      4.81540943e-03 0. 0. 0. 4.81540943e-03 4.81540943e-03 0. 0.
      1.60513644e-03 3.21027287e-03 0. 0. 1.60513644e-03 0. 0. 0. 0.
      1.60513644e-03 1.60513644e-03 1.60513644e-03 0. 0. 1.60513644e-03
      3.21027287e-03 0. 0. 3.21027287e-03 0. 1.60513644e-03 0. 0. 0. 0.
      0. 3.21027287e-03 1.60513644e-03 0. 0. 8.02568253e-03 0. 0. 0. 0.
      0. 3.21027287e-03 0. 3.21027287e-03 0. 0. 0. 0. 0. 0. 0. 0. 0. 0.
      0. 0. 0. 0. 0. 0. 0. 1.60513644e-03 0. 1.60513644e-03 0. 0. 0.</_>
    <_>
      0. 0. 0. 1.98807148e-03 0. 5.96421445e-03 0. 0. 1.39164999e-02 0.
      0. 1.98807148e-03 0. 0. 3.97614297e-03 0. 0. 0. 0. 0. 0.
      1.98807148e-03 0. 0. 0. 0. 0. 0. 0. 0. 0. 3.97614297e-03 0. 0. 0.
      0. 0. 2.78329998e-02 0. 1.98807148e-03 1.98807148e-03
      3.97614297e-03 1.98807148e-03 0. 3.97614297e-03 0. 0. 0. 0. 0.
      5.96421445e-03 0. 0. 1.98807148e-03 1.98807148e-03 5.96421445e-03
      0. 0. 0. 1.98807148e-03 0. 0. 3.97614297e-03 0. 0. 0. 0. 0. 0.
      1.98807148e-03 0. 1.59045719e-02 0. 2.18687858e-02 0. 0.
      1.98807148e-03 0. 0. 3.97614297e-03 3.97614297e-03 0. 0. 0.
      5.96421445e-03 0. 3.97614297e-03 0. 0. 3.97614297e-03 0.
      3.97614297e-03 3.97614297e-03 0. 0. 0. 0. 0. 1.39164999e-02 0. 0.
      0. 0. 0. 0. 3.97614297e-03 0. 0. 1.98807148e-03 0. 0. 0. 0. 0. 0.
      0. 1.98807148e-03 0. 0. 0. 5.96421445e-03 0. 0. 0. 0. 0. 0. 0. 0.
      0. 0. 0. 0. 1.98807148e-03 1.98807148e-03 0. 1.98807148e-03 0. 0.
      0. 0. 1.98807148e-03 0. 0. 0. 5.96421445e-03 1.98807148e-03 0. 0.
      0. 0. 0. 0. 0. 0. 1.98807148e-03 0. 0. 0. 3.97614297e-03 0.
      1.98807148e-03 0. 0. 3.97614297e-03 0. 0. 0. 0. 0. 3.97614297e-03
      3.97614297e-03 0. 3.97614297e-03 0. 5.96421445e-03 5.96421445e-03
      0. 0. 0. 0. 0. 0. 0. 0. 0. 0. 1.98807148e-03 0. 1.98807148e-03 0.
      1.98807148e-03 0. 0. 0. 0. 1.98807148e-03 0. 0. 0. 0.
      1.98807148e-03 0. 1.98807148e-03 1.98807148e-03 0. 0.
      1.98807148e-03 0. 3.97614297e-03 0. 0. 0. 1.98807148e-03
      1.98807148e-03 0. 0. 0. 3.97614297e-03 0. 0. 0. 0. 0. 0. 0. 0.
      1.98807148e-03 5.96421445e-03 0. 0. 0. 1.59045719e-02 0. 0. 0. 0.
      0. 5.96421445e-03 0. 9.94035788e-03 0. 0. 5.96421445e-03 0. 0. 0.
      0. 5.96421445e-03 0. 0. 0. 0. 0. 0. 0. 0. 0. 0. 1.98807148e-03
      3.97614297e-03 0. 0. 0. 1.98807148e-03 0. 3.97614297e-03 0. 0. 0.
      0. 1.98807148e-03 1.98807148e-03 0. 1.59045719e-02 3.97614297e-03
      0. 0. 0. 3.97614297e-03 3.97614297e-03 0. 3.97614297e-03 0. 0. 0.
      1.98807148e-03 3.97614297e-03 0. 0. 0. 5.96421445e-03 0. 0. 0. 0.
      0. 0. 0. 0. 0. 0. 0. 1.98807148e-03 0. 0. 0. 0. 0. 0.
      1.98807148e-03 5.96421445e-03 0. 0. 0. 0. 0. 0. 0. 0. 0. 0.
      3.97614297e-03 0. 0. 1.98807148e-03 0. 0. 0. 0. 0. 1.98807148e-03
      0. 0. 3.97614297e-03 0. 0. 0. 0. 0. 1.98807148e-03 0. 0. 0.
      1.98807148e-03 1.98807148e-03 0. 5.96421445e-03 1.98807148e-03 0.
      0. 3.97614297e-03 1.98807148e-03 0. 0. 0. 5.96421445e-03 0. 0. 0.
      0. 0. 5.96421445e-03 0. 0. 0. 0. 0. 0. 0. 0. 0. 0. 0. 0. 0. 0. 0.
      0. 0. 0. 0. 0. 0. 0. 1.98807148e-03 0. 0. 0. 0. 0. 0. 0.
      3.97614297e-03 0. 0. 0. 1.98807148e-03 1.98807148e-03
      3.97614297e-03 1.98807148e-03 0. 0. 0. 3.97614297e-03 0. 0. 0.
      1.98807148e-03 9.94035788e-03 0. 0. 0. 1.98807148e-03 0. 0.
      1.98807148e-03 0. 0. 0. 0. 7.95228593e-03 0. 0. 0. 0. 0. 0. 0. 0.
      0. 0. 3.97614297e-03 1.98807148e-03 0. 0. 1.98807148e-03 0.
      1.98807148e-03 0. 0. 0. 0. 0. 0. 9.94035788e-03 0. 0. 0. 0.
      1.98807148e-03 0. 0. 1.98807148e-03 0. 0. 0. 0. 0. 0. 0. 0. 0. 0.
      0. 0. 0. 0. 0. 0. 0. 0. 0. 0. 0. 1.98807148e-03 3.97614297e-03 0.
      7.95228593e-03 0. 1.98807148e-03 0. 1.98807148e-03 0. 0. 0. 0. 0.
      0. 0. 0. 0. 0. 5.96421445e-03 0. 0. 0. 3.97614297e-03
      1.98807148e-03 0. 0. 0. 0. 1.98807148e-03 0. 1.98807148e-03
      1.98807148e-03 3.97614297e-03 0. 1.98807148e-03 0. 1.98807148e-03
      1.98807148e-03 0. 1.98807148e-03 1.98807148e-03 1.98807148e-03 0.
      0. 5.96421445e-03 0. 1.98807148e-03 0. 0. 0. 0. 0. 0. 0. 0. 0. 0.
      0. 1.98807148e-03 1.98807148e-03 0. 1.98807148e-03 0. 0. 0. 0. 0.
      0. 0. 0. 7.95228593e-03 0. 5.96421445e-03 0. 0. 0. 1.98807148e-03
      0. 0. 0. 1.98807148e-03 0. 0. 0. 0. 0. 0. 0. 1.98807148e-03 0. 0.
      0. 0. 3.97614297e-03 0. 1.98807148e-03 0. 5.96421445e-03
      1.98807148e-03 0. 0. 3.97614297e-03 0. 0. 0. 5.96421445e-03 0. 0.
      0. 0. 0. 0. 4.17494997e-02 0. 7.95228593e-03 0. 0. 0. 0.
      1.98807148e-03 0. 0. 1.98807148e-03 0. 0. 0. 1.98807148e-03
      1.98807148e-03 0. 0. 0. 0. 0. 0. 0. 0. 0. 1.98807148e-03 0.
      7.95228593e-03 0. 0. 0. 0. 0. 0. 0. 0. 0. 0. 0. 5.96421445e-03 0.
      0. 0. 0. 0. 0. 1.98807148e-03 0. 0. 0. 0. 0. 0. 0. 0.
      3.97614297e-03 0. 0. 0. 0. 0. 0. 0. 0. 0. 0. 0. 9.94035788e-03 0.
      0. 0. 0. 0. 0. 1.98807148e-03 0. 0. 0. 1.98807148e-03
      3.97614297e-03 0. 0. 0. 0. 1.98807148e-03 0. 0. 0. 0. 0.
      1.98807148e-03 0. 0. 1.98807148e-03 0. 1.98807148e-03
      3.97614297e-03 3.97614297e-03 0. 0. 0. 0. 1.98807148e-03 0. 0. 0.
      0. 0. 0. 1.98807148e-03 1.98807148e-03 0. 0. 5.96421445e-03 0. 0.
      0. 0. 0. 3.97614297e-03 0. 0. 0. 0. 0. 0. 0. 0. 0. 0.
      1.98807148e-03 3.97614297e-03 0. 0. 0. 0. 0. 0. 0. 0. 0. 0. 0. 0.
      1.98807148e-03 0. 0. 0. 0. 0. 0. 0. 0. 0. 0. 0. 0. 0. 0. 0. 0. 0.
      0. 0. 0. 0. 3.97614297e-03 0. 0. 0. 0. 0. 0. 5.96421445e-03
      3.97614297e-03 0. 1.98807148e-03 0. 7.95228593e-03 0. 0.
      1.98807148e-03 0. 0. 0. 5.96421445e-03 0. 0. 0. 3.97614297e-03 0.
      1.98807148e-03 1.98807148e-03 0. 0. 0. 0. 0. 1.98807148e-03 0. 0.
      0. 1.98807148e-03 7.95228593e-03 3.97614297e-03 0. 0.
      1.98807148e-03 0. 1.98807148e-03 0. 0. 0. 0. 1.98807148e-03 0. 0.
      1.98807148e-03 1.98807148e-03 0. 0. 1.98807148e-03 0. 0. 0. 0. 0.
      0. 0. 0. 1.98807148e-03 0. 7.95228593e-03 0. 0. 0. 0. 0. 0. 0. 0.
      1.98807148e-03 7.95228593e-03 0. 0. 0. 0. 0. 0. 0. 0. 0. 0. 0. 0.
      0. 0. 0. 1.98807148e-03 3.97614297e-03 0. 0. 0. 1.98807148e-03 0.
      0. 0. 1.98807148e-03 0. 0. 0. 0. 0. 0. 1.98807148e-03 0. 0.
      3.97614297e-03 0. 0. 1.98807148e-03 7.95228593e-03 0. 0.
      3.97614297e-03 0. 0. 0. 1.59045719e-02 0. 0. 0. 0. 0. 0. 0. 0. 0.
      0. 0. 0. 0. 0. 0. 0. 0. 1.98807148e-03 0. 1.98807148e-03
      1.98807148e-03 1.98807148e-03 1.59045719e-02 0. 1.98807148e-03 0.
      2.18687858e-02 1.98807148e-03 1.98807148e-03 0. 0. 0. 0. 0. 0. 0.
      0. 0. 0. 0. 5.96421445e-03 0. 0. 0. 0. 0. 0. 0. 0. 0. 0. 0. 0.
      1.98807148e-03 0. 0. 5.96421445e-03 0. 0. 0. 0. 0. 0. 0.
      1.98807148e-03 0. 0. 0. 0. 0. 0. 0. 0. 0. 0. 0. 0. 0. 0. 0. 0. 0.
      0. 0. 1.98807148e-03 1.98807148e-03 0. 1.98807148e-03 0. 0. 0.
      1.39164999e-02 3.97614297e-03 0. 0. 0. 3.97614297e-03 0.
      1.98807148e-03 1.98807148e-03 0. 0. 1.98807148e-03 0. 0. 0.
      3.97614297e-03 0. 0. 0. 1.98807148e-03 0. 0. 0. 0. 0. 0. 0. 0.
      1.98807148e-03 1.98807148e-03 0. 0. 0.</_>
    <_>
      0. 0. 0. 0. 0. 4.29184549e-03 2.14592274e-03 2.14592274e-03 0. 0.
      2.14592274e-03 0. 0. 0. 2.14592274e-03 0. 0. 6.43776823e-03 0. 0.
      0. 0. 0. 0. 2.14592274e-03 0. 0. 0. 0. 0. 0. 0. 2.14592274e-03 0.
      0. 0. 0. 0. 4.29184549e-03 0. 2.14592274e-03 0. 0. 0. 0.
      2.14592274e-03 0. 4.29184549e-03 0. 8.58369097e-03 2.14592274e-03
      2.14592274e-03 0. 4.29184549e-03 0. 0. 0. 0. 0. 0. 1.50214592e-02
      0. 0. 0. 0. 0. 0. 1.07296137e-02 0. 0. 2.14592274e-03
      4.29184549e-03 0. 0. 4.29184549e-03 0. 1.07296137e-02 0. 0. 0. 0.
      0. 0. 0. 0. 0. 0. 0. 0. 0. 4.29184549e-03 0. 0. 0. 0.
      3.21888402e-02 4.29184549e-03 0. 3.00429184e-02 6.43776823e-03
      2.14592274e-03 0. 0. 0. 0. 0. 0. 0. 0. 0. 0. 0. 0. 2.14592274e-03
      0. 2.14592274e-03 0. 0. 0. 0. 4.29184549e-03 0. 0. 0. 0. 0. 0. 0.
      0. 0. 0. 2.14592274e-03 0. 0. 0. 0. 4.29184549e-03 6.43776823e-03
      0. 0. 0. 0. 0. 0. 0. 0. 0. 4.29184549e-03 0. 0. 0. 0.
      6.43776823e-03 0. 0. 0. 0. 0. 0. 0. 0. 0. 0. 4.29184549e-03
      1.28755365e-02 0. 0. 0. 0. 4.29184549e-03 0. 0. 0. 0.
      2.14592274e-03 0. 4.29184549e-03 0. 0. 0. 0. 0. 0. 0. 0. 0.
      1.50214592e-02 1.07296137e-02 0. 0. 2.14592274e-03 0. 0. 0.
      8.58369097e-03 0. 0. 0. 2.14592274e-03 2.14592274e-03 0. 0. 0.
      6.43776823e-03 2.14592274e-03 2.14592274e-03 0. 0. 4.29184549e-03
      0. 4.29184549e-03 0. 0. 2.14592274e-03 0. 0. 2.14592274e-03 0.
      2.14592274e-03 0. 0. 0. 0. 0. 2.14592274e-03 0. 0. 0.
      4.29184549e-03 0. 0. 0. 0. 0. 0. 0. 0. 0. 0. 0. 0. 0.
      2.14592274e-03 0. 0. 0. 0. 0. 0. 0. 0. 0. 0. 2.14592274e-03
      8.58369097e-03 0. 0. 0. 0. 0. 0. 0. 0. 0. 0. 0. 0. 0. 0. 0. 0. 0.
      0. 0. 0. 0. 0. 0. 0. 0. 0. 0. 0. 4.29184549e-03 2.14592274e-03
      4.29184549e-03 0. 0. 0. 0. 0. 0. 0. 2.14592274e-03 0. 0.
      6.43776823e-03 6.43776823e-03 0. 2.14592274e-03 0. 0. 0.
      2.14592274e-03 0. 0. 0. 0. 0. 0. 0. 0. 0. 0. 2.14592274e-03 0. 0.
      0. 0. 8.58369097e-03 0. 0. 0. 0. 0. 0. 0. 0. 0. 0. 0. 0. 0.
      6.43776823e-03 0. 0. 0. 1.71673819e-02 0. 0. 6.43776823e-03 0. 0.
      0. 0. 0. 2.14592274e-03 0. 0. 8.58369097e-03 8.58369097e-03
      4.29184549e-03 0. 2.14592274e-03 0. 2.14592274e-03 0.
      2.14592274e-03 2.14592274e-03 0. 0. 0. 0. 2.14592274e-03 0.
      2.14592274e-03 0. 2.57510729e-02 0. 0. 4.29184549e-03 0. 0.
      2.14592274e-03 2.14592274e-03 0. 0. 0. 0. 1.07296137e-02 0. 0. 0.
      0. 0. 4.29184549e-03 0. 0. 0. 0. 0. 0. 0. 0. 0. 0. 0. 0. 0. 0.
      4.29184549e-03 2.14592274e-03 0. 0. 0. 0. 0. 0. 0. 0. 0. 0. 0. 0.
      0. 0. 0. 0. 0. 0. 2.14592274e-03 0. 0. 0. 0. 0. 0. 0.
      2.14592274e-03 0. 0. 0. 1.07296137e-02 0. 0. 2.14592274e-03 0. 0.
      4.29184549e-03 0. 0. 0. 0. 0. 0. 2.14592274e-02 0. 0. 0. 0. 0. 0.
      0. 0. 4.29184549e-03 0. 0. 0. 0. 0. 0. 0. 0. 0. 0. 0. 0. 0. 0. 0.
      0. 0. 0. 2.14592274e-03 0. 0. 0. 0. 0. 1.28755365e-02
      2.14592274e-03 0. 0. 0. 0. 0. 0. 0. 0. 0. 0. 4.29184549e-03 0. 0.
      0. 0. 0. 0. 0. 0. 2.14592274e-03 0. 0. 4.29184549e-03 0. 0.
      4.29184549e-03 0. 0. 0. 0. 2.14592274e-03 0. 0. 1.50214592e-02
      4.29184549e-03 0. 0. 0. 0. 0. 4.29184549e-03 0. 0. 0. 0. 0.
      2.14592274e-03 8.58369097e-03 0. 0. 0. 0. 0. 0. 2.14592274e-03 0.
      0. 0. 6.43776823e-03 0. 0. 0. 0. 0. 2.14592274e-03 0.
      6.43776823e-03 0. 6.43776823e-03 0. 2.14592274e-03 0. 0. 0.
      2.14592274e-03 0. 0. 0. 0. 0. 8.58369097e-03 0. 0. 1.07296137e-02
      0. 0. 2.14592274e-03 0. 0. 0. 0. 0. 0. 0. 0. 0. 6.43776823e-03 0.
      0. 0. 0. 2.14592274e-03 0. 0. 0. 0. 0. 2.14592274e-03
      4.29184549e-03 2.14592274e-03 1.07296137e-02 0. 0. 0. 0. 0. 0. 0.
      0. 0. 0. 0. 0. 0. 0. 2.14592274e-03 0. 0. 0. 2.14592274e-03 0. 0.
      0. 0. 0. 0. 0. 4.29184549e-03 2.14592274e-03 0. 0. 0. 0. 0. 0. 0.
      2.14592274e-03 0. 0. 0. 2.14592274e-03 1.07296137e-02 0. 0. 0. 0.
      0. 0. 0. 0. 6.43776823e-03 0. 0. 0. 0. 6.43776823e-03 0. 0.
      4.29184549e-03 0. 0. 0. 0. 0. 0. 0. 0. 0. 0. 2.14592274e-03 0. 0.
      6.43776823e-03 0. 0. 4.29184549e-03 0. 4.29184549e-03 0. 0. 0. 0.
      4.29184549e-03 0. 0. 0. 0. 0. 4.29184549e-03 0. 0. 2.14592274e-03
      0. 0. 0. 0. 0. 0. 4.29184549e-03 0. 0. 0. 0. 0. 0. 0. 0. 0. 0. 0.
      0. 2.14592274e-03 0. 0. 4.29184549e-03 0. 2.14592274e-03 0.
      6.43776823e-03 0. 0. 0. 0. 0. 0. 0. 0. 0. 0. 0. 0. 0.
      2.14592274e-03 0. 0. 0. 0. 0. 4.29184549e-03 0. 0. 0. 0.
      2.14592274e-03 0. 6.43776823e-03 4.29184549e-03 0. 4.29184549e-03
      0. 2.14592274e-03 2.14592274e-03 6.43776823e-03 0. 0. 0. 0. 0. 0.
      0. 0. 0. 0. 0. 0. 2.14592274e-03 0. 0. 0. 0. 0. 0. 0. 0. 0. 0. 0.
      0. 4.29184549e-03 0. 0. 0. 0. 0. 0. 2.14592274e-03 0. 0.
      4.29184549e-03 0. 0. 2.14592274e-03 4.29184549e-03 0. 0. 0. 0. 0.
      0. 0. 0. 2.14592274e-03 0. 0. 0. 4.29184549e-03 0. 0. 0. 0.
      4.29184549e-03 0. 2.14592274e-03 4.29184549e-03 2.14592274e-03 0.
      0. 8.58369097e-03 0. 0. 0. 0. 0. 2.14592274e-03 0. 0. 0.
      2.14592274e-03 0. 0. 0. 0. 0. 0. 0. 0. 0. 0. 2.14592274e-03
      2.14592274e-03 0. 0. 0. 0. 0. 0. 0. 0. 0. 0. 0. 0. 0. 0.
      8.58369097e-03 0. 0. 0. 4.29184549e-03 2.14592274e-03 0.
      2.14592274e-03 0. 0. 0. 0. 0. 0. 0. 0. 0. 0. 2.14592274e-03
      1.28755365e-02 0. 0. 0. 1.71673819e-02 0. 0. 0. 4.29184549e-03 0.
      2.14592274e-03 0. 0. 0. 0. 0. 0. 0. 0. 0. 0. 0. 0. 2.14592274e-03
      0. 4.29184549e-03 0. 0. 0. 0. 0. 0. 0. 0. 0. 2.14592274e-03 0. 0.
      0. 4.29184549e-03 0. 0. 0. 0. 0. 0. 0. 2.14592274e-03 0. 0. 0. 0.
      0. 0. 0. 0. 0. 0. 0. 0. 0. 0. 0. 0. 0. 0. 2.14592274e-03 0. 0. 0.
      1.50214592e-02 4.29184549e-03 0. 0. 0. 6.43776823e-03
      2.14592274e-03 0. 0. 0. 2.14592274e-03 0. 0. 6.43776823e-03 0. 0.
      0. 0. 2.14592274e-03 0. 0. 0. 0. 0. 0. 0. 0. 0. 0. 0. 0.
      6.43776823e-03 0. 0. 6.43776823e-03 2.14592274e-03 0. 0. 0. 0. 0.
