<?xml version="1.0"?>
<opencv_storage>
<opencv_ml_svm>
  <format>3</format>
  <svmType>C_SVC</svmType>
  <kernel>
    <type>LINEAR</type></kernel>
  <C>1.</C>
  <term_criteria><iterations>100</iterations></term_criteria>
  <var_count>1000</var_count>
  <class_count>2</class_count>
  <class_labels type_id="opencv-matrix">
    <rows>2</rows>
    <cols>1</cols>
    <dt>i</dt>
    <data>
      -1 1</data></class_labels>
  <sv_total>1</sv_total>
  <support_vectors>
    <_>
      2.79388647e-03 5.57082705e-03 3.96290282e-03 7.21112359e-03
      5.04551223e-03 1.26539427e-03 2.70250649e-03 8.57578882e-04
      1.12922424e-02 -6.23241812e-03 5.85055258e-03 -1.17282793e-02
      3.53789394e-04 -7.07749836e-03 7.47406855e-03 4.01660893e-03
      7.71160063e-04 8.15569237e-03 1.53812103e-03 3.87403322e-03
      4.13495582e-03 -3.96167021e-03 -1.67028494e-02 -2.63022888e-03
      4.76621231e-03 3.32202693e-03 1.55989090e-02 6.05268346e-04
      -1.06382975e-02 2.49958923e-03 -1.83680095e-02 1.72022879e-02
      -1.71657447e-02 5.23545919e-03 1.17160007e-02 -3.05619370e-02
      -1.15848740e-03 1.10512041e-02 8.80198367e-03 1.56528167e-02
      -3.01273656e-03 8.36556312e-03 7.37486500e-03 1.38087422e-02
      -2.30433904e-02 2.84714252e-03 -1.50357774e-02 2.78964336e-03
      4.54036053e-03 -1.01089524e-02 -4.17653890e-03 3.54058691e-03
      1.69865543e-03 -4.95681986e-02 1.53928567e-02 1.83363110e-02
      3.27640423e-03 4.02041432e-03 4.63634683e-03 -6.44959463e-03
      5.29666943e-03 -3.04878037e-03 6.13517594e-04 -1.86406802e-02
      9.60527512e-04 -3.16257798e-03 -2.94636399e-03 2.74557434e-03
      1.00656906e-02 -4.73158918e-02 -5.51610021e-03 -4.18130448e-03
      2.51130876e-03 1.08685996e-02 1.39447069e-03 3.62491282e-03
      -3.72538250e-03 -1.47942174e-02 -9.75008775e-03 9.75733344e-03
      5.73922368e-03 3.83447576e-03 2.09275726e-03 1.70442264e-03
      7.17484346e-03 1.91776939e-02 -1.92012580e-03 1.94903219e-03
      5.23760042e-04 -1.34242931e-02 9.43997642e-04 1.08614778e-02
      -3.83504406e-02 -3.80662270e-03 -8.19778815e-03 1.39359618e-02
      1.63550908e-03 -4.17196564e-03 1.99638456e-02 5.43284975e-03
      8.57578882e-04 -4.00986290e-03 -1.39874490e-02 6.32302137e-03
      1.38932019e-02 -7.94204790e-03 -5.39354281e-03 2.57815071e-03
      1.00490463e-03 -4.42962125e-02 4.50083846e-03 4.14137635e-03
      -6.09603934e-02 -1.10062899e-03 3.98848578e-03 5.13023091e-03
      9.15658940e-03 -1.77997304e-03 9.05089453e-03 -3.62004363e-03
      9.70654842e-03 1.52109144e-02 8.14687344e-04 -1.06172531e-03
      -1.22781936e-02 -2.65115071e-02 -2.38454132e-03 1.88748189e-03
      1.16076006e-03 9.29278135e-03 2.11498211e-03 1.40243894e-04
      1.48429619e-02 -8.47996306e-03 -2.48867236e-02 -1.28984107e-02
      -2.90728454e-03 3.18281795e-03 -5.29584195e-03 -1.77415144e-02
      3.84052808e-04 2.78744753e-02 2.12297402e-03 2.68217246e-03
      -2.52515520e-03 -1.19865239e-02 -3.85251455e-03 -7.59385352e-04
      1.39229829e-04 4.18551470e-04 -3.37212649e-03 2.91781756e-03
      2.56923004e-03 -6.89144386e-03 1.83126715e-03 6.71091489e-03
      -3.70813272e-04 8.69562291e-03 3.11683951e-04 1.40558816e-02
      -9.80637409e-03 5.96393785e-03 1.80206995e-03 4.88759577e-03
      -3.48494062e-03 -1.21853629e-03 2.55086669e-03 -1.66758755e-03
      -3.49988649e-03 5.03718480e-03 -1.98345406e-05 -1.22531140e-02
      3.65121965e-03 2.33645015e-03 -5.91205852e-03 -3.85679118e-02
      2.43260860e-02 -1.20415045e-02 1.97510561e-03 3.32255731e-03
      8.79976898e-03 7.97583815e-03 -7.58002978e-03 -1.72297808e-03
      -1.09388754e-02 0. 5.95757831e-03 7.64839444e-03 -6.07575383e-03
      1.06890490e-02 3.78487952e-04 2.60840985e-04 -7.22356373e-03
      3.44981207e-03 -5.83613338e-03 -3.83192115e-03 1.90794712e-03 0.
      8.57578882e-04 3.16631561e-03 1.54232013e-03 -3.10334247e-02
      4.40983521e-03 -5.86213171e-03 1.23992758e-02 8.14542756e-04
      -1.26322042e-02 2.63596177e-02 2.09968793e-03 -7.36660324e-03
      1.30178193e-02 -4.27368470e-03 -1.15841581e-02 -5.58713172e-03
      -4.25852602e-03 2.53575831e-03 8.71283934e-03 3.08464025e-03
      3.88652482e-03 1.57422526e-03 0. 1.45890878e-03 -8.38328805e-03
      -3.71657033e-03 2.49222713e-03 7.49689573e-03 4.67543490e-03
      1.25252677e-03 1.11014973e-02 9.94611648e-04 -3.67530948e-03
      1.15359074e-03 2.77888160e-02 -1.14325239e-05 3.96533078e-03
      2.77413731e-03 -4.45845816e-03 -1.07018417e-02 1.35496082e-02
      -1.79999624e-03 7.51119759e-03 4.74352343e-03 -3.87006602e-03
      1.30619202e-02 3.56594636e-03 1.14453712e-03 4.35511535e-03
      4.49793367e-03 6.83118310e-03 -6.01415777e-05 8.31104908e-03
      3.17398692e-03 9.48650856e-03 -4.70618205e-03 1.26967591e-03
      3.18183517e-03 5.08827902e-03 -1.60469022e-02 5.24075003e-03
      -5.69267489e-04 -7.78559595e-03 5.48359798e-03 1.39805553e-02
      8.11937731e-03 -9.41152684e-03 -6.94534881e-03 -2.33072247e-02
      1.64214242e-03 -8.49241216e-04 4.14136425e-03 -3.85852554e-03
      2.28960533e-03 6.16211619e-04 1.25881359e-02 2.00386457e-02
      9.97685920e-03 2.96007702e-03 6.32757379e-04 -2.73160450e-03
      -3.63610056e-03 4.33329446e-03 5.11016743e-03 -5.21843601e-03
      9.06613842e-03 1.28995988e-03 8.24876502e-03 -5.82306460e-03
      -5.33757955e-02 -1.17468834e-03 -1.85721535e-02 5.59601001e-03
      2.26377742e-03 3.93260503e-03 -6.10298431e-03 2.31348025e-03
      -1.03589222e-02 6.58589602e-03 2.41165794e-03 -8.52364872e-04
      -2.09350372e-03 4.89229616e-03 -9.62650124e-03 4.75375447e-03
      1.66823920e-02 9.52335168e-03 6.86761690e-03 -5.32924803e-03
      4.39364137e-03 4.37616231e-03 3.97897884e-03 4.22361278e-04
      7.87044992e-04 6.82453159e-03 -1.26851089e-02 1.33188656e-02
      5.23554452e-04 7.51423044e-03 9.59586073e-03 1.08953547e-02
      -7.75314448e-03 1.22773880e-03 8.03015020e-04 1.48777692e-02
      -5.42031182e-03 2.55663390e-03 7.30660092e-03 -6.01002155e-03
      -2.07179436e-03 -2.22003460e-02 -2.85714283e-03 1.25565438e-03
      -7.72246392e-04 7.06138927e-03 3.66810150e-03 6.70049898e-03
      -3.43610765e-03 -2.83970553e-02 1.72929317e-02 -2.69388780e-03
      1.89335807e-03 5.52002620e-03 -5.46273682e-03 -4.35344083e-03
      3.10464227e-03 -7.19128802e-05 -6.60755497e-04 2.48095021e-03
      -2.13623792e-02 -8.20431206e-03 1.58436119e-03 1.23374641e-03
      8.89919046e-03 3.81389720e-04 6.32221019e-03 3.64377839e-03
      1.04398867e-02 -2.22468469e-03 -8.06712080e-03 -3.33144632e-03
      3.48390918e-03 2.50764162e-04 3.31707858e-03 -1.75821278e-02
      2.66526244e-03 2.27888394e-03 3.71456728e-03 1.46673024e-02
      2.29730234e-02 5.59712953e-06 -6.72173081e-03 1.83674996e-03
      -9.78608616e-03 2.92986026e-03 -5.82870981e-03 8.56286939e-03
      -1.02140568e-02 6.35918928e-03 1.18971150e-03 -1.82049349e-02
      2.90865824e-03 2.21834425e-03 -3.28275422e-03 1.42299675e-03
      8.52211320e-04 8.63250718e-03 -1.86330192e-02 -1.27041806e-02
      7.52714416e-03 6.52326038e-03 2.92986026e-03 4.07051668e-03
      4.05600574e-03 2.09275726e-03 6.68253342e-04 -1.77986023e-03
      -2.48911069e-03 2.28907424e-03 4.23630653e-03 2.86371214e-03
      1.71803011e-04 4.59006382e-03 7.44102662e-03 -6.59385649e-03
      -2.43859133e-03 3.98675026e-03 3.95586627e-04 3.84530256e-04
      -1.70990848e-03 4.48736362e-03 1.53276892e-02 0. 9.12444387e-03
      -2.34129769e-03 2.36668414e-03 -7.03716825e-04 -7.76576158e-03
      4.37762169e-03 -5.40816318e-03 -4.63482691e-03 5.91904623e-03
      7.92778470e-03 6.96597621e-03 9.29156877e-03 1.23521453e-03
      2.47558276e-03 1.13422598e-03 1.30849052e-03 9.79088154e-03
      -7.05250818e-03 -8.49434733e-03 6.53147139e-03 -2.15356313e-02
      5.50296251e-03 -1.17307855e-02 -4.61239461e-03 -5.58158709e-03
      9.57417022e-03 4.50184336e-03 7.40180956e-03 -4.55164321e-04
      1.39981695e-02 2.16516608e-04 6.10081363e-04 2.05483870e-03
      3.07989703e-03 9.97887272e-03 3.09489039e-03 -6.04934932e-04
      1.06713045e-02 -4.71798796e-03 5.28450171e-03 -3.55017779e-04
      3.39731085e-03 5.77620417e-03 -3.13254981e-03 -4.95883636e-03
      2.11648503e-03 1.35780647e-02 -6.34276494e-03 4.23348788e-03
      5.68885449e-03 -4.55223443e-03 -6.80084992e-03 4.38876916e-03
      -5.35998819e-03 5.09596616e-03 2.78459658e-04 -8.28759093e-03
      -3.36924344e-02 2.78459658e-04 3.42851644e-03 9.18489322e-03
      1.70442264e-03 -2.37952713e-02 5.68638509e-03 6.36323355e-03
      1.71717629e-03 -2.45330692e-03 6.05789153e-03 4.37431317e-03
      -3.01215448e-03 7.00145075e-03 -3.90554126e-03 1.82419387e-03
      8.64763453e-04 4.76564094e-03 -4.69785370e-03 -1.23564049e-03
      4.91968216e-03 3.02223256e-03 3.80436820e-03 1.72837579e-04
      8.78882501e-03 -1.87538657e-02 4.10482055e-03 6.10945001e-03
      2.79013708e-04 -1.29758101e-03 9.30542499e-03 -1.37253999e-04
      9.30800289e-03 2.37942301e-03 3.35619110e-03 1.41055295e-02
      -2.22967155e-02 -1.78057626e-02 3.72923329e-03 -5.21632843e-03
      3.45648639e-03 5.61498757e-03 -1.97541621e-03 2.63711531e-03
      8.61663744e-03 -8.35275277e-03 1.50283603e-02 9.40700062e-03
      -4.39012656e-03 7.89119489e-03 7.54477829e-03 1.36124250e-02
      4.98680724e-03 1.83560979e-02 7.67924124e-03 7.38287624e-03
      1.27693089e-02 -4.59381891e-03 2.32411213e-02 2.98799807e-03
      5.35017112e-03 2.94094183e-03 -1.05343061e-02 1.05593164e-04
      -9.96378902e-03 -1.01608951e-02 -2.76528602e-03 4.04527783e-03
      -3.57710593e-03 -2.79646809e-03 5.81188546e-03 -5.59455191e-04
      1.35212326e-02 -9.75346006e-03 -5.08293742e-03 2.09403667e-03
      4.18551470e-04 -4.62681567e-03 -9.33376793e-03 8.65611527e-03
      9.10667051e-03 2.71196640e-03 -3.09198145e-02 2.87226588e-03
      3.34987231e-03 5.65458415e-03 -7.38486927e-03 1.12988672e-03
      8.06710310e-03 2.28907424e-03 -5.09961462e-03 1.84682291e-03
      -6.20998861e-03 -8.44720379e-03 -6.24051492e-04 5.08388039e-03
      2.74557434e-03 0. 4.33932990e-03 3.71873286e-03 5.71832154e-03
      -1.58067476e-02 -7.50934193e-03 8.35281704e-03 6.52053393e-03
      -9.84553248e-04 -7.09219836e-03 -2.02949508e-03 -4.35922341e-03
      8.04954860e-03 1.59087852e-02 4.61047422e-03 4.56971908e-03
      -2.38987170e-02 7.26595242e-03 3.50649259e-03 1.45890878e-03 0.
      -5.10204071e-03 5.22763655e-02 8.57578882e-04 2.08433773e-02
      6.17228821e-03 2.74557434e-03 6.84245629e-03 1.28906844e-02
      1.14954943e-02 -4.58269566e-03 6.95722410e-04 -2.52241399e-02
      -5.00595057e-03 6.39232155e-03 1.01453094e-02 4.79479699e-04
      1.08184302e-02 1.93916401e-03 1.06321033e-02 8.50490760e-03
      1.09719234e-02 -3.54609918e-03 -2.03141533e-02 5.60055440e-03
      9.37063619e-03 7.19072670e-03 -3.67418514e-03 1.38279796e-02
      1.12347789e-02 -1.34180263e-02 -1.74336752e-03 2.29031919e-03
      -3.75954509e-02 5.04009658e-03 -8.28065909e-03 1.14453712e-03
      -9.22941323e-03 1.45890878e-03 8.88258219e-03 6.30269665e-03
      4.54341853e-03 -1.30073233e-02 1.23292021e-02 -2.73160450e-03
      -9.20038857e-03 4.72443830e-03 6.88189684e-05 -5.57772536e-03 0.
      5.40544279e-03 4.15930618e-03 -2.93645280e-05 0. 1.00970473e-02
      3.11683951e-04 5.00788772e-03 -6.47073798e-03 -8.86991154e-03
      -1.48846628e-03 -3.36439977e-03 1.50912497e-02 6.10081363e-04
      -9.12084803e-03 -1.26518833e-04 1.22016273e-03 0. -9.11577418e-03
      -6.32473594e-03 -1.47884702e-02 1.09095704e-02 -2.60606594e-03
      1.40412301e-02 -2.71563372e-03 4.97990567e-03 8.45885463e-03
      -3.01693706e-03 -4.25174795e-02 -6.37122488e-04 8.99177324e-03
      7.35110836e-03 1.32467889e-03 -1.88704266e-03 7.24451290e-03
      -4.81591979e-03 1.57865265e-03 -8.45518988e-03 -1.27551015e-02
      1.72837579e-04 -4.15385468e-03 6.26795180e-03 1.04710890e-03
      -1.35040972e-02 5.58586838e-03 2.56736903e-03 -3.89369018e-03
      1.38645875e-03 1.97815080e-03 -4.26724413e-03 7.11630518e-03
      -1.82861765e-03 1.08940555e-02 -2.33358843e-03 -5.53854182e-03
      6.65591750e-03 5.43216849e-03 1.53812103e-03 1.59561972e-03
      1.54232013e-03 3.97021743e-03 2.84201629e-03 1.51447288e-03
      -1.15761589e-02 1.14753516e-02 4.35319962e-03 5.69909252e-03
      -2.47261254e-03 8.80545285e-03 -1.62844080e-02 -6.09756075e-03
      6.09045755e-03 4.19995189e-03 -1.93008706e-02 -1.88099537e-02
      1.41563155e-02 1.53812103e-03 0. 3.00122891e-03 5.47279511e-03
      1.20798284e-02 8.52211320e-04 7.00566499e-03 5.41347498e-03
      4.77925467e-04 -5.87203586e-03 -1.46122724e-02 5.06304856e-03
      3.93338827e-03 6.51449151e-03 -3.87847074e-03 2.57113040e-03
      -2.73200078e-03 -5.10204071e-03 8.94598896e-04 1.71515776e-03
      6.78697275e-03 -1.37190591e-03 -4.40429634e-04 -6.48913626e-03
      1.70309038e-04 -8.15082155e-03 4.37480677e-03 -1.49785550e-02
      1.45890878e-03 7.70085817e-03 -1.15525741e-02 9.07080621e-03
      -5.09061292e-03 6.08218787e-03 2.48858938e-03 7.64842518e-03
      -7.28239585e-03 1.69865543e-03 -3.98406386e-03 6.43935008e-03
      -2.50197045e-04 4.32009483e-03 3.60413990e-03 3.02894576e-03
      1.80206995e-03 -3.20347096e-03 8.64187896e-05 1.45890878e-03
      3.30691854e-03 -4.67966823e-03 -2.34905090e-02 -5.85505925e-03
      9.07190423e-03 1.51447288e-03 2.11186329e-04 -3.33149394e-04
      -7.09219836e-03 -2.04525981e-02 -7.82123581e-03 -3.48641584e-03
      -9.96467937e-03 -8.87073809e-04 -3.09411623e-02 5.92934527e-03 0.
      7.05434941e-03 2.62703723e-03 -3.04878037e-03 6.51849899e-03
      4.51085949e-03 -1.48375025e-02 -2.45032390e-03 4.18329006e-03
      3.23176174e-03 3.29679414e-03 -3.02780210e-03 -8.93773860e-04
      3.05704726e-03 7.71548832e-03 -4.63707931e-03 4.62806318e-03
      9.05329268e-03 -7.71594886e-03 4.37672623e-03 -2.86578364e-03
      -2.38975452e-04 2.84807058e-03 9.77879157e-04 -2.07287427e-02
      -6.13995567e-02 -3.34166624e-02 -6.87887473e-03 -2.55148765e-03
      -4.92043281e-03 -6.51855627e-03 5.67624299e-03 3.77102941e-03
      -9.60653240e-04 -1.73784476e-02 5.37793664e-03 -4.83338488e-04
      -1.52411440e-03 -8.30110162e-03 4.54184785e-03 -8.93371529e-04
      -4.71698120e-03 5.76201081e-03 2.28563300e-03 -3.15347617e-03
      -1.86979258e-03 5.61892753e-03 -7.71921687e-03 -5.90592343e-03
      1.36056338e-02 -2.85714283e-03 1.11520800e-04 1.14453712e-03
      7.98310735e-04 1.78436644e-03 2.19848938e-03 8.13203398e-03
      2.76248297e-03 -7.09219836e-03 8.37102940e-04 1.05311943e-03
      8.90451856e-03 1.95791177e-03 -2.43869913e-03 -2.97383405e-03
      -7.65306130e-03 -5.21299466e-02 2.94278841e-03 2.94171530e-03
      -5.10204071e-03 4.18551470e-04 5.29375952e-03 7.42611010e-03
      1.05311943e-03 1.50656735e-03 -2.44847994e-04 1.21335573e-02
      4.72088810e-03 4.81778895e-03 7.69060513e-04 4.48800391e-03
      1.37150288e-02 8.13768804e-03 -7.96812773e-03 -7.95479026e-03
      -8.52364872e-04 2.44822993e-04 -2.91770836e-03 2.61435140e-04
      1.24894623e-02 -4.57590306e-03 1.05356546e-02 -3.98406386e-03
      -1.03654747e-03 1.87524352e-02 -1.74463987e-02 -1.36272823e-02
      -8.69514514e-03 6.28258148e-03 9.62043088e-03 -1.59711146e-03
      1.55923013e-02 -4.64413868e-04 1.74704380e-02 3.60413990e-03
      -3.41538829e-03 -7.09106028e-03 -2.40105507e-03 1.32794573e-03
      -3.64313205e-03 1.54232013e-03 -2.44643335e-04 -3.04878037e-03
      -4.31369105e-03 -6.23998698e-03 9.43997642e-04 -2.85714283e-03
      4.71737841e-03 3.50072538e-03 -6.07022317e-03 0. 3.21889552e-03
      -7.18154758e-03 2.29192176e-03 -2.42734477e-02 2.65770429e-03
      -3.27777024e-03 -3.98406386e-03 -8.41432996e-03 -3.36102879e-04
      2.43623811e-03 -3.56678665e-03 -4.70490806e-04 8.52211320e-04
      -6.49582408e-03 9.54781251e-04 7.24725565e-03 3.69055849e-03
      4.28080652e-03 1.45918364e-03 -1.10411113e-02 -2.22927164e-02
      4.13263263e-03 3.12233833e-03 -3.73198241e-02 2.11186329e-04
      -5.09487186e-03 2.55663390e-03 -5.65687288e-03 3.40020843e-03
      1.35922395e-02 5.27965778e-04 -3.66728427e-03 5.50966756e-03
      6.70553045e-03 -1.38417445e-03 6.18443219e-03 -1.95686659e-03
      1.54843768e-02 1.84365246e-03 2.91841174e-03 -5.62462490e-04
      -5.40816318e-03 -7.65306130e-03 3.37561499e-03 2.75938096e-03
      -1.71288736e-02 1.45890878e-03 -1.36130885e-03 -1.77141931e-03
      8.64187896e-05 4.51595569e-03 -1.11996010e-02 2.06219289e-03
      -2.27355901e-02 3.31268553e-03 1.14453712e-03 -5.35616884e-03
      2.74073146e-03 2.39453139e-03 2.30157282e-04 8.30174889e-03
      3.85682401e-03 1.25013024e-03 5.73573308e-03 9.44110192e-03
      -3.49354534e-03 1.62006612e-03 -7.95918331e-03 -2.71659996e-02
      -5.55752078e-03 -7.71475630e-03 3.84530256e-04 1.62712354e-02
      9.00674704e-03 -1.83104854e-02 1.14453712e-03 1.35939254e-03
      -3.86631885e-03 -1.75131317e-02 -8.87173752e-04 2.74867169e-03
      7.61770178e-03 9.02340934e-03 -3.97485960e-03 -2.70873052e-03
      -2.85714283e-03 -4.83261421e-03 1.43562932e-03 3.25262710e-03
      5.23554452e-04 3.63231404e-03 4.72218171e-03 1.01644394e-03
      3.71402898e-03 4.88183182e-03 5.85041475e-03 -7.65306130e-03
      -1.40453503e-02 2.78459658e-04 4.99884458e-03 6.10894384e-03
      5.25505142e-03 3.46860196e-03 2.28907424e-03 3.70973302e-03</_></support_vectors>
  <uncompressed_sv_total>25</uncompressed_sv_total>
  <uncompressed_support_vectors>
    <_>
      0. 0. 1.41509436e-02 0. 0. 4.71698120e-03 0. 0. 0. 0. 0. 0. 0. 0.
      0. 0. 0. 0. 0. 0. 0. 0. 4.71698120e-03 0. 0. 0. 0. 0. 0. 0.
      4.71698120e-03 0. 9.43396240e-03 0. 0. 2.83018872e-02 0.
      9.43396240e-03 0. 0. 0. 0. 0. 0. 4.71698120e-03 0. 0. 0. 0. 0. 0.
      0. 0. 1.41509436e-02 0. 0. 0. 0. 0. 0. 0. 0. 0. 0. 0. 0. 0. 0. 0.
      2.83018872e-02 0. 4.71698120e-03 0. 9.43396240e-03 0. 0.
      4.71698120e-03 9.43396240e-03 0. 0. 0. 0. 0. 0. 0. 9.43396240e-03
      0. 0. 0. 4.71698120e-03 0. 0. 2.35849060e-02 0. 4.71698120e-03 0.
      0. 0. 0. 0. 0. 0. 0. 0. 0. 0. 0. 4.71698120e-03 0. 1.41509436e-02
      0. 0. 2.83018872e-02 0. 0. 4.71698120e-03 0. 0. 0. 0. 0. 0. 0.
      4.71698120e-03 0. 0. 0. 0. 0. 0. 0. 0. 0. 0. 9.43396240e-03 0. 0.
      0. 0. 0. 0. 0. 0. 0. 0. 4.71698120e-03 4.71698120e-03 0. 0. 0. 0.
      0. 0. 0. 0. 0. 0. 0. 0. 4.71698120e-03 0. 0. 0. 0. 4.71698120e-03
      0. 0. 0. 0. 0. 0. 4.71698120e-03 0. 4.71698120e-03 0.
      1.41509436e-02 0. 0. 0. 0. 0. 0. 0. 0. 4.71698120e-03 0. 0. 0. 0.
      0. 0. 0. 0. 0. 0. 0. 0. 0. 0. 0. 0. 2.83018872e-02 0. 0. 0. 0. 0.
      0. 0. 4.71698120e-03 0. 0. 0. 0. 0. 0. 0. 0. 0. 0. 0. 0. 0. 0. 0.
      0. 0. 0. 0. 0. 0. 0. 0. 0. 0. 0. 0. 0. 0. 0. 0. 0. 0. 0. 0. 0. 0.
      0. 0. 0. 0. 0. 0. 0. 0. 0. 0. 0. 0. 0. 4.71698120e-03 0. 0. 0. 0.
      0. 4.71698120e-03 0. 0. 0. 0. 0. 0. 0. 0. 0. 0. 9.43396240e-03 0.
      0. 0. 0. 4.71698120e-03 0. 0. 0. 4.71698120e-03 1.88679248e-02 0.
      0. 0. 0. 0. 0. 0. 0. 0. 0. 0. 0. 0. 0. 0. 0. 0. 0. 0. 0. 0. 0. 0.
      0. 0. 4.71698120e-03 0. 0. 0. 0. 0. 0. 4.71698120e-03 0. 0. 0. 0.
      0. 0. 0. 0. 0. 0. 0. 0. 0. 0. 0. 2.35849060e-02 4.71698120e-03 0.
      0. 0. 0. 0. 0. 0. 4.71698120e-03 0. 9.43396240e-03 0. 0. 0. 0. 0.
      0. 0. 0. 0. 0. 0. 0. 0. 0. 1.41509436e-02 0. 0. 0. 0. 0. 0. 0. 0.
      0. 0. 0. 0. 4.71698120e-03 0. 0. 1.88679248e-02 0. 0. 0. 0. 0. 0.
      0. 4.71698120e-03 0. 0. 0. 0. 0. 0. 0. 0. 0. 0. 0. 0. 0. 0. 0. 0.
      0. 0. 0. 0. 0. 0. 0. 0. 0. 0. 0. 0. 4.71698120e-03 0. 0. 0. 0. 0.
      0. 0. 0. 0. 0. 0. 0. 0. 0. 0. 4.71698120e-03 0. 9.43396240e-03 0.
      0. 0. 0. 0. 0. 0. 0. 0. 0. 0. 0. 0. 0. 0. 0. 0. 0. 0. 0. 0. 0. 0.
      0. 4.71698120e-03 0. 0. 4.71698120e-03 0. 0. 0. 0. 0. 0.
      2.83018872e-02 0. 0. 0. 0. 0. 0. 0. 0. 0. 0. 0. 0. 0.
      1.41509436e-02 0. 0. 0. 0. 0. 0. 0. 0. 0. 0. 1.41509436e-02 0. 0.
      0. 0. 0. 0. 0. 0. 0. 0. 0. 0. 0. 0. 0. 0. 1.41509436e-02 0. 0.
      4.71698120e-03 0. 0. 0. 0. 0. 0. 0. 0. 0. 0. 0. 0. 0. 0. 0. 0. 0.
      0. 0. 0. 4.71698120e-03 0. 0. 0. 0. 0. 0. 0. 0. 0. 0.
      9.43396240e-03 4.71698120e-03 0. 0. 0. 0. 0. 0. 0. 0. 0. 0. 0. 0.
      0. 0. 0. 0. 0. 0. 0. 0. 0. 0. 0. 0. 0. 0. 0. 0. 0. 0. 0. 0. 0.
      4.71698120e-03 9.43396240e-03 0. 0. 0. 0. 0. 0. 0. 0. 0. 0. 0. 0.
      0. 0. 0. 1.41509436e-02 0. 0. 0. 0. 0. 0. 0. 0. 0. 0.
      1.41509436e-02 0. 0. 0. 0. 0. 0. 9.43396240e-03 0. 0. 0. 0. 0. 0.
      0. 0. 0. 0. 0. 4.71698120e-03 0. 0. 0. 0. 4.71698120e-03 0. 0. 0.
      0. 0. 0. 0. 0. 0. 1.41509436e-02 0. 0. 0. 0. 0. 0. 0. 0. 0. 0.
      4.71698120e-03 9.43396240e-03 0. 0. 0. 0. 0. 0. 0. 1.88679248e-02
      0. 0. 0. 9.43396240e-03 4.71698120e-03 0. 0. 0. 0. 0. 0.
      4.71698120e-03 0. 0. 0. 0. 0. 0. 0. 0. 0. 0. 0. 0. 0.
      4.71698120e-03 0. 0. 0. 0. 0. 0. 0. 0. 0. 0. 0. 0. 0. 0. 0. 0. 0.
      0. 4.71698120e-03 4.71698120e-03 0. 0. 0. 0. 0. 0. 0. 0. 0. 0. 0.
      4.71698120e-03 0. 0. 0. 0. 0. 0. 0. 0. 0. 0. 0. 0. 4.71698120e-03
      0. 0. 0. 0. 0. 0. 4.71698120e-03 0. 0. 0. 0. 0. 0. 0. 0. 0. 0. 0.
      0. 0. 0. 0. 0. 0. 0. 0. 9.43396240e-03 0. 0. 0. 0. 4.71698120e-03
      0. 0. 9.43396240e-03 0. 0. 0. 1.88679248e-02 0. 0. 0. 0. 0. 0. 0.
      4.71698120e-03 0. 0. 0. 0. 0. 0. 0. 0. 0. 0. 0. 0. 0.
      4.71698120e-03 0. 0. 0. 4.71698120e-03 4.71698120e-03
      9.43396240e-03 0. 0. 4.71698120e-03 0. 0. 0. 0. 0. 0. 0. 0. 0. 0.
      0. 4.71698120e-03 0. 0. 0. 1.41509436e-02 0. 0. 0. 0. 0. 0. 0. 0.
      0. 4.71698120e-03 0. 0. 0. 0. 0. 0. 0. 0. 0. 0. 1.88679248e-02 0.
      0. 0. 0. 0. 0. 0. 0. 0. 0. 0. 0. 0. 0. 0. 0. 0. 0. 0. 0. 0. 0. 0.
      0. 0. 0. 0. 0. 0. 0. 9.43396240e-03 0. 0. 0. 0. 0. 0. 0. 0.
      4.71698120e-03 0. 0. 0. 0. 0. 0. 0. 0. 0. 0. 0. 0. 9.43396240e-03
      0. 0. 0. 0. 1.41509436e-02 0. 0. 0. 0. 0. 0. 0. 0. 0. 0. 0. 0. 0.
      0. 9.43396240e-03 0. 4.71698120e-03 0. 0. 4.71698120e-03 0.
      1.41509436e-02 0. 0. 0. 0. 0. 0. 0. 0. 0. 0. 0. 0. 0. 0. 0. 0. 0.
      0. 0. 0. 0. 0. 0. 0. 0. 0. 0. 0. 0. 0. 0. 0. 0. 0. 0. 0. 0. 0. 0.
      0. 0. 0. 2.83018872e-02 0. 0. 0. 0. 0. 4.71698120e-03 0. 0.
      4.71698120e-03 0. 0. 0. 0. 0. 0. 0. 0. 0. 0. 0. 0. 0. 0. 0. 0. 0.
      0. 0. 1.41509436e-02 0. 0. 0. 0. 0. 0. 0.</_>
    <_>
      0. 0. 3.98406386e-03 0. 0. 3.98406386e-03 0. 0. 0. 0. 0.
      3.98406386e-03 3.98406386e-03 1.19521916e-02 0. 0. 0. 0. 0. 0. 0.
      0. 3.98406386e-03 0. 0. 0. 0. 0. 0. 0. 0. 0. 7.96812773e-03 0. 0.
      3.98406386e-03 0. 7.96812773e-03 0. 0. 0. 0. 0. 0. 0. 0.
      1.19521916e-02 0. 0. 0. 7.96812773e-03 0. 0. 1.19521916e-02 0. 0.
      0. 0. 0. 3.98406386e-03 0. 0. 0. 1.59362555e-02 0. 3.98406386e-03
      0. 0. 0. 3.98406386e-03 0. 0. 0. 3.98406386e-03 0. 0.
      7.96812773e-03 3.98406386e-03 7.96812773e-03 0. 3.98406386e-03 0.
      0. 0. 0. 0. 7.96812773e-03 0. 0. 0. 0. 0. 0. 0. 3.98406386e-03 0.
      0. 0. 0. 0. 0. 0. 0. 0. 0. 0. 0. 0. 7.96812773e-03 3.98406386e-03
      0. 0. 3.98406386e-03 0. 0. 0. 0. 1.19521916e-02 0. 0. 0. 0. 0. 0.
      3.98406386e-03 0. 0. 0. 0. 0. 0. 0. 0. 0. 3.98406386e-03 0. 0. 0.
      0. 7.96812773e-03 0. 0. 0. 0. 3.98406386e-03 1.19521916e-02 0. 0.
      0. 0. 0. 0. 0. 0. 0. 0. 0. 0. 0. 0. 0. 0. 0. 0. 7.96812773e-03 0.
      0. 0. 0. 0. 0. 1.59362555e-02 3.98406386e-03 0. 0. 0. 0. 0. 0. 0.
      0. 0. 0. 0. 0. 0. 0. 0. 0. 0. 0. 3.98406386e-03 0. 0. 0. 0. 0. 0.
      0. 0. 0. 3.98406386e-03 0. 0. 0. 0. 3.98406386e-03 0. 0. 0. 0. 0.
      0. 0. 0. 0. 0. 0. 0. 0. 0. 0. 0. 3.98406386e-03 3.98406386e-03 0.
      0. 0. 0. 0. 0. 0. 0. 0. 0. 0. 0. 0. 3.98406386e-03 0. 0. 0.
      3.98406386e-03 0. 0. 0. 0. 0. 0. 0. 0. 0. 0. 0. 0. 0. 0. 0. 0.
      3.98406386e-03 0. 0. 0. 0. 0. 0. 3.98406386e-03 0. 0. 0.
      3.98406386e-03 3.98406386e-03 0. 0. 0. 0. 0. 3.98406386e-03 0.
      3.98406386e-03 0. 0. 0. 0. 0. 0. 0. 1.19521916e-02 7.96812773e-03
      3.98406386e-03 3.98406386e-03 3.98406386e-03 0. 1.19521916e-02 0.
      3.98406386e-03 0. 0. 0. 0. 0. 0. 0. 0. 0. 0. 3.98406386e-03 0. 0.
      0. 0. 0. 0. 7.96812773e-03 0. 0. 0. 0. 0. 3.98406386e-03
      3.98406386e-03 0. 0. 0. 0. 0. 3.98406386e-03 0. 1.19521916e-02 0.
      0. 0. 0. 0. 0. 0. 0. 0. 0. 3.98406386e-03 0. 7.96812773e-03 0.
      7.96812773e-03 0. 0. 0. 1.19521916e-02 0. 0. 0. 0. 0. 0. 0. 0. 0.
      0. 3.98406386e-03 0. 0. 0. 3.98406386e-03 0. 0. 0. 0. 0. 0. 0. 0.
      0. 0. 0. 0. 3.98406386e-03 0. 0. 0. 0. 0. 3.98406386e-03 0. 0. 0.
      1.59362555e-02 0. 0. 0. 0. 3.98406386e-03 0. 0. 3.98406386e-03 0.
      3.98406386e-03 0. 0. 0. 0. 0. 0. 0. 0. 0. 0. 0. 3.98406386e-03 0.
      3.98406386e-03 0. 0. 0. 0. 0. 0. 0. 0. 0. 0. 0. 0. 0. 0. 0. 0. 0.
      0. 7.96812773e-03 3.98406386e-03 0. 7.96812773e-03 0.
      3.98406386e-03 0. 7.96812773e-03 0. 0. 0. 3.98406386e-03 0. 0. 0.
      0. 0. 0. 0. 0. 0. 0. 0. 0. 0. 0. 3.98406386e-03 0. 0. 0. 0. 0. 0.
      0. 0. 0. 0. 0. 0. 3.98406386e-03 3.98406386e-03 0. 3.98406386e-03
      0. 0. 7.96812773e-03 0. 0. 3.98406386e-03 0. 0. 0. 0. 0. 0. 0.
      3.98406386e-03 0. 0. 0. 0. 0. 0. 0. 0. 0. 0. 0. 0. 0. 0. 0. 0. 0.
      0. 0. 3.98406386e-03 7.96812773e-03 0. 7.96812773e-03 0. 0. 0. 0.
      0. 3.98406386e-03 0. 0. 0. 0. 0. 0. 0. 0. 0. 0. 0. 0. 0. 0. 0. 0.
      0. 0. 7.96812773e-03 0. 0. 3.98406386e-03 0. 0. 3.98406386e-03 0.
      0. 0. 0. 0. 0. 0. 0. 0. 0. 0. 0. 0. 0. 0. 3.98406386e-03
      3.98406386e-03 0. 0. 0. 0. 0. 0. 0. 0. 0. 0. 0. 0. 0.
      7.96812773e-03 0. 0. 0. 0. 0. 0. 0. 0. 0. 0. 0. 7.96812773e-03 0.
      0. 0. 0. 0. 0. 0. 0. 0. 0. 0. 0. 0. 0. 0. 3.98406386e-03 0. 0. 0.
      3.98406386e-03 0. 0. 0. 0. 0. 0. 3.98406386e-03 0. 0. 0. 0. 0. 0.
      3.98406386e-03 0. 0. 3.18725109e-02 0. 0. 0. 3.98406386e-03 0. 0.
      0. 0. 3.98406386e-03 0. 0. 0. 0. 0. 0. 0. 0. 3.98406386e-03 0. 0.
      0. 0. 0. 0. 1.19521916e-02 0. 0. 0. 0. 7.96812773e-03 0. 0. 0.
      7.96812773e-03 0. 3.98406386e-03 0. 0. 0. 0. 0. 0. 0.
      1.19521916e-02 0. 0. 0. 0. 3.98406386e-03 0. 0. 0. 0. 0. 0.
      3.98406386e-03 0. 0. 7.96812773e-03 0. 0. 0. 0. 0. 0. 0. 0. 0. 0.
      3.98406386e-03 0. 0. 0. 0. 0. 0. 0. 0. 0. 0. 0. 0. 0. 0.
      3.98406386e-03 0. 0. 0. 0. 0. 0. 0. 0. 0. 0. 0. 0. 0. 0. 0. 0. 0.
      0. 0. 0. 3.98406386e-03 0. 0. 0. 0. 0. 0. 0. 0. 0. 3.98406386e-03
      0. 0. 0. 0. 0. 3.98406386e-03 0. 0. 0. 0. 0. 0. 0. 3.98406386e-03
      0. 0. 0. 0. 0. 0. 7.96812773e-03 0. 0. 0. 0. 3.98406386e-03
      3.98406386e-03 0. 0. 0. 7.96812773e-03 0. 3.98406386e-03 0. 0.
      3.98406386e-03 3.98406386e-03 0. 0. 0. 0. 0. 0. 3.98406386e-03 0.
      3.98406386e-03 0. 0. 0. 0. 3.98406386e-03 0. 0. 0. 0. 0. 0. 0. 0.
      0. 0. 0. 0. 7.96812773e-03 7.96812773e-03 7.96812773e-03
      7.96812773e-03 0. 3.98406386e-03 0. 0. 0. 3.98406386e-03
      1.19521916e-02 0. 3.98406386e-03 0. 0. 0. 0. 0. 0. 0. 0.
      3.98406386e-03 0. 0. 0. 0. 0. 0. 0. 0. 0. 0. 0. 0. 0. 0. 0. 0. 0.
      0. 3.98406386e-03 0. 3.98406386e-03 0. 0. 0. 0. 0. 0. 0. 0. 0. 0.
      0. 0. 0. 0. 0. 0. 7.96812773e-03 0. 0. 0. 0. 0. 0. 1.19521916e-02
      0. 3.98406386e-03 0. 0. 1.19521916e-02 3.98406386e-03
      3.98406386e-03 0. 0. 0. 0. 0. 0. 0. 0. 0. 3.98406386e-03 0. 0. 0.
      0. 0. 0. 0. 0. 0. 0. 0. 0. 0. 0. 3.98406386e-03 0. 1.59362555e-02
      0. 0. 3.98406386e-03 0. 0. 0. 3.98406386e-03 0. 0. 0. 0. 0. 0. 0.
      3.98406386e-03 3.98406386e-03 3.98406386e-03 0. 0. 0. 0.
      3.98406386e-03 0. 3.98406386e-03 0. 0. 0. 3.98406386e-03 0.
      3.98406386e-03 0. 0. 0. 3.98406386e-03 0. 0. 0. 0. 0. 0. 0.
      3.98406386e-03 0. 0. 3.98406386e-03 0. 0. 0. 0. 1.59362555e-02 0.
      0. 0. 0. 0. 3.98406386e-03 0. 0. 0. 0. 0. 3.98406386e-03 0. 0. 0.
      7.96812773e-03 0. 0. 0. 0. 3.98406386e-03 0. 0. 0. 0. 0. 0. 0. 0.
      0. 0. 0. 0. 0. 0. 0. 0. 0. 0. 0. 0. 0. 0. 0. 0. 0. 0. 0. 0. 0. 0.</_>
    <_>
      0. 0. 2.85714283e-03 0. 0. 0. 0. 0. 2.85714283e-03 5.71428565e-03
      0. 0. 0. 2.85714283e-03 0. 0. 0. 0. 0. 0. 0. 0. 0. 0. 0. 0.
      2.85714283e-03 0. 0. 0. 0. 0. 0. 0. 0. 0. 2.85714283e-03
      8.57142825e-03 0. 0. 2.85714283e-03 0. 0. 0. 2.85714283e-03 0. 0.
      0. 0. 1.14285713e-02 2.85714283e-03 0. 0. 0. 0. 0. 0. 0. 0. 0. 0.
      0. 0. 0. 0. 0. 0. 0. 0. 0. 0. 2.28571426e-02 0. 0. 0.
      5.71428565e-03 2.85714283e-03 2.85714283e-03 0. 0. 5.71428565e-03
      0. 0. 0. 0. 0. 0. 0. 0. 0. 0. 0. 0. 5.71428565e-03 5.71428565e-03
      0. 2.85714283e-03 5.71428565e-03 0. 0. 0. 5.71428565e-03 0. 0. 0.
      2.85714283e-03 0. 0. 0. 2.85714283e-03 0. 2.85714283e-03
      8.57142825e-03 2.85714283e-03 0. 0. 0. 0. 0. 5.71428565e-03 0. 0.
      5.71428565e-03 0. 0. 2.85714283e-03 0. 1.14285713e-02
      2.85714283e-03 0. 0. 5.71428565e-03 0. 0. 5.71428565e-03 0.
      5.71428565e-03 0. 2.85714283e-03 8.57142825e-03 0. 0. 0. 0. 0. 0.
      0. 0. 0. 0. 8.57142825e-03 0. 0. 0. 2.85714283e-03 0. 0. 0. 0. 0.
      1.14285713e-02 0. 0. 0. 0. 0. 0. 0. 2.85714283e-03 0. 0. 0. 0. 0.
      2.85714283e-03 2.85714283e-03 0. 0. 2.85714283e-03 0. 0. 0. 0.
      2.85714283e-03 2.85714283e-03 0. 5.71428565e-03 0. 0. 0.
      2.85714283e-03 0. 2.85714283e-03 0. 0. 0. 0. 0. 0. 0. 0. 0. 0.
      2.85714283e-03 0. 2.85714283e-03 0. 0. 0. 0. 0. 0. 0.
      2.85714283e-03 2.85714283e-03 0. 0. 0. 0. 0. 0. 0. 5.71428565e-03
      0. 0. 2.85714283e-03 0. 0. 0. 0. 2.85714283e-03 0. 0. 0. 0. 0.
      2.85714283e-03 0. 0. 5.71428565e-03 0. 0. 0. 0. 0. 0. 0. 0. 0. 0.
      0. 0. 0. 0. 5.71428565e-03 0. 0. 2.85714283e-03 0. 0. 0. 0.
      5.71428565e-03 0. 1.42857144e-02 0. 5.71428565e-03 0.
      2.85714283e-03 0. 0. 2.85714283e-03 0. 0. 0. 0. 0. 0.
      2.85714283e-03 0. 0. 2.85714283e-03 2.85714283e-03 0. 0. 0.
      2.85714283e-03 0. 0. 0. 2.85714283e-03 0. 0. 0. 0. 0. 0. 0. 0. 0.
      0. 1.14285713e-02 0. 0. 0. 0. 0. 0. 0. 0. 0. 5.71428565e-03 0. 0.
      0. 0. 0. 0. 0. 0. 5.71428565e-03 0. 0. 0. 0. 0. 0. 2.85714283e-03
      0. 2.85714283e-03 0. 0. 0. 0. 0. 2.85714283e-03 2.85714283e-03 0.
      0. 0. 0. 0. 0. 0. 5.71428565e-03 0. 0. 0. 2.85714283e-03 0. 0. 0.
      0. 0. 0. 0. 2.85714283e-03 0. 2.85714283e-03 2.85714283e-03 0. 0.
      0. 0. 0. 2.85714283e-03 0. 0. 0. 0. 0. 0. 0. 2.85714283e-03 0.
      5.71428565e-03 0. 0. 0. 0. 0. 0. 0. 0. 0. 2.85714283e-03
      1.14285713e-02 0. 0. 0. 0. 0. 0. 0. 0. 0. 0. 0. 0. 2.85714283e-03
      0. 2.85714283e-03 8.57142825e-03 2.85714283e-03 0. 0. 0.
      2.85714283e-03 0. 0. 0. 0. 2.85714283e-03 0. 0. 0. 8.57142825e-03
      2.85714283e-03 0. 0. 0. 0. 0. 0. 0. 0. 0. 0. 0. 2.85714283e-03 0.
      5.71428565e-03 0. 8.57142825e-03 0. 0. 0. 0. 0. 0. 0.
      2.85714283e-03 0. 0. 0. 0. 0. 0. 0. 0. 0. 8.57142825e-03 0. 0. 0.
      0. 0. 0. 0. 0. 2.85714283e-03 0. 0. 0. 5.71428565e-03 0. 0.
      2.85714283e-03 0. 0. 0. 0. 0. 2.85714283e-03 0. 0. 0.
      5.71428565e-03 0. 0. 2.85714283e-03 0. 0. 0. 0. 0. 2.85714283e-03
      2.85714283e-03 0. 0. 0. 0. 0. 0. 2.85714283e-03 0. 0. 0. 0. 0. 0.
      0. 0. 0. 2.85714283e-03 2.85714283e-03 0. 0. 0. 0. 0.
      2.85714283e-03 2.85714283e-03 2.85714283e-03 0. 0. 2.85714283e-03
      0. 0. 0. 0. 0. 0. 0. 0. 0. 0. 0. 0. 0. 1.42857144e-02 0. 0.
      1.14285713e-02 0. 0. 0. 5.71428565e-03 0. 0. 0. 0. 8.57142825e-03
      2.85714283e-03 0. 2.85714283e-03 8.57142825e-03 0. 0. 0. 0.
      5.71428565e-03 0. 0. 5.71428565e-03 0. 0. 0. 5.71428565e-03 0.
      8.57142825e-03 0. 2.85714283e-03 2.85714283e-03 0. 0. 0. 0. 0.
      2.85714283e-03 5.71428565e-03 0. 0. 5.71428565e-03 0. 0. 0. 0. 0.
      2.85714283e-03 0. 0. 0. 0. 0. 0. 0. 0. 0. 0. 0. 0. 0. 0. 0.
      5.71428565e-03 0. 0. 5.71428565e-03 0. 0. 0. 0. 0. 0. 0.
      2.85714283e-03 0. 0. 0. 2.85714283e-03 0. 2.85714283e-03 0. 0. 0.
      5.71428565e-03 0. 2.85714283e-03 0. 0. 0. 0. 0. 0. 0. 0. 0. 0.
      2.85714283e-03 1.14285713e-02 2.85714283e-03 0. 0. 0. 0. 0. 0. 0.
      0. 0. 0. 0. 0. 0. 0. 0. 0. 2.85714283e-03 0. 0. 0. 0.
      2.85714283e-03 2.85714283e-03 0. 2.85714283e-03 0. 5.71428565e-03
      0. 0. 2.85714283e-03 0. 0. 0. 0. 0. 0. 0. 5.71428565e-03 0.
      1.14285713e-02 0. 0. 0. 0. 0. 0. 0. 0. 2.85714283e-03
      2.85714283e-03 0. 0. 0. 0. 0. 2.85714283e-03 0. 0. 0. 0. 0. 0. 0.
      0. 0. 2.85714283e-03 0. 0. 0. 2.85714283e-03 2.85714283e-03 0. 0.
      0. 0. 8.57142825e-03 5.71428565e-03 0. 0. 0. 0. 0. 0. 0.
      2.85714283e-03 2.85714283e-03 0. 0. 0. 0. 0. 2.85714283e-03 0. 0.
      0. 0. 0. 0. 0. 5.71428565e-03 2.85714283e-03 0. 0. 0. 0.
      2.85714283e-03 0. 0. 2.85714283e-03 0. 2.85714283e-03 0.
      8.57142825e-03 0. 0. 0. 0. 0. 2.85714283e-03 0. 0. 0. 0. 0. 0. 0.
      0. 0. 0. 2.85714283e-03 0. 0. 0. 0. 0. 2.85714283e-03 0.
      2.85714283e-03 0. 0. 8.57142825e-03 0. 0. 0. 2.85714283e-03 0. 0.
      0. 0. 2.85714283e-03 0. 0. 0. 2.85714283e-03 2.85714283e-03 0. 0.
      5.71428565e-03 0. 0. 8.57142825e-03 0. 0. 2.85714283e-03
      2.85714283e-03 0. 0. 0. 2.85714283e-03 2.85714283e-03 0.
      2.85714283e-03 2.85714283e-03 0. 0. 0. 2.85714283e-03 0. 0. 0.
      2.85714283e-03 0. 0. 0. 0. 0. 5.71428565e-03 0. 0. 8.57142825e-03
      2.85714283e-03 0. 2.85714283e-03 2.85714283e-03 0. 2.85714283e-03
      0. 0. 0. 0. 0. 0. 0. 2.85714283e-03 0. 0. 0. 0. 0. 0.
      2.85714283e-03 0. 0. 0. 0. 0. 0. 2.85714283e-03 0. 0. 0. 0.
      2.85714283e-03 0. 0. 0. 2.85714283e-03 0. 0. 0. 0. 0. 0. 0. 0. 0.
      0. 0. 0. 2.85714283e-03 0. 0. 2.85714283e-03 2.85714283e-03 0. 0.
      0. 0. 0. 2.85714283e-03 0. 0. 0. 2.85714283e-03 0. 2.85714283e-03
      0. 0. 2.85714283e-03 0. 0. 0. 0. 0. 8.57142825e-03 0. 0. 0.
      8.57142825e-03 0. 1.71428565e-02 2.85714283e-03 0. 0. 0. 0. 0. 0.
      0. 0. 0. 0. 0. 2.85714283e-03 5.71428565e-03 0. 0. 0. 0. 0. 0. 0.
      0. 0. 0. 0. 0. 0. 0. 0. 0. 0. 0. 0. 2.85714283e-03 0. 0. 0. 0. 0.
      0. 0. 0. 0. 0. 0. 0. 0. 0. 8.57142825e-03 0. 0. 0. 0. 0. 0. 0. 0.
      0. 0. 2.85714283e-03 0. 0. 0. 0. 0. 2.85714283e-03 0. 0. 0. 0.
      1.71428565e-02 0. 2.85714283e-03 0. 0. 0. 8.57142825e-03
      2.85714283e-03 0. 2.85714283e-03 0. 0. 0. 2.85714283e-03 0. 0. 0.
      0. 0. 0. 0. 0. 0. 0. 2.85714283e-03 0. 0.</_>
    <_>
      0. 0. 0. 0. 0. 0. 0. 0. 0. 0. 0. 7.09219836e-03 0. 0. 0. 0. 0. 0.
      0. 0. 0. 0. 0. 0. 0. 0. 0. 0. 1.06382975e-02 0. 0. 0. 0. 0. 0.
      3.54609918e-03 0. 7.09219836e-03 0. 0. 7.09219836e-03 0. 0. 0. 0.
      0. 3.54609918e-03 0. 0. 3.54609918e-03 3.54609918e-03
      3.54609918e-03 0. 0. 7.09219836e-03 3.54609918e-03 0. 0. 0. 0. 0.
      0. 3.54609918e-03 3.54609918e-03 7.09219836e-03 0. 0. 0. 0.
      7.09219836e-03 0. 2.12765951e-02 0. 0. 0. 0. 0. 3.54609918e-03 0.
      0. 0. 0. 0. 0. 0. 0. 3.54609918e-03 0. 0. 0. 0. 0. 3.54609918e-03
      0. 0. 0. 0. 0. 0. 0. 0. 0. 1.77304968e-02 0. 0. 7.09219836e-03
      7.09219836e-03 3.54609918e-03 0. 2.12765951e-02 0. 0.
      1.41843967e-02 0. 0. 0. 0. 0. 0. 0. 0. 0. 0. 0. 0. 2.12765951e-02
      0. 0. 0. 0. 0. 0. 0. 0. 1.41843967e-02 0. 0. 0. 0. 0. 0.
      3.54609918e-03 0. 0. 0. 0. 0. 7.09219836e-03 0. 0. 0. 0. 0.
      7.09219836e-03 0. 0. 3.54609918e-03 0. 0. 0. 0. 0. 0. 0. 0. 0. 0.
      0. 0. 0. 0. 7.09219836e-03 0. 0. 0. 1.77304968e-02 3.54609918e-03
      0. 0. 0. 0. 0. 7.09219836e-03 3.54609918e-03 3.54609918e-03 0. 0.
      0. 0. 0. 0. 0. 0. 0. 7.09219836e-03 3.54609918e-03 0. 0. 0. 0. 0.
      0. 0. 7.09219836e-03 0. 0. 3.54609918e-03 3.54609918e-03 0.
      3.54609918e-03 0. 7.09219836e-03 7.09219836e-03 0. 7.09219836e-03
      0. 0. 0. 0. 0. 0. 0. 3.54609918e-03 0. 0. 0. 0. 0. 0. 0.
      3.54609918e-03 0. 0. 3.54609918e-03 0. 0. 0. 0. 0. 0.
      3.54609918e-03 0. 0. 0. 0. 0. 0. 0. 0. 7.09219836e-03 0.
      3.54609918e-03 0. 0. 0. 0. 0. 7.09219836e-03 0. 0. 0. 0. 0. 0. 0.
      3.54609918e-03 7.09219836e-03 0. 0. 0. 0. 0. 0. 0. 0. 0. 0. 0. 0.
      0. 0. 0. 0. 0. 0. 0. 0. 0. 0. 3.54609918e-03 0. 0. 0. 0. 0.
      3.54609918e-03 0. 0. 0. 7.09219836e-03 0. 0. 0. 0. 0. 0.
      1.41843967e-02 0. 0. 0. 0. 0. 0. 0. 0. 0. 0. 0. 0. 3.54609918e-03
      0. 0. 0. 0. 0. 0. 3.54609918e-03 0. 1.06382975e-02 0. 0.
      3.54609918e-03 0. 0. 0. 0. 0. 0. 3.54609918e-03 0. 3.54609918e-03
      3.54609918e-03 0. 0. 0. 0. 0. 7.09219836e-03 3.54609918e-03 0. 0.
      0. 0. 0. 0. 0. 0. 0. 0. 0. 0. 0. 1.06382975e-02 0. 0. 0. 0. 0.
      7.09219836e-03 0. 0. 1.06382975e-02 0. 0. 0. 0. 0. 0. 0. 0. 0. 0.
      0. 0. 0. 0. 0. 0. 0. 0. 0. 0. 0. 0. 0. 0. 0. 0. 0. 0. 0. 0.
      3.54609918e-03 0. 0. 0. 0. 0. 0. 0. 0. 0. 0. 0. 3.54609918e-03 0.
      3.54609918e-03 0. 3.54609918e-03 0. 0. 0. 0. 0. 0. 0.
      3.54609918e-03 0. 3.54609918e-03 0. 0. 0. 0. 0. 0. 0. 0. 0. 0. 0.
      0. 0. 0. 0. 0. 0. 0. 3.54609918e-03 0. 0. 0. 0. 0. 0.
      3.54609918e-03 0. 0. 0. 0. 0. 0. 0. 0. 0. 0. 0. 0. 0. 0. 0. 0. 0.
      0. 7.09219836e-03 0. 0. 0. 0. 0. 0. 7.09219836e-03 0. 0. 0. 0. 0.
      3.54609918e-03 0. 0. 0. 0. 0. 0. 0. 0. 0. 0. 3.54609918e-03 0.
      3.54609918e-03 0. 0. 0. 0. 2.12765951e-02 0. 0. 3.54609918e-03 0.
      0. 0. 0. 0. 0. 0. 0. 3.54609918e-03 0. 0. 7.09219836e-03 0. 0. 0.
      0. 0. 0. 0. 0. 0. 0. 0. 0. 0. 0. 0. 0. 0. 0. 0. 0. 0.
      1.06382975e-02 0. 0. 0. 3.54609918e-03 0. 0. 0. 0. 2.83687934e-02
      7.09219836e-03 0. 0. 0. 0. 0. 0. 0. 0. 0. 0. 0. 0. 0. 0. 0. 0. 0.
      3.54609918e-03 3.54609918e-03 0. 0. 0. 7.09219836e-03
      3.54609918e-03 1.41843967e-02 0. 0. 3.54609918e-03 7.09219836e-03
      3.54609918e-03 0. 0. 0. 0. 0. 0. 0. 0. 0. 0. 0. 0. 0. 0. 0.
      1.77304968e-02 0. 0. 0. 0. 0. 0. 0. 0. 0. 3.54609918e-03 0. 0. 0.
      0. 1.06382975e-02 0. 7.09219836e-03 0. 0. 3.54609918e-03 0. 0. 0.
      0. 0. 0. 0. 0. 0. 3.54609918e-03 0. 0. 0. 0. 0. 7.09219836e-03 0.
      0. 0. 3.54609918e-03 0. 0. 0. 0. 0. 0. 0. 0. 0. 0. 0.
      3.54609918e-03 0. 0. 0. 0. 3.54609918e-03 0. 0. 0. 0. 0. 0. 0. 0.
      0. 0. 0. 0. 0. 0. 0. 0. 0. 0. 0. 0. 0. 0. 0. 0. 0. 0. 0. 0.
      7.09219836e-03 0. 0. 0. 0. 0. 0. 0. 0. 0. 0. 0. 0. 0.
      7.09219836e-03 0. 0. 0. 0. 0. 7.09219836e-03 0. 0. 0. 0. 0. 0. 0.
      0. 0. 0. 0. 0. 0. 3.54609918e-03 0. 7.09219836e-03 0. 0. 0. 0. 0.
      0. 0. 0. 0. 0. 0. 3.54609918e-03 0. 7.09219836e-03 0. 0. 0. 0. 0.
      0. 0. 0. 0. 0. 0. 0. 0. 0. 0. 0. 0. 0. 0. 0. 0. 0. 0. 0. 0. 0.
      1.06382975e-02 0. 0. 0. 0. 0. 7.09219836e-03 0. 0. 0. 0. 0. 0. 0.
      0. 0. 0. 0. 0. 0. 0. 0. 0. 0. 0. 0. 0. 0. 0. 0. 0. 0. 0. 0. 0.
      3.54609918e-03 0. 0. 3.54609918e-03 3.19148935e-02 7.09219836e-03
      7.09219836e-03 3.54609918e-03 0. 0. 0. 0. 0. 3.54609918e-03 0. 0.
      0. 0. 0. 0. 0. 0. 0. 0. 7.09219836e-03 0. 0. 0. 0. 0.
      3.54609918e-03 0. 0. 0. 0. 0. 0. 7.09219836e-03 0. 0. 0. 0. 0. 0.
      0. 2.48226933e-02 0. 0. 0. 0. 0. 0. 0. 0. 0. 0. 0. 0. 0. 0. 0. 0.
      0. 0. 0. 0. 0. 0. 0. 7.09219836e-03 0. 0. 0. 0. 0. 7.09219836e-03
      3.54609918e-03 0. 0. 0. 1.41843967e-02 0. 0. 0. 0. 0. 0. 0. 0. 0.
      0. 0. 0. 7.09219836e-03 0. 0. 0. 0. 0. 0. 0. 0. 3.54609918e-03
      3.54609918e-03 0. 0. 0. 7.09219836e-03 0. 0. 0. 0. 0.
      7.09219836e-03 0. 0. 0. 0. 0. 0. 3.54609918e-03 0. 0.
      3.54609918e-03 0. 7.09219836e-03 0. 0. 0. 0. 0. 0. 0. 0.
      3.54609918e-03 0. 3.54609918e-03 0. 0. 0. 0. 0. 0. 0. 0.
      3.54609918e-03 0. 0. 0. 0. 0. 0. 0. 7.09219836e-03 0. 0. 0. 0. 0.
      0. 0. 0. 0. 0. 0. 0. 0. 0. 0. 0. 0. 0. 7.09219836e-03 0. 0. 0. 0.
      7.09219836e-03 0. 0. 0. 0. 0. 3.54609918e-03 0. 0. 3.54609918e-03
      0. 0. 0. 0. 0. 0. 0. 0. 0. 0. 0. 0. 0. 0. 0. 0. 0. 0.</_>
    <_>
      0. 0. 0. 0. 0. 3.04878037e-03 0. 0. 0. 0. 3.04878037e-03 0. 0. 0.
      0. 0. 0. 0. 0. 3.04878037e-03 0. 6.09756075e-03 9.14634112e-03
      3.04878037e-03 0. 0. 0. 6.09756075e-03 0. 0. 3.04878037e-03 0. 0.
      0. 3.04878037e-03 3.04878037e-03 0. 3.04878037e-03 0. 0. 0. 0. 0.
      0. 9.14634112e-03 3.04878037e-03 3.04878037e-03 0. 0. 0. 0. 0. 0.
      1.82926822e-02 0. 0. 3.04878037e-03 0. 0. 0. 0. 3.04878037e-03 0.
      0. 0. 0. 3.04878037e-03 0. 0. 9.14634112e-03 0. 3.04878037e-03 0.
      0. 0. 0. 0. 3.04878037e-03 0. 0. 3.04878037e-03 0. 0. 0. 0. 0.
      3.04878037e-03 0. 0. 3.04878037e-03 0. 0. 9.14634112e-03 0. 0. 0.
      0. 0. 0. 0. 0. 0. 0. 0. 9.14634112e-03 3.04878037e-03 0. 0. 0. 0.
      0. 0. 9.14634112e-03 0. 3.04878037e-03 0. 0. 0. 0. 0.
      3.04878037e-03 0. 0. 0. 9.14634112e-03 6.09756075e-03
      3.04878037e-03 0. 0. 3.04878037e-03 0. 0. 0. 3.04878037e-03
      9.14634112e-03 6.09756075e-03 3.04878037e-03 0. 3.04878037e-03
      3.04878037e-03 0. 0. 0. 0. 0. 0. 1.21951215e-02 0. 0. 0. 0. 0. 0.
      0. 0. 0. 0. 0. 0. 0. 0. 0. 0. 0. 3.04878037e-03 3.04878037e-03 0.
      3.04878037e-03 0. 0. 3.04878037e-03 9.14634112e-03 0. 0.
      6.09756075e-03 9.14634112e-03 0. 9.14634112e-03 0. 0.
      3.04878037e-03 6.09756075e-03 3.04878037e-03 3.04878037e-03 0. 0.
      0. 0. 3.04878037e-03 0. 0. 0. 0. 0. 0. 3.04878037e-03
      3.04878037e-03 0. 0. 0. 0. 0. 0. 0. 0. 0. 0. 6.09756075e-03 0. 0.
      0. 0. 0. 0. 0. 0. 0. 0. 0. 0. 0. 0. 0. 0. 0. 0. 0. 0. 0. 0.
      3.04878037e-03 0. 0. 0. 0. 0. 0. 3.04878037e-03 3.04878037e-03 0.
      0. 0. 3.04878037e-03 0. 0. 0. 0. 0. 0. 0. 0. 0. 0. 3.04878037e-03
      0. 0. 0. 6.09756075e-03 0. 3.04878037e-03 6.09756075e-03 0. 0. 0.
      0. 9.14634112e-03 3.04878037e-03 0. 0. 0. 0. 0. 0. 0. 0. 0. 0. 0.
      0. 3.04878037e-03 3.04878037e-03 0. 6.09756075e-03 0. 0. 0.
      3.04878037e-03 1.52439019e-02 0. 6.09756075e-03 0. 0. 0. 0. 0. 0.
      0. 0. 0. 0. 0. 0. 0. 0. 0. 0. 0. 0. 0. 0. 0. 0. 0. 0.
      3.04878037e-03 0. 0. 0. 0. 6.09756075e-03 0. 6.09756075e-03
      3.04878037e-03 1.21951215e-02 0. 6.09756075e-03 0. 0. 0. 0. 0. 0.
      0. 0. 0. 3.04878037e-03 0. 0. 0. 0. 3.04878037e-03 0.
      6.09756075e-03 0. 0. 0. 0. 0. 3.04878037e-03 0. 3.04878037e-03 0.
      3.04878037e-03 0. 0. 0. 6.09756075e-03 0. 0. 0. 0. 0. 0. 0.
      1.82926822e-02 0. 0. 0. 0. 6.09756075e-03 0. 0. 0. 6.09756075e-03
      0. 0. 0. 0. 0. 6.09756075e-03 0. 0. 0. 0. 0. 9.14634112e-03 0. 0.
      0. 0. 0. 0. 0. 0. 0. 0. 0. 3.04878037e-03 6.09756075e-03 0. 0. 0.
      0. 0. 0. 0. 0. 0. 0. 6.09756075e-03 0. 0. 0. 0. 0. 3.04878037e-03
      6.09756075e-03 0. 0. 0. 0. 0. 0. 3.04878037e-03 0. 0. 0. 0. 0.
      6.09756075e-03 0. 0. 0. 0. 0. 0. 0. 0. 0. 0. 0. 0. 0. 0. 0. 0. 0.
      0. 0. 0. 0. 0. 0. 3.04878037e-03 0. 9.14634112e-03 0. 0.
      3.04878037e-03 0. 0. 3.04878037e-03 0. 0. 3.04878037e-03 0. 0.
      6.09756075e-03 0. 0. 0. 3.04878037e-03 0. 3.04878037e-03 0. 0. 0.
      0. 0. 0. 3.04878037e-03 0. 0. 0. 0. 0. 3.04878037e-03 0. 0. 0. 0.
      0. 0. 9.14634112e-03 0. 0. 3.04878037e-03 0. 0. 0. 0. 0. 0. 0.
      3.04878037e-03 3.04878037e-03 0. 0. 0. 0. 3.04878037e-03
      3.04878037e-03 0. 0. 0. 0. 3.04878037e-03 0. 0. 0. 0. 0. 0. 0. 0.
      0. 0. 0. 0. 0. 0. 0. 3.04878037e-03 0. 0. 0. 3.04878037e-03 0. 0.
      3.04878037e-03 0. 0. 6.09756075e-03 0. 0. 6.09756075e-03 0. 0. 0.
      0. 0. 0. 0. 0. 0. 0. 0. 0. 0. 0. 0. 1.21951215e-02 0. 0. 0. 0. 0.
      0. 0. 6.09756075e-03 0. 0. 0. 0. 0. 0. 3.04878037e-03 0. 0. 0. 0.
      6.09756075e-03 0. 0. 0. 0. 0. 6.09756075e-03 0. 3.04878037e-03 0.
      0. 0. 0. 0. 0. 0. 6.09756075e-03 3.04878037e-03 3.04878037e-03 0.
      0. 0. 0. 0. 0. 0. 0. 6.09756075e-03 0. 0. 0. 0. 0. 0. 0.
      9.14634112e-03 0. 6.09756075e-03 0. 1.52439019e-02 0.
      6.09756075e-03 0. 0. 0. 0. 0. 0. 0. 0. 0. 0. 0. 0. 0. 0.
      3.04878037e-03 0. 0. 0. 0. 3.04878037e-03 0. 3.04878037e-03
      9.14634112e-03 0. 0. 0. 0. 0. 0. 3.04878037e-03 0. 3.04878037e-03
      0. 0. 0. 0. 0. 0. 0. 9.14634112e-03 3.04878037e-03 0. 0. 0. 0. 0.
      0. 3.04878037e-03 0. 0. 0. 0. 0. 0. 6.09756075e-03 0. 0. 0. 0.
      3.04878037e-03 3.04878037e-03 0. 3.04878037e-03 0. 0. 0. 0. 0. 0.
      3.04878037e-03 0. 0. 0. 0. 0. 0. 0. 0. 0. 0. 0. 6.09756075e-03 0.
      0. 6.09756075e-03 9.14634112e-03 0. 0. 0. 0. 0. 0. 0. 0. 0. 0. 0.
      9.14634112e-03 0. 0. 0. 0. 0. 3.04878037e-03 0. 0. 0. 0. 0. 0. 0.
      0. 3.04878037e-03 0. 6.09756075e-03 0. 0. 0. 0. 0. 0. 0. 0.
      9.14634112e-03 0. 0. 3.04878037e-03 0. 0. 0. 0. 0. 0. 0. 0. 0. 0.
      3.04878037e-03 0. 0. 0. 0. 0. 0. 6.09756075e-03 3.04878037e-03 0.
      0. 0. 3.04878037e-03 3.04878037e-03 0. 0. 0. 3.04878037e-03
      3.04878037e-03 0. 0. 0. 0. 0. 0. 3.04878037e-03 0. 0. 0. 0.
      3.04878037e-03 0. 0. 0. 0. 0. 0. 0. 3.04878037e-03 9.14634112e-03
      0. 0. 0. 0. 3.04878037e-03 3.04878037e-03 0. 0. 0. 0. 0.
      3.04878037e-03 3.04878037e-03 0. 3.04878037e-03 0. 0. 0.
      3.04878037e-03 3.04878037e-03 3.04878037e-03 0. 3.04878037e-03 0.
      0. 0. 0. 0. 3.04878037e-03 0. 0. 0. 0. 0. 0. 0. 0. 3.04878037e-03
      0. 0. 3.04878037e-03 0. 0. 0. 0. 0. 0. 0. 0. 0. 0. 0. 0. 0. 0. 0.
      0. 0. 3.04878037e-03 0. 0. 6.09756075e-03 0. 0. 0. 0. 0. 0. 0.
      3.04878037e-03 0. 0. 0. 0. 3.04878037e-03 3.04878037e-03
      6.09756075e-03 0. 0. 6.09756075e-03 6.09756075e-03 3.04878037e-03
      3.04878037e-03 0. 0. 0. 3.04878037e-03 0. 0. 0. 0. 0. 0.
      6.09756075e-03 0. 0. 6.09756075e-03 0. 0. 0. 0. 0. 6.09756075e-03
      3.04878037e-03 0. 0. 0. 0. 0. 0. 0. 0. 0. 0. 0. 9.14634112e-03 0.
      0. 6.09756075e-03 0. 0. 0. 3.04878037e-03 0. 0. 0. 0. 0. 0. 0. 0.
      0. 0. 0. 0. 3.04878037e-03 0. 0. 0. 0. 6.09756075e-03 0. 0. 0. 0.
      0. 6.09756075e-03 0. 0. 0. 0. 0. 0. 0. 0. 0. 0. 0. 0. 0.
      3.04878037e-03 0. 0. 3.04878037e-03 3.04878037e-03 0. 0. 0. 0. 0.
      0. 0. 0. 0. 3.04878037e-03 0. 0. 0. 3.04878037e-03 0. 0.
      3.04878037e-03 0. 0. 0. 0. 0. 0. 0. 0. 0. 0. 0. 0. 0. 0. 0. 0. 0.
      0.</_>
    <_>
      0. 0. 0. 0. 0. 0. 0. 0. 0. 2.55102036e-03 0. 2.55102036e-03 0.
      2.55102036e-03 0. 0. 0. 0. 0. 0. 0. 2.55102036e-03 0. 0.
      2.55102036e-03 0. 2.55102036e-03 0. 0. 0. 1.78571418e-02 0.
      2.55102036e-03 0. 0. 0. 0. 2.55102036e-03 0. 7.65306130e-03 0. 0.
      0. 0. 1.02040814e-02 0. 5.10204071e-03 2.55102036e-03 0. 0. 0.
      2.55102036e-03 0. 1.02040814e-02 5.10204071e-03 0. 0. 0. 0.
      5.10204071e-03 0. 0. 0. 5.10204071e-03 0. 2.55102036e-03
      5.10204071e-03 0. 2.55102036e-03 1.02040814e-02 7.65306130e-03
      2.55102036e-03 0. 0. 0. 0. 5.10204071e-03 0. 2.55102036e-03 0. 0.
      0. 0. 0. 0. 0. 0. 0. 0. 1.02040814e-02 0. 0. 5.10204071e-03 0. 0.
      0. 0. 0. 0. 0. 0. 0. 2.55102036e-03 0. 0. 2.55102036e-03 0. 0. 0.
      2.55102036e-03 0. 0. 0. 0. 0. 0. 0. 0. 0. 2.55102036e-03 0. 0. 0.
      0. 0. 2.55102036e-03 2.55102036e-03 2.55102036e-03 0. 0. 0. 0. 0.
      1.78571418e-02 1.02040814e-02 7.65306130e-03 0. 0. 0. 0. 0. 0. 0.
      0. 0. 0. 0. 0. 0. 0. 2.55102036e-03 0. 2.55102036e-03
      5.10204071e-03 0. 0. 0. 0. 0. 0. 0. 0. 0. 0. 0. 0. 0. 0.
      2.55102036e-03 0. 0. 1.02040814e-02 0. 0. 2.55102036e-03
      5.10204071e-03 0. 5.10204071e-03 0. 0. 0. 0. 5.10204071e-03 0.
      2.55102036e-03 0. 0. 0. 5.10204071e-03 0. 0. 0. 5.10204071e-03
      2.55102036e-03 0. 2.55102036e-03 0. 0. 0. 0. 0. 2.55102036e-03 0.
      0. 0. 0. 5.10204071e-03 0. 0. 2.55102036e-03 0. 0. 5.10204071e-03
      5.10204071e-03 0. 0. 0. 0. 0. 0. 0. 0. 0. 2.55102036e-03 0. 0. 0.
      2.55102036e-03 0. 0. 0. 0. 0. 0. 0. 0. 5.10204071e-03
      7.65306130e-03 0. 0. 2.55102036e-03 2.55102036e-03 2.55102036e-03
      0. 0. 0. 0. 0. 0. 0. 0. 0. 0. 5.10204071e-03 0. 0. 0. 0. 0. 0. 0.
      5.10204071e-03 0. 0. 0. 0. 2.55102036e-03 0. 0. 0. 0. 0.
      2.55102036e-03 0. 0. 0. 0. 0. 0. 2.55102036e-03 2.55102036e-03
      2.55102036e-03 0. 0. 0. 2.55102036e-03 2.55102036e-03
      1.53061226e-02 0. 1.27551015e-02 0. 0. 0. 0. 0. 7.65306130e-03 0.
      0. 2.55102036e-03 0. 0. 0. 0. 0. 0. 0. 0. 0. 0. 0. 2.55102036e-03
      0. 0. 0. 0. 0. 0. 0. 0. 0. 0. 2.55102036e-03 0. 2.55102036e-03 0.
      2.55102036e-03 0. 2.55102036e-03 2.55102036e-03 0. 0. 0. 0. 0. 0.
      0. 5.10204071e-03 0. 0. 2.55102036e-03 0. 0. 0. 0. 0. 0. 0. 0.
      5.10204071e-03 0. 0. 0. 0. 0. 0. 0. 0. 1.02040814e-02 0. 0.
      2.55102036e-03 0. 0. 2.55102036e-03 0. 0. 0. 0. 0. 2.55102036e-03
      0. 0. 0. 2.55102036e-03 0. 0. 0. 0. 0. 2.55102036e-03 0. 0. 0. 0.
      0. 5.10204071e-03 0. 0. 0. 0. 0. 0. 0. 0. 2.55102036e-03 0. 0.
      2.55102036e-03 0. 0. 0. 2.55102036e-03 0. 0. 0. 2.55102036e-03 0.
      0. 2.55102036e-03 2.55102036e-03 0. 0. 0. 0. 0. 0. 0.
      2.55102036e-03 2.55102036e-03 0. 0. 0. 0. 0. 0. 0. 0. 0. 0. 0.
      5.10204071e-03 5.10204071e-03 0. 0. 5.10204071e-03 0. 0. 0. 0. 0.
      0. 0. 0. 0. 0. 0. 0. 0. 0. 5.10204071e-03 0. 2.55102036e-03 0. 0.
      0. 0. 0. 0. 0. 0. 0. 0. 7.65306130e-03 0. 0. 0. 0. 2.55102036e-03
      2.55102036e-03 0. 0. 0. 0. 5.10204071e-03 0. 2.55102036e-03 0. 0.
      0. 0. 0. 0. 0. 0. 0. 0. 0. 0. 0. 0. 0. 0. 0. 0. 0. 0. 0.
      2.55102036e-03 0. 0. 5.10204071e-03 0. 5.10204071e-03 0.
      1.02040814e-02 7.65306130e-03 0. 2.55102036e-03 0. 0.
      2.55102036e-03 0. 0. 0. 0. 0. 0. 0. 0. 2.55102036e-03 0.
      2.55102036e-03 0. 0. 0. 5.10204071e-03 0. 0. 0. 0. 0. 0.
      2.55102036e-03 2.55102036e-03 0. 0. 2.55102036e-03 0.
      5.10204071e-03 0. 0. 0. 2.55102036e-03 0. 0. 5.10204071e-03
      2.55102036e-03 0. 0. 0. 2.55102036e-03 0. 0. 0. 0. 0. 0. 0.
      2.55102036e-03 0. 0. 5.10204071e-03 0. 0. 0. 0. 0. 0. 0. 0.
      5.10204071e-03 0. 0. 0. 0. 0. 0. 0. 0. 0. 2.55102036e-03 0. 0. 0.
      0. 0. 5.10204071e-03 0. 0. 0. 0. 0. 0. 0. 0. 0. 2.55102036e-03
      2.55102036e-03 0. 0. 0. 2.55102036e-03 0. 2.55102036e-03 0. 0. 0.
      0. 0. 0. 0. 0. 0. 0. 0. 0. 0. 0. 0. 0. 0. 0. 0. 0. 0. 0. 0.
      2.55102036e-03 0. 0. 0. 0. 0. 0. 0. 0. 0. 2.55102036e-03 0. 0. 0.
      0. 0. 0. 2.55102036e-03 0. 0. 0. 0. 0. 0. 0. 0. 5.10204071e-03
      2.55102036e-03 0. 0. 2.55102036e-03 0. 0. 0. 2.55102036e-03
      2.55102036e-03 0. 0. 0. 0. 0. 0. 2.55102036e-03 2.55102036e-03 0.
      1.27551015e-02 0. 0. 0. 0. 2.55102036e-03 0. 0. 2.55102036e-03
      2.55102036e-03 0. 0. 0. 0. 0. 0. 0. 0. 0. 0. 2.55102036e-03 0. 0.
      0. 0. 1.02040814e-02 0. 0. 0. 0. 0. 7.65306130e-03 0. 0. 0.
      7.65306130e-03 2.55102036e-03 0. 0. 0. 0. 0. 0. 0. 0. 0.
      2.55102036e-03 0. 2.55102036e-03 0. 0. 0. 0. 0. 0. 5.10204071e-03
      0. 0. 0. 0. 0. 2.55102036e-03 0. 5.10204071e-03 0. 1.02040814e-02
      0. 0. 2.55102036e-03 0. 2.55102036e-03 0. 0. 0. 0. 0. 0. 0. 0. 0.
      0. 0. 0. 0. 0. 0. 0. 5.10204071e-03 2.55102036e-03 2.55102036e-03
      2.55102036e-03 0. 0. 0. 0. 7.65306130e-03 0. 2.55102036e-03
      7.65306130e-03 0. 5.10204071e-03 0. 0. 0. 0. 0. 0. 0.
      7.65306130e-03 2.55102036e-03 0. 0. 0. 0. 0. 0. 0. 2.55102036e-03
      1.27551015e-02 2.55102036e-03 0. 0. 0. 5.10204071e-03 0.
      2.55102036e-03 5.10204071e-03 1.02040814e-02 7.65306130e-03 0. 0.
      0. 2.55102036e-03 0. 0. 0. 2.55102036e-03 0. 0. 0. 2.55102036e-03
      0. 0. 0. 0. 0. 0. 0. 0. 0. 0. 0. 0. 0. 0. 0. 0. 0. 0. 0. 0. 0.
      2.55102036e-03 0. 0. 0. 2.55102036e-03 7.65306130e-03
      2.55102036e-03 0. 0. 5.10204071e-03 0. 0. 0. 2.55102036e-03 0. 0.
      0. 0. 0. 0. 0. 0. 0. 0. 2.55102036e-03 2.55102036e-03 0.
      2.55102036e-03 0. 0. 0. 0. 0. 2.55102036e-03 0. 2.55102036e-03
      2.55102036e-03 2.55102036e-03 0. 0. 0. 2.55102036e-03 0. 0. 0. 0.
      0. 2.55102036e-03 0. 5.10204071e-03 0. 0. 0. 2.55102036e-03 0. 0.
      0. 0. 0. 0. 0. 0. 0. 0. 5.10204071e-03 2.55102036e-03 0. 0.
      5.10204071e-03 2.55102036e-03 0. 0. 2.55102036e-03 0.
      5.10204071e-03 2.55102036e-03 0. 0. 0. 0. 1.02040814e-02 0. 0. 0.
      2.29591839e-02 0. 0. 0. 0. 0. 0. 0. 0. 0. 0. 0. 0. 2.55102036e-03
      2.55102036e-03 0. 0. 0. 2.55102036e-03 7.65306130e-03 0. 0.
      5.10204071e-03 0. 2.55102036e-03 0. 0. 0. 5.10204071e-03 0.
      2.55102036e-03 0. 0. 0. 0. 0. 0. 2.55102036e-03 0. 0. 0. 0. 0. 0.
      5.10204071e-03 0. 0. 1.02040814e-02 0. 0. 0. 1.02040814e-02 0. 0.
      0. 2.55102036e-03 2.55102036e-03 0. 0. 0. 2.55102036e-03 0. 0.
      2.55102036e-03 5.10204071e-03 0. 0. 0. 0. 0. 0. 0. 0.
      7.65306130e-03 0. 0. 0. 0. 0. 0. 0. 0.</_>
    <_>
      0. 0. 0. 6.57894742e-03 0. 0. 0. 0. 0. 0. 0. 0. 0. 0. 0. 0. 0. 0.
      0. 0. 1.31578948e-02 0. 0. 0. 0. 0. 0. 0. 0. 0. 0. 0. 0. 0. 0. 0.
      0. 0. 0. 0. 0. 0. 6.57894742e-03 0. 0. 0. 0. 0. 0. 0. 0. 0. 0. 0.
      6.57894742e-03 0. 0. 0. 1.31578948e-02 0. 6.57894742e-03 0. 0. 0.
      0. 0. 0. 0. 0. 0. 0. 0. 0. 0. 0. 0. 1.97368413e-02 0. 0. 0. 0. 0.
      0. 0. 6.57894742e-03 0. 0. 0. 0. 0. 0. 0. 0. 0. 0. 0. 0. 0.
      1.31578948e-02 0. 0. 0. 0. 0. 0. 0. 0. 0. 0. 0. 0. 0. 0. 0. 0. 0.
      0. 0. 0. 0. 0. 0. 0. 0. 0. 0. 0. 0. 0. 0. 6.57894742e-03 0. 0. 0.
      0. 0. 0. 0. 0. 0. 0. 1.31578948e-02 0. 0. 0. 0. 0. 0. 0. 0. 0. 0.
      0. 0. 1.31578948e-02 6.57894742e-03 0. 6.57894742e-03
      1.31578948e-02 0. 0. 0. 0. 0. 0. 0. 0. 0. 0. 0. 0. 0. 0. 0. 0. 0.
      6.57894742e-03 0. 0. 6.57894742e-03 6.57894742e-03 0. 0. 0. 0. 0.
      0. 0. 0. 0. 6.57894742e-03 0. 0. 0. 0. 0. 0. 0. 0. 0. 0. 0. 0. 0.
      1.31578948e-02 0. 0. 6.57894742e-03 0. 0. 6.57894742e-03 0. 0. 0.
      0. 0. 6.57894742e-03 0. 0. 0. 0. 0. 6.57894742e-03 0. 0. 0. 0. 0.
      2.63157897e-02 0. 0. 0. 0. 0. 0. 0. 0. 0. 0. 0. 0. 0. 0. 0. 0. 0.
      0. 0. 0. 0. 0. 0. 0. 0. 0. 0. 0. 0. 0. 0. 0. 0. 0. 0.
      6.57894742e-03 0. 0. 0. 0. 0. 0. 0. 0. 0. 0. 0. 0. 0. 0. 0. 0. 0.
      0. 0. 6.57894742e-03 0. 0. 0. 0. 0. 0. 0. 0. 6.57894742e-03 0. 0.
      0. 0. 0. 0. 0. 0. 0. 0. 0. 0. 0. 0. 0. 0. 0. 6.57894742e-03 0. 0.
      0. 0. 0. 0. 0. 0. 0. 0. 0. 0. 0. 0. 6.57894742e-03 0. 0. 0. 0. 0.
      6.57894742e-03 0. 0. 0. 0. 6.57894742e-03 0. 0. 1.97368413e-02 0.
      0. 0. 0. 1.31578948e-02 0. 6.57894742e-03 0. 1.97368413e-02 0.
      6.57894742e-03 0. 0. 0. 0. 0. 0. 0. 0. 0. 0. 0. 0. 0. 0. 0. 0. 0.
      0. 0. 0. 0. 1.97368413e-02 0. 0. 0. 0. 0. 0. 0. 0. 0. 0. 0. 0. 0.
      0. 0. 0. 0. 6.57894742e-03 0. 0. 0. 0. 0. 0. 0. 0. 0.
      6.57894742e-03 0. 0. 0. 0. 0. 0. 0. 0. 0. 0. 0. 0. 0. 0. 0. 0. 0.
      0. 0. 0. 0. 0. 0. 0. 0. 0. 0. 0. 6.57894742e-03 0. 0. 0. 0. 0. 0.
      1.97368413e-02 0. 0. 0. 6.57894742e-03 0. 0. 0. 0. 0. 0. 0. 0. 0.
      0. 0. 0. 0. 0. 0. 0. 0. 0. 6.57894742e-03 0. 0. 0. 0. 0. 0. 0. 0.
      0. 0. 0. 0. 0. 0. 6.57894742e-03 0. 0. 0. 0. 0. 0. 0. 0. 0. 0.
      6.57894742e-03 6.57894742e-03 0. 0. 0. 0. 0. 0. 0. 0. 0.
      1.31578948e-02 0. 0. 6.57894742e-03 0. 0. 0. 0. 0. 0. 0. 0.
      3.28947380e-02 0. 0. 0. 0. 3.28947380e-02 0. 1.97368413e-02 0. 0.
      0. 0. 6.57894742e-03 0. 0. 0. 0. 0. 0. 0. 0. 0. 0. 0. 0.
      1.31578948e-02 0. 0. 0. 0. 0. 0. 0. 0. 0. 0. 0. 0. 0. 0. 0. 0. 0.
      0. 0. 0. 0. 0. 0. 0. 0. 0. 0. 0. 0. 0. 0. 0. 0. 1.31578948e-02 0.
      0. 0. 0. 0. 0. 0. 0. 0. 0. 0. 0. 0. 0. 0. 0. 0. 0. 0. 0. 0. 0. 0.
      0. 3.28947380e-02 0. 2.63157897e-02 0. 6.57894742e-03 0. 0. 0. 0.
      0. 0. 0. 0. 0. 0. 0. 0. 0. 0. 0. 0. 0. 0. 0. 0. 0. 2.63157897e-02
      0. 0. 0. 0. 0. 0. 0. 0. 0. 0. 0. 0. 0. 0. 0. 0. 0. 0. 0.
      6.57894742e-03 1.31578948e-02 6.57894742e-03 6.57894742e-03 0. 0.
      0. 0. 0. 0. 0. 0. 0. 0. 0. 0. 0. 0. 0. 0. 0. 3.28947380e-02 0. 0.
      0. 0. 0. 0. 0. 0. 0. 0. 0. 0. 0. 0. 0. 0. 0. 0. 0. 0. 0. 0.
      6.57894742e-03 1.31578948e-02 0. 0. 0. 0. 1.97368413e-02 0. 0. 0.
      0. 0. 0. 0. 0. 0. 0. 0. 0. 0. 6.57894742e-03 0. 0. 0. 0. 0. 0. 0.
      0. 0. 0. 0. 0. 0. 0. 0. 0. 0. 0. 0. 0. 0. 0. 0. 0. 0. 0. 0. 0. 0.
      0. 0. 0. 0. 0. 0. 6.57894742e-03 0. 0. 0. 0. 0. 1.31578948e-02 0.
      0. 0. 0. 0. 0. 0. 0. 0. 0. 0. 0. 0. 0. 0. 0. 0. 0. 0. 0. 0. 0. 0.
      0. 6.57894742e-03 0. 0. 6.57894742e-03 0. 0. 0. 0. 0. 0. 0. 0.
      6.57894742e-03 0. 0. 0. 6.57894742e-03 0. 6.57894742e-03
      1.31578948e-02 0. 0. 0. 0. 0. 0. 0. 0. 0. 0. 0. 0. 0. 0. 0. 0. 0.
      0. 0. 0. 0. 0. 6.57894742e-03 0. 0. 0. 0. 0. 6.57894742e-03 0. 0.
      0. 0. 0. 0. 0. 0. 0. 0. 0. 0. 0. 0. 0. 0. 0. 6.57894742e-03 0. 0.
      0. 0. 0. 6.57894742e-03 0. 0. 0. 0. 0. 0. 0. 6.57894742e-03 0.
      6.57894742e-03 0. 0. 0. 0. 0. 0. 0. 0. 0. 6.57894742e-03
      6.57894742e-03 0. 0. 0. 0. 0. 0. 0. 0. 0. 0. 0. 0. 0. 0. 0. 0. 0.
      0. 0. 0. 0. 0. 0. 6.57894742e-03 0. 0. 0. 0. 0. 0. 0. 0. 0. 0. 0.
      0. 0. 0. 0. 0. 1.31578948e-02 1.31578948e-02 0. 0. 0. 0. 0. 0. 0.
      0. 0. 6.57894742e-03 0. 0. 0. 0. 0. 0. 0. 0. 0. 0. 0. 0. 0. 0. 0.
      0. 0. 0. 0. 0. 0. 0. 6.57894742e-03 0. 0. 0. 0. 0. 0. 0. 0. 0. 0.
      0. 0. 0. 0. 0. 0. 0. 0. 0. 0. 0. 0. 0. 0. 0. 0. 0. 0. 0. 0. 0. 0.
      0. 0. 0. 0. 6.57894742e-03 0. 1.97368413e-02 6.57894742e-03 0. 0.
      0. 0. 0. 0. 0. 0. 0. 0. 6.57894742e-03 0. 0. 0. 0. 6.57894742e-03
      0. 0. 0. 0. 0.</_>
    <_>
      4.25531901e-03 0. 0. 0. 0. 0. 0. 0. 0. 0. 4.25531901e-03 0. 0.
      8.51063803e-03 0. 0. 0. 0. 0. 4.25531901e-03 0. 8.51063803e-03 0.
      0. 1.27659570e-02 0. 2.12765951e-02 0. 0. 0. 0. 8.51063803e-03 0.
      0. 0. 4.25531901e-03 0. 0. 0. 0. 0. 0. 0. 0. 0. 0. 0. 0. 0.
      8.51063803e-03 0. 0. 0. 0. 4.25531901e-03 0. 4.25531901e-03 0. 0.
      0. 0. 0. 0. 0. 0. 0. 0. 0. 4.25531901e-03 0. 0. 0. 0. 0. 0. 0. 0.
      0. 0. 0. 4.25531901e-03 4.25531901e-03 0. 0. 0. 0. 0. 0. 0.
      4.25531901e-03 0. 4.25531901e-03 0. 0. 0. 0. 0. 0. 0. 0. 0. 0. 0.
      8.51063803e-03 4.25531901e-03 0. 0. 0. 0. 0. 0. 0. 0. 0. 0.
      4.25531901e-03 0. 0. 4.25531901e-03 0. 0. 4.25531901e-03 0. 0. 0.
      0. 4.25531901e-03 0. 0. 4.25531901e-03 0. 0. 0. 8.51063803e-03
      4.25531901e-03 0. 0. 0. 0. 0. 0. 1.27659570e-02 0. 0. 0. 0.
      4.25531901e-03 8.51063803e-03 0. 0. 4.25531901e-03 0.
      4.25531901e-03 0. 0. 0. 0. 0. 0. 4.25531901e-03 4.25531901e-03 0.
      0. 8.51063803e-03 0. 0. 0. 0. 0. 0. 0. 4.25531901e-03 0. 0. 0.
      4.25531901e-03 0. 0. 0. 0. 0. 0. 0. 4.25531901e-03 0. 0. 0. 0. 0.
      0. 0. 0. 0. 0. 0. 4.25531901e-03 0. 0. 0. 0. 0. 0. 0. 0. 0. 0. 0.
      0. 0. 0. 0. 0. 0. 0. 4.25531901e-03 0. 0. 0. 0. 0. 0. 0. 0. 0.
      4.25531901e-03 4.25531901e-03 0. 0. 0. 0. 8.51063803e-03 0.
      4.25531901e-03 0. 0. 4.25531901e-03 0. 0. 8.51063803e-03
      4.25531901e-03 4.25531901e-03 0. 0. 0. 0. 0. 0. 0. 4.25531901e-03
      0. 0. 8.51063803e-03 0. 0. 0. 0. 0. 0. 0. 0. 0. 0. 2.55319141e-02
      0. 0. 0. 0. 4.25531901e-03 0. 0. 0. 0. 0. 0. 0. 0. 0.
      4.25531901e-03 0. 0. 0. 0. 0. 0. 0. 0. 0. 0. 0. 4.25531901e-03 0.
      0. 0. 0. 0. 0. 0. 0. 0. 0. 0. 0. 0. 0. 0. 0. 0. 8.51063803e-03 0.
      0. 0. 0. 0. 0. 0. 0. 0. 0. 8.51063803e-03 0. 0. 0. 8.51063803e-03
      0. 0. 4.25531901e-03 0. 0. 0. 0. 0. 0. 0. 0. 0. 0. 0. 0. 0. 0. 0.
      4.25531901e-03 0. 1.27659570e-02 0. 0. 0. 0. 8.51063803e-03 0. 0.
      0. 0. 8.51063803e-03 0. 4.25531901e-03 0. 0. 0. 4.25531901e-03 0.
      0. 0. 0. 0. 4.25531901e-03 2.12765951e-02 0. 4.25531901e-03 0. 0.
      0. 0. 0. 0. 4.25531901e-03 0. 0. 0. 0. 0. 0. 0. 0. 0. 0. 0. 0. 0.
      0. 0. 0. 0. 0. 0. 0. 0. 4.25531901e-03 0. 0. 0. 0. 0. 0. 0. 0. 0.
      4.25531901e-03 0. 0. 0. 0. 0. 0. 0. 0. 0. 0. 0. 0. 0. 0. 0. 0. 0.
      0. 0. 0. 0. 0. 0. 0. 0. 0. 0. 0. 0. 0. 0. 0. 0. 0. 0. 0. 0. 0. 0.
      0. 0. 0. 0. 8.51063803e-03 0. 0. 0. 0. 0. 0. 0. 0. 8.51063803e-03
      0. 0. 0. 0. 0. 0. 0. 0. 0. 0. 8.51063803e-03 0. 0. 0. 0.
      4.25531901e-03 0. 0. 0. 0. 0. 0. 0. 0. 0. 0. 0. 4.25531901e-03 0.
      8.51063803e-03 0. 0. 0. 1.27659570e-02 8.51063803e-03 0. 0.
      8.51063803e-03 0. 0. 0. 0. 4.25531901e-03 0. 0. 0. 0. 0. 0.
      4.25531901e-03 0. 1.27659570e-02 0. 0. 0. 0. 0. 0. 0. 0. 0.
      8.51063803e-03 4.25531901e-03 2.55319141e-02 0. 8.51063803e-03
      4.25531901e-03 0. 0. 0. 0. 0. 0. 0. 0. 0. 0. 4.25531901e-03 0. 0.
      0. 4.25531901e-03 0. 0. 0. 4.25531901e-03 0. 1.27659570e-02 0. 0.
      4.25531901e-03 0. 4.25531901e-03 0. 0. 0. 0. 0. 0. 0.
      1.27659570e-02 0. 0. 0. 0. 4.25531901e-03 0. 0. 0. 0. 0. 0.
      4.25531901e-03 0. 4.25531901e-03 0. 0. 0. 4.25531901e-03 0. 0. 0.
      0. 0. 0. 0. 0. 0. 8.51063803e-03 0. 0. 0. 1.70212761e-02 0. 0. 0.
      0. 0. 0. 0. 0. 0. 0. 8.51063803e-03 0. 0. 0. 0. 0. 0. 0.
      4.25531901e-03 0. 1.27659570e-02 0. 8.51063803e-03 4.25531901e-03
      4.25531901e-03 0. 4.25531901e-03 0. 0. 0. 0. 0. 0. 0.
      4.25531901e-03 0. 0. 0. 0. 0. 0. 0. 8.51063803e-03 0. 0. 0. 0. 0.
      0. 0. 0. 4.25531901e-03 0. 0. 0. 0. 0. 0. 4.25531901e-03 0. 0. 0.
      0. 0. 0. 0. 0. 0. 0. 0. 0. 0. 4.25531901e-03 8.51063803e-03
      4.25531901e-03 0. 0. 0. 0. 0. 0. 0. 0. 0. 0. 0. 0. 0. 0. 0. 0. 0.
      0. 0. 0. 8.51063803e-03 4.25531901e-03 0. 1.27659570e-02 0. 0. 0.
      0. 0. 4.25531901e-03 0. 0. 0. 8.51063803e-03 0. 0. 0. 0. 0.
      4.25531901e-03 0. 0. 0. 0. 0. 8.51063803e-03 0. 8.51063803e-03
      8.51063803e-03 0. 0. 0. 0. 0. 0. 0. 0. 0. 0. 0. 0. 4.25531901e-03
      1.27659570e-02 0. 0. 0. 0. 0. 0. 0. 4.25531901e-03 0. 0. 0. 0. 0.
      0. 0. 0. 0. 0. 0. 0. 0. 0. 0. 0. 0. 0. 0. 0. 4.25531901e-03 0.
      4.25531901e-03 0. 0. 0. 0. 0. 0. 0. 4.25531901e-03 0. 0. 0. 0.
      8.51063803e-03 4.25531901e-03 0. 0. 0. 4.25531901e-03 0. 0.
      4.25531901e-03 0. 8.51063803e-03 0. 0. 8.51063803e-03 0.
      4.25531901e-03 0. 0. 0. 0. 4.25531901e-03 0. 0. 0. 0. 0. 0. 0. 0.
      0. 0. 0. 0. 0. 0. 0. 0. 0. 0. 0. 0. 0. 0. 0. 0. 8.51063803e-03 0.
      0. 0. 0. 0. 0. 0. 4.25531901e-03 0. 0. 0. 0. 0. 0. 0. 0. 0. 0. 0.
      0. 0. 0. 0. 0. 0. 0. 0. 0. 0. 0. 0. 8.51063803e-03 0.
      4.25531901e-03 0. 0. 0. 0. 0. 0. 0. 0. 0. 0. 0. 0. 0.
      4.25531901e-03 0. 0. 0. 0. 0. 0. 0. 0. 0. 0. 0. 4.25531901e-03 0.
      0. 0. 0. 0. 0. 0. 0. 0. 0. 0. 0. 0. 0. 0. 0. 0. 0. 0. 0. 0. 0.
      4.25531901e-03 0. 0. 0. 0. 0. 0. 4.25531901e-03 0. 0. 0. 0. 0. 0.
      0. 0. 0. 0. 0. 0. 0. 0. 0. 0. 0. 0. 0. 0. 0. 0. 0. 0. 0. 0. 0. 0.
      0. 0. 0. 0. 0. 0. 0. 0. 0. 0. 0. 0. 4.25531901e-03 0. 0. 0. 0. 0.
      0. 0. 0. 4.25531901e-03 0. 0. 4.25531901e-03 0. 0. 0.
      4.25531901e-03 0. 0. 0. 0. 4.25531901e-03 0. 4.25531901e-03 0. 0.
      4.25531901e-03 0. 0. 0. 4.25531901e-03 0. 0. 0. 0. 0. 0. 0.
      4.25531901e-03 0. 0. 0. 0. 0. 0. 0. 8.51063803e-03 0. 0.</_>
    <_>
      4.84261522e-03 2.42130761e-03 0. 0. 0. 0. 0. 0. 0. 0.
      7.26392306e-03 2.42130761e-03 7.26392306e-03 2.42130761e-03 0.
      2.42130761e-03 0. 4.84261522e-03 9.68523044e-03 0. 0. 0. 0. 0. 0.
      0. 7.26392306e-03 0. 0. 0. 0. 0. 0. 2.42130761e-03 0. 0. 0. 0. 0.
      0. 0. 4.84261522e-03 0. 0. 0. 2.42130761e-03 0. 2.42130761e-03 0.
      0. 4.84261522e-03 1.93704609e-02 0. 0. 0. 0. 1.93704609e-02 0. 0.
      0. 2.42130761e-03 0. 0. 2.42130761e-03 0. 4.84261522e-03 0. 0. 0.
      0. 0. 0. 0. 0. 2.42130761e-03 2.42130761e-03 0. 0. 4.84261522e-03
      2.42130761e-03 0. 0. 0. 0. 0. 0. 0. 2.42130761e-03 2.42130761e-03
      0. 0. 0. 0. 0. 0. 2.42130761e-03 0. 0. 0. 2.42130761e-03 0. 0. 0.
      0. 0. 0. 0. 2.42130761e-03 2.42130761e-03 0. 0. 0. 2.42130761e-03
      0. 0. 0. 0. 0. 0. 0. 0. 2.17917692e-02 4.84261522e-03 0. 0. 0. 0.
      7.26392306e-03 0. 2.42130761e-03 0. 2.42130761e-03 0. 0. 0. 0. 0.
      0. 0. 2.42130761e-03 0. 0. 0. 0. 0. 0. 0. 0. 0. 0. 0. 0. 0. 0. 0.
      2.42130761e-03 0. 0. 0. 0. 0. 0. 0. 0. 0. 0. 0. 0. 7.26392306e-03
      0. 0. 0. 0. 2.42130761e-03 0. 2.42130761e-03 0. 0. 0. 0.
      4.84261522e-03 0. 0. 2.42130761e-03 0. 0. 0. 0. 0. 0. 0. 0. 0.
      7.26392306e-03 0. 0. 2.42130761e-03 0. 0. 0. 0. 0. 1.45278461e-02
      0. 0. 0. 0. 0. 2.42130761e-03 0. 0. 0. 0. 0. 2.42130761e-03 0.
      7.26392306e-03 0. 0. 0. 0. 0. 2.42130761e-03 0. 0. 0. 0. 0. 0.
      2.42130761e-03 0. 7.26392306e-03 4.84261522e-03 0. 0. 0. 0. 0. 0.
      0. 0. 0. 0. 0. 0. 0. 0. 0. 0. 0. 0. 4.84261522e-03 0. 0. 0.
      1.93704609e-02 2.42130761e-03 0. 2.42130761e-03 0. 0. 0.
      4.84261522e-03 0. 2.42130761e-03 0. 0. 0. 2.42130761e-03 0. 0. 0.
      0. 0. 2.42130761e-03 0. 0. 0. 0. 0. 0. 2.42130761e-03 0. 0. 0.
      7.26392306e-03 0. 0. 0. 0. 0. 0. 2.42130761e-03 0. 0. 0. 0. 0. 0.
      0. 0. 0. 0. 9.68523044e-03 0. 2.42130761e-03 0. 0. 0. 0. 0. 0. 0.
      0. 0. 0. 0. 1.69491526e-02 2.66343839e-02 0. 4.84261522e-03 0.
      2.42130761e-03 0. 0. 0. 4.84261522e-03 0. 2.42130761e-03 0. 0.
      2.42130761e-03 0. 0. 0. 0. 0. 0. 0. 0. 0. 2.42130761e-03 0. 0.
      2.42130761e-03 0. 0. 0. 0. 0. 0. 0. 0. 2.42130761e-03
      2.42130761e-03 0. 2.42130761e-03 0. 4.84261522e-03 7.26392306e-03
      2.42130761e-03 0. 0. 0. 0. 0. 1.21065378e-02 0. 1.21065378e-02
      2.42130761e-03 2.42130761e-03 0. 0. 7.26392306e-03 0.
      4.84261522e-03 0. 0. 2.42130761e-03 0. 0. 2.42130761e-03 0. 0. 0.
      0. 0. 0. 0. 0. 0. 0. 0. 0. 0. 0. 0. 0. 0. 0. 0. 0. 0. 0. 0. 0.
      2.42130761e-03 0. 0. 0. 0. 4.84261522e-03 0. 0. 0. 0.
      2.42130761e-03 0. 0. 0. 0. 2.42130761e-03 2.42130761e-03 0. 0. 0.
      2.42130761e-03 0. 0. 0. 0. 0. 0. 0. 0. 0. 0. 0. 2.42130761e-03 0.
      0. 0. 0. 0. 0. 0. 7.26392306e-03 2.42130761e-03 0. 0. 0. 0. 0. 0.
      0. 0. 0. 2.42130761e-03 0. 7.26392306e-03 2.42130761e-03 0. 0. 0.
      0. 0. 0. 2.42130761e-03 0. 0. 0. 0. 0. 2.42130761e-03 0. 0.
      2.42130761e-03 0. 0. 0. 0. 0. 0. 0. 2.42130761e-03 2.42130761e-03
      0. 0. 0. 0. 0. 0. 2.42130761e-03 0. 0. 1.93704609e-02 0. 0. 0. 0.
      0. 0. 0. 0. 0. 0. 0. 0. 0. 0. 0. 0. 7.26392306e-03 0.
      2.42130761e-03 0. 0. 0. 0. 2.42130761e-03 0. 2.42130761e-03
      4.84261522e-03 2.42130761e-03 0. 0. 9.68523044e-03 0. 0.
      1.45278461e-02 0. 0. 0. 0. 0. 0. 0. 0. 2.42130761e-03 0. 0. 0. 0.
      2.42130761e-03 0. 2.42130761e-03 2.42130761e-03 0. 0. 0. 0. 0. 0.
      0. 0. 0. 0. 0. 0. 2.42130761e-03 0. 0. 0. 0. 0. 0. 0. 0. 0.
      2.42130761e-03 0. 0. 0. 0. 0. 0. 0. 0. 1.45278461e-02
      2.42130761e-03 0. 0. 0. 0. 0. 0. 0. 0. 0. 0. 0. 0. 0.
      7.26392306e-03 0. 0. 0. 0. 0. 0. 1.69491526e-02 7.26392306e-03
      2.42130761e-03 2.42130761e-03 0. 2.42130761e-03 0. 0. 0.
      2.42130761e-03 0. 0. 2.42130761e-03 0. 0. 0. 2.42130761e-03 0. 0.
      0. 0. 0. 0. 0. 4.84261522e-03 0. 0. 0. 0. 0. 2.42130761e-03
      2.42130761e-03 0. 0. 0. 0. 2.42130761e-03 0. 0. 2.42130761e-03 0.
      0. 0. 0. 7.26392306e-03 0. 0. 0. 0. 0. 0. 0. 2.42130761e-03 0. 0.
      1.93704609e-02 0. 0. 2.42130761e-03 0. 2.42130761e-03 0. 0. 0. 0.
      0. 0. 0. 0. 2.42130761e-03 0. 0. 0. 0. 2.42130761e-03 0. 0. 0. 0.
      0. 0. 0. 0. 0. 4.84261522e-03 0. 7.26392306e-03 0. 0.
      2.42130761e-03 2.42130761e-03 9.68523044e-03 0. 0. 0. 0. 0. 0. 0.
      2.42130761e-03 0. 2.42130761e-03 2.42130761e-03 0. 0. 0. 0. 0. 0.
      0. 9.68523044e-03 0. 0. 0. 2.42130761e-03 0. 4.84261522e-03
      4.84261522e-03 0. 0. 0. 0. 0. 0. 0. 4.84261522e-03 0. 0.
      4.84261522e-03 0. 0. 0. 0. 0. 0. 0. 0. 0. 0. 2.42130761e-03 0. 0.
      0. 0. 0. 0. 0. 0. 0. 0. 4.84261522e-03 0. 0. 0. 0. 0. 0. 0. 0. 0.
      0. 0. 2.42130761e-03 0. 0. 0. 0. 0. 0. 0. 0. 2.42130761e-03 0.
      7.26392306e-03 0. 0. 0. 0. 0. 2.42130761e-03 0. 7.26392306e-03 0.
      0. 0. 0. 2.42130761e-03 0. 1.45278461e-02 0. 0. 0. 4.84261522e-03
      0. 0. 0. 0. 0. 0. 0. 0. 0. 2.42130761e-03 0. 0. 7.26392306e-03 0.
      0. 0. 7.26392306e-03 0. 0. 0. 0. 0. 0. 0. 0. 9.68523044e-03 0.
      3.38983051e-02 0. 0. 0. 0. 2.42130761e-03 0. 2.42130761e-03 0. 0.
      0. 0. 0. 0. 0. 0. 0. 0. 0. 0. 0. 1.69491526e-02 4.84261522e-03 0.
      0. 0. 0. 0. 2.42130761e-03 2.42130761e-03 0. 0. 0. 4.84261522e-03
      0. 0. 1.21065378e-02 0. 0. 0. 0. 0. 0. 0. 0. 0. 0. 0. 0. 0. 0. 0.
      0. 0. 4.84261522e-03 0. 0. 4.84261522e-03 0. 0. 0. 0. 0. 0. 0.
      7.26392306e-03 0. 0. 0. 0. 0. 0. 0. 0. 0. 0. 0. 0. 0.
      2.42130761e-03 0. 0. 0. 0. 0. 0. 0. 0. 0. 0. 2.42130761e-03 0. 0.
      0. 0. 0. 0. 0. 0. 0. 0. 0. 2.42130761e-03 0. 0. 0. 0. 0.
      2.42130761e-03 0. 0. 0. 0. 0. 0. 0. 0. 0. 0. 0. 0. 0. 0. 0. 0. 0.
      0. 0. 0. 0. 0. 0. 2.42130761e-03 0. 0. 4.84261522e-03 0. 0. 0. 0.
      0. 0. 0. 7.26392306e-03 0. 0. 2.42130761e-03 0. 0. 0. 0. 0. 0. 0.
      0. 0. 0. 2.42130761e-03 0. 0. 0. 2.42130761e-03 0. 0. 0. 0. 0. 0.
      4.84261522e-03 4.84261522e-03 4.84261522e-03 0. 0. 0. 0. 0. 0. 0.
      0. 0.</_>
    <_>
      0. 0. 0. 0. 0. 0. 0. 0. 0. 0. 0. 0. 0. 0. 0. 0. 0. 1.10701108e-02
      0. 0. 0. 0. 0. 0. 0. 0. 1.47601478e-02 0. 0. 1.10701108e-02 0.
      7.38007389e-03 3.69003695e-03 3.69003695e-03 0. 0. 0. 0. 0.
      3.69003695e-03 0. 0. 3.69003695e-03 0. 0. 3.69003695e-03 0. 0. 0.
      0. 3.69003695e-03 1.10701108e-02 0. 0. 0. 0. 1.10701108e-02 0. 0.
      0. 0. 0. 0. 0. 0. 0. 0. 0. 0. 0. 0. 0. 0. 0. 0. 3.69003695e-03 0.
      0. 0. 0. 0. 0. 0. 0. 0. 0. 7.38007389e-03 0. 0. 0. 0.
      7.38007389e-03 0. 0. 0. 0. 0. 0. 3.69003695e-03 0. 0. 0. 0. 0. 0.
      0. 0. 3.69003695e-03 0. 0. 3.69003695e-03 0. 0. 0. 0. 0.
      3.69003695e-03 0. 0. 0. 3.69003695e-03 1.47601478e-02
      7.38007389e-03 0. 0. 0. 0. 1.84501857e-02 0. 0. 0. 0. 0.
      3.69003695e-03 0. 0. 0. 0. 0. 0. 0. 3.69003695e-03 0.
      3.69003695e-03 0. 0. 0. 3.69003695e-03 0. 0. 0. 0. 0. 0. 0.
      1.47601478e-02 3.69003695e-03 0. 0. 0. 0. 0. 0. 0. 0. 0. 0.
      3.69003695e-03 3.69003695e-03 0. 0. 3.69003695e-03 3.69003695e-03
      0. 0. 3.69003695e-03 0. 0. 0. 0. 4.42804433e-02 0. 0.
      7.38007389e-03 3.69003695e-03 0. 0. 7.38007389e-03 0. 0. 0. 0.
      3.69003695e-03 0. 0. 0. 0. 0. 0. 0. 0. 0. 3.69003695e-03 0.
      3.69003695e-03 0. 0. 0. 0. 0. 0. 0. 0. 0. 0. 0. 7.38007389e-03 0.
      0. 0. 0. 0. 3.69003695e-03 0. 0. 0. 0. 0. 3.69003695e-03 0.
      3.69003695e-03 0. 0. 0. 0. 0. 0. 0. 0. 0. 0. 0. 0. 0. 0. 0. 0. 0.
      0. 1.47601478e-02 0. 0. 1.10701108e-02 0. 0. 0. 0. 0. 0. 0. 0. 0.
      2.58302577e-02 0. 0. 0. 0. 3.69003695e-03 0. 0. 3.69003695e-03 0.
      0. 0. 0. 0. 0. 0. 3.69003695e-03 0. 0. 3.69003695e-03 0. 0. 0.
      3.69003695e-03 0. 0. 0. 0. 0. 0. 0. 0. 0. 0. 0. 0. 0. 0. 0. 0. 0.
      0. 0. 0. 7.38007389e-03 0. 0. 3.69003695e-03 0. 0. 3.69003695e-03
      0. 3.69003695e-03 0. 0. 0. 0. 0. 2.21402217e-02 0. 0. 0. 0. 0. 0.
      0. 0. 0. 0. 3.69003695e-03 0. 0. 0. 0. 0. 0. 0. 0. 0. 0. 0. 0. 0.
      0. 0. 0. 0. 0. 0. 0. 0. 0. 2.21402217e-02 0. 0. 0. 0.
      7.38007389e-03 3.69003695e-03 0. 0. 0. 0. 7.38007389e-03
      1.10701108e-02 0. 7.38007389e-03 0. 0. 0. 0. 0. 0. 0. 0. 0. 0.
      3.69003695e-03 0. 0. 0. 0. 0. 3.69003695e-03 0. 0. 0. 0. 0. 0. 0.
      0. 0. 0. 0. 0. 0. 0. 0. 0. 0. 0. 0. 0. 0. 0. 0. 3.69003695e-03 0.
      3.69003695e-03 1.10701108e-02 0. 0. 0. 3.69003695e-03 0. 0. 0.
      1.10701108e-02 0. 0. 0. 0. 0. 0. 0. 0. 0. 1.10701108e-02 0. 0.
      3.69003695e-03 0. 3.69003695e-03 0. 0. 0. 0. 0. 0. 0. 0. 0. 0. 0.
      0. 0. 0. 0. 0. 0. 0. 0. 0. 0. 7.38007389e-03 0. 0. 3.69003695e-03
      0. 0. 0. 0. 0. 0. 0. 0. 0. 0. 0. 0. 0. 0. 3.69003695e-03 0. 0. 0.
      0. 0. 0. 0. 3.69003695e-03 0. 0. 0. 0. 0. 0. 0. 0. 0. 0. 0. 0. 0.
      0. 0. 0. 0. 0. 0. 0. 0. 0. 0. 0. 3.69003695e-03 0. 0. 0.
      7.38007389e-03 3.69003695e-03 0. 0. 0. 0. 0. 0. 0. 0. 0.
      7.38007389e-03 0. 0. 3.69003695e-03 0. 3.69003695e-03
      3.69003695e-03 0. 0. 0. 1.47601478e-02 3.69003695e-03 0. 0. 0.
      3.69003695e-03 0. 3.69003695e-03 1.10701108e-02 1.10701108e-02 0.
      0. 0. 7.38007389e-03 0. 3.69003695e-03 0. 0. 0. 0. 0. 0. 0.
      2.21402217e-02 0. 0. 0. 0. 0. 0. 0. 0. 0. 0. 0. 0. 0. 0. 0. 0. 0.
      0. 0. 0. 0. 1.47601478e-02 0. 0. 0. 0. 0. 0. 0. 0. 0. 0. 0. 0. 0.
      0. 0. 0. 0. 0. 0. 0. 0. 3.69003695e-03 3.69003695e-03 0. 0. 0. 0.
      0. 0. 0. 0. 0. 0. 0. 0. 0. 0. 0. 0. 0. 3.69003695e-03 0. 0. 0. 0.
      3.69003695e-03 0. 0. 0. 3.69003695e-03 3.69003695e-03 0. 0.
      3.69003695e-03 0. 0. 0. 0. 0. 0. 0. 0. 0. 0. 0. 0. 0.
      3.69003695e-03 0. 0. 0. 0. 0. 0. 0. 0. 7.38007389e-03
      7.38007389e-03 0. 0. 0. 3.69003695e-03 0. 0. 0. 0. 0. 0.
      3.69003695e-03 3.69003695e-03 0. 0. 0. 0. 0. 3.69003695e-03 0. 0.
      0. 0. 0. 0. 0. 0. 0. 0. 0. 3.69003695e-03 0. 0. 3.69003695e-03 0.
      0. 7.38007389e-03 0. 0. 0. 0. 3.69003695e-03 0. 3.69003695e-03 0.
      0. 0. 0. 0. 0. 0. 0. 0. 0. 0. 0. 0. 0. 3.69003695e-03 0.
      7.38007389e-03 0. 0. 0. 0. 0. 0. 0. 0. 0. 0. 0. 3.69003695e-03 0.
      0. 3.69003695e-03 0. 0. 0. 0. 0. 0. 0. 0. 0. 3.69003695e-03
      3.69003695e-03 0. 0. 0. 0. 0. 0. 0. 0. 0. 0. 0. 0. 0. 0. 0. 0. 0.
      0. 0. 0. 0. 0. 0. 0. 0. 0. 3.69003695e-03 0. 0. 0. 7.38007389e-03
      0. 0. 0. 0. 0. 3.69003695e-03 0. 0. 0. 0. 0. 0. 0. 0.
      2.21402217e-02 0. 0. 3.69003695e-03 0. 0. 3.69003695e-03
      3.69003695e-03 0. 0. 0. 0. 3.69003695e-03 0. 0. 3.69003695e-03
      7.38007389e-03 0. 0. 0. 3.69003695e-03 0. 0. 0. 0. 0. 0. 0. 0. 0.
      0. 0. 7.38007389e-03 0. 0. 1.10701108e-02 0. 0. 0. 0. 0. 0. 0. 0.
      0. 0. 0. 0. 0. 0. 0. 0. 0. 7.38007389e-03 1.10701108e-02 0. 0. 0.
      0. 0. 0. 0. 0. 0. 0. 0. 7.38007389e-03 7.38007389e-03
      7.38007389e-03 0. 1.47601478e-02 0. 0. 0. 0. 0. 0. 0. 0. 0. 0. 0.
      0. 0. 3.69003695e-03 0. 3.69003695e-03 0. 0. 7.38007389e-03 0.
      3.69003695e-03 0. 0. 0. 0. 0. 0. 0. 0. 0. 0. 0. 0. 0. 0. 0. 0. 0.
      0. 0. 0. 0. 0. 0. 0. 0. 0. 0. 0. 0. 0. 0. 0. 0. 0. 0. 0. 0.
      7.38007389e-03 0. 0. 0. 0. 0. 0. 3.69003695e-03 0. 0. 0. 0. 0. 0.
      3.69003695e-03 0. 0. 0. 0. 0. 0. 7.38007389e-03 0. 0. 0. 0. 0. 0.
      0. 0. 0. 0. 0. 0. 0. 0. 0. 0. 0. 0. 0. 0. 0. 0. 0. 0. 0. 0. 0. 0.
      0. 0. 0. 0. 0. 0. 0. 0. 7.38007389e-03 0. 7.38007389e-03 0.
      3.69003695e-03 0. 0. 0. 0. 0. 0. 0. 0. 0. 0. 0. 0. 0. 0.
      3.69003695e-03 0. 0. 0. 0. 0.</_>
    <_>
      3.38983047e-03 0. 0. 0. 0. 0. 3.38983047e-03 0. 0. 1.35593219e-02
      6.77966094e-03 0. 3.38983047e-03 0. 0. 0. 0. 0. 0. 0. 0. 0. 0. 0.
      0. 0. 3.38983047e-03 6.77966094e-03 0. 0. 0. 0. 0. 0. 0.
      3.38983047e-03 0. 0. 0. 0. 0. 0. 3.38983047e-03 3.38983047e-03 0.
      0. 0. 0. 3.38983047e-03 0. 0. 3.38983047e-03 0. 0. 1.69491526e-02
      0. 0. 0. 6.77966094e-03 6.77966094e-03 0. 0. 0. 0. 0. 0. 0. 0. 0.
      0. 3.38983047e-03 3.38983047e-03 0. 0. 0. 0. 0. 0. 0.
      3.38983047e-03 0. 0. 0. 0. 0. 0. 6.77966094e-03 0. 0. 0. 0. 0. 0.
      0. 0. 0. 0. 0. 0. 0. 0. 0. 0. 0. 0. 0. 0. 0. 0. 0. 0.
      6.77966094e-03 0. 0. 0. 0. 0. 0. 0. 0. 6.77966094e-03
      6.77966094e-03 3.38983047e-03 3.38983047e-03 0. 0. 0. 0. 0.
      3.38983047e-03 6.77966094e-03 2.03389823e-02 0. 0. 0. 0. 0. 0. 0.
      0. 0. 0. 0. 0. 0. 0. 0. 0. 0. 0. 0. 0. 0. 0. 0. 1.35593219e-02
      3.38983047e-03 1.69491526e-02 0. 0. 0. 3.38983047e-03 0. 0. 0. 0.
      0. 0. 0. 0. 0. 0. 0. 0. 0. 0. 0. 3.38983047e-03 0. 0.
      1.01694912e-02 0. 0. 3.38983047e-03 0. 0. 0. 3.38983047e-03 0. 0.
      0. 3.38983047e-03 0. 0. 0. 3.38983047e-03 0. 0. 0. 0. 0. 0. 0. 0.
      0. 0. 0. 3.38983047e-03 0. 0. 6.77966094e-03 6.77966094e-03 0. 0.
      0. 0. 0. 0. 0. 6.77966094e-03 0. 0. 0. 6.77966094e-03
      6.77966094e-03 0. 0. 0. 3.38983047e-03 0. 6.77966094e-03 0.
      6.77966094e-03 0. 0. 3.38983047e-03 0. 0. 0. 6.77966094e-03
      6.77966094e-03 0. 0. 0. 3.38983047e-03 0. 0. 0. 0. 0.
      3.38983047e-03 0. 3.38983047e-03 0. 0. 0. 6.77966094e-03 0. 0. 0.
      0. 0. 3.38983047e-03 0. 3.38983047e-03 0. 0. 0. 0. 0. 0. 0.
      3.38983047e-03 0. 0. 0. 0. 0. 0. 0. 0. 0. 3.38983047e-03
      1.35593219e-02 0. 3.38983047e-03 0. 0. 0. 0. 0. 0. 0. 0. 0. 0. 0.
      0. 0. 0. 0. 0. 2.03389823e-02 0. 0. 3.38983047e-03 0.
      3.38983047e-03 0. 0. 0. 0. 0. 0. 0. 0. 0. 0. 0. 3.38983047e-03 0.
      0. 0. 0. 0. 3.38983047e-03 0. 0. 0. 0. 0. 0. 0. 0. 3.38983047e-03
      0. 0. 3.38983047e-03 0. 0. 0. 3.38983047e-03 0. 0. 0. 0. 0. 0. 0.
      0. 0. 0. 0. 0. 0. 0. 0. 3.38983047e-03 0. 0. 0. 0. 0. 0. 0. 0. 0.
      0. 0. 0. 3.38983047e-03 0. 0. 3.38983047e-03 6.77966094e-03 0. 0.
      0. 0. 3.38983047e-03 0. 0. 0. 0. 0. 0. 0. 0. 0. 0. 0. 0. 0. 0. 0.
      0. 0. 0. 0. 0. 3.38983047e-03 0. 0. 0. 0. 0. 0. 0. 1.01694912e-02
      0. 0. 1.35593219e-02 0. 0. 3.38983047e-03 0. 1.01694912e-02 0. 0.
      0. 0. 0. 0. 3.38983047e-03 0. 0. 6.77966094e-03 0. 0. 0. 0. 0. 0.
      0. 0. 0. 0. 0. 0. 0. 0. 0. 0. 0. 0. 0. 0. 0. 0. 0. 0. 0. 0.
      6.77966094e-03 0. 3.38983047e-03 3.38983047e-03 0. 0. 0. 0. 0. 0.
      0. 0. 0. 0. 0. 0. 0. 0. 0. 0. 0. 0. 3.38983047e-03 0. 0. 0. 0. 0.
      0. 0. 0. 0. 0. 6.77966094e-03 0. 0. 0. 0. 0. 0. 0. 0. 0. 0. 0.
      3.38983047e-03 0. 0. 0. 0. 0. 0. 3.38983047e-03 0. 0.
      6.77966094e-03 3.38983047e-03 0. 0. 0. 0. 1.01694912e-02 0. 0.
      3.38983047e-03 0. 3.38983047e-03 0. 0. 3.38983047e-03
      6.77966094e-03 3.38983047e-03 3.38983047e-03 0. 3.38983047e-03 0.
      3.38983047e-03 0. 0. 0. 0. 0. 3.38983047e-03 3.38983047e-03 0. 0.
      0. 0. 3.38983047e-03 0. 1.35593219e-02 0. 3.38983047e-03 0. 0.
      3.38983047e-03 0. 0. 0. 0. 0. 0. 0. 0. 0. 0. 0. 0. 0. 0. 0. 0. 0.
      3.38983047e-03 0. 6.77966094e-03 0. 0. 0. 0. 0. 0. 0. 0. 0.
      3.38983047e-03 6.77966094e-03 0. 0. 3.38983047e-03 0. 0. 0. 0.
      3.38983047e-03 0. 0. 0. 0. 0. 3.38983047e-03 0. 3.38983047e-03 0.
      0. 0. 0. 0. 0. 0. 3.38983047e-03 0. 0. 0. 0. 0. 0. 0. 0. 0. 0.
      1.35593219e-02 0. 0. 0. 0. 0. 0. 0. 0. 0. 3.38983047e-03 0. 0. 0.
      3.38983047e-03 0. 0. 0. 3.38983047e-03 0. 0. 0. 0. 1.01694912e-02
      0. 0. 0. 0. 0. 0. 6.77966094e-03 3.38983047e-03 6.77966094e-03 0.
      0. 0. 0. 0. 0. 0. 0. 3.38983047e-03 0. 3.38983047e-03 0. 0.
      1.69491526e-02 0. 0. 0. 0. 0. 0. 3.38983047e-03 0. 3.38983047e-03
      0. 0. 0. 0. 3.38983047e-03 0. 0. 0. 0. 0. 0. 0. 3.38983047e-03
      6.77966094e-03 1.01694912e-02 0. 0. 0. 3.38983047e-03 0. 0. 0. 0.
      0. 0. 0. 0. 3.38983047e-03 0. 0. 6.77966094e-03 0. 3.38983047e-03
      0. 0. 0. 3.38983047e-03 0. 0. 0. 0. 0. 0. 6.77966094e-03
      3.38983047e-03 0. 0. 6.77966094e-03 0. 0. 0. 0. 1.35593219e-02 0.
      0. 0. 0. 0. 0. 0. 3.38983047e-03 0. 0. 0. 0. 0. 0. 0. 0. 0. 0. 0.
      0. 3.38983047e-03 0. 3.38983047e-03 3.38983047e-03 0. 0. 0. 0.
      2.03389823e-02 0. 0. 0. 0. 0. 0. 0. 0. 0. 3.38983047e-03
      3.38983047e-03 0. 0. 0. 0. 0. 0. 0. 0. 0. 0. 3.38983047e-03 0.
      6.77966094e-03 0. 0. 0. 0. 0. 0. 6.77966094e-03 0. 0. 0. 0. 0.
      3.38983047e-03 0. 0. 0. 0. 0. 0. 3.38983047e-03 0. 0. 0. 0. 0. 0.
      0. 0. 0. 0. 0. 0. 0. 0. 0. 1.01694912e-02 0. 0. 0. 0. 0. 0. 0. 0.
      0. 0. 0. 0. 0. 0. 0. 0. 0. 0. 0. 0. 0. 0. 0. 0. 0. 0. 0. 0. 0. 0.
      0. 0. 0. 0. 0. 0. 6.77966094e-03 0. 0. 0. 0. 0. 0. 0.
      3.38983047e-03 0. 0. 0. 0. 0. 0. 0. 0. 0. 0. 0. 3.38983047e-03 0.
      0. 0. 6.77966094e-03 0. 0. 0. 0. 1.69491526e-02 0. 0.
      3.38983047e-03 6.77966094e-03 0. 0. 0. 0. 0. 0. 0. 0. 0. 0. 0.
      3.38983047e-03 0. 0. 0. 3.38983047e-03 3.38983047e-03 0. 0. 0.
      3.38983047e-03 0. 0. 0. 0. 0. 0. 0. 0. 0. 6.77966094e-03 0. 0. 0.
      3.38983047e-03 0. 0. 0. 0. 0. 0. 0. 0. 0. 0. 3.38983047e-03 0.
      3.38983047e-03 0. 3.38983047e-03 0. 0. 0. 0. 0. 0. 3.38983047e-03
      0. 0. 0. 0. 3.38983047e-03 0. 0. 0. 3.38983047e-03 3.38983047e-03
      0. 0. 0. 0. 0. 0. 3.38983047e-03 0. 0. 3.38983047e-03 0.
      3.38983047e-03 0. 0. 0. 3.38983047e-03 0. 0. 0. 0. 3.38983047e-03
      0. 0. 0. 0. 0. 1.01694912e-02 0. 6.77966094e-03 0. 3.38983047e-03
      0. 0. 0. 0. 0. 0. 0. 6.77966094e-03 0. 0. 1.01694912e-02 0. 0. 0.
      6.77966094e-03 3.38983047e-03 0. 0. 0. 0.</_>
    <_>
      0. 0. 3.52112669e-03 0. 0. 3.52112669e-03 0. 0. 0. 0. 0. 0. 0. 0.
      0. 3.52112669e-03 0. 0. 0. 0. 0. 0. 3.52112669e-03 0. 0. 0. 0.
      7.04225339e-03 0. 0. 1.05633801e-02 3.52112669e-03 0. 0.
      3.52112669e-03 0. 0. 1.05633801e-02 0. 0. 0. 0. 0. 2.11267602e-02
      0. 0. 0. 0. 0. 0. 0. 0. 0. 0. 0. 3.52112669e-03 3.52112669e-03 0.
      0. 0. 0. 0. 0. 0. 3.52112669e-03 3.52112669e-03 0. 0.
      3.52112669e-03 0. 0. 1.40845068e-02 0. 0. 0. 0. 7.04225339e-03
      1.05633801e-02 0. 0. 1.05633801e-02 0. 0. 0. 0. 4.92957756e-02 0.
      0. 0. 0. 0. 0. 0. 0. 0. 0. 0. 0. 3.52112669e-03 0. 0. 0. 0. 0. 0.
      1.40845068e-02 0. 0. 3.52112669e-03 0. 0. 0. 3.52112669e-03 0. 0.
      0. 0. 0. 0. 3.52112669e-03 0. 0. 0. 0. 0. 3.52112669e-03 0.
      3.52112669e-03 0. 0. 0. 3.52112669e-03 3.52112669e-03 0. 0. 0. 0.
      0. 0. 0. 0. 7.04225339e-03 0. 0. 0. 0. 0. 0. 0. 0. 0. 0. 0. 0. 0.
      0. 0. 0. 0. 1.05633801e-02 0. 0. 0. 0. 0. 0. 0. 0. 0. 0. 0.
      1.05633801e-02 0. 0. 0. 0. 1.40845068e-02 0. 0. 0. 3.52112669e-03
      0. 0. 0. 3.52112669e-03 0. 0. 0. 0. 3.52112669e-03 0. 0. 0. 0. 0.
      0. 0. 0. 0. 0. 0. 7.04225339e-03 0. 0. 0. 0. 0. 1.05633801e-02 0.
      0. 0. 0. 0. 0. 3.52112669e-03 0. 0. 0. 0. 0. 0. 0. 0. 0. 0. 0. 0.
      7.04225339e-03 3.52112669e-03 0. 0. 0. 0. 0. 7.04225339e-03 0. 0.
      0. 0. 0. 0. 0. 0. 3.52112669e-03 0. 3.52112669e-03 0. 0. 0. 0.
      3.52112669e-03 0. 3.52112669e-03 0. 0. 0. 0. 0. 0. 0. 0.
      3.52112669e-03 0. 0. 0. 1.05633801e-02 0. 0. 0. 0. 0. 0.
      3.52112669e-03 0. 0. 3.52112669e-03 0. 2.11267602e-02 0. 0. 0. 0.
      3.52112669e-03 0. 0. 0. 0. 0. 0. 0. 0. 0. 0. 0. 0. 0. 0. 0. 0. 0.
      0. 0. 0. 0. 0. 0. 0. 0. 0. 0. 0. 0. 3.52112669e-03 0.
      1.40845068e-02 0. 0. 0. 0. 0. 3.52112669e-03 0. 0. 0. 0.
      3.52112669e-03 0. 0. 0. 0. 0. 0. 7.04225339e-03 0. 0. 0. 0. 0. 0.
      0. 0. 0. 0. 0. 0. 0. 0. 0. 0. 0. 0. 0. 3.52112669e-03 0. 0. 0. 0.
      0. 0. 0. 0. 0. 0. 0. 0. 0. 0. 0. 0. 0. 0. 0. 0. 0. 0. 0. 0. 0. 0.
      3.52112669e-03 0. 0. 3.52112669e-03 0. 0. 0. 0. 0. 0. 0. 0. 0. 0.
      0. 0. 3.52112669e-03 7.04225339e-03 7.04225339e-03 0. 0. 0.
      7.04225339e-03 7.04225339e-03 0. 0. 3.52112669e-03 0. 0. 0.
      3.52112669e-03 0. 3.52112669e-03 0. 0. 0. 0. 1.05633801e-02 0. 0.
      0. 0. 0. 0. 0. 0. 0. 0. 0. 0. 0. 7.04225339e-03 3.52112669e-03 0.
      0. 0. 0. 0. 0. 0. 0. 7.04225339e-03 0. 0. 0. 0. 0. 0. 0.
      7.04225339e-03 0. 0. 0. 0. 0. 0. 0. 0. 0. 3.52112669e-03 0. 0.
      3.52112669e-03 0. 0. 0. 0. 0. 3.52112669e-03 3.52112669e-03 0.
      3.52112669e-03 0. 0. 0. 7.04225339e-03 0. 0. 0. 0. 0. 0. 0. 0. 0.
      0. 0. 0. 0. 0. 0. 0. 0. 0. 0. 0. 0. 0. 0. 0. 0. 1.40845068e-02 0.
      0. 0. 1.40845068e-02 0. 0. 0. 0. 0. 0. 3.52112669e-03 0. 0. 0. 0.
      0. 0. 0. 1.05633801e-02 0. 0. 0. 0. 0. 0. 0. 0. 0. 0. 0. 0. 0. 0.
      0. 3.52112669e-03 0. 0. 0. 0. 3.52112669e-03 0. 0. 0. 0. 0. 0. 0.
      0. 0. 0. 0. 0. 0. 0. 0. 0. 7.04225339e-03 0. 0. 0. 0. 0. 0. 0. 0.
      0. 0. 0. 0. 0. 3.52112669e-03 0. 0. 0. 0. 1.05633801e-02 0. 0. 0.
      0. 0. 0. 0. 0. 0. 0. 1.40845068e-02 0. 1.05633801e-02 0. 0.
      1.05633801e-02 0. 0. 0. 0. 3.52112669e-03 0. 0. 0. 0. 0. 0.
      3.52112669e-03 0. 2.11267602e-02 0. 0. 0. 0. 1.05633801e-02
      7.04225339e-03 0. 7.04225339e-03 0. 0. 0. 0. 1.05633801e-02
      7.04225339e-03 3.52112669e-03 0. 0. 0. 0. 0. 0. 0. 0. 0. 0.
      3.52112669e-03 0. 0. 0. 0. 7.04225339e-03 0. 0. 0. 0.
      3.52112669e-03 0. 0. 0. 0. 0. 0. 0. 0. 0. 0. 1.05633801e-02
      7.04225339e-03 3.52112669e-03 0. 3.16901393e-02 0. 0. 0. 0. 0. 0.
      0. 0. 0. 0. 7.04225339e-03 0. 3.52112669e-03 0. 0. 0. 0. 0. 0. 0.
      7.04225339e-03 0. 0. 0. 0. 3.52112669e-03 0. 0. 0. 0. 0. 0. 0. 0.
      0. 0. 0. 0. 0. 0. 1.05633801e-02 0. 0. 0. 0. 7.04225339e-03 0. 0.
      0. 7.04225339e-03 0. 0. 0. 0. 0. 0. 0. 0. 0. 0. 0. 0. 0. 0. 0. 0.
      0. 0. 0. 0. 0. 0. 0. 0. 0. 0. 0. 0. 0. 0. 0. 0. 0. 0. 0. 0. 0. 0.
      3.52112669e-03 0. 0. 0. 0. 0. 0. 0. 0. 7.04225339e-03 0. 0. 0. 0.
      0. 0. 0. 0. 0. 0. 0. 0. 0. 0. 0. 0. 0. 0. 0. 0. 0. 0.
      3.52112669e-03 0. 0. 0. 0. 0. 0. 0. 3.52112669e-03 0. 0. 0.
      2.46478878e-02 0. 0. 0. 0. 0. 0. 0. 0. 0. 0. 0. 0. 0. 0. 0. 0. 0.
      0. 0. 0. 0. 0. 3.52112669e-03 0. 0. 3.52112669e-03 0. 0.
      1.05633801e-02 0. 0. 0. 0. 0. 0. 3.52112669e-03 0. 0. 0.
      7.04225339e-03 0. 0. 0. 0. 3.52112669e-03 0. 0. 3.52112669e-03 0.
      3.52112669e-03 0. 0. 0. 0. 1.05633801e-02 3.52112669e-03 0. 0.
      3.52112669e-03 0. 0. 0. 0. 0. 0. 0. 0. 0. 0. 0. 0. 0. 0. 0. 0. 0.
      0. 3.52112669e-03 0. 0. 7.04225339e-03 0. 0. 0. 7.04225339e-03 0.
      0. 0. 0. 0. 0. 0. 0. 0. 0. 0. 0. 0. 0. 0. 1.40845068e-02 0.
      3.52112669e-03 0. 0. 3.52112669e-03 0. 0. 0. 0. 0. 3.52112669e-03
      3.52112669e-03 0. 0. 0. 0. 0. 0. 7.04225339e-03 0. 0.
      7.04225339e-03 0. 0. 0. 0. 0. 0. 3.52112669e-03 0. 0. 0. 0. 0. 0.
      3.52112669e-03 0. 0. 0. 0. 3.52112669e-03 0. 0. 0. 0. 0. 0. 0. 0.
      0. 0. 0. 0. 0. 0. 0. 0. 0. 3.52112669e-03 0. 0. 0. 0. 0. 0.
      3.52112669e-03 0. 0. 0. 0. 0. 0. 0. 0. 0. 0. 0. 0. 3.52112669e-03
      0. 0. 0. 0. 0. 0. 0. 0. 0. 0. 0. 0. 0. 0. 0. 0. 0. 0. 0.
      3.52112669e-03 0. 0. 0. 0. 0. 0. 0. 7.04225339e-03 0.</_>
    <_>
      0. 0. 2.14592274e-02 0. 0. 4.29184549e-03 0. 0. 0. 0. 0. 0. 0. 0.
      0. 0. 0. 0. 0. 0. 0. 0. 0. 0. 0. 0. 0. 0. 0. 0. 0. 4.29184549e-03
      0. 0. 8.58369097e-03 8.58369097e-03 0. 2.57510729e-02 0. 0. 0. 0.
      0. 8.58369097e-03 0. 4.29184549e-03 4.29184549e-03 0. 0. 0. 0. 0.
      0. 0. 8.58369097e-03 1.71673819e-02 0. 0. 0. 0. 0. 0. 0.
      4.29184549e-03 0. 0. 0. 0. 0. 8.58369097e-03 0. 3.00429184e-02 0.
      0. 0. 0. 8.58369097e-03 0. 0. 0. 1.28755365e-02 0. 0. 0. 0.
      1.71673819e-02 4.29184549e-03 0. 0. 0. 0. 4.29184549e-03 0. 0. 0.
      0. 0. 0. 0. 0. 0. 0. 8.58369097e-03 0. 0. 0. 0. 0. 0. 0. 0. 0. 0.
      0. 0. 0. 0. 0. 0. 0. 0. 0. 0. 4.29184549e-03 0. 0. 0.
      1.28755365e-02 0. 0. 0. 0. 0. 4.29184549e-03 2.57510729e-02 0. 0.
      0. 0. 0. 0. 2.14592274e-02 0. 0. 0. 0. 0. 0. 0. 0. 0. 0. 0. 0. 0.
      0. 0. 0. 0. 4.29184549e-03 0. 0. 0. 0. 4.29184549e-03 0. 0. 0. 0.
      0. 0. 2.57510729e-02 0. 0. 0. 0. 2.14592274e-02 0. 0. 0. 0. 0.
      4.29184549e-03 0. 0. 0. 0. 0. 0. 0. 0. 0. 0. 0. 0. 0. 0. 0. 0. 0.
      0. 0. 0. 0. 0. 0. 0. 3.00429184e-02 0. 0. 0. 0. 0. 0. 0. 0. 0. 0.
      0. 0. 0. 0. 0. 0. 0. 0. 0. 0. 0. 0. 0. 0. 0. 0. 0. 0. 0. 0.
      1.71673819e-02 0. 0. 0. 0. 0. 0. 0. 0. 0. 0. 0. 0. 0. 0.
      4.29184549e-03 0. 0. 0. 0. 0. 4.29184549e-03 0. 1.28755365e-02 0.
      0. 0. 0. 0. 0. 0. 0. 0. 0. 0. 1.71673819e-02 0. 0. 0.
      4.29184549e-03 0. 0. 8.58369097e-03 0. 0. 0. 0. 0. 0. 0. 0.
      8.58369097e-03 0. 0. 0. 0. 0. 0. 0. 0. 0. 0. 0. 0. 0. 0.
      4.29184549e-03 0. 1.71673819e-02 0. 0. 0. 0. 0. 0. 0.
      4.29184549e-03 0. 8.58369097e-03 8.58369097e-03 0. 0.
      4.29184549e-03 0. 0. 4.29184549e-03 0. 1.28755365e-02 0. 0. 0. 0.
      0. 0. 0. 0. 0. 0. 4.29184549e-03 0. 0. 0. 0. 0. 0. 0. 0. 0. 0. 0.
      0. 0. 0. 4.29184549e-03 0. 0. 0. 0. 0. 0. 0. 0. 0. 0.
      4.29184549e-03 0. 0. 0. 0. 1.28755365e-02 0. 0. 0. 0. 0. 0. 0. 0.
      0. 0. 0. 0. 0. 0. 0. 0. 0. 0. 0. 4.29184549e-03 0. 0. 0. 0. 0. 0.
      0. 0. 0. 0. 0. 0. 0. 1.28755365e-02 0. 0. 0. 0. 0. 0.
      4.29184549e-03 4.29184549e-03 0. 4.29184549e-03 0. 0. 0. 0. 0. 0.
      0. 0. 0. 0. 0. 0. 0. 0. 0. 0. 0. 0. 0. 0. 0. 0. 0. 0. 0. 0. 0. 0.
      4.29184549e-03 0. 0. 0. 0. 0. 0. 0. 4.29184549e-03 0. 0. 0. 0.
      8.58369097e-03 0. 0. 0. 0. 0. 0. 0. 0. 0. 0. 0. 0. 0. 0. 0. 0. 0.
      0. 0. 0. 0. 0. 0. 0. 0. 0. 0. 0. 0. 0. 0. 0. 0. 0. 0. 0. 0. 0. 0.
      0. 0. 0. 0. 0. 0. 0. 4.29184549e-03 0. 0. 0. 1.71673819e-02 0. 0.
      0. 0. 0. 2.14592274e-02 0. 0. 0. 0. 0. 0. 0. 0. 4.29184549e-03 0.
      1.71673819e-02 0. 0. 0. 0. 0. 0. 0. 0. 0. 0. 0. 0. 0. 0. 0. 0.
      4.29184549e-03 0. 0. 0. 0. 0. 0. 8.58369097e-03 0. 0. 0. 0. 0. 0.
      0. 0. 0. 0. 0. 0. 0. 0. 0. 0. 0. 0. 0. 0. 0. 0. 0. 0. 0. 0. 0. 0.
      0. 0. 4.29184549e-03 0. 0. 8.58369097e-03 1.28755365e-02
      4.29184549e-03 0. 0. 0. 0. 0. 1.71673819e-02 0. 1.28755365e-02 0.
      0. 0. 0. 0. 0. 0. 1.71673819e-02 4.29184549e-03 1.28755365e-02 0.
      0. 0. 0. 0. 0. 0. 0. 0. 4.29184549e-03 0. 4.29184549e-03 0.
      1.28755365e-02 0. 0. 0. 0. 0. 0. 0. 0. 0. 0. 0. 0. 0. 0.
      4.29184549e-03 0. 0. 0. 0. 0. 0. 0. 0. 0. 0. 0. 0. 0.
      8.58369097e-03 0. 0. 4.29184549e-03 0. 0. 0. 0. 0. 0. 0. 0. 0. 0.
      0. 0. 0. 0. 0. 0. 0. 0. 0. 0. 0. 4.29184549e-03 0. 0. 0. 0. 0. 0.
      0. 0. 0. 0. 0. 0. 0. 0. 0. 0. 0. 0. 0. 0. 0. 0. 0. 0. 0. 0. 0. 0.
      0. 0. 0. 0. 0. 0. 0. 0. 0. 0. 0. 0. 0. 0. 0. 0. 0. 0.
      4.29184549e-03 0. 0. 0. 0. 0. 0. 0. 0. 0. 0. 0. 0. 0. 0. 0. 0. 0.
      0. 0. 0. 0. 0. 0. 0. 0. 0. 4.29184549e-03 0. 0. 8.58369097e-03 0.
      0. 0. 0. 0. 0. 0. 0. 0. 0. 0. 0. 0. 0. 0. 0. 0. 0. 0. 0.
      8.58369097e-03 0. 0. 4.29184549e-03 0. 0. 0. 0. 0. 0. 0. 0. 0.
      4.29184549e-03 0. 0. 0. 0. 0. 0. 0. 0. 0. 0. 0. 4.29184549e-03
      4.29184549e-03 0. 0. 0. 0. 0. 0. 0. 0. 0. 0. 0. 0. 0. 0. 0. 0. 0.
      0. 0. 0. 0. 0. 0. 0. 0. 0. 0. 1.71673819e-02 0. 0. 0.
      1.28755365e-02 0. 0. 0. 0. 0. 0. 0. 0. 0. 0. 0. 0. 0. 0. 0. 0. 0.
      0. 0. 0. 0. 0. 4.29184549e-03 0. 0. 0. 0. 0. 0. 0. 0. 0. 0. 0. 0.
      0. 0. 0. 0. 0. 8.58369097e-03 0. 0. 0. 0. 0. 0. 0. 0. 0. 0.
      4.29184549e-03 0. 0. 0. 0. 0. 0. 0. 0. 0. 0. 0. 0. 0. 0. 0. 0. 0.
      8.58369097e-03 0. 0. 0. 0. 0. 0. 0. 0. 4.29184549e-03 0. 0. 0. 0.
      0. 4.29184549e-03 0. 0. 0. 0. 1.71673819e-02 4.29184549e-03 0. 0.
      0. 0. 0. 2.57510729e-02 0. 0. 0. 0. 0. 0. 0. 0. 0. 0. 0.
      1.71673819e-02 0. 0. 0. 0. 0. 0. 0. 0. 0. 0. 0. 0. 0. 0. 0. 0. 0.
      0. 0. 0. 0. 0. 0. 0. 0. 0. 1.28755365e-02 0. 0. 0. 0. 0. 0. 0.
      4.29184549e-03 0. 0. 0. 0. 0. 0. 0. 0. 0. 0. 0. 0. 0. 0. 0.
      4.29184549e-03 0. 0. 4.29184549e-03 0. 0. 0. 0. 0. 0. 0. 0. 0. 0.
      0. 0. 0.</_>
    <_>
      0. 0. 2.80898879e-03 2.80898879e-03 0. 0. 0. 0. 0. 0. 0. 0. 0.
      2.80898879e-03 0. 2.80898879e-03 0. 0. 0. 0. 0. 0. 0. 0. 0. 0. 0.
      0. 0. 0. 0. 2.80898879e-03 0. 0. 0. 0. 0. 0. 1.12359552e-02 0. 0.
      2.80898879e-03 0. 0. 0. 0. 2.80898879e-03 0. 2.80898879e-03 0.
      2.80898879e-03 0. 0. 0. 0. 0. 0. 0. 2.80898879e-03 0. 0. 0. 0. 0.
      5.61797759e-03 2.80898879e-03 2.80898879e-03 0. 0. 0. 0.
      2.80898879e-03 0. 0. 0. 2.80898879e-03 0. 2.80898879e-03 0.
      1.12359552e-02 0. 0. 0. 0. 0. 0. 0. 2.80898879e-03 0. 0. 0.
      5.61797759e-03 0. 0. 0. 2.80898879e-03 0. 0. 0. 0. 0. 0. 0. 0.
      2.80898884e-02 0. 0. 0. 0. 0. 0. 0. 0. 2.80898879e-03 0.
      2.80898879e-03 0. 2.80898879e-03 1.12359552e-02 0. 0. 0. 0. 0. 0.
      0. 0. 2.80898879e-03 0. 8.42696615e-03 0. 0. 0. 0. 0. 0. 0. 0. 0.
      0. 0. 2.80898879e-03 0. 0. 2.80898879e-03 0. 0. 2.80898879e-03 0.
      0. 0. 5.61797759e-03 0. 0. 8.42696615e-03 0. 0. 0. 0. 0. 0. 0. 0.
      0. 0. 0. 0. 0. 0. 0. 0. 0. 5.61797759e-03 0. 5.61797759e-03 0. 0.
      0. 0. 0. 0. 2.80898879e-03 8.42696615e-03 0. 0. 0. 1.68539323e-02
      2.80898879e-03 0. 0. 0. 0. 0. 0. 0. 2.80898879e-03 0. 0. 0. 0. 0.
      0. 0. 0. 5.61797759e-03 0. 0. 0. 0. 0. 0. 0. 0. 0. 0. 0. 0. 0. 0.
      0. 0. 2.80898879e-03 0. 0. 0. 8.42696615e-03 2.80898879e-03 0.
      2.80898879e-03 0. 0. 0. 2.80898879e-03 0. 0. 0. 0. 0. 0. 0. 0.
      1.40449442e-02 2.80898879e-03 2.80898879e-03 0. 0. 0. 0. 0.
      5.61797759e-03 2.80898879e-03 5.61797759e-03 0. 0. 0. 0. 0. 0.
      2.80898879e-03 0. 0. 0. 0. 5.61797759e-03 2.80898879e-03 0. 0. 0.
      0. 2.80898879e-03 0. 0. 0. 0. 2.80898879e-03 0. 0. 0. 0. 0. 0. 0.
      0. 0. 0. 0. 2.80898879e-03 2.80898879e-03 1.12359552e-02 0.
      8.42696615e-03 0. 0. 2.80898879e-03 0. 0. 0. 0. 0. 0.
      2.80898879e-03 0. 0. 0. 0. 1.12359552e-02 0. 0. 0. 2.80898879e-03
      2.80898879e-03 0. 0. 0. 2.80898879e-03 0. 0. 0. 0. 0. 0. 0. 0.
      8.42696615e-03 0. 0. 0. 5.61797759e-03 0. 0. 0. 0. 5.61797759e-03
      0. 2.80898879e-03 0. 0. 5.61797759e-03 0. 0. 0. 0. 0. 0. 0.
      2.80898879e-03 0. 2.80898879e-03 0. 0. 0. 0. 0. 0. 2.80898879e-03
      1.40449442e-02 0. 0. 0. 2.80898879e-03 0. 0. 0. 0. 0.
      5.61797759e-03 0. 0. 5.61797759e-03 0. 0. 0. 0. 0. 5.61797759e-03
      0. 1.12359552e-02 0. 0. 5.61797759e-03 0. 0. 0. 0. 0.
      5.61797759e-03 5.61797759e-03 5.61797759e-03 0. 0. 0.
      5.61797759e-03 0. 0. 0. 0. 0. 8.42696615e-03 0. 0. 0. 0.
      5.61797759e-03 0. 0. 0. 0. 0. 0. 5.61797759e-03 0. 0. 0. 0. 0. 0.
      0. 0. 0. 8.42696615e-03 5.61797759e-03 0. 8.42696615e-03 0. 0. 0.
      0. 8.42696615e-03 0. 0. 0. 0. 0. 0. 0. 2.80898879e-03 0.
      2.80898879e-03 5.61797759e-03 0. 1.12359552e-02 5.61797759e-03 0.
      0. 0. 0. 0. 0. 0. 0. 5.61797759e-03 0. 0. 0. 0. 0. 0. 0. 0. 0.
      2.80898879e-03 2.80898879e-03 0. 2.80898879e-03 0. 0. 0.
      2.80898879e-03 0. 0. 2.80898879e-03 0. 0. 0. 0. 8.42696615e-03 0.
      2.80898879e-03 0. 0. 2.80898879e-03 0. 0. 0. 0. 0. 2.80898879e-03
      0. 0. 0. 0. 0. 2.80898879e-03 0. 0. 0. 0. 2.80898879e-03 0. 0.
      8.42696615e-03 0. 0. 5.61797759e-03 0. 0. 0. 0. 0. 0. 0. 0.
      2.80898879e-03 0. 2.80898879e-03 0. 0. 0. 5.61797759e-03 0.
      8.42696615e-03 0. 2.80898879e-03 0. 0. 0. 0. 0. 0. 0. 0. 0. 0. 0.
      0. 2.80898879e-03 0. 5.61797759e-03 2.80898879e-03 2.80898879e-03
      0. 0. 8.42696615e-03 0. 0. 0. 0. 2.80898879e-03 0. 0. 0.
      1.12359552e-02 0. 5.61797759e-03 0. 0. 0. 0. 0. 0. 0. 0. 0. 0. 0.
      0. 0. 0. 0. 0. 0. 0. 0. 0. 0. 0. 0. 2.80898879e-03 1.40449442e-02
      0. 0. 0. 2.80898879e-03 0. 2.80898879e-03 0. 0. 0. 0. 0.
      2.80898879e-03 0. 0. 0. 2.80898879e-03 0. 0. 0. 0. 0. 0.
      2.80898879e-03 0. 0. 5.61797759e-03 0. 0. 0. 0. 2.80898879e-03 0.
      0. 0. 0. 0. 0. 5.61797759e-03 0. 0. 0. 2.80898879e-03 0. 0.
      2.80898879e-03 5.61797759e-03 0. 0. 0. 0. 0. 0. 0. 0. 0. 0. 0. 0.
      0. 0. 0. 0. 0. 0. 2.80898879e-03 0. 0. 0. 0. 0. 0. 0. 0. 0.
      5.61797759e-03 0. 0. 0. 5.61797759e-03 2.80898879e-03 0. 0. 0. 0.
      0. 5.61797759e-03 5.61797759e-03 0. 0. 2.80898879e-03 0.
      8.42696615e-03 2.80898879e-03 0. 0. 0. 0. 0. 2.80898879e-03
      2.80898879e-03 0. 0. 0. 5.61797759e-03 0. 0. 0. 1.40449442e-02 0.
      0. 0. 0. 0. 0. 0. 2.80898879e-03 0. 0. 0. 0. 0. 0. 0. 0. 0. 0. 0.
      0. 2.80898879e-03 0. 0. 0. 0. 2.80898879e-03 0. 2.80898879e-03 0.
      0. 0. 0. 0. 0. 2.80898879e-03 0. 2.80898879e-03 0. 0. 0. 0. 0. 0.
      0. 0. 2.80898879e-03 0. 2.80898879e-03 0. 0. 0. 2.80898879e-03
      2.80898879e-03 0. 0. 0. 2.80898879e-03 0. 0. 0. 0. 0.
      2.80898879e-03 0. 0. 0. 0. 0. 0. 0. 2.80898879e-03 0. 0. 0. 0. 0.
      0. 0. 0. 0. 0. 0. 0. 0. 0. 0. 2.80898879e-03 0. 0. 0. 0. 0. 0. 0.
      0. 0. 0. 2.80898879e-03 0. 0. 5.61797759e-03 0. 0. 0. 0. 0.
      8.42696615e-03 0. 0. 0. 0. 0. 0. 0. 5.61797759e-03 0.
      8.42696615e-03 0. 0. 0. 5.61797759e-03 0. 0. 0. 0. 0. 0.
      2.80898879e-03 0. 0. 0. 0. 2.80898879e-03 0. 0. 0. 0. 0.
      8.42696615e-03 0. 0. 0. 0. 0. 0. 0. 0. 0. 0. 0. 0. 2.80898879e-03
      0. 0. 0. 2.80898879e-03 0. 0. 0. 0. 0. 0. 0. 1.68539323e-02 0. 0.
      0. 2.80898879e-03 0. 0. 0. 0. 0. 0. 0. 0. 0. 0. 2.80898879e-03 0.
      0. 0. 0. 0. 2.80898879e-03 0. 0. 0. 0. 2.80898879e-03
      1.12359552e-02 0. 0. 0. 1.40449442e-02 8.42696615e-03
      2.80898879e-03 0. 2.80898879e-03 0. 0. 0. 0. 0. 0. 0. 0. 0. 0. 0.
      0. 0. 0. 0. 0. 0. 2.80898879e-03 0. 0. 0. 0. 0. 2.80898879e-03
      5.61797759e-03 0. 0. 0. 0. 0. 8.42696615e-03 0. 0. 0. 0. 0. 0.
      2.80898879e-03 0. 0. 0. 0. 0. 0. 2.80898879e-03 0. 0. 0. 0. 0. 0.
      0. 0. 0. 0. 2.80898879e-03 0. 0. 0. 8.42696615e-03 0. 0.
      2.80898879e-03 0. 0. 0. 0. 0. 0. 0. 0. 0. 0. 0. 0. 0. 0. 0. 0.
      2.80898879e-03 0. 0. 5.61797759e-03 0. 0. 0. 0. 0. 0. 0.
      8.42696615e-03 0. 0. 8.42696615e-03 0. 0. 0. 0. 0. 0.
      5.61797759e-03 0. 0. 0. 0. 0. 0. 0. 0. 0. 0. 0. 0. 0.</_>
    <_>
      0. 0. 1.60513644e-03 3.21027287e-03 9.63081885e-03 0. 0.
      1.60513644e-03 0. 0. 1.60513644e-03 0. 0. 0. 0. 0. 1.60513644e-03
      0. 0. 0. 0. 0. 0. 0. 1.60513644e-03 1.60513644e-03 0. 0. 0. 0. 0.
      0. 1.60513644e-03 1.60513644e-03 0. 0. 0. 0. 0. 3.21027287e-03
      4.81540943e-03 0. 0. 0. 0. 3.21027287e-03 0. 6.42054575e-03
      1.60513644e-03 1.60513644e-03 1.60513644e-03 0. 0. 3.21027287e-03
      0. 0. 0. 1.60513644e-03 0. 0. 4.81540943e-03 0. 0. 0. 0. 0. 0.
      4.81540943e-03 0. 0. 3.21027287e-03 8.02568253e-03 0. 0. 0. 0.
      1.12359552e-02 1.60513644e-03 0. 0. 0. 0. 0. 0. 1.60513644e-03 0.
      0. 0. 0. 0. 1.60513644e-03 0. 0. 0. 1.60513644e-03 2.24719103e-02
      0. 3.21027287e-03 6.42054575e-03 6.42054575e-03 1.60513644e-03 0.
      0. 4.81540943e-03 0. 0. 0. 0. 0. 0. 1.60513644e-03 1.60513644e-03
      0. 0. 0. 0. 0. 4.81540943e-03 0. 0. 1.60513644e-03 0. 0. 0. 0.
      1.60513644e-03 0. 0. 4.81540943e-03 3.21027287e-03 0.
      1.60513644e-03 0. 0. 1.60513644e-03 0. 1.60513644e-03
      4.81540943e-03 0. 0. 0. 0. 0. 0. 0. 0. 1.60513644e-03
      3.21027287e-03 0. 0. 1.60513644e-03 0. 3.21027287e-03 0. 0. 0. 0.
      3.21027287e-03 0. 1.60513644e-03 0. 1.60513644e-03 0.
      3.21027287e-03 8.02568253e-03 0. 0. 0. 0. 4.81540943e-03 0. 0.
      1.60513644e-03 0. 3.21027287e-03 0. 1.60513644e-03 0. 0. 0.
      3.21027287e-03 0. 0. 0. 0. 0. 4.81540943e-03 3.21027287e-03 0.
      9.63081885e-03 1.60513644e-03 0. 0. 8.02568253e-03 1.60513644e-03
      0. 0. 0. 1.60513644e-03 1.60513644e-03 3.21027287e-03 0. 0.
      4.81540943e-03 6.42054575e-03 0. 0. 0. 3.21027287e-03 0.
      4.81540943e-03 0. 0. 1.60513644e-03 0. 0. 1.60513644e-03
      6.42054575e-03 1.60513644e-03 0. 0. 0. 0. 0. 3.21027287e-03 0.
      3.21027287e-03 0. 4.81540943e-03 0. 0. 0. 0. 0. 0. 0. 0. 0. 0.
      1.60513644e-03 0. 0. 1.60513644e-03 0. 0. 0. 0. 0. 1.60513644e-03
      0. 0. 0. 0. 0. 3.21027287e-03 0. 0. 0. 0. 0. 0. 0. 0. 0. 0.
      4.81540943e-03 1.60513644e-03 0. 1.60513644e-03 0. 0.
      1.60513644e-03 0. 0. 0. 3.21027287e-03 0. 0. 0. 0. 0.
      1.60513644e-03 0. 1.12359552e-02 0. 1.60513644e-03 1.60513644e-03
      0. 0. 0. 0. 0. 0. 6.42054575e-03 4.81540943e-03 0. 4.81540943e-03
      3.21027287e-03 0. 3.21027287e-03 1.60513644e-03 0. 0.
      4.81540943e-03 0. 0. 0. 0. 0. 3.21027287e-03 0. 0. 8.02568253e-03
      0. 6.42054575e-03 0. 0. 0. 0. 1.60513644e-03 0. 0. 0. 0. 0. 0. 0.
      0. 0. 0. 0. 0. 0. 0. 0. 1.60513644e-03 0. 3.69181372e-02 0. 0.
      3.21027287e-03 0. 0. 0. 0. 1.60513644e-03 3.21027287e-03 0. 0.
      1.60513644e-03 6.42054575e-03 3.21027287e-03 1.60513644e-03
      1.60513644e-03 0. 3.21027287e-03 0. 3.21027287e-03 0.
      3.21027287e-03 0. 1.60513644e-03 0. 1.60513644e-03 0.
      1.60513644e-03 0. 2.24719103e-02 0. 3.21027287e-03 1.60513644e-03
      0. 0. 1.60513644e-03 1.60513644e-03 0. 0. 1.60513644e-03 0.
      9.63081885e-03 1.60513644e-03 0. 0. 0. 0. 1.60513644e-03 0. 0. 0.
      0. 1.12359552e-02 1.60513644e-03 0. 1.60513644e-03 1.60513644e-03
      0. 0. 0. 0. 0. 3.21027287e-03 1.60513644e-03 0. 0. 0. 0. 0.
      3.21027287e-03 0. 0. 0. 1.60513644e-03 0. 0. 0. 0. 0. 0. 0.
      3.21027287e-03 6.42054575e-03 0. 1.60513644e-03 4.81540943e-03
      1.60513644e-03 0. 1.60513644e-03 0. 1.60513644e-03 0. 0. 0.
      1.60513644e-03 1.60513644e-03 0. 0. 0. 1.60513644e-03 0. 0. 0. 0.
      0. 0. 1.60513644e-03 3.21027287e-03 0. 0. 0. 0. 0. 0. 0. 0.
      3.21027287e-03 0. 1.60513644e-03 1.60513644e-03 0. 1.60513644e-03
      0. 0. 0. 0. 0. 0. 0. 0. 0. 0. 0. 0. 0. 0. 0. 1.60513644e-03
      1.60513644e-03 0. 0. 8.02568253e-03 1.60513644e-03 0.
      1.60513644e-03 0. 0. 0. 0. 0. 0. 0. 1.60513644e-03 0. 0. 0. 0. 0.
      1.60513644e-03 0. 0. 0. 3.21027287e-03 3.21027287e-03 0.
      1.60513644e-03 0. 0. 1.60513644e-03 4.81540943e-03 0.
      3.21027287e-03 0. 3.21027287e-03 0. 1.60513644e-03 1.12359552e-02
      4.81540943e-03 1.60513644e-03 3.21027287e-03 9.63081885e-03
      1.60513644e-03 0. 0. 0. 0. 0. 0. 0. 1.60513644e-03 6.42054575e-03
      0. 0. 0. 0. 0. 0. 1.60513644e-03 0. 0. 0. 1.60513644e-03
      1.60513644e-03 0. 1.60513644e-03 3.21027287e-03 0. 3.21027287e-03
      0. 3.21027287e-03 0. 4.81540943e-03 0. 1.60513644e-03 0. 0.
      4.81540943e-03 3.21027287e-03 0. 0. 4.81540943e-03 0. 0.
      3.21027287e-03 0. 1.60513644e-03 4.81540943e-03 0. 0. 0. 0.
      1.60513644e-03 0. 0. 0. 0. 0. 0. 0. 9.63081885e-03 0. 0.
      3.21027287e-03 0. 1.60513644e-03 0. 0. 0. 0. 1.60513644e-03
      1.60513644e-03 3.21027287e-03 9.63081885e-03 4.81540943e-03 0.
      1.60513644e-03 0. 0. 3.21027287e-03 0. 0. 0. 1.60513644e-03 0. 0.
      0. 0. 0. 4.81540943e-03 0. 0. 0. 1.60513644e-03 0. 0. 0. 0. 0. 0.
      0. 3.21027287e-03 1.60513644e-03 0. 0. 0. 0. 0. 0. 0. 0. 0. 0. 0.
      0. 1.60513644e-03 0. 0. 1.60513644e-03 4.81540943e-03 0. 0. 0. 0.
      1.60513644e-03 0. 1.60513644e-03 0. 0. 3.21027287e-03 0. 0.
      3.21027287e-03 0. 0. 0. 0. 1.60513644e-03 0. 0. 1.60513644e-03
      1.60513644e-03 0. 4.81540943e-03 1.60513644e-03 0. 3.21027287e-03
      1.60513644e-03 0. 3.21027287e-03 0. 3.21027287e-03 0. 0. 0. 0. 0.
      0. 8.02568253e-03 0. 0. 0. 3.21027287e-03 0. 0. 0. 0. 0. 0.
      1.60513644e-03 0. 0. 0. 1.60513644e-03 0. 3.21027287e-03
      3.21027287e-03 0. 0. 0. 9.63081885e-03 0. 1.60513644e-03 0. 0.
      4.81540943e-03 0. 0. 4.81540943e-03 0. 3.21027287e-03 0.
      6.42054575e-03 0. 0. 3.21027287e-03 0. 0. 0. 0. 0. 0. 0. 0. 0. 0.
      0. 0. 0. 0. 0. 0. 3.21027287e-03 0. 0. 0. 0. 1.60513644e-03 0.
      4.81540943e-03 0. 0. 4.81540943e-03 0. 0. 0. 8.02568253e-03 0.
      1.60513644e-03 0. 0. 0. 0. 0. 0. 0. 0. 0. 1.60513644e-03 0. 0.
      1.60513644e-03 0. 0. 0. 0. 0. 0. 0. 0. 0. 0. 1.60513644e-03 0.
      1.60513644e-03 0. 0. 0. 0. 0. 0. 0. 4.81540943e-03 0. 0. 0.
      3.21027287e-03 0. 0. 0. 0. 0. 0. 0. 0. 0. 0. 0. 0. 4.81540943e-03
      0. 0. 0. 0. 0. 0. 0. 0. 1.60513644e-03 0. 0. 3.21027287e-03 0. 0.
